{"learner":{"attributes":{},"feature_names":["credit_balance_mean","credit_balance_max","credit_balance_last","credit_utilization_mean","credit_utilization_max","credit_utilization_last","interest_rate_mean","interest_rate_last","current_missed_payments_sum","current_missed_payments_max","current_missed_payments_last","timestamp_diff","amount_sum_x","amount_mean_x","amount_max_x","amount_min","amount_count_x","amount_last","payment_frequency","amount_sum_y","amount_mean_y","amount_max_y","amount_count_y","online_sum","online_mean","Misc","Retail","Business","Clothing","Agricultural","Contractor","Transportation","Utility","Professional","approved_count","declined_count"],"feature_types":["float","float","float","float","float","float","float","float","int","int","int","int","float","float","float","float","float","float","float","float","float","float","float","float","float","float","float","float","float","float","float","float","float","float","float","float"],"gradient_booster":{"model":{"gbtree_model_param":{"num_parallel_tree":"1","num_trees":"100"},"iteration_indptr":[0,1,2,3,4,5,6,7,8,9,10,11,12,13,14,15,16,17,18,19,20,21,22,23,24,25,26,27,28,29,30,31,32,33,34,35,36,37,38,39,40,41,42,43,44,45,46,47,48,49,50,51,52,53,54,55,56,57,58,59,60,61,62,63,64,65,66,67,68,69,70,71,72,73,74,75,76,77,78,79,80,81,82,83,84,85,86,87,88,89,90,91,92,93,94,95,96,97,98,99,100],"tree_info":[0,0,0,0,0,0,0,0,0,0,0,0,0,0,0,0,0,0,0,0,0,0,0,0,0,0,0,0,0,0,0,0,0,0,0,0,0,0,0,0,0,0,0,0,0,0,0,0,0,0,0,0,0,0,0,0,0,0,0,0,0,0,0,0,0,0,0,0,0,0,0,0,0,0,0,0,0,0,0,0,0,0,0,0,0,0,0,0,0,0,0,0,0,0,0,0,0,0,0,0],"trees":[{"base_weights":[-1.1168396E0,-3.403316E-1,-7.175987E-1,-8.1986976E-1,6.5589406E-2,1.16749115E-1,-8.8744086E-1,-2.0334938E-1,2.1038665E-1,-9.602715E-1,9.439215E-2,-9.958956E-1,-4.4398937E-2,-3.1062877E-1,-4.4398937E-2],"categories":[],"categories_nodes":[],"categories_segments":[],"categories_sizes":[],"default_left":[0,0,0,0,0,0,0,0,0,0,0,0,0,0,0],"id":0,"left_children":[1,-1,3,5,7,-1,9,-1,-1,11,-1,13,-1,-1,-1],"loss_changes":[3.5561523E0,0E0,2.3751707E0,2.445654E0,2.4949212E0,0E0,2.4604511E0,0E0,0E0,5.323696E-1,0E0,5.9526634E-1,0E0,0E0,0E0],"parents":[2147483647,0,0,2,2,3,3,4,4,6,6,9,9,11,11],"right_children":[2,-1,4,6,8,-1,10,-1,-1,12,-1,14,-1,-1,-1],"split_conditions":[1E0,-3.403316E-1,7.7E1,3.8372093E-1,4.2E1,1.16749115E-1,1.6E1,-2.0334938E-1,2.1038665E-1,2.4408773E-1,9.439215E-2,3.0473E3,-4.4398937E-2,-3.1062877E-1,-4.4398937E-2],"split_indices":[10,0,34,24,23,0,31,0,0,6,0,12,0,0,0],"split_type":[0,0,0,0,0,0,0,0,0,0,0,0,0,0,0],"sum_hessian":[6.2099194E2,5.930098E2,2.7982124E1,2.4708744E1,3.2733805E0,1.0559292E0,2.3652815E1,1.4783009E0,1.7950797E0,2.2491293E1,1.1615222E0,2.1329771E1,1.1615222E0,2.0168247E1,1.1615222E0],"tree_param":{"num_deleted":"0","num_feature":"36","num_nodes":"15","size_leaf_vector":"1"}},{"base_weights":[-1.0725639E0,-3.2838035E-1,-6.2574923E-1,-7.609766E-1,-2.1853823E-2,1.18428394E-1,-8.440464E-1,6.6983616E-1,-2.2738175E-1,-9.7542834E-1,-1.7893709E-1,-5.8898527E-2,3.8515458E-1,-3.0999252E-1,-2.7896153E-2,2.5554228E-1,-2.3359334E-1],"categories":[],"categories_nodes":[],"categories_segments":[],"categories_sizes":[],"default_left":[0,0,0,0,0,0,0,0,0,0,0,0,0,0,0,0,0],"id":1,"left_children":[1,-1,3,5,7,-1,9,11,-1,13,15,-1,-1,-1,-1,-1,-1],"loss_changes":[4.017029E0,0E0,2.0069523E0,2.2741146E0,3.340139E0,0E0,1.5014277E0,2.0597258E0,0E0,7.104616E-1,3.3758798E0,0E0,0E0,0E0,0E0,0E0,0E0],"parents":[2147483647,0,0,2,2,3,3,4,4,6,6,7,7,9,9,10,10],"right_children":[2,-1,4,6,8,-1,10,12,-1,14,16,-1,-1,-1,-1,-1,-1],"split_conditions":[1E0,-3.2838035E-1,5.2380955E-1,3.8181818E-1,5E0,1.18428394E-1,1.7E1,2.25559E3,-2.2738175E-1,1.5E1,8E0,-5.8898527E-2,3.8515458E-1,-3.0999252E-1,-2.7896153E-2,2.5554228E-1,-2.3359334E-1],"split_indices":[10,0,24,24,27,0,29,19,0,28,32,0,0,0,0,0,0],"split_type":[0,0,0,0,0,0,0,0,0,0,0,0,0,0,0,0,0],"sum_hessian":[4.765261E2,4.5274646E2,2.3779617E1,1.9216455E1,4.563162E0,1.036977E0,1.817948E1,2.3989248E0,2.1642368E0,1.479115E1,3.3883295E0,1.277316E0,1.121609E0,1.3720261E1,1.0708889E0,1.0916641E0,2.2966654E0],"tree_param":{"num_deleted":"0","num_feature":"36","num_nodes":"17","size_leaf_vector":"1"}},{"base_weights":[-1.0386667E0,-3.2002506E-1,-5.414658E-1,-6.593856E-1,1.3644515E-1,-8.278762E-1,1.0578081E-1,-4.2174256E-1,2.7240106E-1,2.0039186E-2,-9.4006926E-1,2.6517558E-1,-2.03402E-1,-1.853979E-2,-1.7175466E-1,-3.0077836E-1,-7.927258E-2],"categories":[],"categories_nodes":[],"categories_segments":[],"categories_sizes":[],"default_left":[0,0,0,0,0,0,0,0,0,0,0,0,0,0,0,0,0],"id":2,"left_children":[1,-1,3,5,7,9,11,13,-1,-1,15,-1,-1,-1,-1,-1,-1],"loss_changes":[4.5090027E0,0E0,1.809196E0,2.4715538E0,2.1122046E0,1.5953093E0,3.1753306E0,1.2811196E-1,0E0,0E0,3.1114388E-1,0E0,0E0,0E0,0E0,0E0,0E0],"parents":[2147483647,0,0,2,2,3,3,4,4,5,5,6,6,7,7,10,10],"right_children":[2,-1,4,6,8,10,12,14,-1,-1,16,-1,-1,-1,-1,-1,-1],"split_conditions":[1E0,-3.2002506E-1,7.7E1,1.14701E3,5E0,1E0,1.37717E3,3.452857E-1,2.7240106E-1,2.0039186E-2,2E1,2.6517558E-1,-2.03402E-1,-1.853979E-2,-1.7175466E-1,-3.0077836E-1,-7.927258E-2],"split_indices":[10,0,34,15,29,27,15,3,0,0,29,0,0,0,0,0,0],"split_type":[0,0,0,0,0,0,0,0,0,0,0,0,0,0,0,0,0],"sum_hessian":[3.6328537E2,3.4277866E2,2.0506691E1,1.7491453E1,3.015239E0,1.4267726E1,3.2237265E0,2.0126011E0,1.0026377E0,1.6349092E0,1.2632817E1,1.5535862E0,1.6701404E0,1.0103811E0,1.00222E0,1.1120482E1,1.5123348E0],"tree_param":{"num_deleted":"0","num_feature":"36","num_nodes":"17","size_leaf_vector":"1"}},{"base_weights":[-1.0104733E0,-3.1400192E-1,-4.6552572E-1,-2.6835915E-1,-2.593982E-1,-2.4763538E-1,-1.4206505E-2,4.0582785E-1,-6.471341E-1,-5.0188553E-1,9.672381E-1,-1.508903E-2,-2.3816969E-1,-1.6153486E-2,-2.0083432E-1,5.0204605E-1,-1.4741217E-2],"categories":[],"categories_nodes":[],"categories_segments":[],"categories_sizes":[],"default_left":[0,0,0,0,0,0,0,0,0,0,0,0,0,0,0,0,0],"id":3,"left_children":[1,-1,3,-1,5,-1,7,9,11,13,15,-1,-1,-1,-1,-1,-1],"loss_changes":[4.979309E0,0E0,1.4536448E0,0E0,1.9708086E0,0E0,3.1828651E0,4.1633644E0,3.7765193E-1,2.204377E-1,3.5283775E0,0E0,0E0,0E0,0E0,0E0,0E0],"parents":[2147483647,0,0,2,2,4,4,6,6,7,7,8,8,9,9,10,10],"right_children":[2,-1,4,-1,6,-1,8,10,12,14,16,-1,-1,-1,-1,-1,-1],"split_conditions":[1E0,-3.1400192E-1,1.6922845E3,-2.6835915E-1,1.8231161E-1,-2.4763538E-1,3.1942654E3,6E0,2.0601723E-1,1.9E1,2.1279243E-1,-1.508903E-2,-2.3816969E-1,-1.6153486E-2,-2.0083432E-1,5.0204605E-1,-1.4741217E-2],"split_indices":[10,0,1,0,6,0,2,29,6,8,6,0,0,0,0,0,0],"split_type":[0,0,0,0,0,0,0,0,0,0,0,0,0,0,0,0,0],"sum_hessian":[2.7611182E2,2.580494E2,1.8062426E1,4.7781544E0,1.328427E1,3.299785E0,9.984486E0,6.217277E0,3.7672083E0,2.416385E0,3.8008924E0,1.0085435E0,2.7586648E0,1.0173799E0,1.3990049E0,1.8611273E0,1.9397652E0],"tree_param":{"num_deleted":"0","num_feature":"36","num_nodes":"17","size_leaf_vector":"1"}},{"base_weights":[-9.8577434E-1,-3.095181E-1,-4.139678E-1,-5.6459606E-1,8.58337E-2,-9.292118E-3,-2.8150725E-1,4.903566E-1,-1.7845975E-1,-2.2116143E-1,5.3762794E-1,-6.749667E-2,3.0629447E-1,-9.3750544E-2,3.6697602E-1],"categories":[],"categories_nodes":[],"categories_segments":[],"categories_sizes":[],"default_left":[0,0,0,0,0,0,0,0,0,0,0,0,0,0,0],"id":4,"left_children":[1,-1,3,5,7,9,-1,11,-1,-1,13,-1,-1,-1,-1],"loss_changes":[5.1136627E0,0E0,1.3550742E0,2.7866645E0,1.6374624E0,2.9555197E0,0E0,1.6013968E0,0E0,0E0,2.8587465E0,0E0,0E0,0E0,0E0],"parents":[2147483647,0,0,2,2,3,3,4,4,5,5,7,7,10,10],"right_children":[2,-1,4,6,8,10,-1,12,-1,-1,14,-1,-1,-1,-1],"split_conditions":[1E0,-3.095181E-1,5.2380955E-1,4.5378152E-1,5E0,7E0,-2.8150725E-1,6E0,-1.7845975E-1,-2.2116143E-1,2.6E1,-6.749667E-2,3.0629447E-1,-9.3750544E-2,3.6697602E-1],"split_indices":[10,0,24,24,27,29,0,29,0,0,34,0,0,0,0],"split_type":[0,0,0,0,0,0,0,0,0,0,0,0,0,0,0],"sum_hessian":[2.0986806E2,1.9351233E2,1.635573E1,1.2468407E1,3.8873227E0,5.4283185E0,7.0400887E0,2.613696E0,1.2736266E0,2.1795578E0,3.2487605E0,1.3584018E0,1.2552943E0,1.6933405E0,1.5554199E0],"tree_param":{"num_deleted":"0","num_feature":"36","num_nodes":"15","size_leaf_vector":"1"}},{"base_weights":[-9.6193576E-1,-3.0604362E-1,-3.5794255E-1,-4.8547104E-1,2.0122065E-1,-5.976488E-1,1.2920271E-1,2.2267854E-1,-9.717999E-2,-2.7664357E-1,-1.06990136E-1,-2.1991286E-1,4.6592888E-1,2.6814196E-1,-5.5239048E-2],"categories":[],"categories_nodes":[],"categories_segments":[],"categories_sizes":[],"default_left":[0,0,0,0,0,0,0,0,0,0,0,0,0,0,0],"id":5,"left_children":[1,-1,3,5,7,9,-1,-1,-1,-1,11,-1,13,-1,-1],"loss_changes":[5.273468E0,0E0,1.2128396E0,1.5961993E0,1.2664992E0,1.8158865E0,0E0,0E0,0E0,0E0,2.464222E0,0E0,1.1941488E0,0E0,0E0],"parents":[2147483647,0,0,2,2,3,3,4,4,5,5,10,10,12,12],"right_children":[2,-1,4,6,8,10,-1,-1,-1,-1,12,-1,14,-1,-1],"split_conditions":[1E0,-3.0604362E-1,7.7E1,2.4061981E-1,8.2E1,2.9770906E3,1.2920271E-1,2.2267854E-1,-9.717999E-2,-2.7664357E-1,8.08E-1,-2.1991286E-1,2.7207893E3,2.6814196E-1,-5.5239048E-2],"split_indices":[10,0,34,6,34,2,0,0,0,0,3,0,0,0,0],"split_type":[0,0,0,0,0,0,0,0,0,0,0,0,0,0,0],"sum_hessian":[1.5937827E2,1.4473999E2,1.4638268E1,1.2027047E1,2.6112218E0,1.1024767E1,1.0022804E0,1.0825275E0,1.5286943E0,6.1067038E0,4.9180627E0,2.216506E0,2.701557E0,1.4030733E0,1.2984837E0],"tree_param":{"num_deleted":"0","num_feature":"36","num_nodes":"15","size_leaf_vector":"1"}},{"base_weights":[-9.3619657E-1,-3.03202E-1,-2.9838675E-1,8.389115E-2,-4.0902343E-1,-7.5158465E-1,-5.5188607E-2,-2.973505E-2,-2.5798154E-1,5.509918E-1,-4.837166E-1,-4.4449963E-2,3.0286583E-1,9.607809E-2,-2.3678266E-1],"categories":[],"categories_nodes":[],"categories_segments":[],"categories_sizes":[],"default_left":[0,0,0,0,0,0,0,0,0,0,0,0,0,0,0],"id":6,"left_children":[1,-1,3,-1,5,7,9,-1,-1,11,13,-1,-1,-1,-1],"loss_changes":[5.507393E0,0E0,1.0228262E0,0E0,1.4529614E0,3.520441E-1,2.1223185E0,0E0,0E0,1.2480614E0,1.4117758E0,0E0,0E0,0E0,0E0],"parents":[2147483647,0,0,2,2,4,4,5,5,6,6,9,9,10,10],"right_children":[2,-1,4,-1,6,8,10,-1,-1,12,14,-1,-1,-1,-1],"split_conditions":[1E0,-3.03202E-1,4.86E-1,8.389115E-2,4.8752E2,3.4E1,4.5378152E-1,-2.973505E-2,-2.5798154E-1,2.1E1,9.7E-1,-4.4449963E-2,3.0286583E-1,9.607809E-2,-2.3678266E-1],"split_indices":[10,0,4,0,17,25,24,0,0,8,5,0,0,0,0],"split_type":[0,0,0,0,0,0,0,0,0,0,0,0,0,0,0],"sum_hessian":[1.212889E2,1.0808345E2,1.3205455E1,1.8761159E0,1.1329339E1,5.1852174E0,6.1441216E0,1.0111545E0,4.1740627E0,2.426253E0,3.7178686E0,1.2291229E0,1.1971302E0,1.0106266E0,2.707242E0],"tree_param":{"num_deleted":"0","num_feature":"36","num_nodes":"15","size_leaf_vector":"1"}},{"base_weights":[-9.078454E-1,-3.0070704E-1,-2.4903812E-1,-4.158225E-1,1.9136369E-1,4.3456472E-2,-2.5268322E-1,1.9506593E-1,-9.990333E-2,-1.874797E-1,4.2457086E-1,2.3585778E-1,-7.2330385E-2],"categories":[],"categories_nodes":[],"categories_segments":[],"categories_sizes":[],"default_left":[0,0,0,0,0,0,0,0,0,0,0,0,0],"id":7,"left_children":[1,-1,3,5,7,9,-1,-1,-1,-1,11,-1,-1],"loss_changes":[5.5864716E0,0E0,1.0410602E0,1.9579151E0,1.2464589E0,1.7106656E0,0E0,0E0,0E0,0E0,1.2027422E0,0E0,0E0],"parents":[2147483647,0,0,2,2,3,3,4,4,5,5,10,10],"right_children":[2,-1,4,6,8,10,-1,-1,-1,-1,12,-1,-1],"split_conditions":[1E0,-3.0070704E-1,5.2380955E-1,4.5378152E-1,3.3458E2,7E0,-2.5268322E-1,1.9506593E-1,-9.990333E-2,-1.874797E-1,9.97E-1,2.3585778E-1,-7.2330385E-2],"split_indices":[10,0,24,24,15,29,0,0,0,0,4,0,0],"split_type":[0,0,0,0,0,0,0,0,0,0,0,0,0],"sum_hessian":[9.273017E1,8.064019E1,1.2089977E1,8.809533E0,3.2804437E0,4.67394E0,4.1355934E0,1.6215286E0,1.658915E0,1.4649673E0,3.2089727E0,1.9620513E0,1.2469214E0],"tree_param":{"num_deleted":"0","num_feature":"36","num_nodes":"13","size_leaf_vector":"1"}},{"base_weights":[-8.7662655E-1,-2.9832447E-1,-2.1675771E-1,-3.461761E-1,1.0443174E-1,-6.5546644E-1,7.931363E-2,-2.456835E-1,-3.6303274E-2,6.17629E-1,-4.515187E-1,2.245514E-1,5.5333752E-2,-1.7444539E-1,-2.4085391E-2],"categories":[],"categories_nodes":[],"categories_segments":[],"categories_sizes":[],"default_left":[0,0,0,0,0,0,0,0,0,0,0,0,0,0,0],"id":8,"left_children":[1,-1,3,5,-1,7,9,-1,-1,11,13,-1,-1,-1,-1],"loss_changes":[5.411434E0,0E0,1.0156074E0,1.4289497E0,0E0,4.3971372E-1,1.7923292E0,0E0,0E0,3.496623E-2,1.0985041E-1,0E0,0E0,0E0,0E0],"parents":[2147483647,0,0,2,2,3,3,5,5,6,6,9,9,10,10],"right_children":[2,-1,4,6,-1,8,10,-1,-1,12,14,-1,-1,-1,-1],"split_conditions":[1E0,-2.9832447E-1,2.3677653E-1,2.9770906E3,1.0443174E-1,7.6E1,3.2433237E3,-2.456835E-1,-3.6303274E-2,5.1008E2,7.846429E-1,2.245514E-1,5.5333752E-2,-1.7444539E-1,-2.4085391E-2],"split_indices":[10,0,6,2,0,34,1,0,0,12,3,0,0,0,0],"split_type":[0,0,0,0,0,0,0,0,0,0,0,0,0,0,0],"sum_hessian":[7.139617E1,6.0151905E1,1.1244266E1,9.46325E0,1.781016E0,5.166905E0,4.2963448E0,3.5490336E0,1.617871E0,2.0519543E0,2.2443907E0,1.0168276E0,1.0351266E0,1.2429044E0,1.0014863E0],"tree_param":{"num_deleted":"0","num_feature":"36","num_nodes":"15","size_leaf_vector":"1"}},{"base_weights":[-8.383558E-1,-2.9584596E-1,-1.799245E-1,-2.0295118E-1,-1.489197E-2,3.2629776E-1,-3.458481E-1,-1.6544901E-1,6.703267E-1,9.459949E-2,-2.3064177E-1,1.4636836E-2,2.7764267E-1],"categories":[],"categories_nodes":[],"categories_segments":[],"categories_sizes":[],"default_left":[0,0,0,0,0,0,0,0,0,0,0,0,0],"id":9,"left_children":[1,-1,3,-1,5,7,9,-1,11,-1,-1,-1,-1],"loss_changes":[5.3169556E0,0E0,9.3838716E-1,0E0,1.2091842E0,1.96875E0,1.7564298E0,0E0,6.2971425E-1,0E0,0E0,0E0,0E0],"parents":[2147483647,0,0,2,2,4,4,5,5,6,6,8,8],"right_children":[2,-1,4,-1,6,8,10,-1,12,-1,-1,-1,-1],"split_conditions":[1E0,-2.9584596E-1,1.8231161E-1,-2.0295118E-1,2.1279243E-1,7E0,9.7E-1,-1.6544901E-1,1.7221382E3,9.459949E-2,-2.3064177E-1,1.4636836E-2,2.7764267E-1],"split_indices":[10,0,6,0,6,8,5,0,0,0,0,0,0],"split_type":[0,0,0,0,0,0,0,0,0,0,0,0,0],"sum_hessian":[5.5460148E1,4.4886734E1,1.0573415E1,1.864365E0,8.709049E0,4.295157E0,4.4138927E0,1.0395861E0,3.2555707E0,1.8212783E0,2.5926144E0,1.2941843E0,1.9613864E0],"tree_param":{"num_deleted":"0","num_feature":"36","num_nodes":"13","size_leaf_vector":"1"}},{"base_weights":[-7.9899687E-1,-2.930721E-1,-1.6470028E-1,-1.0801821E-2,-1.936168E-1,-4.840668E-1,2.3637938E-1,-1.399595E-2,-1.9249581E-1,-2.6518384E-1,5.6500804E-1,-1.8193321E-1,7.9528406E-2,2.891559E-1,2.0559605E-3],"categories":[],"categories_nodes":[],"categories_segments":[],"categories_sizes":[],"default_left":[0,0,0,0,0,0,0,0,0,0,0,0,0,0,0],"id":10,"left_children":[1,-1,3,5,-1,7,9,-1,-1,11,13,-1,-1,-1,-1],"loss_changes":[4.8579235E0,0E0,8.026844E-1,1.2032244E0,0E0,2.1279722E-1,1.2683518E0,0E0,0E0,7.700283E-1,9.7718453E-1,0E0,0E0,0E0,0E0],"parents":[2147483647,0,0,2,2,3,3,5,5,6,6,9,9,10,10],"right_children":[2,-1,4,6,-1,8,10,-1,-1,12,14,-1,-1,-1,-1],"split_conditions":[1E0,-2.930721E-1,6E0,6E0,-1.936168E-1,1.94746E3,3.6E1,-1.399595E-2,-1.9249581E-1,1.2E1,4.4578314E-1,-1.8193321E-1,7.9528406E-2,2.891559E-1,2.0559605E-3],"split_indices":[10,0,33,29,0,19,25,0,0,31,24,0,0,0,0],"split_type":[0,0,0,0,0,0,0,0,0,0,0,0,0,0,0],"sum_hessian":[4.3474224E1,3.3529568E1,9.9446535E0,8.307407E0,1.6372466E0,2.5214226E0,5.7859845E0,1.0110588E0,1.5103637E0,2.3667846E0,3.4192E0,1.352653E0,1.0141314E0,1.5702668E0,1.8489331E0],"tree_param":{"num_deleted":"0","num_feature":"36","num_nodes":"15","size_leaf_vector":"1"}},{"base_weights":[-7.540138E-1,-2.8980115E-1,-1.5041934E-1,-3.306484E-1,2.5139475E-1,2.921346E-2,-2.2406097E-1,1.6138032E-1,-5.5759385E-2,-1.2035058E-1,4.2818844E-1,1.9356817E-2,1.7877007E-1],"categories":[],"categories_nodes":[],"categories_segments":[],"categories_sizes":[],"default_left":[0,0,0,0,0,0,0,0,0,0,0,0,0],"id":11,"left_children":[1,-1,3,5,7,9,-1,-1,-1,-1,11,-1,-1],"loss_changes":[4.397173E0,0E0,8.371323E-1,1.1631181E0,5.7510215E-1,1.03873E0,0E0,0E0,0E0,0E0,1.5085214E-1,0E0,0E0],"parents":[2147483647,0,0,2,2,3,3,4,4,5,5,10,10],"right_children":[2,-1,4,6,8,10,-1,-1,-1,-1,12,-1,-1],"split_conditions":[1E0,-2.8980115E-1,5.2380955E-1,4.5378152E-1,3.3458E2,9.94E-1,-2.2406097E-1,1.6138032E-1,-5.5759385E-2,-1.2035058E-1,1.8E1,1.9356817E-2,1.7877007E-1],"split_indices":[10,0,24,24,15,5,0,0,0,0,26,0,0],"split_type":[0,0,0,0,0,0,0,0,0,0,0,0,0],"sum_hessian":[3.4500313E1,2.5088495E1,9.411818E0,6.619726E0,2.792091E0,4.0488954E0,2.570831E0,1.5476574E0,1.2444335E0,1.9451386E0,2.1037567E0,1.1010238E0,1.0027329E0],"tree_param":{"num_deleted":"0","num_feature":"36","num_nodes":"13","size_leaf_vector":"1"}},{"base_weights":[-7.0153475E-1,-2.8582406E-1,-1.2382571E-1,-2.7296656E-1,1.1568981E-1,-5.5297726E-1,7.8379296E-2,-2.2442394E-1,1.0181475E-2,1.308246E-1,-1.1317081E-1],"categories":[],"categories_nodes":[],"categories_segments":[],"categories_sizes":[],"default_left":[0,0,0,0,0,0,0,0,0,0,0],"id":12,"left_children":[1,-1,3,5,-1,7,9,-1,-1,-1,-1],"loss_changes":[4.040143E0,0E0,8.523467E-1,8.492195E-1,0E0,5.615895E-1,8.993279E-1,0E0,0E0,0E0,0E0],"parents":[2147483647,0,0,2,2,3,3,5,5,6,6],"right_children":[2,-1,4,6,-1,8,10,-1,-1,-1,-1],"split_conditions":[1E0,-2.8582406E-1,2.3677653E-1,9.94E-1,1.1568981E-1,5.4867256E-1,4.5378152E-1,-2.2442394E-1,1.0181475E-2,1.308246E-1,-1.1317081E-1],"split_indices":[10,0,6,5,0,24,24,0,0,0,0],"split_type":[0,0,0,0,0,0,0,0,0,0,0],"sum_hessian":[2.7651484E1,1.881901E1,8.832474E0,7.1914287E0,1.641045E0,3.6826217E0,3.508807E0,2.5577714E0,1.1248503E0,1.989627E0,1.5191799E0],"tree_param":{"num_deleted":"0","num_feature":"36","num_nodes":"11","size_leaf_vector":"1"}},{"base_weights":[-6.441691E-1,-2.8092688E-1,-1.06814645E-1,-1.7283033E-1,3.6337204E-2,1.8869998E-1,-1.5766345E-1,3.6457172E-1,-1.07381135E-1,-7.792118E-2,6.3494456E-1,2.7397364E-1,-7.6347743E-3],"categories":[],"categories_nodes":[],"categories_segments":[],"categories_sizes":[],"default_left":[0,0,0,0,0,0,0,0,0,0,0,0,0],"id":13,"left_children":[1,-1,3,-1,5,7,-1,9,-1,-1,11,-1,-1],"loss_changes":[3.6078415E0,0E0,6.5552235E-1,0E0,7.9936564E-1,8.19802E-1,0E0,1.1642075E0,0E0,0E0,8.358333E-1,0E0,0E0],"parents":[2147483647,0,0,2,2,4,4,5,5,7,7,10,10],"right_children":[2,-1,4,-1,6,8,-1,10,-1,-1,12,-1,-1],"split_conditions":[1E0,-2.8092688E-1,1.8231161E-1,-1.7283033E-1,4.972497E3,8.892174E-1,-1.5766345E-1,6E0,-1.07381135E-1,-7.792118E-2,1.16878E3,2.7397364E-1,-7.6347743E-3],"split_indices":[10,0,6,0,1,3,0,29,0,0,12,0,0],"split_type":[0,0,0,0,0,0,0,0,0,0,0,0,0],"sum_hessian":[2.2610382E1,1.416418E1,8.446201E0,1.2672951E0,7.178906E0,6.169986E0,1.0089201E0,4.9200897E0,1.249896E0,1.4987385E0,3.4213512E0,2.137636E0,1.2837151E0],"tree_param":{"num_deleted":"0","num_feature":"36","num_nodes":"13","size_leaf_vector":"1"}},{"base_weights":[-5.949418E-1,-2.7490255E-1,-1.1145645E-1,-2.4469826E-1,8.565971E-2,1.5023942E-2,-2.0223215E-1,-1.5953836E-1,2.6717925E-1,1.7269585E-1,-2.9392961E-2],"categories":[],"categories_nodes":[],"categories_segments":[],"categories_sizes":[],"default_left":[0,0,0,0,0,0,0,0,0,0,0],"id":14,"left_children":[1,-1,3,5,-1,7,-1,-1,9,-1,-1],"loss_changes":[2.9625378E0,0E0,5.466567E-1,8.22847E-1,0E0,9.030575E-1,0E0,0E0,5.5683994E-1,0E0,0E0],"parents":[2147483647,0,0,2,2,3,3,5,5,8,8],"right_children":[2,-1,4,6,-1,8,-1,-1,10,-1,-1],"split_conditions":[1E0,-2.7490255E-1,2.3677653E-1,2.1279243E-1,8.565971E-2,1.8231161E-1,-2.0223215E-1,-1.5953836E-1,4.5378152E-1,1.7269585E-1,-2.9392961E-2],"split_indices":[10,0,6,6,0,6,0,0,24,0,0],"split_type":[0,0,0,0,0,0,0,0,0,0,0],"sum_hessian":[1.872216E1,1.07084E1,8.013761E0,6.2871957E0,1.7265645E0,4.51897E0,1.7682257E0,1.0761843E0,3.4427855E0,1.5537566E0,1.889029E0],"tree_param":{"num_deleted":"0","num_feature":"36","num_nodes":"11","size_leaf_vector":"1"}},{"base_weights":[-5.3821445E-1,-2.675732E-1,-1.02307074E-1,-2.8415802E-1,2.4999243E-1,2.5926044E-3,-1.9567034E-1,1.6433732E-1,-3.7928455E-2,-9.758753E-2,8.683494E-2],"categories":[],"categories_nodes":[],"categories_segments":[],"categories_sizes":[],"default_left":[0,0,0,0,0,0,0,0,0,0,0],"id":15,"left_children":[1,-1,3,5,7,9,-1,-1,-1,-1,-1],"loss_changes":[2.4981318E0,0E0,6.253745E-1,6.5342236E-1,4.5910314E-1,5.1429474E-1,0E0,0E0,0E0,0E0,0E0],"parents":[2147483647,0,0,2,2,3,3,4,4,5,5],"right_children":[2,-1,4,6,8,10,-1,-1,-1,-1,-1],"split_conditions":[1E0,-2.675732E-1,5.2380955E-1,4.5378152E-1,5.4545456E-1,4.6702E2,-1.9567034E-1,1.6433732E-1,-3.7928455E-2,-9.758753E-2,8.683494E-2],"split_indices":[10,0,24,24,24,15,0,0,0,0,0],"split_type":[0,0,0,0,0,0,0,0,0,0,0],"sum_hessian":[1.5794667E1,8.142072E0,7.6525955E0,5.1748476E0,2.477748E0,3.4669049E0,1.7079425E0,1.1291653E0,1.3485826E0,1.5552422E0,1.9116628E0],"tree_param":{"num_deleted":"0","num_feature":"36","num_nodes":"11","size_leaf_vector":"1"}},{"base_weights":[-4.7916225E-1,-2.5882167E-1,-8.904803E-2,1.0092924E-1,-2.2315316E-1,-1.6813032E-1,6.344788E-2,-9.107721E-2,3.2776034E-1,1.555383E-1,-8.0589345E-3],"categories":[],"categories_nodes":[],"categories_segments":[],"categories_sizes":[],"default_left":[0,0,0,0,0,0,0,0,0,0,0],"id":16,"left_children":[1,-1,3,-1,5,-1,7,-1,9,-1,-1],"loss_changes":[2.1044128E0,0E0,5.510528E-1,0E0,7.067951E-1,0E0,5.5083895E-1,0E0,2.2935295E-1,0E0,0E0],"parents":[2147483647,0,0,2,2,4,4,6,6,8,8],"right_children":[2,-1,4,-1,6,-1,8,-1,10,-1,-1],"split_conditions":[1E0,-2.5882167E-1,4.86E-1,1.0092924E-1,4.8752E2,-1.6813032E-1,3.6E1,-9.107721E-2,4.4578314E-1,1.555383E-1,-8.0589345E-3],"split_indices":[10,0,4,0,17,0,25,0,24,0,0],"split_type":[0,0,0,0,0,0,0,0,0,0,0],"sum_hessian":[1.35767E1,6.234841E0,7.3418593E0,1.3979231E0,5.9439363E0,2.291626E0,3.6523104E0,1.4668114E0,2.1854987E0,1.120786E0,1.0647129E0],"tree_param":{"num_deleted":"0","num_feature":"36","num_nodes":"11","size_leaf_vector":"1"}},{"base_weights":[-4.1962668E-1,-2.4862705E-1,-7.027782E-2,1.7208579E-1,-3.166738E-1,-8.305368E-2,4.798099E-1,-1.5677409E-1,4.3940503E-2,2.0903905E-1,1.3026172E-2],"categories":[],"categories_nodes":[],"categories_segments":[],"categories_sizes":[],"default_left":[0,0,0,0,0,0,0,0,0,0,0],"id":17,"left_children":[1,-1,3,5,7,-1,9,-1,-1,-1,-1],"loss_changes":[1.7751539E0,0E0,5.329403E-1,7.8031075E-1,4.889855E-1,0E0,2.677034E-1,0E0,0E0,0E0,0E0],"parents":[2147483647,0,0,2,2,3,3,4,4,6,6],"right_children":[2,-1,4,6,8,-1,10,-1,-1,-1,-1],"split_conditions":[1E0,-2.4862705E-1,5E0,6E0,2.7E1,-8.305368E-2,1.0638298E-1,-1.5677409E-1,4.3940503E-2,2.0903905E-1,1.3026172E-2],"split_indices":[10,0,27,29,8,0,18,0,0,0,0],"split_type":[0,0,0,0,0,0,0,0,0,0,0],"sum_hessian":[1.1827315E1,4.815494E0,7.0118213E0,3.6868732E0,3.3249478E0,1.5402234E0,2.14665E0,2.212822E0,1.1121261E0,1.0351887E0,1.1114613E0],"tree_param":{"num_deleted":"0","num_feature":"36","num_nodes":"11","size_leaf_vector":"1"}},{"base_weights":[-3.6426124E-1,-2.3709221E-1,-5.121977E-2,-2.283273E-1,2.4938338E-1,-3.999671E-1,5.881599E-2,1.4956962E-1,-3.2656077E-2,2.0006903E-2,-1.7175958E-1],"categories":[],"categories_nodes":[],"categories_segments":[],"categories_sizes":[],"default_left":[0,0,0,0,0,0,0,0,0,0,0],"id":18,"left_children":[1,-1,3,5,7,9,-1,-1,-1,-1,-1],"loss_changes":[1.4792147E0,0E0,4.635643E-1,4.665176E-1,3.4970364E-1,3.7017512E-1,0E0,0E0,0E0,0E0,0E0],"parents":[2147483647,0,0,2,2,3,3,4,4,5,5],"right_children":[2,-1,4,6,8,10,-1,-1,-1,-1,-1],"split_conditions":[1E0,-2.3709221E-1,5.2380955E-1,1.7E1,5.4545456E-1,4.1747573E-1,5.881599E-2,1.4956962E-1,-3.2656077E-2,2.0006903E-2,-1.7175958E-1],"split_indices":[10,0,24,29,24,24,0,0,0,0,0],"split_type":[0,0,0,0,0,0,0,0,0,0,0],"sum_hessian":[1.0394566E1,3.7568815E0,6.6376843E0,4.3281107E0,2.3095737E0,3.1226778E0,1.2054328E0,1.1310912E0,1.1784824E0,1.008632E0,2.1140459E0],"tree_param":{"num_deleted":"0","num_feature":"36","num_nodes":"11","size_leaf_vector":"1"}},{"base_weights":[-3.1190205E-1,-2.2445104E-1,-3.7601817E-2,1.00410566E-1,-1.10874124E-1,2.7456632E-1,-1.0099482E-1,-5.7756312E-2,5.0016236E-1,3.5885118E-2,1.8063086E-1],"categories":[],"categories_nodes":[],"categories_segments":[],"categories_sizes":[],"default_left":[0,0,0,0,0,0,0,0,0,0,0],"id":19,"left_children":[1,-1,3,5,-1,7,-1,-1,9,-1,-1],"loss_changes":[1.2173253E0,0E0,3.7812054E-1,5.5245256E-1,0E0,6.0970986E-1,0E0,0E0,6.6215515E-2,0E0,0E0],"parents":[2147483647,0,0,2,2,3,3,5,5,8,8],"right_children":[2,-1,4,6,-1,8,-1,-1,10,-1,-1],"split_conditions":[1E0,-2.2445104E-1,3.1942654E3,5E0,-1.10874124E-1,2.0548056E-1,-1.0099482E-1,-5.7756312E-2,2.1212122E-1,3.5885118E-2,1.8063086E-1],"split_indices":[10,0,2,33,0,6,0,0,18,0,0],"split_type":[0,0,0,0,0,0,0,0,0,0,0],"sum_hessian":[9.407575E0,2.964712E0,6.4428625E0,5.0436296E0,1.3992329E0,3.8723843E0,1.1712453E0,1.3089235E0,2.5634606E0,1.0008128E0,1.5626479E0],"tree_param":{"num_deleted":"0","num_feature":"36","num_nodes":"11","size_leaf_vector":"1"}},{"base_weights":[-2.730336E-1,-2.1232863E-1,-3.6176536E-2,2.591977E-1,-2.844078E-1,-4.9192477E-2,1.5145448E-1,-1.9834527E-1,6.82972E-2],"categories":[],"categories_nodes":[],"categories_segments":[],"categories_sizes":[],"default_left":[0,0,0,0,0,0,0,0,0],"id":20,"left_children":[1,-1,3,5,7,-1,-1,-1,-1],"loss_changes":[9.6817327E-1,0E0,6.0905737E-1,4.837529E-1,1.0078499E0,0E0,0E0,0E0,0E0],"parents":[2147483647,0,0,2,2,3,3,4,4],"right_children":[2,-1,4,6,8,-1,-1,-1,-1],"split_conditions":[1.6879968E3,-2.1232863E-1,1.09295395E2,6E0,1.1E1,-4.9192477E-2,1.5145448E-1,-1.9834527E-1,6.82972E-2],"split_indices":[2,0,20,29,28,0,0,0,0],"split_type":[0,0,0,0,0,0,0,0,0],"sum_hessian":[8.651279E0,2.3499784E0,6.301301E0,2.8572438E0,3.4440575E0,1.1715491E0,1.6856947E0,1.8164729E0,1.6275846E0],"tree_param":{"num_deleted":"0","num_feature":"36","num_nodes":"9","size_leaf_vector":"1"}},{"base_weights":[-2.4421091E-1,-1.9898778E-1,-2.8725885E-2,-1.87134E-1,2.1347146E-1,4.728982E-2,-1.5670112E-1,1.23494096E-1,-2.7472477E-2,-7.240148E-2,8.236359E-2],"categories":[],"categories_nodes":[],"categories_segments":[],"categories_sizes":[],"default_left":[0,0,0,0,0,0,0,0,0,0,0],"id":21,"left_children":[1,-1,3,5,7,9,-1,-1,-1,-1,-1],"loss_changes":[7.822477E-1,0E0,3.048775E-1,3.9462867E-1,2.310027E-1,3.0811453E-1,0E0,0E0,0E0,0E0,0E0],"parents":[2147483647,0,0,2,2,3,3,4,4,5,5],"right_children":[2,-1,4,6,8,10,-1,-1,-1,-1,-1],"split_conditions":[1E0,-1.9898778E-1,5.2380955E-1,4.5378152E-1,5.4545456E-1,9.94E-1,-1.5670112E-1,1.23494096E-1,-2.7472477E-2,-7.240148E-2,8.236359E-2],"split_indices":[10,0,24,24,24,5,0,0,0,0,0],"split_type":[0,0,0,0,0,0,0,0,0,0,0],"sum_hessian":[7.873198E0,1.9678761E0,5.905322E0,3.7076795E0,2.1976423E0,2.6872656E0,1.0204139E0,1.1203454E0,1.0772971E0,1.1564878E0,1.5307777E0],"tree_param":{"num_deleted":"0","num_feature":"36","num_nodes":"11","size_leaf_vector":"1"}},{"base_weights":[-2.17565E-1,-1.8851273E-1,-2.2460265E-2,9.858842E-2,-1.8882103E-1,-4.5958853E-1,6.1756738E-2,-2.505377E-2,-1.7675778E-1],"categories":[],"categories_nodes":[],"categories_segments":[],"categories_sizes":[],"default_left":[0,0,0,0,0,0,0,0,0],"id":22,"left_children":[1,-1,3,-1,5,7,-1,-1,-1],"loss_changes":[6.562612E-1,0E0,4.5383546E-1,0E0,6.4884746E-1,1.1580104E-1,0E0,0E0,0E0],"parents":[2147483647,0,0,2,2,4,4,5,5],"right_children":[2,-1,4,-1,6,8,-1,-1,-1],"split_conditions":[1.6879968E3,-1.8851273E-1,2E0,9.858842E-2,1.1E1,1.0555512E2,6.1756738E-2,-2.505377E-2,-1.7675778E-1],"split_indices":[2,0,27,0,28,20,0,0,0],"split_type":[0,0,0,0,0,0,0,0,0],"sum_hessian":[7.363883E0,1.6561015E0,5.707782E0,1.5214707E0,4.186311E0,2.385366E0,1.800945E0,1.0328065E0,1.3525593E0],"tree_param":{"num_deleted":"0","num_feature":"36","num_nodes":"9","size_leaf_vector":"1"}},{"base_weights":[-1.9583027E-1,-1.7443332E-1,-2.5142618E-2,-1.5494575E-1,7.663815E-2,-1.2092348E-1,1.3029379E-1,-2.9905973E-2,9.234771E-2],"categories":[],"categories_nodes":[],"categories_segments":[],"categories_sizes":[],"default_left":[0,0,0,0,0,0,0,0,0],"id":23,"left_children":[1,-1,3,5,-1,-1,7,-1,-1],"loss_changes":[5.074148E-1,0E0,2.7789775E-1,4.1320002E-1,0E0,0E0,1.5833572E-1,0E0,0E0],"parents":[2147483647,0,0,2,2,3,3,6,6],"right_children":[2,-1,4,6,-1,-1,8,-1,-1],"split_conditions":[1E0,-1.7443332E-1,2.3677653E-1,2.9770906E3,7.663815E-2,-1.2092348E-1,1E1,-2.9905973E-2,9.234771E-2],"split_indices":[10,0,6,2,0,0,30,0,0],"split_type":[0,0,0,0,0,0,0,0,0],"sum_hessian":[6.9312854E0,1.3883259E0,5.5429597E0,4.0960126E0,1.4469473E0,1.9695557E0,2.1264567E0,1.1174122E0,1.0090444E0],"tree_param":{"num_deleted":"0","num_feature":"36","num_nodes":"9","size_leaf_vector":"1"}},{"base_weights":[-1.6810286E-1,-1.652254E-1,-9.22728E-3,1.5516677E-1,-1.09617226E-1,-4.0493365E-2,3.1844798E-1,1.4641584E-1,-3.189559E-3],"categories":[],"categories_nodes":[],"categories_segments":[],"categories_sizes":[],"default_left":[0,0,0,0,0,0,0,0,0],"id":24,"left_children":[1,-1,3,5,-1,-1,7,-1,-1],"loss_changes":[4.5583993E-1,0E0,4.2992607E-1,2.8285697E-1,0E0,0E0,2.026374E-1,0E0,0E0],"parents":[2147483647,0,0,2,2,3,3,6,6],"right_children":[2,-1,4,6,-1,-1,8,-1,-1],"split_conditions":[1.6879968E3,-1.652254E-1,3.2433237E3,7E0,-1.09617226E-1,-4.0493365E-2,1E1,1.4641584E-1,-3.189559E-3],"split_indices":[2,0,1,29,0,0,29,0,0],"split_type":[0,0,0,0,0,0,0,0,0],"sum_hessian":[6.581762E0,1.2073435E0,5.3744187E0,4.063275E0,1.3111438E0,1.5256292E0,2.5376456E0,1.3557967E0,1.1818489E0],"tree_param":{"num_deleted":"0","num_feature":"36","num_nodes":"9","size_leaf_vector":"1"}},{"base_weights":[-1.4964682E-1,-4.174843E-1,5.4574326E-2,-1.2973955E-2,-1.6954604E-1,1.0709948E-1,-2.4942131E-1,3.2327225E-5,-1.1293932E-1],"categories":[],"categories_nodes":[],"categories_segments":[],"categories_sizes":[],"default_left":[0,0,0,0,0,0,0,0,0],"id":25,"left_children":[1,3,5,-1,-1,-1,7,-1,-1],"loss_changes":[4.1950867E-1,1.5535223E-1,5.4868466E-1,0E0,0E0,0E0,9.774363E-2,0E0,0E0],"parents":[2147483647,0,0,1,1,2,2,6,6],"right_children":[2,4,6,-1,-1,-1,8,-1,-1],"split_conditions":[4.2E1,4.3137255E-1,1.243496E4,-1.2973955E-2,-1.6954604E-1,1.0709948E-1,4.4578314E-1,3.2327225E-5,-1.1293932E-1],"split_indices":[23,24,19,0,0,0,24,0,0],"split_type":[0,0,0,0,0,0,0,0,0],"sum_hessian":[6.252993E0,2.253386E0,3.9996073E0,1.0033804E0,1.2500055E0,1.9175841E0,2.0820231E0,1.0394874E0,1.0425358E0],"tree_param":{"num_deleted":"0","num_feature":"36","num_nodes":"9","size_leaf_vector":"1"}},{"base_weights":[-1.3863046E-1,-3.7597063E-1,3.6156565E-2,-1.5586841E-1,-1.2811323E-2,-1.996511E-1,9.272376E-2,-1.344027E-1,5.293472E-2],"categories":[],"categories_nodes":[],"categories_segments":[],"categories_sizes":[],"default_left":[0,0,0,0,0,0,0,0,0],"id":26,"left_children":[1,3,5,-1,-1,7,-1,-1,-1],"loss_changes":[3.0415252E-1,1.2416145E-1,3.8001078E-1,0E0,0E0,3.836433E-1,0E0,0E0,0E0],"parents":[2147483647,0,0,1,1,2,2,5,5],"right_children":[2,4,6,-1,-1,8,-1,-1,-1],"split_conditions":[4.2E1,1.5524956E3,5.2380955E-1,-1.5586841E-1,-1.2811323E-2,1.36E2,9.272376E-2,-1.344027E-1,5.293472E-2],"split_indices":[23,0,24,0,0,35,0,0,0],"split_type":[0,0,0,0,0,0,0,0,0],"sum_hessian":[6.0041175E0,2.0582438E0,3.945874E0,1.0477945E0,1.0104493E0,2.260903E0,1.6849712E0,1.2465483E0,1.0143545E0],"tree_param":{"num_deleted":"0","num_feature":"36","num_nodes":"9","size_leaf_vector":"1"}},{"base_weights":[-1.2679043E-1,-1.07508495E-1,3.1410314E-2,9.403887E-2,-1.699176E-1,5.3807E-2,-1.573506E-1],"categories":[],"categories_nodes":[],"categories_segments":[],"categories_sizes":[],"default_left":[0,0,0,0,0,0,0],"id":27,"left_children":[1,-1,3,-1,5,-1,-1],"loss_changes":[2.5932717E-1,0E0,3.339216E-1,0E0,5.3155273E-1,0E0,0E0],"parents":[2147483647,0,0,2,2,4,4],"right_children":[2,-1,4,-1,6,-1,-1],"split_conditions":[3.6E1,-1.07508495E-1,8.5E1,9.403887E-2,4.5378152E-1,5.3807E-2,-1.573506E-1],"split_indices":[25,0,22,0,24,0,0],"split_type":[0,0,0,0,0,0,0],"sum_hessian":[5.771468E0,1.828992E0,3.942476E0,1.4100602E0,2.5324159E0,1.5247136E0,1.0077022E0],"tree_param":{"num_deleted":"0","num_feature":"36","num_nodes":"7","size_leaf_vector":"1"}},{"base_weights":[-1.126344E-1,-3.3091053E-1,6.255231E-2,1.1675184E-2,-1.585796E-1,1.1048625E-1,-1.5519352E-1,-9.988203E-2,3.6097594E-2],"categories":[],"categories_nodes":[],"categories_segments":[],"categories_sizes":[],"default_left":[0,0,0,0,0,0,0,0,0],"id":28,"left_children":[1,3,5,-1,-1,-1,7,-1,-1],"loss_changes":[2.7109784E-1,2.453529E-1,3.5498148E-1,0E0,0E0,0E0,2.0247197E-1,0E0,0E0],"parents":[2147483647,0,0,1,1,2,2,6,6],"right_children":[2,4,6,-1,-1,-1,8,-1,-1],"split_conditions":[7E0,4.52E-1,1.09295395E2,1.1675184E-2,-1.585796E-1,1.1048625E-1,1.7E1,-9.988203E-2,3.6097594E-2],"split_indices":[29,4,20,0,0,0,29,0,0],"split_type":[0,0,0,0,0,0,0,0,0],"sum_hessian":[5.548239E0,2.0745387E0,3.4737003E0,1.0024079E0,1.0721307E0,1.1573336E0,2.316367E0,1.2813276E0,1.0350392E0],"tree_param":{"num_deleted":"0","num_feature":"36","num_nodes":"9","size_leaf_vector":"1"}},{"base_weights":[-1.00353345E-1,-1.0060583E-1,6.2708646E-2,8.927207E-2,-5.867535E-2],"categories":[],"categories_nodes":[],"categories_segments":[],"categories_sizes":[],"default_left":[0,0,0,0,0],"id":29,"left_children":[1,-1,3,-1,-1],"loss_changes":[2.625314E-1,0E0,3.35017E-1,0E0,0E0],"parents":[2147483647,0,0,2,2],"right_children":[2,-1,4,-1,-1],"split_conditions":[4.2E1,-1.0060583E-1,1.243496E4,8.927207E-2,-5.867535E-2],"split_indices":[23,0,19,0,0],"split_type":[0,0,0,0,0],"sum_hessian":[5.3023286E0,1.739223E0,3.5631058E0,1.7865376E0,1.776568E0],"tree_param":{"num_deleted":"0","num_feature":"36","num_nodes":"5","size_leaf_vector":"1"}},{"base_weights":[-8.4598646E-2,-2.7049467E-1,1.0458523E-1,-1.6120577E-1,2.9166305E-2,1.1362E-1,-4.4381782E-2],"categories":[],"categories_nodes":[],"categories_segments":[],"categories_sizes":[],"default_left":[0,0,0,0,0,0,0],"id":30,"left_children":[1,3,5,-1,-1,-1,-1],"loss_changes":[2.4479425E-1,3.8429832E-1,3.1718135E-1,0E0,0E0,0E0,0E0],"parents":[2147483647,0,0,1,1,2,2],"right_children":[2,4,6,-1,-1,-1,-1],"split_conditions":[6E0,6E0,5E0,-1.6120577E-1,2.9166305E-2,1.1362E-1,-4.4381782E-2],"split_indices":[32,29,27,0,0,0,0],"split_type":[0,0,0,0,0,0,0],"sum_hessian":[5.156199E0,2.383916E0,2.7722833E0,1.1140811E0,1.2698346E0,1.0895966E0,1.6826867E0],"tree_param":{"num_deleted":"0","num_feature":"36","num_nodes":"7","size_leaf_vector":"1"}},{"base_weights":[-7.3986046E-2,-2.4340092E-1,9.204922E-2,2.6456883E-2,-1.3271585E-1,1.0639522E-1,-5.3107973E-2],"categories":[],"categories_nodes":[],"categories_segments":[],"categories_sizes":[],"default_left":[0,0,0,0,0,0,0],"id":31,"left_children":[1,3,5,-1,-1,-1,-1],"loss_changes":[1.9035807E-1,2.5211823E-1,3.2712764E-1,0E0,0E0,0E0,0E0],"parents":[2147483647,0,0,1,1,2,2],"right_children":[2,4,6,-1,-1,-1,-1],"split_conditions":[6E0,1.0638298E-1,8E0,2.6456883E-2,-1.3271585E-1,1.0639522E-1,-5.3107973E-2],"split_indices":[32,18,32,0,0,0,0],"split_type":[0,0,0,0,0,0,0],"sum_hessian":[4.970854E0,2.2297542E0,2.7410996E0,1.0450605E0,1.1846937E0,1.2262863E0,1.5148134E0],"tree_param":{"num_deleted":"0","num_feature":"36","num_nodes":"7","size_leaf_vector":"1"}},{"base_weights":[-6.3632466E-2,-7.963477E-2,7.867257E-2,9.4215915E-2,-1.0671807E-1,-8.326191E-2,3.4272112E-2],"categories":[],"categories_nodes":[],"categories_segments":[],"categories_sizes":[],"default_left":[0,0,0,0,0,0,0],"id":32,"left_children":[1,-1,3,-1,5,-1,-1],"loss_changes":[1.8859158E-1,0E0,2.1662052E-1,0E0,1.4847513E-1,0E0,0E0],"parents":[2147483647,0,0,2,2,4,4],"right_children":[2,-1,4,-1,6,-1,-1],"split_conditions":[7E0,-7.963477E-2,1.09295395E2,9.4215915E-2,1.16363E3,-8.326191E-2,3.4272112E-2],"split_indices":[29,0,20,0,15,0,0],"split_type":[0,0,0,0,0,0,0],"sum_hessian":[4.839508E0,1.6434362E0,3.196072E0,1.1024033E0,2.0936687E0,1.0363789E0,1.0572898E0],"tree_param":{"num_deleted":"0","num_feature":"36","num_nodes":"7","size_leaf_vector":"1"}},{"base_weights":[-5.2648444E-2,-1.5935867E-1,5.2760474E-2,-1.2717013E-1,4.9568262E-2],"categories":[],"categories_nodes":[],"categories_segments":[],"categories_sizes":[],"default_left":[0,0,0,0,0],"id":33,"left_children":[1,3,-1,-1,-1],"loss_changes":[1.6684644E-1,4.4830886E-1,0E0,0E0,0E0],"parents":[2147483647,0,0,1,1],"right_children":[2,4,-1,-1,-1],"split_conditions":[2.3716527E-1,2.9770906E3,5.2760474E-2,-1.2717013E-1,4.9568262E-2],"split_indices":[6,2,0,0,0],"split_type":[0,0,0,0,0],"sum_hessian":[4.692842E0,3.4053075E0,1.2875345E0,1.7076114E0,1.6976962E0],"tree_param":{"num_deleted":"0","num_feature":"36","num_nodes":"5","size_leaf_vector":"1"}},{"base_weights":[-4.3841626E-2,5.791084E-2,-1.4340228E-1,-1.3009015E-1,9.198002E-2,8.1165425E-2,-4.4686764E-2],"categories":[],"categories_nodes":[],"categories_segments":[],"categories_sizes":[],"default_left":[0,0,0,0,0,0,0],"id":34,"left_children":[1,-1,3,-1,5,-1,-1],"loss_changes":[1.592889E-1,0E0,3.4749606E-1,0E0,1.8276834E-1,0E0,0E0],"parents":[2147483647,0,0,2,2,4,4],"right_children":[2,-1,4,-1,6,-1,-1],"split_conditions":[2.9182692E1,5.791084E-2,8E0,-1.3009015E-1,8E0,8.1165425E-2,-4.4686764E-2],"split_indices":[20,0,28,0,32,0,0],"split_type":[0,0,0,0,0,0,0],"sum_hessian":[4.5804253E0,1.0776256E0,3.5027995E0,1.1914555E0,2.3113441E0,1.2568799E0,1.0544642E0],"tree_param":{"num_deleted":"0","num_feature":"36","num_nodes":"7","size_leaf_vector":"1"}},{"base_weights":[-3.9394546E-2,-1.5972544E-1,4.4188023E-2,-1.0982901E-1,2.8556492E-2],"categories":[],"categories_nodes":[],"categories_segments":[],"categories_sizes":[],"default_left":[0,0,0,0,0],"id":35,"left_children":[1,3,-1,-1,-1],"loss_changes":[1.4620978E-1,2.347835E-1,0E0,0E0,0E0],"parents":[2147483647,0,0,1,1],"right_children":[2,4,-1,-1,-1],"split_conditions":[5.2380955E-1,9.94E-1,4.4188023E-2,-1.0982901E-1,2.8556492E-2],"split_indices":[24,5,0,0,0],"split_type":[0,0,0,0,0],"sum_hessian":[4.461248E0,2.800557E0,1.6606909E0,1.3066056E0,1.4939512E0],"tree_param":{"num_deleted":"0","num_feature":"36","num_nodes":"5","size_leaf_vector":"1"}},{"base_weights":[-3.5987187E-2,-1.4156166E-1,5.2477635E-2,-1.11708E-1,4.178959E-2],"categories":[],"categories_nodes":[],"categories_segments":[],"categories_sizes":[],"default_left":[0,0,0,0,0],"id":36,"left_children":[1,3,-1,-1,-1],"loss_changes":[1.4464502E-1,3.2027203E-1,0E0,0E0,0E0],"parents":[2147483647,0,0,1,1],"right_children":[2,4,-1,-1,-1],"split_conditions":[2.3716527E-1,9.94E-1,5.2477635E-2,-1.11708E-1,4.178959E-2],"split_indices":[6,5,0,0,0],"split_type":[0,0,0,0,0],"sum_hessian":[4.3838563E0,3.140607E0,1.2432493E0,1.5451165E0,1.5954907E0],"tree_param":{"num_deleted":"0","num_feature":"36","num_nodes":"5","size_leaf_vector":"1"}},{"base_weights":[-3.0148895E-2,1.1340562E-1,-5.669837E-2,-3.4920678E-2,8.6080834E-2],"categories":[],"categories_nodes":[],"categories_segments":[],"categories_sizes":[],"default_left":[0,0,0,0,0],"id":37,"left_children":[1,3,-1,-1,-1],"loss_changes":[1.4229885E-1,1.6935469E-1,0E0,0E0,0E0],"parents":[2147483647,0,0,1,1],"right_children":[2,4,-1,-1,-1],"split_conditions":[5E0,7E0,-5.669837E-2,-3.4920678E-2,8.6080834E-2],"split_indices":[27,29,0,0,0],"split_type":[0,0,0,0,0],"sum_hessian":[4.3004313E0,2.409208E0,1.8912234E0,1.1781653E0,1.2310426E0],"tree_param":{"num_deleted":"0","num_feature":"36","num_nodes":"5","size_leaf_vector":"1"}},{"base_weights":[-2.2754705E-2,9.176602E-2,-6.5714456E-2,-2.464073E-2,9.042833E-2],"categories":[],"categories_nodes":[],"categories_segments":[],"categories_sizes":[],"default_left":[0,0,0,0,0],"id":38,"left_children":[1,3,-1,-1,-1],"loss_changes":[1.3756722E-1,1.7077734E-1,0E0,0E0,0E0],"parents":[2147483647,0,0,1,1],"right_children":[2,4,-1,-1,-1],"split_conditions":[9.95E-1,1.2E1,-6.5714456E-2,-2.464073E-2,9.042833E-2],"split_indices":[4,26,0,0,0],"split_type":[0,0,0,0,0],"sum_hessian":[4.2254343E0,3.0048583E0,1.2205759E0,1.9749786E0,1.0298797E0],"tree_param":{"num_deleted":"0","num_feature":"36","num_nodes":"5","size_leaf_vector":"1"}},{"base_weights":[-1.634951E-2,5.5217233E-2,-1.357381E-1,-1.0543368E-1,3.5386626E-2],"categories":[],"categories_nodes":[],"categories_segments":[],"categories_sizes":[],"default_left":[0,0,0,0,0],"id":39,"left_children":[1,-1,3,-1,-1],"loss_changes":[1.4856935E-1,0E0,2.5008726E-1,0E0,0E0],"parents":[2147483647,0,0,2,2],"right_children":[2,-1,4,-1,-1],"split_conditions":[2.75578E3,5.5217233E-2,1.1E1,-1.0543368E-1,3.5386626E-2],"split_indices":[19,0,28,0,0],"split_type":[0,0,0,0,0],"sum_hessian":[4.165267E0,1.352791E0,2.812476E0,1.3117886E0,1.5006875E0],"tree_param":{"num_deleted":"0","num_feature":"36","num_nodes":"5","size_leaf_vector":"1"}},{"base_weights":[-1.54560115E-2,1.3062936E-1,-4.898299E-2,8.559311E-2,-2.716055E-2],"categories":[],"categories_nodes":[],"categories_segments":[],"categories_sizes":[],"default_left":[0,0,0,0,0],"id":40,"left_children":[1,3,-1,-1,-1],"loss_changes":[1.3159138E-1,1.3269049E-1,0E0,0E0,0E0],"parents":[2147483647,0,0,1,1],"right_children":[2,4,-1,-1,-1],"split_conditions":[1.09295395E2,1.9991E2,-4.898299E-2,8.559311E-2,-2.716055E-2],"split_indices":[20,17,0,0,0],"split_type":[0,0,0,0,0],"sum_hessian":[4.106069E0,2.1236484E0,1.9824209E0,1.0789801E0,1.0446683E0],"tree_param":{"num_deleted":"0","num_feature":"36","num_nodes":"5","size_leaf_vector":"1"}},{"base_weights":[-9.314807E-3,-5.535101E-2,1.0106051E-1,9.106925E-2,-6.737109E-2],"categories":[],"categories_nodes":[],"categories_segments":[],"categories_sizes":[],"default_left":[0,0,0,0,0],"id":41,"left_children":[1,-1,3,-1,-1],"loss_changes":[1.1645913E-1,0E0,3.1541154E-1,0E0,0E0],"parents":[2147483647,0,0,2,2],"right_children":[2,-1,4,-1,-1],"split_conditions":[7E0,-5.535101E-2,2.1280092E-1,9.106925E-2,-6.737109E-2],"split_indices":[8,0,7,0,0],"split_type":[0,0,0,0,0],"sum_hessian":[4.058473E0,1.3090844E0,2.7493887E0,1.7369673E0,1.0124214E0],"tree_param":{"num_deleted":"0","num_feature":"36","num_nodes":"5","size_leaf_vector":"1"}},{"base_weights":[-1.3411321E-2,-4.763573E-2,1.1019874E-1,8.953345E-2,-3.3771444E-2],"categories":[],"categories_nodes":[],"categories_segments":[],"categories_sizes":[],"default_left":[0,0,0,0,0],"id":42,"left_children":[1,-1,3,-1,-1],"loss_changes":[1.0670123E-1,0E0,1.708594E-1,0E0,0E0],"parents":[2147483647,0,0,2,2],"right_children":[2,-1,4,-1,-1],"split_conditions":[6E0,-4.763573E-2,8E0,8.953345E-2,-3.3771444E-2],"split_indices":[32,0,32,0,0],"split_type":[0,0,0,0,0],"sum_hessian":[3.9640799E0,1.6908947E0,2.273185E0,1.047947E0,1.225238E0],"tree_param":{"num_deleted":"0","num_feature":"36","num_nodes":"5","size_leaf_vector":"1"}},{"base_weights":[-8.046632E-3,1.183345E-1,-4.8452068E-2,-3.4370396E-2,8.7072305E-2],"categories":[],"categories_nodes":[],"categories_segments":[],"categories_sizes":[],"default_left":[0,0,0,0,0],"id":43,"left_children":[1,3,-1,-1,-1],"loss_changes":[1.1446166E-1,1.6430183E-1,0E0,0E0,0E0],"parents":[2147483647,0,0,1,1],"right_children":[2,4,-1,-1,-1],"split_conditions":[5E0,7E0,-4.8452068E-2,-3.4370396E-2,8.7072305E-2],"split_indices":[27,29,0,0,0],"split_type":[0,0,0,0,0],"sum_hessian":[3.9163375E0,2.273173E0,1.6431644E0,1.1069708E0,1.1662023E0],"tree_param":{"num_deleted":"0","num_feature":"36","num_nodes":"5","size_leaf_vector":"1"}},{"base_weights":[-4.979831E-3,4.787937E-2,-1.0262404E-1,-1.0958618E-1,4.1394543E-2],"categories":[],"categories_nodes":[],"categories_segments":[],"categories_sizes":[],"default_left":[0,0,0,0,0],"id":44,"left_children":[1,-1,3,-1,-1],"loss_changes":[9.4423145E-2,0E0,2.8150162E-1,0E0,0E0],"parents":[2147483647,0,0,2,2],"right_children":[2,-1,4,-1,-1],"split_conditions":[2E0,4.787937E-2,4.9752E2,-1.0958618E-1,4.1394543E-2],"split_indices":[27,0,15,0,0],"split_type":[0,0,0,0,0],"sum_hessian":[3.856519E0,1.1997967E0,2.6567223E0,1.0223984E0,1.6343238E0],"tree_param":{"num_deleted":"0","num_feature":"36","num_nodes":"5","size_leaf_vector":"1"}},{"base_weights":[-8.76152E-3,3.4539856E-2,-4.149071E-2],"categories":[],"categories_nodes":[],"categories_segments":[],"categories_sizes":[],"default_left":[0,0,0],"id":45,"left_children":[1,-1,-1],"loss_changes":[9.286338E-2,0E0,0E0],"parents":[2147483647,0,0],"right_children":[2,-1,-1],"split_conditions":[1.09295395E2,3.4539856E-2,-4.149071E-2],"split_indices":[20,0,0],"split_type":[0,0,0],"sum_hessian":[3.7939694E0,1.9961E0,1.7978696E0],"tree_param":{"num_deleted":"0","num_feature":"36","num_nodes":"3","size_leaf_vector":"1"}},{"base_weights":[-7.7881175E-3,-4.472692E-2,1.13045834E-1,8.30866E-2,-2.9243136E-2],"categories":[],"categories_nodes":[],"categories_segments":[],"categories_sizes":[],"default_left":[0,0,0,0,0],"id":46,"left_children":[1,-1,3,-1,-1],"loss_changes":[9.837201E-2,0E0,1.3542852E-1,0E0,0E0],"parents":[2147483647,0,0,2,2],"right_children":[2,-1,4,-1,-1],"split_conditions":[6E0,-4.472692E-2,8E0,8.30866E-2,-2.9243136E-2],"split_indices":[32,0,32,0,0],"split_type":[0,0,0,0,0],"sum_hessian":[3.7743876E0,1.6320503E0,2.1423373E0,1.027098E0,1.1152394E0],"tree_param":{"num_deleted":"0","num_feature":"36","num_nodes":"5","size_leaf_vector":"1"}},{"base_weights":[-3.739125E-3,-4.8669722E-2,9.453032E-2,7.432425E-2,-3.3687774E-2],"categories":[],"categories_nodes":[],"categories_segments":[],"categories_sizes":[],"default_left":[0,0,0,0,0],"id":47,"left_children":[1,-1,3,-1,-1],"loss_changes":[8.9073E-2,0E0,1.40449E-1,0E0,0E0],"parents":[2147483647,0,0,2,2],"right_children":[2,-1,4,-1,-1],"split_conditions":[7E0,-4.8669722E-2,1.243496E4,7.432425E-2,-3.3687774E-2],"split_indices":[29,0,19,0,0],"split_type":[0,0,0,0,0],"sum_hessian":[3.7343118E0,1.1801004E0,2.5542114E0,1.3535849E0,1.2006265E0],"tree_param":{"num_deleted":"0","num_feature":"36","num_nodes":"5","size_leaf_vector":"1"}},{"base_weights":[-4.527767E-3,-5.313205E-2,9.2773E-2,-3.0049449E-2,7.904861E-2],"categories":[],"categories_nodes":[],"categories_segments":[],"categories_sizes":[],"default_left":[0,0,0,0,0],"id":48,"left_children":[1,-1,3,-1,-1],"loss_changes":[9.507514E-2,0E0,1.46657E-1,0E0,0E0],"parents":[2147483647,0,0,2,2],"right_children":[2,-1,4,-1,-1],"split_conditions":[4.2E1,-5.313205E-2,5.2380955E-1,-3.0049449E-2,7.904861E-2],"split_indices":[23,0,24,0,0],"split_type":[0,0,0,0,0],"sum_hessian":[3.6834245E0,1.032289E0,2.6511354E0,1.4386113E0,1.2125243E0],"tree_param":{"num_deleted":"0","num_feature":"36","num_nodes":"5","size_leaf_vector":"1"}},{"base_weights":[-4.283824E-3,-4.6056543E-2,9.025459E-2,7.7415645E-2,-3.7961565E-2],"categories":[],"categories_nodes":[],"categories_segments":[],"categories_sizes":[],"default_left":[0,0,0,0,0],"id":49,"left_children":[1,-1,3,-1,-1],"loss_changes":[7.9343125E-2,0E0,1.5893088E-1,0E0,0E0],"parents":[2147483647,0,0,2,2],"right_children":[2,-1,4,-1,-1],"split_conditions":[7E0,-4.6056543E-2,2.071679E-1,7.7415645E-2,-3.7961565E-2],"split_indices":[8,0,7,0,0],"split_type":[0,0,0,0,0],"sum_hessian":[3.641602E0,1.1702851E0,2.471317E0,1.2857971E0,1.1855199E0],"tree_param":{"num_deleted":"0","num_feature":"36","num_nodes":"5","size_leaf_vector":"1"}},{"base_weights":[-4.58369E-3,-1.0193341E-1,4.9029477E-2,-9.7474396E-2,4.5637026E-2],"categories":[],"categories_nodes":[],"categories_segments":[],"categories_sizes":[],"default_left":[0,0,0,0,0],"id":50,"left_children":[1,3,-1,-1,-1],"loss_changes":[9.158074E-2,2.4861269E-1,0E0,0E0,0E0],"parents":[2147483647,0,0,1,1],"right_children":[2,4,-1,-1,-1],"split_conditions":[2.3716527E-1,2.9770906E3,4.9029477E-2,-9.7474396E-2,4.5637026E-2],"split_indices":[6,2,0,0,0],"split_type":[0,0,0,0,0],"sum_hessian":[3.5806127E0,2.5160797E0,1.0645329E0,1.1914551E0,1.3246245E0],"tree_param":{"num_deleted":"0","num_feature":"36","num_nodes":"5","size_leaf_vector":"1"}},{"base_weights":[-4.688778E-3,4.4278238E-2,-1.0353304E-1,-9.389757E-2,3.726968E-2],"categories":[],"categories_nodes":[],"categories_segments":[],"categories_sizes":[],"default_left":[0,0,0,0,0],"id":51,"left_children":[1,-1,3,-1,-1],"loss_changes":[8.334619E-2,0E0,1.9774048E-1,0E0,0E0],"parents":[2147483647,0,0,2,2],"right_children":[2,-1,4,-1,-1],"split_conditions":[2.75578E3,4.4278238E-2,1.1E1,-9.389757E-2,3.726968E-2],"split_indices":[19,0,28,0,0],"split_type":[0,0,0,0,0],"sum_hessian":[3.5219238E0,1.1921135E0,2.3298104E0,1.0187529E0,1.3110574E0],"tree_param":{"num_deleted":"0","num_feature":"36","num_nodes":"5","size_leaf_vector":"1"}},{"base_weights":[-6.722021E-3,-4.4854127E-2,8.190034E-2,6.67183E-2,-3.149748E-2],"categories":[],"categories_nodes":[],"categories_segments":[],"categories_sizes":[],"default_left":[0,0,0,0,0],"id":52,"left_children":[1,-1,3,-1,-1],"loss_changes":[6.892339E-2,0E0,1.12879604E-1,0E0,0E0],"parents":[2147483647,0,0,2,2],"right_children":[2,-1,4,-1,-1],"split_conditions":[7E0,-4.4854127E-2,1.243496E4,6.67183E-2,-3.149748E-2],"split_indices":[29,0,19,0,0],"split_type":[0,0,0,0,0],"sum_hessian":[3.4788797E0,1.0691447E0,2.409735E0,1.2671822E0,1.1425527E0],"tree_param":{"num_deleted":"0","num_feature":"36","num_nodes":"5","size_leaf_vector":"1"}},{"base_weights":[-7.0481817E-3,3.9070398E-2,-9.6575275E-2,2.4398778E-2,-7.3475264E-2],"categories":[],"categories_nodes":[],"categories_segments":[],"categories_sizes":[],"default_left":[0,0,0,0,0],"id":53,"left_children":[1,-1,3,-1,-1],"loss_changes":[6.70991E-2,0E0,1.05933115E-1,0E0,0E0],"parents":[2147483647,0,0,2,2],"right_children":[2,-1,4,-1,-1],"split_conditions":[2.75578E3,3.9070398E-2,4.5378152E-1,2.4398778E-2,-7.3475264E-2],"split_indices":[19,0,24,0,0],"split_type":[0,0,0,0,0],"sum_hessian":[3.4360685E0,1.1768165E0,2.259252E0,1.2326729E0,1.0265793E0],"tree_param":{"num_deleted":"0","num_feature":"36","num_nodes":"5","size_leaf_vector":"1"}},{"base_weights":[-7.6158345E-3,-4.1203834E-2,3.0457284E-2],"categories":[],"categories_nodes":[],"categories_segments":[],"categories_sizes":[],"default_left":[0,0,0],"id":54,"left_children":[1,-1,-1],"loss_changes":[7.6331064E-2,0E0,0E0],"parents":[2147483647,0,0],"right_children":[2,-1,-1],"split_conditions":[6E0,-4.1203834E-2,3.0457284E-2],"split_indices":[32,0,0],"split_type":[0,0,0],"sum_hessian":[3.40625E0,1.4382383E0,1.9680117E0],"tree_param":{"num_deleted":"0","num_feature":"36","num_nodes":"3","size_leaf_vector":"1"}},{"base_weights":[-7.923961E-3,7.968744E-2,-4.3825317E-2,-3.7367757E-2,7.034095E-2],"categories":[],"categories_nodes":[],"categories_segments":[],"categories_sizes":[],"default_left":[0,0,0,0,0],"id":55,"left_children":[1,3,-1,-1,-1],"loss_changes":[6.484552E-2,1.3469511E-1,0E0,0E0,0E0],"parents":[2147483647,0,0,1,1],"right_children":[2,4,-1,-1,-1],"split_conditions":[1.16878E3,4.9681E2,-4.3825317E-2,-3.7367757E-2,7.034095E-2],"split_indices":[12,12,0,0,0],"split_type":[0,0,0,0,0],"sum_hessian":[3.3954513E0,2.3368282E0,1.0586231E0,1.0916193E0,1.245209E0],"tree_param":{"num_deleted":"0","num_feature":"36","num_nodes":"5","size_leaf_vector":"1"}},{"base_weights":[-8.233665E-3,-4.035152E-2,8.505204E-2,6.821572E-2,-2.7875656E-2],"categories":[],"categories_nodes":[],"categories_segments":[],"categories_sizes":[],"default_left":[0,0,0,0,0],"id":56,"left_children":[1,-1,3,-1,-1],"loss_changes":[6.281722E-2,0E0,1.001895E-1,0E0,0E0],"parents":[2147483647,0,0,2,2],"right_children":[2,-1,4,-1,-1],"split_conditions":[1.5667305E3,-4.035152E-2,5E0,6.821572E-2,-2.7875656E-2],"split_indices":[0,0,27,0,0],"split_type":[0,0,0,0,0],"sum_hessian":[3.3616529E0,1.2405648E0,2.1210883E0,1.0242661E0,1.096822E0],"tree_param":{"num_deleted":"0","num_feature":"36","num_nodes":"5","size_leaf_vector":"1"}},{"base_weights":[-5.8974475E-3,-4.2356856E-2,8.024863E-2,7.5463496E-2,-3.282166E-2],"categories":[],"categories_nodes":[],"categories_segments":[],"categories_sizes":[],"default_left":[0,0,0,0,0],"id":57,"left_children":[1,-1,3,-1,-1],"loss_changes":[6.1730973E-2,0E0,1.3406822E-1,0E0,0E0],"parents":[2147483647,0,0,2,2],"right_children":[2,-1,4,-1,-1],"split_conditions":[3.8E1,-4.2356856E-2,8E1,7.5463496E-2,-3.282166E-2],"split_indices":[25,0,11,0,0],"split_type":[0,0,0,0,0],"sum_hessian":[3.3244295E0,1.0447302E0,2.2796993E0,1.0263556E0,1.2533436E0],"tree_param":{"num_deleted":"0","num_feature":"36","num_nodes":"5","size_leaf_vector":"1"}},{"base_weights":[-4.220152E-3,-3.5196837E-2,3.285811E-2],"categories":[],"categories_nodes":[],"categories_segments":[],"categories_sizes":[],"default_left":[0,0,0],"id":58,"left_children":[1,-1,-1],"loss_changes":[6.8100646E-2,0E0,0E0],"parents":[2147483647,0,0],"right_children":[2,-1,-1],"split_conditions":[4.9E1,-3.5196837E-2,3.285811E-2],"split_indices":[23,0,0],"split_type":[0,0,0],"sum_hessian":[3.2946112E0,1.6362242E0,1.6583871E0],"tree_param":{"num_deleted":"0","num_feature":"36","num_nodes":"3","size_leaf_vector":"1"}},{"base_weights":[-3.6206718E-3,-3.447543E-2,3.0403728E-2],"categories":[],"categories_nodes":[],"categories_segments":[],"categories_sizes":[],"default_left":[0,0,0],"id":59,"left_children":[1,-1,-1],"loss_changes":[6.1621867E-2,0E0,0E0],"parents":[2147483647,0,0],"right_children":[2,-1,-1],"split_conditions":[1.7E1,-3.447543E-2,3.0403728E-2],"split_indices":[8,0,0],"split_type":[0,0,0],"sum_hessian":[3.2778027E0,1.5449072E0,1.7328956E0],"tree_param":{"num_deleted":"0","num_feature":"36","num_nodes":"3","size_leaf_vector":"1"}},{"base_weights":[-3.598899E-3,2.8183607E-2,-3.232431E-2],"categories":[],"categories_nodes":[],"categories_segments":[],"categories_sizes":[],"default_left":[0,0,0],"id":60,"left_children":[1,-1,-1],"loss_changes":[5.3433284E-2,0E0,0E0],"parents":[2147483647,0,0],"right_children":[2,-1,-1],"split_conditions":[1.09295395E2,2.8183607E-2,-3.232431E-2],"split_indices":[20,0,0],"split_type":[0,0,0],"sum_hessian":[3.2632535E0,1.7356442E0,1.5276092E0],"tree_param":{"num_deleted":"0","num_feature":"36","num_nodes":"3","size_leaf_vector":"1"}},{"base_weights":[-3.5870757E-3,-3.6954414E-2,2.8421987E-2],"categories":[],"categories_nodes":[],"categories_segments":[],"categories_sizes":[],"default_left":[0,0,0],"id":61,"left_children":[1,-1,-1],"loss_changes":[6.1663713E-2,0E0,0E0],"parents":[2147483647,0,0],"right_children":[2,-1,-1],"split_conditions":[6E0,-3.6954414E-2,2.8421987E-2],"split_indices":[32,0,0],"split_type":[0,0,0],"sum_hessian":[3.251383E0,1.352986E0,1.8983972E0],"tree_param":{"num_deleted":"0","num_feature":"36","num_nodes":"3","size_leaf_vector":"1"}},{"base_weights":[-4.628638E-3,-3.679944E-2,8.1126146E-2,6.0340893E-2,-2.2878857E-2],"categories":[],"categories_nodes":[],"categories_segments":[],"categories_sizes":[],"default_left":[0,0,0,0,0],"id":62,"left_children":[1,-1,3,-1,-1],"loss_changes":[5.2898064E-2,0E0,7.3125616E-2,0E0,0E0],"parents":[2147483647,0,0,2,2],"right_children":[2,-1,4,-1,-1],"split_conditions":[1.5667305E3,-3.679944E-2,6E0,6.0340893E-2,-2.2878857E-2],"split_indices":[0,0,27,0,0],"split_type":[0,0,0,0,0],"sum_hessian":[3.2428424E0,1.183464E0,2.0593784E0,1.0107319E0,1.0486465E0],"tree_param":{"num_deleted":"0","num_feature":"36","num_nodes":"5","size_leaf_vector":"1"}},{"base_weights":[-3.1710588E-3,3.0739147E-2,-2.9366404E-2],"categories":[],"categories_nodes":[],"categories_segments":[],"categories_sizes":[],"default_left":[0,0,0],"id":63,"left_children":[1,-1,-1],"loss_changes":[5.2192736E-2,0E0,0E0],"parents":[2147483647,0,0],"right_children":[2,-1,-1],"split_conditions":[4.5378152E-1,3.0739147E-2,-2.9366404E-2],"split_indices":[24,0,0],"split_type":[0,0,0],"sum_hessian":[3.2139943E0,1.4807594E0,1.7332348E0],"tree_param":{"num_deleted":"0","num_feature":"36","num_nodes":"3","size_leaf_vector":"1"}},{"base_weights":[-1.9760355E-3,-2.7263142E-2,3.4586996E-2],"categories":[],"categories_nodes":[],"categories_segments":[],"categories_sizes":[],"default_left":[0,0,0],"id":64,"left_children":[1,-1,-1],"loss_changes":[5.4281376E-2,0E0,0E0],"parents":[2147483647,0,0],"right_children":[2,-1,-1],"split_conditions":[5.2380955E-1,-2.7263142E-2,3.4586996E-2],"split_indices":[24,0,0],"split_type":[0,0,0],"sum_hessian":[3.2018056E0,1.9491559E0,1.2526497E0],"tree_param":{"num_deleted":"0","num_feature":"36","num_nodes":"3","size_leaf_vector":"1"}},{"base_weights":[2.8948605E-4,-3.688532E-2,7.8435756E-2,-2.5258766E-2,6.227055E-2],"categories":[],"categories_nodes":[],"categories_segments":[],"categories_sizes":[],"default_left":[0,0,0,0,0],"id":65,"left_children":[1,-1,3,-1,-1],"loss_changes":[4.9999602E-2,0E0,8.415086E-2,0E0,0E0],"parents":[2147483647,0,0,2,2],"right_children":[2,-1,4,-1,-1],"split_conditions":[4.9681E2,-3.688532E-2,1.2E1,-2.5258766E-2,6.227055E-2],"split_indices":[12,0,26,0,0],"split_type":[0,0,0,0,0],"sum_hessian":[3.1902947E0,1.0154828E0,2.174812E0,1.1165732E0,1.0582387E0],"tree_param":{"num_deleted":"0","num_feature":"36","num_nodes":"5","size_leaf_vector":"1"}},{"base_weights":[1.7201134E-4,3.170584E-2,-3.419701E-2],"categories":[],"categories_nodes":[],"categories_segments":[],"categories_sizes":[],"default_left":[0,0,0],"id":66,"left_children":[1,-1,-1],"loss_changes":[6.218755E-2,0E0,0E0],"parents":[2147483647,0,0],"right_children":[2,-1,-1],"split_conditions":[1.09295395E2,3.170584E-2,-3.419701E-2],"split_indices":[20,0,0],"split_type":[0,0,0],"sum_hessian":[3.1625113E0,1.6820881E0,1.4804232E0],"tree_param":{"num_deleted":"0","num_feature":"36","num_nodes":"3","size_leaf_vector":"1"}},{"base_weights":[-5.752247E-4,2.7078984E-2,-3.2424662E-2],"categories":[],"categories_nodes":[],"categories_segments":[],"categories_sizes":[],"default_left":[0,0,0],"id":67,"left_children":[1,-1,-1],"loss_changes":[5.0285805E-2,0E0,0E0],"parents":[2147483647,0,0],"right_children":[2,-1,-1],"split_conditions":[2.6086956E-1,2.7078984E-2,-3.2424662E-2],"split_indices":[18,0,0],"split_type":[0,0,0],"sum_hessian":[3.1502047E0,1.7944078E0,1.3557968E0],"tree_param":{"num_deleted":"0","num_feature":"36","num_nodes":"3","size_leaf_vector":"1"}},{"base_weights":[-1.772535E-3,-3.6903787E-2,7.598804E-2,-2.3878379E-2,5.9397947E-2],"categories":[],"categories_nodes":[],"categories_segments":[],"categories_sizes":[],"default_left":[0,0,0,0,0],"id":68,"left_children":[1,-1,3,-1,-1],"loss_changes":[4.8407935E-2,0E0,7.540686E-2,0E0,0E0],"parents":[2147483647,0,0,2,2],"right_children":[2,-1,4,-1,-1],"split_conditions":[4.9681E2,-3.6903787E-2,1.2E1,-2.3878379E-2,5.9397947E-2],"split_indices":[12,0,26,0,0],"split_type":[0,0,0,0,0],"sum_hessian":[3.143158E0,1.0008094E0,2.1423485E0,1.0943854E0,1.0479633E0],"tree_param":{"num_deleted":"0","num_feature":"36","num_nodes":"5","size_leaf_vector":"1"}},{"base_weights":[-1.6485372E-3,2.9114055E-2,-3.260478E-2],"categories":[],"categories_nodes":[],"categories_segments":[],"categories_sizes":[],"default_left":[0,0,0],"id":69,"left_children":[1,-1,-1],"loss_changes":[5.404093E-2,0E0,0E0],"parents":[2147483647,0,0],"right_children":[2,-1,-1],"split_conditions":[1.09295395E2,2.9114055E-2,-3.260478E-2],"split_indices":[20,0,0],"split_type":[0,0,0],"sum_hessian":[3.1172462E0,1.6703429E0,1.4469032E0],"tree_param":{"num_deleted":"0","num_feature":"36","num_nodes":"3","size_leaf_vector":"1"}},{"base_weights":[-2.0916124E-3,2.4805497E-2,-3.450144E-2],"categories":[],"categories_nodes":[],"categories_segments":[],"categories_sizes":[],"default_left":[0,0,0],"id":70,"left_children":[1,-1,-1],"loss_changes":[4.88144E-2,0E0,0E0],"parents":[2147483647,0,0],"right_children":[2,-1,-1],"split_conditions":[8.3E1,2.4805497E-2,-3.450144E-2],"split_indices":[11,0,0],"split_type":[0,0,0],"sum_hessian":[3.1061013E0,1.9269989E0,1.1791024E0],"tree_param":{"num_deleted":"0","num_feature":"36","num_nodes":"3","size_leaf_vector":"1"}},{"base_weights":[-3.9053934E-3,2.9030126E-2,-2.824956E-2],"categories":[],"categories_nodes":[],"categories_segments":[],"categories_sizes":[],"default_left":[0,0,0],"id":71,"left_children":[1,-1,-1],"loss_changes":[4.6387378E-2,0E0,0E0],"parents":[2147483647,0,0],"right_children":[2,-1,-1],"split_conditions":[4.5378152E-1,2.9030126E-2,-2.824956E-2],"split_indices":[24,0,0],"split_type":[0,0,0],"sum_hessian":[3.1021907E0,1.4324232E0,1.6697675E0],"tree_param":{"num_deleted":"0","num_feature":"36","num_nodes":"3","size_leaf_vector":"1"}},{"base_weights":[-2.6177557E-3,-2.5963452E-2,3.203931E-2],"categories":[],"categories_nodes":[],"categories_segments":[],"categories_sizes":[],"default_left":[0,0,0],"id":72,"left_children":[1,-1,-1],"loss_changes":[4.6810932E-2,0E0,0E0],"parents":[2147483647,0,0],"right_children":[2,-1,-1],"split_conditions":[5.2380955E-1,-2.5963452E-2,3.203931E-2],"split_indices":[24,0,0],"split_type":[0,0,0],"sum_hessian":[3.0910897E0,1.867585E0,1.2235049E0],"tree_param":{"num_deleted":"0","num_feature":"36","num_nodes":"3","size_leaf_vector":"1"}},{"base_weights":[-4.092079E-4,-2.9372573E-2,2.695311E-2],"categories":[],"categories_nodes":[],"categories_segments":[],"categories_sizes":[],"default_left":[0,0,0],"id":73,"left_children":[1,-1,-1],"loss_changes":[4.4705886E-2,0E0,0E0],"parents":[2147483647,0,0],"right_children":[2,-1,-1],"split_conditions":[1.7E1,-2.9372573E-2,2.695311E-2],"split_indices":[8,0,0],"split_type":[0,0,0],"sum_hessian":[3.0808005E0,1.440172E0,1.6406287E0],"tree_param":{"num_deleted":"0","num_feature":"36","num_nodes":"3","size_leaf_vector":"1"}},{"base_weights":[-9.4986154E-4,-3.391583E-2,2.3741692E-2],"categories":[],"categories_nodes":[],"categories_segments":[],"categories_sizes":[],"default_left":[0,0,0],"id":74,"left_children":[1,-1,-1],"loss_changes":[4.5488533E-2,0E0,0E0],"parents":[2147483647,0,0],"right_children":[2,-1,-1],"split_conditions":[1.5667305E3,-3.391583E-2,2.3741692E-2],"split_indices":[0,0,0],"split_type":[0,0,0],"sum_hessian":[3.0700471E0,1.1078132E0,1.9622338E0],"tree_param":{"num_deleted":"0","num_feature":"36","num_nodes":"3","size_leaf_vector":"1"}},{"base_weights":[-3.2478583E-3,3.2456324E-2,-2.3844767E-2],"categories":[],"categories_nodes":[],"categories_segments":[],"categories_sizes":[],"default_left":[0,0,0],"id":75,"left_children":[1,-1,-1],"loss_changes":[4.3104514E-2,0E0,0E0],"parents":[2147483647,0,0],"right_children":[2,-1,-1],"split_conditions":[2.75578E3,3.2456324E-2,-2.3844767E-2],"split_indices":[19,0,0],"split_type":[0,0,0],"sum_hessian":[3.061733E0,1.0734637E0,1.9882693E0],"tree_param":{"num_deleted":"0","num_feature":"36","num_nodes":"3","size_leaf_vector":"1"}},{"base_weights":[-2.0737646E-4,-3.261322E-2,2.635787E-2],"categories":[],"categories_nodes":[],"categories_segments":[],"categories_sizes":[],"default_left":[0,0,0],"id":76,"left_children":[1,-1,-1],"loss_changes":[4.827932E-2,0E0,0E0],"parents":[2147483647,0,0],"right_children":[2,-1,-1],"split_conditions":[6E0,-3.261322E-2,2.635787E-2],"split_indices":[32,0,0],"split_type":[0,0,0],"sum_hessian":[3.052933E0,1.2627475E0,1.7901855E0],"tree_param":{"num_deleted":"0","num_feature":"36","num_nodes":"3","size_leaf_vector":"1"}},{"base_weights":[-1.7659366E-3,2.8300976E-2,-2.683978E-2],"categories":[],"categories_nodes":[],"categories_segments":[],"categories_sizes":[],"default_left":[0,0,0],"id":77,"left_children":[1,-1,-1],"loss_changes":[4.254397E-2,0E0,0E0],"parents":[2147483647,0,0],"right_children":[2,-1,-1],"split_conditions":[4.5378152E-1,2.8300976E-2,-2.683978E-2],"split_indices":[24,0,0],"split_type":[0,0,0],"sum_hessian":[3.046427E0,1.4174727E0,1.6289543E0],"tree_param":{"num_deleted":"0","num_feature":"36","num_nodes":"3","size_leaf_vector":"1"}},{"base_weights":[-9.3658385E-4,2.6268387E-2,-2.9066788E-2],"categories":[],"categories_nodes":[],"categories_segments":[],"categories_sizes":[],"default_left":[0,0,0],"id":78,"left_children":[1,-1,-1],"loss_changes":[4.2761214E-2,0E0,0E0],"parents":[2147483647,0,0],"right_children":[2,-1,-1],"split_conditions":[1.09295395E2,2.6268387E-2,-2.9066788E-2],"split_indices":[20,0,0],"split_type":[0,0,0],"sum_hessian":[3.0366268E0,1.6251724E0,1.4114546E0],"tree_param":{"num_deleted":"0","num_feature":"36","num_nodes":"3","size_leaf_vector":"1"}},{"base_weights":[-1.4166504E-3,-2.9289514E-2,2.762189E-2],"categories":[],"categories_nodes":[],"categories_segments":[],"categories_sizes":[],"default_left":[0,0,0],"id":79,"left_children":[1,-1,-1],"loss_changes":[4.521577E-2,0E0,0E0],"parents":[2147483647,0,0],"right_children":[2,-1,-1],"split_conditions":[4.9E1,-2.9289514E-2,2.762189E-2],"split_indices":[23,0,0],"split_type":[0,0,0],"sum_hessian":[3.0273588E0,1.4700983E0,1.5572604E0],"tree_param":{"num_deleted":"0","num_feature":"36","num_nodes":"3","size_leaf_vector":"1"}},{"base_weights":[-1.4770041E-3,2.4525855E-2,-3.3662234E-2],"categories":[],"categories_nodes":[],"categories_segments":[],"categories_sizes":[],"default_left":[0,0,0],"id":80,"left_children":[1,-1,-1],"loss_changes":[4.6185933E-2,0E0,0E0],"parents":[2147483647,0,0],"right_children":[2,-1,-1],"split_conditions":[8.3E1,2.4525855E-2,-3.3662234E-2],"split_indices":[11,0,0],"split_type":[0,0,0],"sum_hessian":[3.0160964E0,1.8712659E0,1.1448305E0],"tree_param":{"num_deleted":"0","num_feature":"36","num_nodes":"3","size_leaf_vector":"1"}},{"base_weights":[-3.3828495E-3,3.0168856E-2,-2.2512183E-2],"categories":[],"categories_nodes":[],"categories_segments":[],"categories_sizes":[],"default_left":[0,0,0],"id":81,"left_children":[1,-1,-1],"loss_changes":[3.7431885E-2,0E0,0E0],"parents":[2147483647,0,0],"right_children":[2,-1,-1],"split_conditions":[2.75578E3,3.0168856E-2,-2.2512183E-2],"split_indices":[19,0,0],"split_type":[0,0,0],"sum_hessian":[3.0122871E0,1.064607E0,1.9476802E0],"tree_param":{"num_deleted":"0","num_feature":"36","num_nodes":"3","size_leaf_vector":"1"}},{"base_weights":[-5.071049E-4,-2.4999777E-2,3.2110855E-2],"categories":[],"categories_nodes":[],"categories_segments":[],"categories_sizes":[],"default_left":[0,0,0],"id":82,"left_children":[1,-1,-1],"loss_changes":[4.4587336E-2,0E0,0E0],"parents":[2147483647,0,0],"right_children":[2,-1,-1],"split_conditions":[1.1E1,-2.4999777E-2,3.2110855E-2],"split_indices":[28,0,0],"split_type":[0,0,0],"sum_hessian":[3.0043154E0,1.8243783E0,1.1799371E0],"tree_param":{"num_deleted":"0","num_feature":"36","num_nodes":"3","size_leaf_vector":"1"}},{"base_weights":[1.3710539E-3,2.4808513E-2,-2.6487827E-2],"categories":[],"categories_nodes":[],"categories_segments":[],"categories_sizes":[],"default_left":[0,0,0],"id":83,"left_children":[1,-1,-1],"loss_changes":[3.6422487E-2,0E0,0E0],"parents":[2147483647,0,0],"right_children":[2,-1,-1],"split_conditions":[1.09295395E2,2.4808513E-2,-2.6487827E-2],"split_indices":[20,0,0],"split_type":[0,0,0],"sum_hessian":[2.9936695E0,1.610598E0,1.3830717E0],"tree_param":{"num_deleted":"0","num_feature":"36","num_nodes":"3","size_leaf_vector":"1"}},{"base_weights":[4.8724972E-4,-2.4304241E-2,3.183762E-2],"categories":[],"categories_nodes":[],"categories_segments":[],"categories_sizes":[],"default_left":[0,0,0],"id":84,"left_children":[1,-1,-1],"loss_changes":[4.291604E-2,0E0,0E0],"parents":[2147483647,0,0],"right_children":[2,-1,-1],"split_conditions":[1.2E1,-2.4304241E-2,3.183762E-2],"split_indices":[26,0,0],"split_type":[0,0,0],"sum_hessian":[2.9860344E0,1.8171637E0,1.1688707E0],"tree_param":{"num_deleted":"0","num_feature":"36","num_nodes":"3","size_leaf_vector":"1"}},{"base_weights":[2.1861005E-3,2.29319E-2,-2.9594881E-2],"categories":[],"categories_nodes":[],"categories_segments":[],"categories_sizes":[],"default_left":[0,0,0],"id":85,"left_children":[1,-1,-1],"loss_changes":[3.7309863E-2,0E0,0E0],"parents":[2147483647,0,0],"right_children":[2,-1,-1],"split_conditions":[8.3E1,2.29319E-2,-2.9594881E-2],"split_indices":[11,0,0],"split_type":[0,0,0],"sum_hessian":[2.9758906E0,1.8531808E0,1.1227099E0],"tree_param":{"num_deleted":"0","num_feature":"36","num_nodes":"3","size_leaf_vector":"1"}},{"base_weights":[-2.0061273E-4,-2.839827E-2,2.5895547E-2],"categories":[],"categories_nodes":[],"categories_segments":[],"categories_sizes":[],"default_left":[0,0,0],"id":86,"left_children":[1,-1,-1],"loss_changes":[4.064444E-2,0E0,0E0],"parents":[2147483647,0,0],"right_children":[2,-1,-1],"split_conditions":[1.7E1,-2.839827E-2,2.5895547E-2],"split_indices":[8,0,0],"split_type":[0,0,0],"sum_hessian":[2.973446E0,1.3764997E0,1.5969461E0],"tree_param":{"num_deleted":"0","num_feature":"36","num_nodes":"3","size_leaf_vector":"1"}},{"base_weights":[-8.3253934E-4,-3.1560346E-2,2.208598E-2],"categories":[],"categories_nodes":[],"categories_segments":[],"categories_sizes":[],"default_left":[0,0,0],"id":87,"left_children":[1,-1,-1],"loss_changes":[3.854571E-2,0E0,0E0],"parents":[2147483647,0,0],"right_children":[2,-1,-1],"split_conditions":[1.5667305E3,-3.1560346E-2,2.208598E-2],"split_indices":[0,0,0],"split_type":[0,0,0],"sum_hessian":[2.9638124E0,1.0620363E0,1.901776E0],"tree_param":{"num_deleted":"0","num_feature":"36","num_nodes":"3","size_leaf_vector":"1"}},{"base_weights":[-3.041546E-3,2.372688E-2,-2.8386528E-2],"categories":[],"categories_nodes":[],"categories_segments":[],"categories_sizes":[],"default_left":[0,0,0],"id":88,"left_children":[1,-1,-1],"loss_changes":[3.7243653E-2,0E0,0E0],"parents":[2147483647,0,0],"right_children":[2,-1,-1],"split_conditions":[8E1,2.372688E-2,-2.8386528E-2],"split_indices":[11,0,0],"split_type":[0,0,0],"sum_hessian":[2.956619E0,1.6306268E0,1.3259921E0],"tree_param":{"num_deleted":"0","num_feature":"36","num_nodes":"3","size_leaf_vector":"1"}},{"base_weights":[-3.3645066E-3,-2.8582733E-2,2.4504146E-2],"categories":[],"categories_nodes":[],"categories_segments":[],"categories_sizes":[],"default_left":[0,0,0],"id":89,"left_children":[1,-1,-1],"loss_changes":[3.8681544E-2,0E0,0E0],"parents":[2147483647,0,0],"right_children":[2,-1,-1],"split_conditions":[1.7E1,-2.8582733E-2,2.4504146E-2],"split_indices":[8,0,0],"split_type":[0,0,0],"sum_hessian":[2.9530485E0,1.3614167E0,1.5916319E0],"tree_param":{"num_deleted":"0","num_feature":"36","num_nodes":"3","size_leaf_vector":"1"}},{"base_weights":[-3.454692E-3,2.2707216E-2,-2.7401527E-2],"categories":[],"categories_nodes":[],"categories_segments":[],"categories_sizes":[],"default_left":[0,0,0],"id":90,"left_children":[1,-1,-1],"loss_changes":[3.434227E-2,0E0,0E0],"parents":[2147483647,0,0],"right_children":[2,-1,-1],"split_conditions":[8E1,2.2707216E-2,-2.7401527E-2],"split_indices":[11,0,0],"split_type":[0,0,0],"sum_hessian":[2.9434168E0,1.6217018E0,1.321715E0],"tree_param":{"num_deleted":"0","num_feature":"36","num_nodes":"3","size_leaf_vector":"1"}},{"base_weights":[-3.6620644E-3,-2.740342E-2,2.423594E-2],"categories":[],"categories_nodes":[],"categories_segments":[],"categories_sizes":[],"default_left":[0,0,0],"id":91,"left_children":[1,-1,-1],"loss_changes":[3.6554046E-2,0E0,0E0],"parents":[2147483647,0,0],"right_children":[2,-1,-1],"split_conditions":[4.9E1,-2.740342E-2,2.423594E-2],"split_indices":[23,0,0],"split_type":[0,0,0],"sum_hessian":[2.9400303E0,1.4023317E0,1.5376987E0],"tree_param":{"num_deleted":"0","num_feature":"36","num_nodes":"3","size_leaf_vector":"1"}},{"base_weights":[-3.430683E-3,2.560132E-2,-2.943495E-2],"categories":[],"categories_nodes":[],"categories_segments":[],"categories_sizes":[],"default_left":[0,0,0],"id":92,"left_children":[1,-1,-1],"loss_changes":[4.1409176E-2,0E0,0E0],"parents":[2147483647,0,0],"right_children":[2,-1,-1],"split_conditions":[1.09295395E2,2.560132E-2,-2.943495E-2],"split_indices":[20,0,0],"split_type":[0,0,0],"sum_hessian":[2.9304829E0,1.5634595E0,1.3670235E0],"tree_param":{"num_deleted":"0","num_feature":"36","num_nodes":"3","size_leaf_vector":"1"}},{"base_weights":[-3.447546E-3,-2.9822093E-2,2.163877E-2],"categories":[],"categories_nodes":[],"categories_segments":[],"categories_sizes":[],"default_left":[0,0,0],"id":93,"left_children":[1,-1,-1],"loss_changes":[3.5607263E-2,0E0,0E0],"parents":[2147483647,0,0],"right_children":[2,-1,-1],"split_conditions":[1.5384616E-1,-2.9822093E-2,2.163877E-2],"split_indices":[18,0,0],"split_type":[0,0,0],"sum_hessian":[2.9211147E0,1.1480855E0,1.7730292E0],"tree_param":{"num_deleted":"0","num_feature":"36","num_nodes":"3","size_leaf_vector":"1"}},{"base_weights":[-4.561902E-3,2.4355225E-2,-3.1159867E-2],"categories":[],"categories_nodes":[],"categories_segments":[],"categories_sizes":[],"default_left":[0,0,0],"id":94,"left_children":[1,-1,-1],"loss_changes":[4.1774224E-2,0E0,0E0],"parents":[2147483647,0,0],"right_children":[2,-1,-1],"split_conditions":[2.6086956E-1,2.4355225E-2,-3.1159867E-2],"split_indices":[18,0,0],"split_type":[0,0,0],"sum_hessian":[2.9156964E0,1.6625829E0,1.2531135E0],"tree_param":{"num_deleted":"0","num_feature":"36","num_nodes":"3","size_leaf_vector":"1"}},{"base_weights":[-5.0047436E-3,-3.1025728E-2,1.9855203E-2],"categories":[],"categories_nodes":[],"categories_segments":[],"categories_sizes":[],"default_left":[0,0,0],"id":95,"left_children":[1,-1,-1],"loss_changes":[3.4227602E-2,0E0,0E0],"parents":[2147483647,0,0],"right_children":[2,-1,-1],"split_conditions":[1.5667305E3,-3.1025728E-2,1.9855203E-2],"split_indices":[0,0,0],"split_type":[0,0,0],"sum_hessian":[2.9084973E0,1.030771E0,1.8777263E0],"tree_param":{"num_deleted":"0","num_feature":"36","num_nodes":"3","size_leaf_vector":"1"}},{"base_weights":[-6.4295973E-3,-3.1195335E-2,2.0302176E-2],"categories":[],"categories_nodes":[],"categories_segments":[],"categories_sizes":[],"default_left":[0,0,0],"id":96,"left_children":[1,-1,-1],"loss_changes":[3.5242956E-2,0E0,0E0],"parents":[2147483647,0,0],"right_children":[2,-1,-1],"split_conditions":[2.061331E-1,-3.1195335E-2,2.0302176E-2],"split_indices":[7,0,0],"split_type":[0,0,0],"sum_hessian":[2.9016883E0,1.0785631E0,1.8231251E0],"tree_param":{"num_deleted":"0","num_feature":"36","num_nodes":"3","size_leaf_vector":"1"}},{"base_weights":[-7.357321E-3,2.226458E-2,-2.7944176E-2],"categories":[],"categories_nodes":[],"categories_segments":[],"categories_sizes":[],"default_left":[0,0,0],"id":97,"left_children":[1,-1,-1],"loss_changes":[3.418326E-2,0E0,0E0],"parents":[2147483647,0,0],"right_children":[2,-1,-1],"split_conditions":[1.09295395E2,2.226458E-2,-2.7944176E-2],"split_indices":[20,0,0],"split_type":[0,0,0],"sum_hessian":[2.8968136E0,1.5540643E0,1.3427494E0],"tree_param":{"num_deleted":"0","num_feature":"36","num_nodes":"3","size_leaf_vector":"1"}},{"base_weights":[-6.6763028E-3,-2.4791671E-2,2.8019747E-2],"categories":[],"categories_nodes":[],"categories_segments":[],"categories_sizes":[],"default_left":[0,0,0],"id":98,"left_children":[1,-1,-1],"loss_changes":[3.7275888E-2,0E0,0E0],"parents":[2147483647,0,0],"right_children":[2,-1,-1],"split_conditions":[1.1E1,-2.4791671E-2,2.8019747E-2],"split_indices":[28,0,0],"split_type":[0,0,0],"sum_hessian":[2.8881242E0,1.7409128E0,1.1472113E0],"tree_param":{"num_deleted":"0","num_feature":"36","num_nodes":"3","size_leaf_vector":"1"}},{"base_weights":[-3.9012632E-3,-2.3045696E-2,2.7523223E-2],"categories":[],"categories_nodes":[],"categories_segments":[],"categories_sizes":[],"default_left":[0,0,0],"id":99,"left_children":[1,-1,-1],"loss_changes":[3.409643E-2,0E0,0E0],"parents":[2147483647,0,0],"right_children":[2,-1,-1],"split_conditions":[5.2380955E-1,-2.3045696E-2,2.7523223E-2],"split_indices":[24,0,0],"split_type":[0,0,0],"sum_hessian":[2.878378E0,1.7449243E0,1.1334536E0],"tree_param":{"num_deleted":"0","num_feature":"36","num_nodes":"3","size_leaf_vector":"1"}}]},"name":"gbtree"},"learner_model_param":{"base_score":"1.1999069E-1","boost_from_average":"1","num_class":"0","num_feature":"36","num_target":"1"},"objective":{"name":"binary:logistic","reg_loss_param":{"scale_pos_weight":"1"}}},"version":[2,1,1]}