{"learner":{"attributes":{},"feature_names":["credit_balance_mean","credit_balance_max","credit_balance_last","credit_utilization_mean","credit_utilization_max","credit_utilization_last","interest_rate_mean","interest_rate_last","current_missed_payments_sum","current_missed_payments_max","current_missed_payments_last","timestamp_diff","amount_sum_x","amount_mean_x","amount_max_x","amount_min","amount_count_x","amount_last","payment_frequency","amount_sum_y","amount_mean_y","amount_max_y","amount_count_y","online_sum","online_mean","Misc","Retail","Business","Clothing","Agricultural","Contractor","Transportation","Utility","Professional","approved_count","declined_count"],"feature_types":["float","float","float","float","float","float","float","float","int","int","int","int","float","float","float","float","float","float","float","float","float","float","float","float","float","float","float","float","float","float","float","float","float","float","float","float"],"gradient_booster":{"model":{"gbtree_model_param":{"num_parallel_tree":"1","num_trees":"100"},"iteration_indptr":[0,1,2,3,4,5,6,7,8,9,10,11,12,13,14,15,16,17,18,19,20,21,22,23,24,25,26,27,28,29,30,31,32,33,34,35,36,37,38,39,40,41,42,43,44,45,46,47,48,49,50,51,52,53,54,55,56,57,58,59,60,61,62,63,64,65,66,67,68,69,70,71,72,73,74,75,76,77,78,79,80,81,82,83,84,85,86,87,88,89,90,91,92,93,94,95,96,97,98,99,100],"tree_info":[0,0,0,0,0,0,0,0,0,0,0,0,0,0,0,0,0,0,0,0,0,0,0,0,0,0,0,0,0,0,0,0,0,0,0,0,0,0,0,0,0,0,0,0,0,0,0,0,0,0,0,0,0,0,0,0,0,0,0,0,0,0,0,0,0,0,0,0,0,0,0,0,0,0,0,0,0,0,0,0,0,0,0,0,0,0,0,0,0,0,0,0,0,0,0,0,0,0,0,0],"trees":[{"base_weights":[-1.0479666E0,-1.0666006E0,-6.304263E-1,-1.0759842E0,-7.513585E-1,-8.06683E-1,1.5125811E-1,-3.232701E-1,-3.373185E-2,8.8017866E-2,-8.293001E-1,8.8017866E-2,-8.758236E-1,1.0417836E0,-6.094359E-1,6.7765005E-2,-9.159421E-1,-1.0172853E0,-3.8938203E-1,-4.8971042E-2,5.4269785E-1,-3.373185E-2,-2.2611262E-1,-2.1153289E-1,-1.0072887E0,-3.2117772E-1,-3.373185E-2,1.8105286E-1,-2.7231076E-1,-1.9331612E-1,1.1037557E-1,-3.1934994E-1,-3.373185E-2],"categories":[],"categories_nodes":[],"categories_segments":[],"categories_sizes":[],"default_left":[0,0,0,0,0,0,0,0,0,0,0,0,0,0,0,0,0,0,0,0,0,0,0,0,0,0,0,0,0,0,0,0,0],"id":0,"left_children":[1,3,5,7,9,11,13,-1,-1,-1,15,-1,17,19,21,-1,23,25,27,-1,-1,-1,-1,29,31,-1,-1,-1,-1,-1,-1,-1,-1],"loss_changes":[4.2851562E0,9.9176025E-1,4.2094755E0,7.7648926E-1,1.9455767E0,2.1102724E0,4.9031205E0,0E0,0E0,0E0,2.009286E0,0E0,1.1987267E0,3.3200257E0,2.0414388E-1,0E0,9.7195053E-1,7.157669E-1,4.068748E0,0E0,0E0,0E0,0E0,1.0848256E0,7.013149E-1,0E0,0E0,0E0,0E0,0E0,0E0,0E0,0E0],"parents":[2147483647,0,0,1,1,2,2,3,3,4,4,5,5,6,6,10,10,12,12,13,13,14,14,16,16,17,17,18,18,23,23,24,24],"right_children":[2,4,6,8,10,12,14,-1,-1,-1,16,-1,18,20,22,-1,24,26,28,-1,-1,-1,-1,30,32,-1,-1,-1,-1,-1,-1,-1,-1],"split_conditions":[1E0,7.9E1,5.2380955E-1,2.1E1,2.0099791E2,3.8372093E-1,3.3458E2,-3.232701E-1,-3.373185E-2,8.8017866E-2,6E0,8.8017866E-2,1.3E1,1.8028274E-1,1.9394116E3,6.7765005E-2,9.86423E2,3.0473E3,5E0,-4.8971042E-2,5.4269785E-1,-3.373185E-2,-2.2611262E-1,8.909558E2,4.0834446E3,-3.2117772E-1,-3.373185E-2,1.8105286E-1,-2.7231076E-1,-1.9331612E-1,1.1037557E-1,-3.1934994E-1,-3.373185E-2],"split_indices":[10,23,24,30,20,24,15,0,0,0,32,0,28,6,2,0,1,12,33,0,0,0,0,0,0,0,0,0,0,0,0,0,0],"split_type":[0,0,0,0,0,0,0,0,0,0,0,0,0,0,0,0,0,0,0,0,0,0,0,0,0,0,0,0,0,0,0,0,0],"sum_hessian":[6.3619507E2,6.075279E2,2.8667181E1,5.876231E2,1.990476E1,2.3366457E1,5.300724E0,5.865413E2,1.0817804E0,1.1899585E0,1.8714802E1,1.1899585E0,2.2176498E1,2.2717388E0,3.0289853E0,1.2981365E0,1.7416664E1,1.6334885E1,5.8416142E0,1.1899585E0,1.0817804E0,1.0817804E0,1.9472047E0,2.379917E0,1.5036748E1,1.5253104E1,1.0817804E0,1.9472047E0,3.8944094E0,1.2981365E0,1.0817804E0,1.39549675E1,1.0817804E0],"tree_param":{"num_deleted":"0","num_feature":"36","num_nodes":"33","size_leaf_vector":"1"}},{"base_weights":[-9.851661E-1,-1.0073367E0,-5.4238373E-1,-1.0187054E0,-6.6222715E-1,-6.7826545E-1,3.3711395E-1,-1.0205866E0,-4.7439978E-2,1.1754411E-1,-7.5079787E-1,1.1779099E-1,-7.47421E-1,-1.854338E-1,2.8879714E-1,-1.0224736E0,-1.02294676E-1,1.1243367E-1,-8.5200286E-1,-8.23544E-1,1.0962446E-1,-6.0851246E-1,-3.077985E-1,-1.7370546E-1,-3.0668497E-1,-8.9845014E-1,-1.0475209E-1,-2.6012236E-1,2.810215E-2,-2.2007985E-1,1.7674197E-1,-2.823114E-1,-3.1759292E-2,1.3255447E-1,-1.7387488E-1],"categories":[],"categories_nodes":[],"categories_segments":[],"categories_sizes":[],"default_left":[0,0,0,0,0,0,0,0,0,0,0,0,0,0,0,0,0,0,0,0,0,0,0,0,0,0,0,0,0,0,0,0,0,0,0],"id":1,"left_children":[1,3,5,7,9,11,13,15,-1,-1,17,-1,19,-1,-1,21,-1,-1,23,25,-1,27,-1,29,-1,31,33,-1,-1,-1,-1,-1,-1,-1,-1],"loss_changes":[4.350952E0,1.1847839E0,3.3304157E0,5.783081E-1,1.9719481E0,1.9829855E0,3.0696154E0,2.3587036E-1,0E0,0E0,2.2468977E0,0E0,2.145443E0,0E0,0E0,3.744507E-2,0E0,0E0,1.6509085E0,1.0197144E0,0E0,1.2226832E0,0E0,2.3035555E0,0E0,5.2830505E-1,1.0566058E0,0E0,0E0,0E0,0E0,0E0,0E0,0E0,0E0],"parents":[2147483647,0,0,1,1,2,2,3,3,4,4,5,5,6,6,7,7,10,10,12,12,15,15,18,18,19,19,21,21,23,23,25,25,26,26],"right_children":[2,4,6,8,10,12,14,16,-1,-1,18,-1,20,-1,-1,22,-1,-1,24,26,-1,28,-1,30,-1,32,34,-1,-1,-1,-1,-1,-1,-1,-1],"split_conditions":[1E0,1.4E2,7.7E1,2.1E1,2.0099791E2,3.8181818E-1,4.2E1,2.4950476E-1,-4.7439978E-2,1.1754411E-1,5.17E-1,1.1779099E-1,1.6E1,-1.854338E-1,2.8879714E-1,1E0,-1.02294676E-1,1.1243367E-1,1.2E1,2.2711676E2,1.0962446E-1,6.9521466E2,-3.077985E-1,1.1E1,-3.0668497E-1,2.429376E-1,2.6086956E-1,-2.6012236E-1,2.810215E-2,-2.2007985E-1,1.7674197E-1,-2.823114E-1,-3.1759292E-2,1.3255447E-1,-1.7387488E-1],"split_indices":[10,35,34,30,20,24,23,6,0,0,5,0,31,0,0,11,0,0,28,20,0,0,0,28,0,6,18,0,0,0,0,0,0,0,0],"split_type":[0,0,0,0,0,0,0,0,0,0,0,0,0,0,0,0,0,0,0,0,0,0,0,0,0,0,0,0,0,0,0,0,0,0,0],"sum_hessian":[4.9787E2,4.7291547E2,2.4954523E1,4.5594388E2,1.697158E1,2.1813206E1,3.1413186E0,4.5476385E2,1.1800498E0,1.0501754E0,1.5921406E1,1.0394427E0,2.0773762E1,1.247785E0,1.8935336E0,4.530015E2,1.7623357E0,1.0904564E0,1.483095E1,1.9687038E1,1.0867229E0,5.287007E0,4.477145E2,3.381428E0,1.1449522E1,1.76027E1,2.0843408E0,3.692513E0,1.5944942E0,1.9722347E0,1.4091933E0,1.6527336E1,1.0753618E0,1.0012344E0,1.0831065E0],"tree_param":{"num_deleted":"0","num_feature":"36","num_nodes":"35","size_leaf_vector":"1"}},{"base_weights":[-9.273512E-1,-9.5408815E-1,-4.569398E-1,-9.6464485E-1,-4.52398E-1,-6.510058E-1,2.0403315E-1,-9.6697074E-1,-5.3855345E-2,1.4313729E-1,-7.014663E-1,1.2271212E-1,-7.379994E-1,2.6159573E-1,-3.4849995E-1,-9.69178E-1,-5.6250688E-2,4.2902797E-2,-2.7509165E-1,-9.1988957E-1,-2.1671435E-1,-2.2321896E-1,1.1096982E-1,-9.714424E-1,-8.552333E-2,-2.9775083E-1,-1.8504497E-2,2.0167169E-1,-2.4647057E-1,-1.6101387E-1,-2.926825E-1],"categories":[],"categories_nodes":[],"categories_segments":[],"categories_sizes":[],"default_left":[0,0,0,0,0,0,0,0,0,0,0,0,0,0,0,0,0,0,0,0,0,0,0,0,0,0,0,0,0,0,0],"id":2,"left_children":[1,3,5,7,9,11,13,15,-1,-1,17,-1,19,-1,21,23,-1,-1,-1,25,27,-1,-1,29,-1,-1,-1,-1,-1,-1,-1],"loss_changes":[4.477051E0,1.5162964E0,3.0737443E0,4.841919E-1,2.529787E0,1.9582806E0,2.5053976E0,4.3579102E-1,0E0,0E0,1.5656867E0,0E0,1.408392E0,0E0,1.4059663E0,2.7713013E-1,0E0,0E0,0E0,7.02919E-1,3.6140394E0,0E0,0E0,1.2121582E-1,0E0,0E0,0E0,0E0,0E0,0E0,0E0],"parents":[2147483647,0,0,1,1,2,2,3,3,4,4,5,5,6,6,7,7,10,10,12,12,14,14,15,15,19,19,20,20,23,23],"right_children":[2,4,6,8,10,12,14,16,-1,-1,18,-1,20,-1,22,24,-1,-1,-1,26,28,-1,-1,30,-1,-1,-1,-1,-1,-1,-1],"split_conditions":[1E0,4.8E1,5.2380955E-1,9.7535896E-1,5E1,3.7931034E-1,1.9762E2,2.1E1,-5.3855345E-2,1.4313729E-1,1.2E1,1.2271212E-1,1.3E1,2.6159573E-1,8E0,2.4953881E-1,-5.6250688E-2,4.2902797E-2,-2.7509165E-1,1.8688E3,8E0,-2.2321896E-1,1.1096982E-1,1E0,-8.552333E-2,-2.9775083E-1,-1.8504497E-2,2.0167169E-1,-2.4647057E-1,-1.6101387E-1,-2.926825E-1],"split_indices":[10,27,24,3,27,24,15,30,0,0,28,0,28,0,28,7,0,0,0,17,32,0,0,11,0,0,0,0,0,0,0],"split_type":[0,0,0,0,0,0,0,0,0,0,0,0,0,0,0,0,0,0,0,0,0,0,0,0,0,0,0,0,0,0,0],"sum_hessian":[3.8962378E2,3.6769666E2,2.1927126E1,3.5921518E2,8.481481E0,1.6962038E1,4.9650874E0,3.5792325E2,1.2919387E0,1.598869E0,6.8826113E0,1.0056684E0,1.595637E1,1.9860313E0,2.9790561E0,3.5666986E2,1.2533906E0,1.467704E0,5.4149075E0,1.1262075E1,4.694295E0,1.898168E0,1.080888E0,3.550745E2,1.5953395E0,1.0239248E1,1.0228273E0,1.855647E0,2.8386478E0,4.6026297E0,3.504719E2],"tree_param":{"num_deleted":"0","num_feature":"36","num_nodes":"31","size_leaf_vector":"1"}},{"base_weights":[-8.696899E-1,-9.013478E-1,-3.861481E-1,-9.187284E-1,-4.6098453E-1,-5.722448E-1,1.4976771E-1,-9.215537E-1,-3.7745513E-2,-6.2795556E-1,1.1072093E-1,-1.1877147E-1,-8.577164E-1,6.649099E-1,-4.8791137E-1,-9.243371E-1,-7.3415115E-2,1.3044783E-1,-7.7610457E-1,-2.4340217E-1,4.8387712E-1,-1.5097913E-2,-2.8521395E-1,-1.2645398E-2,3.861681E-1,-2.0465106E-2,-1.9300582E-1,-2.9580897E-1,-8.506445E-1,-1.7982452E-1,-2.8169215E-1,-1.058316E-1,3.6069342E-1,1.0890664E-1,-2.6123267E-1,-1.8580943E-1,1.3031365E-1],"categories":[],"categories_nodes":[],"categories_segments":[],"categories_sizes":[],"default_left":[0,0,0,0,0,0,0,0,0,0,0,0,0,0,0,0,0,0,0,0,0,0,0,0,0,0,0,0,0,0,0,0,0,0,0,0,0],"id":3,"left_children":[1,3,5,7,9,11,13,15,-1,17,-1,19,21,23,25,27,-1,-1,29,-1,31,-1,-1,-1,-1,-1,-1,-1,33,35,-1,-1,-1,-1,-1,-1,-1],"loss_changes":[4.355362E0,1.7778473E0,2.1431234E0,5.0167847E-1,2.0235326E0,1.9072094E0,2.331442E0,2.9103088E-1,0E0,2.0903983E0,0E0,3.3794749E0,6.5519667E-1,1.7275608E0,1.7184931E-1,4.0270996E-1,0E0,0E0,8.149543E-1,0E0,3.10074E0,0E0,0E0,0E0,0E0,0E0,0E0,0E0,3.5342865E0,1.1896902E0,0E0,0E0,0E0,0E0,0E0,0E0,0E0],"parents":[2147483647,0,0,1,1,2,2,3,3,4,4,5,5,6,6,7,7,9,9,11,11,12,12,13,13,14,14,15,15,18,18,20,20,28,28,29,29],"right_children":[2,4,6,8,10,12,14,16,-1,18,-1,20,22,24,26,28,-1,-1,30,-1,32,-1,-1,-1,-1,-1,-1,-1,34,36,-1,-1,-1,-1,-1,-1,-1],"split_conditions":[1E0,7.9E1,5.2380955E-1,2E1,2.3507202E-1,4.5378152E-1,5E0,2.4950476E-1,-3.7745513E-2,6E0,1.1072093E-1,7E0,8.7960004E2,8E0,1.7931695E-1,1.0488895E3,-7.3415115E-2,1.3044783E-1,1.8920296E-1,-2.4340217E-1,2.6E1,-1.5097913E-2,-2.8521395E-1,-1.2645398E-2,3.861681E-1,-2.0465106E-2,-1.9300582E-1,-2.9580897E-1,2.2777555E1,1.1764706E-1,-2.8169215E-1,-1.058316E-1,3.6069342E-1,1.0890664E-1,-2.6123267E-1,-1.8580943E-1,1.3031365E-1],"split_indices":[10,23,24,30,6,24,27,6,0,32,0,29,0,28,6,2,0,0,6,0,34,0,0,0,0,0,0,0,20,18,0,0,0,0,0,0,0],"split_type":[0,0,0,0,0,0,0,0,0,0,0,0,0,0,0,0,0,0,0,0,0,0,0,0,0,0,0,0,0,0,0,0,0,0,0,0,0],"sum_hessian":[3.0625125E2,2.866218E2,1.962944E1,2.746937E2,1.192812E1,1.451969E1,5.1097503E0,2.735567E2,1.136976E0,1.0133228E1,1.7948908E0,6.1563473E0,8.363342E0,2.8028197E0,2.3069308E0,2.7207217E2,1.484546E0,1.0029898E0,9.130239E0,2.7033463E0,3.4530008E0,1.0229897E0,7.340353E0,1.7484926E0,1.054327E0,1.012371E0,1.2945598E0,1.413548E2,1.3071736E2,2.4102354E0,6.7200036E0,1.8303947E0,1.622606E0,1.854914E0,1.2886246E2,1.3999736E0,1.0102617E0],"tree_param":{"num_deleted":"0","num_feature":"36","num_nodes":"37","size_leaf_vector":"1"}},{"base_weights":[-8.0931085E-1,-8.460106E-1,-3.266564E-1,-8.6677784E-1,-3.889004E-1,-4.6707714E-1,3.1720838E-1,-9.0948313E-1,-7.1321446E-1,2.6064277E-1,-6.1655045E-1,-6.2900335E-1,1.887247E-1,-3.3211578E-2,2.2875898E-1,-9.455171E-1,-6.341744E-1,-7.9073006E-1,-2.5312158E-1,2.7417234E-1,-9.5868215E-2,-8.0778456E-1,1.340614E-1,-3.638954E-2,-7.822671E-1,2.9482168E-1,-1.9505341E-1,-3.1961203E-1,-2.8717095E-1,-7.066335E-1,1.0550352E-1,-1.7441477E-1,-8.425921E-1,3.868585E-1,-6.5093696E-1,-2.7345565E-1,-1.7251465E-2,2.6508287E-1,-2.1087037E-1,-2.809378E-1,-2.6846918E-1,-2.0947155E-1,1.0585448E-1,1.7852478E-2,-2.4649051E-1,-2.1300265E-1,1.6956075E-1,-7.7280656E-2,-2.7091014E-1,1.20197006E-1,-2.6614246E-1,1.3133198E-1,-2.0626414E-1],"categories":[],"categories_nodes":[],"categories_segments":[],"categories_sizes":[],"default_left":[0,0,0,0,0,0,0,0,0,0,0,0,0,0,0,0,0,0,0,0,0,0,0,0,0,0,0,0,0,0,0,0,0,0,0,0,0,0,0,0,0,0,0,0,0,0,0,0,0,0,0,0,0],"id":4,"left_children":[1,3,5,7,9,11,13,15,17,19,21,23,25,-1,-1,27,29,31,33,-1,-1,35,-1,37,39,-1,-1,41,-1,43,-1,45,47,-1,49,-1,-1,-1,-1,-1,51,-1,-1,-1,-1,-1,-1,-1,-1,-1,-1,-1,-1],"loss_changes":[4.042923E0,1.8081512E0,1.8533294E0,7.6361084E-1,1.8810632E0,1.8058472E0,8.413727E-1,1.0358276E0,1.6362381E0,1.7028781E0,2.1733785E0,1.1497688E0,3.2469294E0,0E0,0E0,7.4842834E-1,1.8284254E0,1.2465076E0,6.298226E0,0E0,0E0,5.632124E-1,0E0,2.8987074E0,5.6126976E-1,0E0,0E0,1.3012679E0,0E0,1.8934422E0,0E0,2.241271E0,1.1799564E0,0E0,2.277006E0,0E0,0E0,0E0,0E0,0E0,1.4167309E0,0E0,0E0,0E0,0E0,0E0,0E0,0E0,0E0,0E0,0E0,0E0,0E0],"parents":[2147483647,0,0,1,1,2,2,3,3,4,4,5,5,6,6,7,7,8,8,9,9,10,10,11,11,12,12,15,15,16,16,17,17,18,18,21,21,23,23,24,24,27,27,29,29,31,31,32,32,34,34,40,40],"right_children":[2,4,6,8,10,12,14,16,18,20,22,24,26,-1,-1,28,30,32,34,-1,-1,36,-1,38,40,-1,-1,42,-1,44,-1,46,48,-1,50,-1,-1,-1,-1,-1,52,-1,-1,-1,-1,-1,-1,-1,-1,-1,-1,-1,-1],"split_conditions":[1E0,7.9E1,7.7E1,9.6E-1,1.2E1,1.14701E3,5E0,7.6E1,1.14701E3,9.9E-1,1.7423E3,2E0,1.37717E3,-3.3211578E-2,2.2875898E-1,1E0,1E1,9.67E-1,1.6366857E3,2.7417234E-1,-9.5868215E-2,1.9881201E3,1.340614E-1,3.3242E2,1.36E2,2.9482168E-1,-1.9505341E-1,6.9521466E2,-2.8717095E-1,5.9991E2,1.0550352E-1,1.84975E3,5.598095E-1,3.868585E-1,4.4E1,-2.7345565E-1,-1.7251465E-2,2.6508287E-1,-2.1087037E-1,-2.809378E-1,1.71E2,-2.0947155E-1,1.0585448E-1,1.7852478E-2,-2.4649051E-1,-2.1300265E-1,1.6956075E-1,-7.7280656E-2,-2.7091014E-1,1.20197006E-1,-2.6614246E-1,1.3133198E-1,-2.0626414E-1],"split_indices":[10,23,34,5,28,15,29,34,15,4,15,27,15,0,0,11,30,5,0,0,0,2,0,14,35,0,0,0,0,14,0,12,3,0,11,0,0,0,0,0,22,0,0,0,0,0,0,0,0,0,0,0,0],"split_type":[0,0,0,0,0,0,0,0,0,0,0,0,0,0,0,0,0,0,0,0,0,0,0,0,0,0,0,0,0,0,0,0,0,0,0,0,0,0,0,0,0,0,0,0,0,0,0,0,0,0,0,0,0],"sum_hessian":[2.4284373E2,2.2498375E2,1.7859993E1,2.1434933E2,1.0634418E1,1.4887702E1,2.972292E0,1.6385846E2,5.0490864E1,2.7222428E0,7.9121747E0,1.1972416E1,2.9152858E0,1.8989637E0,1.0733283E0,1.4274127E2,2.1117195E1,4.2595776E1,7.895087E0,1.0099574E0,1.7122854E0,6.9099555E0,1.0022196E0,2.7143738E0,9.258042E0,1.4096278E0,1.505658E0,3.143162E0,1.3959811E2,1.9935207E1,1.1819886E0,3.6448162E0,3.8950962E1,1.1590385E0,6.736048E0,5.8818245E0,1.0281307E0,1.0035002E0,1.7108736E0,6.4882717E0,2.7697704E0,1.9863948E0,1.1567671E0,2.6648018E0,1.7270405E1,2.1371965E0,1.5076195E0,4.140332E0,3.4810627E1,1.1078082E0,5.62824E0,1.0148703E0,1.7549002E0],"tree_param":{"num_deleted":"0","num_feature":"36","num_nodes":"53","size_leaf_vector":"1"}},{"base_weights":[-7.4498993E-1,-8.753979E-1,-5.680233E-1,-2.7476987E-1,-8.8899356E-1,-6.3764197E-1,2.667087E-1,-1.9389364E-1,8.37356E-2,-9.232564E-1,-5.525522E-1,1.8876943E-1,-6.660032E-1,4.375998E-1,-2.4680099E-1,-9.322388E-1,-2.4768727E-2,2.1277997E-1,-7.641253E-1,-5.131051E-1,-9.0115166E-1,2.1968868E-1,-6.446046E-1,-9.408994E-1,-3.8750574E-2,1.3965364E-1,-2.7982688E-1,-7.7569896E-1,-2.9165277E-1,-9.6414626E-1,2.485914E-2,-2.3766427E-1,-1.3056235E-2,-2.8491434E-1,-5.0435964E-2,-2.54566E-1,1.0889303E-1,-2.0231645E-1,1.7423108E-2,-2.9957235E-1,-2.0019613E-2],"categories":[],"categories_nodes":[],"categories_segments":[],"categories_sizes":[],"default_left":[0,0,0,0,0,0,0,0,0,0,0,0,0,0,0,0,0,0,0,0,0,0,0,0,0,0,0,0,0,0,0,0,0,0,0,0,0,0,0,0,0],"id":5,"left_children":[1,3,5,7,9,11,13,-1,-1,15,17,-1,19,-1,21,23,-1,-1,25,27,29,-1,31,33,-1,-1,-1,35,37,39,-1,-1,-1,-1,-1,-1,-1,-1,-1,-1,-1],"loss_changes":[4.031708E0,6.632767E-1,5.1740837E0,9.8450494E-1,7.3748016E-1,3.2853775E0,4.8489337E0,0E0,0E0,6.5354156E-1,3.8774354E0,0E0,2.3604736E0,0E0,2.801556E0,5.434799E-1,0E0,0E0,2.752695E0,2.6755466E0,1.9155712E0,0E0,3.9005995E-1,4.8365784E-1,0E0,0E0,0E0,2.151887E0,3.8771768E0,7.957134E-1,0E0,0E0,0E0,0E0,0E0,0E0,0E0,0E0,0E0,0E0,0E0],"parents":[2147483647,0,0,1,1,2,2,3,3,4,4,5,5,6,6,9,9,10,10,12,12,14,14,15,15,18,18,19,19,20,20,22,22,23,23,27,27,28,28,29,29],"right_children":[2,4,6,8,10,12,14,-1,-1,16,18,-1,20,-1,22,24,-1,-1,26,28,30,-1,32,34,-1,-1,-1,36,38,40,-1,-1,-1,-1,-1,-1,-1,-1,-1,-1,-1],"split_conditions":[1.4854353E3,1E0,1.37E2,6.9521466E2,7.7E1,2.3844923E1,1.46E2,-1.9389364E-1,8.37356E-2,2.4917907E-1,7.9E1,1.8876943E-1,3.2433237E3,4.375998E-1,5E0,9.7535896E-1,-2.4768727E-2,2.1277997E-1,5.3028E2,4.6774194E-1,2.4458225E-1,2.1968868E-1,1.39453E3,4.713416E4,-3.8750574E-2,1.3965364E-1,-2.7982688E-1,1.8E1,4E0,5.9574467E-1,2.485914E-2,-2.3766427E-1,-1.3056235E-2,-2.8491434E-1,-5.0435964E-2,-2.54566E-1,1.0889303E-1,-2.0231645E-1,1.7423108E-2,-2.9957235E-1,-2.0019613E-2],"split_indices":[2,11,35,0,34,20,35,0,0,6,34,0,1,0,33,3,0,0,14,24,7,0,17,19,0,0,0,8,31,24,0,0,0,0,0,0,0,0,0,0,0],"split_type":[0,0,0,0,0,0,0,0,0,0,0,0,0,0,0,0,0,0,0,0,0,0,0,0,0,0,0,0,0,0,0,0,0,0,0,0,0,0,0,0,0],"sum_hessian":[1.9524677E2,1.1013833E2,8.510844E1,2.9073596E0,1.0723097E2,7.877456E1,6.3338795E0,1.640241E0,1.2671187E0,9.573703E1,1.1493937E1,1.2609861E0,7.751357E1,1.3529152E0,4.9809647E0,9.4617195E1,1.1198351E0,1.3126949E0,1.0181242E1,4.889993E1,2.861364E1,1.1961317E0,3.7848327E0,9.343791E1,1.1792902E0,1.0155355E0,9.165706E0,2.122681E1,2.7673119E1,2.6911045E1,1.7025957E0,2.7833443E0,1.0014884E0,9.2157715E1,1.280193E0,2.0189821E1,1.0369895E0,1.276983E1,1.4903289E1,2.580822E1,1.1028255E0],"tree_param":{"num_deleted":"0","num_feature":"36","num_nodes":"41","size_leaf_vector":"1"}},{"base_weights":[-6.755259E-1,-8.244052E-1,-4.9025494E-1,-6.890709E-1,-9.5672685E-1,-5.608961E-1,2.122455E-1,-7.244501E-1,1.20294094E-1,-9.7762066E-1,-5.0773E-2,-3.571618E-1,-8.218459E-1,3.4258506E-1,-1.5114069E-1,-4.742539E-1,-8.338604E-1,-3.0034885E-1,-8.512198E-2,-5.0462234E-1,8.4011143E-1,1.2486002E-1,-8.8586944E-1,4.3896496E-1,-2.276518E-1,-6.932729E-1,3.4182304E-1,-9.154749E-1,-2.3781699E-1,1.4502436E-1,-5.592741E-1,-1.7538047E-1,5.9377915E-1,-9.1777337E-1,-5.132981E-3,-8.673349E-2,3.206193E-1,-2.6003307E-1,4.595632E-2,-2.955652E-1,-5.8796026E-2,1.8422697E-1,-2.2362997E-1,-2.228459E-1,-3.7436604E-2,-1.8277422E-1,1.2989032E-1,-2.9596376E-1,-9.5776565E-2],"categories":[],"categories_nodes":[],"categories_segments":[],"categories_sizes":[],"default_left":[0,0,0,0,0,0,0,0,0,0,0,0,0,0,0,0,0,0,0,0,0,0,0,0,0,0,0,0,0,0,0,0,0,0,0,0,0,0,0,0,0,0,0,0,0,0,0,0,0],"id":6,"left_children":[1,3,5,7,9,11,13,15,-1,17,-1,19,21,-1,23,25,27,-1,-1,29,31,-1,33,35,-1,37,-1,39,41,-1,43,45,-1,47,-1,-1,-1,-1,-1,-1,-1,-1,-1,-1,-1,-1,-1,-1,-1],"loss_changes":[4.0216293E0,9.0761566E-1,3.7891808E0,2.0965176E0,5.2010345E-1,3.2936707E0,2.7006047E0,8.5593605E-1,0E0,3.7555695E-1,0E0,7.4258385E0,2.652645E0,0E0,2.5790935E0,6.525096E0,1.2653561E0,0E0,0E0,2.2107878E0,5.81211E0,0E0,7.5252724E-1,2.0564277E0,0E0,2.3225136E0,0E0,1.1348667E0,2.6297872E0,0E0,2.6598282E0,1.1654859E0,0E0,7.847271E-1,0E0,0E0,0E0,0E0,0E0,0E0,0E0,0E0,0E0,0E0,0E0,0E0,0E0,0E0,0E0],"parents":[2147483647,0,0,1,1,2,2,3,3,4,4,5,5,6,6,7,7,9,9,11,11,12,12,14,14,15,15,16,16,19,19,20,20,22,22,23,23,25,25,27,27,28,28,30,30,31,31,33,33],"right_children":[2,4,6,8,10,12,14,16,-1,18,-1,20,22,-1,24,26,28,-1,-1,30,32,-1,34,36,-1,38,-1,40,42,-1,44,46,-1,48,-1,-1,-1,-1,-1,-1,-1,-1,-1,-1,-1,-1,-1,-1,-1],"split_conditions":[1.4854353E3,4.857143E-1,1.37E2,4.8305085E-1,9.611868E-1,1.38327E3,2.13628E2,3.43E-1,1.20294094E-1,9E1,-5.0773E-2,1.14701E3,1.6214049E3,3.4258506E-1,2.0677988E-1,5E0,2.2492078E2,-3.0034885E-1,-8.512198E-2,2.3844923E1,5.208333E-1,1.2486002E-1,5.862069E-1,1.18311E3,-2.276518E-1,2.32E-1,3.4182304E-1,9.95E-1,9.8982513E2,1.4502436E-1,6E0,7E0,5.9377915E-1,9.96E-1,-5.132981E-3,-8.673349E-2,3.206193E-1,-2.6003307E-1,4.595632E-2,-2.955652E-1,-5.8796026E-2,1.8422697E-1,-2.2362997E-1,-2.228459E-1,-3.7436604E-2,-1.8277422E-1,1.2989032E-1,-2.9596376E-1,-9.5776565E-2],"split_indices":[2,24,35,24,3,14,20,4,0,34,0,15,2,0,6,29,20,0,0,20,24,0,24,14,0,5,0,5,1,0,29,30,0,5,0,0,0,0,0,0,0,0,0,0,0,0,0,0,0],"split_type":[0,0,0,0,0,0,0,0,0,0,0,0,0,0,0,0,0,0,0,0,0,0,0,0,0,0,0,0,0,0,0,0,0,0,0,0,0,0,0,0,0,0,0,0,0,0,0,0,0],"sum_hessian":[1.5945361E2,8.6496994E1,7.295662E1,4.583055E1,4.0666447E1,6.647379E1,6.48282E0,4.471467E1,1.1158829E0,3.938015E1,1.2862971E0,3.865945E1,2.7814344E1,1.2197158E0,5.2631044E0,1.5227501E1,2.9487165E1,3.7659584E1,1.720566E0,3.4935226E1,3.724227E0,1.0971744E0,2.6717169E1,2.8110726E0,2.4520316E0,1.3909913E1,1.3175879E0,2.546447E1,4.0226974E0,1.4198933E0,3.351533E1,2.4162846E0,1.3079424E0,2.5716356E1,1.0008124E0,1.5546519E0,1.2564209E0,1.1523809E1,2.3861034E0,2.2877544E1,2.586924E0,1.4236704E0,2.599027E0,2.3062902E1,1.045243E1,1.4095393E0,1.0067452E0,2.2484472E1,3.2318852E0],"tree_param":{"num_deleted":"0","num_feature":"36","num_nodes":"49","size_leaf_vector":"1"}},{"base_weights":[-6.0338706E-1,-7.689262E-1,-4.138199E-1,-6.176715E-1,-9.2893773E-1,-2.4547665E-1,-7.236704E-1,-6.590971E-1,1.4202009E-1,-9.55517E-1,-4.3438833E-2,-5.578556E-1,-3.9086938E-2,-7.967365E-1,9.637366E-2,-3.9859572E-1,-7.83446E-1,-2.957304E-1,-7.3178954E-2,1.3354735E-1,-7.000208E-1,5.4029614E-1,-1.8478371E-1,-8.731629E-1,8.398808E-2,-6.248409E-1,2.2536178E-1,-8.790717E-1,-2.055488E-1,-3.570404E-1,-2.7340916E-1,-3.4236953E-1,4.5578024E-1,-2.906087E-1,5.192523E-2,-2.2752081E-1,1.1892131E-1,-2.8974018E-1,-4.824051E-2,1.3490674E-1,-2.0968576E-1,-2.3400907E-1,4.321269E-2,-1.7815821E-1,5.5652168E-2,2.6717782E-1,-1.7353337E-1],"categories":[],"categories_nodes":[],"categories_segments":[],"categories_sizes":[],"default_left":[0,0,0,0,0,0,0,0,0,0,0,0,0,0,0,0,0,0,0,0,0,0,0,0,0,0,0,0,0,0,0,0,0,0,0,0,0,0,0,0,0,0,0,0,0,0,0],"id":7,"left_children":[1,3,5,7,9,11,13,15,-1,17,-1,19,21,23,-1,25,27,-1,-1,-1,29,-1,31,33,-1,35,-1,37,39,41,-1,43,45,-1,-1,-1,-1,-1,-1,-1,-1,-1,-1,-1,-1,-1,-1],"loss_changes":[3.8736496E0,1.1238823E0,3.183426E0,2.0766983E0,5.3069305E-1,2.7675939E0,1.948638E0,9.197235E-1,0E0,4.2405128E-1,0E0,2.7553306E0,7.605563E0,1.9732523E0,0E0,4.1957273E0,1.184741E0,0E0,0E0,0E0,7.908125E-1,0E0,2.7850637E0,2.1526375E0,0E0,2.0077062E0,0E0,1.1463566E0,1.8704182E0,1.705204E0,0E0,2.9608748E0,3.0204606E0,0E0,0E0,0E0,0E0,0E0,0E0,0E0,0E0,0E0,0E0,0E0,0E0,0E0,0E0],"parents":[2147483647,0,0,1,1,2,2,3,3,4,4,5,5,6,6,7,7,9,9,11,11,12,12,13,13,15,15,16,16,20,20,22,22,23,23,25,25,27,27,28,28,29,29,31,31,32,32],"right_children":[2,4,6,8,10,12,14,16,-1,18,-1,20,22,24,-1,26,28,-1,-1,-1,30,-1,32,34,-1,36,-1,38,40,42,-1,44,46,-1,-1,-1,-1,-1,-1,-1,-1,-1,-1,-1,-1,-1,-1],"split_conditions":[1.4854353E3,4.857143E-1,2.9980815E3,4.8387095E-1,9.611868E-1,2E1,6E-1,3.43E-1,1.4202009E-1,9E1,-4.3438833E-2,1.6247238E-1,2E0,2.3E1,9.637366E-2,5E0,2.2492078E2,-2.957304E-1,-7.3178954E-2,1.3354735E-1,2.0268916E-1,5.4029614E-1,2.494094E3,2.4458225E-1,8.398808E-2,2.3188889E-1,2.2536178E-1,9.95E-1,9.8982513E2,3E0,-2.7340916E-1,8.7E1,2.1279243E-1,-2.906087E-1,5.192523E-2,-2.2752081E-1,1.1892131E-1,-2.8974018E-1,-4.824051E-2,1.3490674E-1,-2.0968576E-1,-2.3400907E-1,4.321269E-2,-1.7815821E-1,5.5652168E-2,2.6717782E-1,-1.7353337E-1],"split_indices":[2,24,1,24,3,25,24,4,0,34,0,6,29,26,0,29,20,0,0,0,6,0,0,7,0,3,0,5,1,31,0,11,6,0,0,0,0,0,0,0,0,0,0,0,0,0,0],"split_type":[0,0,0,0,0,0,0,0,0,0,0,0,0,0,0,0,0,0,0,0,0,0,0,0,0,0,0,0,0,0,0,0,0,0,0,0,0,0,0,0,0,0,0,0,0,0,0],"sum_hessian":[1.3258022E2,6.914406E1,6.3436153E1,3.8043087E1,3.1100971E1,4.22654E1,2.1170753E1,3.7032948E1,1.0101413E0,2.9869947E1,1.2310233E0,1.6137592E1,2.6127808E1,2.000912E1,1.1616321E0,1.3324536E1,2.3708412E1,2.8282303E1,1.5876452E0,1.7387776E0,1.4398815E1,1.0834316E0,2.5044376E1,1.8859467E1,1.1496542E0,1.1515258E1,1.8092781E0,1.9895166E1,3.8132458E0,6.5151E0,7.883715E0,2.0473248E1,4.5711274E0,1.7349417E1,1.5100503E0,1.0411043E1,1.1042148E0,1.7444212E1,2.450953E0,1.6760529E0,2.137193E0,3.2309766E0,3.2841237E0,1.3782154E1,6.691095E0,3.3159168E0,1.2552105E0],"tree_param":{"num_deleted":"0","num_feature":"36","num_nodes":"47","size_leaf_vector":"1"}},{"base_weights":[-5.311712E-1,-7.2077197E-1,-3.46592E-1,-7.7379143E-1,-3.194035E-1,1.8104008E-1,-4.8569393E-1,-8.317014E-1,-2.825166E-1,3.9968157E-1,-2.4794017E-1,3.9929357E-1,-2.9139616E-2,-8.0883175E-1,-1.8232605E-1,-8.6518306E-1,-3.4120557E-1,1.6239375E-1,-6.39818E-1,-1.7090228E-1,3.1167832E-1,-5.1019394E-1,6.6985255E-1,-8.788597E-1,8.6854994E-2,8.4402573E-1,-3.1158143E-1,-3.726608E-1,-9.0608263E-1,8.803371E-2,-2.0941082E-1,-2.3124766E-1,-1.8241858E-2,1.3438465E-1,-2.5744742E-1,-9.163909E-2,1.0754503E0,4.2158492E-2,-2.903768E-1,-3.294363E-2,4.26282E-1,2.8449303E-1,-4.4273126E-1,1.349691E-1,-2.2077984E-1,-9.862857E-2,-2.784302E-1,-7.10657E-2,5.344221E-1,1.6407473E-1,-1.6340819E-1],"categories":[],"categories_nodes":[],"categories_segments":[],"categories_sizes":[],"default_left":[0,0,0,0,0,0,0,0,0,0,0,0,0,0,0,0,0,0,0,0,0,0,0,0,0,0,0,0,0,0,0,0,0,0,0,0,0,0,0,0,0,0,0,0,0,0,0,0,0,0,0],"id":8,"left_children":[1,3,5,7,9,11,13,15,17,19,-1,-1,21,23,25,27,29,-1,31,-1,-1,33,35,37,-1,39,41,43,45,-1,-1,-1,-1,-1,-1,-1,47,-1,-1,-1,-1,-1,49,-1,-1,-1,-1,-1,-1,-1,-1],"loss_changes":[3.7292328E0,9.266796E-1,4.4577518E0,1.1312141E0,3.2980604E0,3.2170887E0,4.4980125E0,4.0181732E-1,2.2826443E0,3.0952275E0,0E0,0E0,4.4092793E0,1.9969997E0,3.6767604E0,4.4955826E-1,1.1929498E0,0E0,3.3592916E-1,0E0,0E0,2.9625845E0,2.4502845E0,2.0921288E0,0E0,1.8882589E0,4.3169227E0,1.7340233E0,1.4466858E-1,0E0,0E0,0E0,0E0,0E0,0E0,0E0,4.1365433E0,0E0,0E0,0E0,0E0,0E0,2.5222158E0,0E0,0E0,0E0,0E0,0E0,0E0,0E0,0E0],"parents":[2147483647,0,0,1,1,2,2,3,3,4,4,5,5,6,6,7,7,8,8,9,9,12,12,13,13,14,14,15,15,16,16,18,18,21,21,22,22,23,23,25,25,26,26,27,27,28,28,36,36,42,42],"right_children":[2,4,6,8,10,12,14,16,18,20,-1,-1,22,24,26,28,30,-1,32,-1,-1,34,36,38,-1,40,42,44,46,-1,-1,-1,-1,-1,-1,-1,48,-1,-1,-1,-1,-1,50,-1,-1,-1,-1,-1,-1,-1,-1],"split_conditions":[1.0540465E3,7.8E1,1.2016113E2,2.2331642E2,6E1,3.7931034E-1,9.63E-1,9.95E-1,2.2753676E2,9.533E1,-2.4794017E-1,3.9929357E-1,4.1E1,4.8E1,9.73E-1,1.16235344E2,7.797584E1,1.6239375E-1,7.4E1,-1.7090228E-1,3.1167832E-1,2E0,2.8125814E1,1.9570209E3,8.6854994E-2,1.83494E3,5.598095E-1,2.5E1,1E0,8.803371E-2,-2.0941082E-1,-2.3124766E-1,-1.8241858E-2,1.3438465E-1,-2.5744742E-1,-9.163909E-2,7.6E1,4.2158492E-2,-2.903768E-1,-3.294363E-2,4.26282E-1,2.8449303E-1,9E0,1.349691E-1,-2.2077984E-1,-9.862857E-2,-2.784302E-1,-7.10657E-2,5.344221E-1,1.6407473E-1,-1.6340819E-1],"split_indices":[0,34,20,20,25,24,5,5,20,15,0,0,23,27,5,2,20,0,11,0,0,29,20,1,0,12,3,22,11,0,0,0,0,0,0,0,34,0,0,0,0,0,25,0,0,0,0,0,0,0,0],"split_type":[0,0,0,0,0,0,0,0,0,0,0,0,0,0,0,0,0,0,0,0,0,0,0,0,0,0,0,0,0,0,0,0,0,0,0,0,0,0,0,0,0,0,0,0,0,0,0,0,0,0,0],"sum_hessian":[1.12699E2,5.4160297E1,5.85387E1,4.702108E1,7.1392164E0,1.2150133E1,4.6388565E1,4.1442966E1,5.578114E0,3.0399408E0,4.0992756E0,1.0535207E0,1.1096613E1,2.165557E1,2.4732996E1,3.807972E1,3.363249E0,1.5316318E0,4.046482E0,1.2512991E0,1.7886417E0,6.732992E0,4.3636208E0,2.0545475E1,1.1100926E0,2.1478775E0,2.258512E1,3.6950195E0,3.43847E1,1.2743497E0,2.0888994E0,3.0297024E0,1.0167797E0,1.7172061E0,5.015786E0,1.354182E0,3.0094388E0,1.6043789E0,1.8941097E1,1.1146438E0,1.0332336E0,1.54192E0,2.10432E1,1.0588975E0,2.636122E0,1.8484735E0,3.2536224E1,1.2850487E0,1.72439E0,1.5579448E0,1.9485254E1],"tree_param":{"num_deleted":"0","num_feature":"36","num_nodes":"51","size_leaf_vector":"1"}},{"base_weights":[-4.568271E-1,-5.9798515E-1,-1.8782282E-1,-3.1882745E-1,-7.1773386E-1,-7.598869E-1,4.2459685E-2,-2.629597E-1,-3.0592851E-2,-8.867242E-1,-5.0941724E-1,-2.7975133E-1,1.19717285E-1,1.3341272E0,-1.5487057E-1,9.017914E-1,-3.044306E-1,-5.832789E-3,-2.7791092E-1,2.4118644E-1,-6.2358904E-1,5.2817382E-2,5.8473146E-1,8.613969E-1,-4.5387214E-1,4.3444556E-1,-3.144504E-2,4.4170803E-1,-6.89085E-1,4.6437155E-2,-8.001942E-1,1.3731381E0,-8.106041E-2,-6.7738014E-1,3.8644356E-1,-1.7914784E-1,3.151835E-1,-2.635826E-1,8.672856E-2,-1.5260325E-1,2.843295E-1,9.995223E-2,-2.6881707E-1,5.960592E-1,-3.541906E-2,-2.4621238E-1,2.754211E-2,3.432901E-1,-1.13020666E-1],"categories":[],"categories_nodes":[],"categories_segments":[],"categories_sizes":[],"default_left":[0,0,0,0,0,0,0,0,0,0,0,0,0,0,0,0,0,0,0,0,0,0,0,0,0,0,0,0,0,0,0,0,0,0,0,0,0,0,0,0,0,0,0,0,0,0,0,0,0],"id":9,"left_children":[1,3,5,7,9,11,13,-1,15,17,19,-1,-1,21,23,25,27,-1,-1,-1,29,-1,-1,31,33,-1,-1,35,37,39,41,43,-1,45,47,-1,-1,-1,-1,-1,-1,-1,-1,-1,-1,-1,-1,-1,-1],"loss_changes":[3.6225529E0,1.912283E0,4.6836185E0,3.3532116E0,1.0980701E0,2.410019E0,6.864553E0,0E0,4.078435E0,7.7129936E-1,3.810381E0,0E0,0E0,2.1963267E0,7.548691E0,2.150739E0,3.8241534E0,0E0,0E0,0E0,2.5062208E0,0E0,0E0,3.6718073E0,3.8031723E0,0E0,0E0,3.6517503E0,1.8265986E0,3.1327696E0,2.0986357E0,3.9771676E0,0E0,1.757402E0,3.0906496E0,0E0,0E0,0E0,0E0,0E0,0E0,0E0,0E0,0E0,0E0,0E0,0E0,0E0,0E0],"parents":[2147483647,0,0,1,1,2,2,3,3,4,4,5,5,6,6,8,8,9,9,10,10,13,13,14,14,15,15,16,16,20,20,23,23,24,24,27,27,28,28,29,29,30,30,31,31,33,33,34,34],"right_children":[2,4,6,8,10,12,14,-1,16,18,20,-1,-1,22,24,26,28,-1,-1,-1,30,-1,-1,32,34,-1,-1,36,38,40,42,44,-1,46,48,-1,-1,-1,-1,-1,-1,-1,-1,-1,-1,-1,-1,-1,-1],"split_conditions":[8E0,1.8275447E-1,1.8808244E-1,1.6063893E-1,4.3E1,2.3126784E2,1.9412594E-1,-2.629597E-1,1.6412695E-1,3.1E-2,4.5E1,-2.7975133E-1,1.19717285E-1,8.2E1,6.9E1,1.12676054E-1,4.351852E-1,-5.832789E-3,-2.7791092E-1,2.4118644E-1,3.43E-1,5.2817382E-2,5.8473146E-1,9.96E-1,5.217391E-1,4.3444556E-1,-3.144504E-2,1.7060348E-1,1.8085653E-1,2.93E-1,3.7931034E-1,5.429E2,-8.106041E-2,2.1E1,2.1441492E-1,-1.7914784E-1,3.151835E-1,-2.635826E-1,8.672856E-2,-1.5260325E-1,2.843295E-1,9.995223E-2,-2.6881707E-1,5.960592E-1,-3.541906E-2,-2.4621238E-1,2.754211E-2,3.432901E-1,-1.13020666E-1],"split_indices":[28,6,6,6,11,20,6,0,6,5,11,0,0,11,11,18,24,0,0,0,4,0,0,4,24,0,0,6,7,4,24,15,0,29,7,0,0,0,0,0,0,0,0,0,0,0,0,0,0],"split_type":[0,0,0,0,0,0,0,0,0,0,0,0,0,0,0,0,0,0,0,0,0,0,0,0,0,0,0,0,0,0,0,0,0,0,0,0,0,0,0,0,0,0,0,0,0,0,0,0,0],"sum_hessian":[9.735819E1,6.3050144E1,3.4308052E1,2.002663E1,4.3023514E1,9.186728E0,2.5121325E1,6.128182E0,1.3898449E1,2.1955881E1,2.1067633E1,8.165859E0,1.0208688E0,2.565753E0,2.255557E1,2.6346445E0,1.1263804E1,1.0249335E0,2.0930946E1,1.2017477E0,1.9865885E1,1.3360708E0,1.2296821E0,4.699993E0,1.7855577E1,1.42341E0,1.2112345E0,3.7810793E0,7.482725E0,4.297721E0,1.5568164E1,3.0894191E0,1.6105742E0,1.4257304E1,3.5982738E0,1.4043558E0,2.3767235E0,6.3535166E0,1.1292087E0,2.9292648E0,1.368456E0,1.0210401E0,1.4547123E1,1.9531715E0,1.1362475E0,1.1961464E1,2.2958398E0,1.5548657E0,2.0434082E0],"tree_param":{"num_deleted":"0","num_feature":"36","num_nodes":"49","size_leaf_vector":"1"}},{"base_weights":[-3.8793314E-1,-6.143481E-1,-1.8676484E-1,-4.3292987E-1,-8.197538E-1,5.4858007E-2,-5.712405E-1,-7.9309523E-1,-2.0031211E-1,-8.655761E-1,-2.8040899E-2,-1.0412056E-1,7.324801E-1,1.1473895E-1,-7.013622E-1,-7.479521E-2,-2.6300856E-1,6.1447936E-1,-3.6988863E-1,-2.8385055E-1,-2.6658008E-1,4.9165487E-1,-3.1127858E-1,1.3533005E0,-2.2440101E-1,-7.9844683E-1,1.028545E-1,-1.4339959E-2,2.9723194E-1,3.489617E-1,-5.774893E-1,7.129969E-2,-1.7491052E-1,-9.45938E-2,4.5390993E-1,-6.4502436E-1,3.170271E-2,8.360937E-2,5.4483795E-1,7.124054E-2,-1.6835824E-1,-8.777225E-1,2.3989659E-2,-1.8795015E-1,4.304074E-1,-2.3834157E-1,6.5565616E-2,2.6852125E-1,-2.2635846E-1,-2.3815112E-1,-3.9668046E-2,2.3776062E-1,-1.2264953E-1,-2.8244027E-1,-1.4253877E-2],"categories":[],"categories_nodes":[],"categories_segments":[],"categories_sizes":[],"default_left":[0,0,0,0,0,0,0,0,0,0,0,0,0,0,0,0,0,0,0,0,0,0,0,0,0,0,0,0,0,0,0,0,0,0,0,0,0,0,0,0,0,0,0,0,0,0,0,0,0,0,0,0,0,0,0],"id":10,"left_children":[1,3,5,7,9,11,13,15,17,19,-1,21,23,-1,25,-1,-1,27,29,-1,31,33,35,37,39,41,-1,-1,-1,43,45,-1,-1,47,-1,49,51,-1,-1,-1,-1,53,-1,-1,-1,-1,-1,-1,-1,-1,-1,-1,-1,-1,-1],"loss_changes":[3.82516E0,1.1453619E0,4.4199286E0,1.8097677E0,5.1023006E-1,3.2997038E0,2.5415592E0,1.8523645E-1,2.3847458E0,5.4851246E-1,0E0,3.25231E0,3.7554417E0,0E0,1.943656E0,0E0,0E0,8.113606E-1,2.223475E0,0E0,6.746222E-1,4.2546654E0,2.2234092E0,1.3173218E0,6.223596E-1,1.1406097E0,0E0,0E0,0E0,4.7744555E0,2.054544E0,0E0,0E0,4.1392627E0,0E0,6.429343E-1,3.82469E0,0E0,0E0,0E0,0E0,7.058344E-1,0E0,0E0,0E0,0E0,0E0,0E0,0E0,0E0,0E0,0E0,0E0,0E0,0E0],"parents":[2147483647,0,0,1,1,2,2,3,3,4,4,5,5,6,6,7,7,8,8,9,9,11,11,12,12,14,14,17,17,18,18,20,20,21,21,22,22,23,23,24,24,25,25,29,29,30,30,33,33,35,35,36,36,41,41],"right_children":[2,4,6,8,10,12,14,16,18,20,-1,22,24,-1,26,-1,-1,28,30,-1,32,34,36,38,40,42,-1,-1,-1,44,46,-1,-1,48,-1,50,52,-1,-1,-1,-1,54,-1,-1,-1,-1,-1,-1,-1,-1,-1,-1,-1,-1,-1],"split_conditions":[1.0540465E3,4.857143E-1,1.38764E3,4.0425533E-1,9E1,1.14701E3,1.2016113E2,1E0,4.2222223E-1,2.3717433E-1,-2.8040899E-2,1.2961708E3,9.9E-1,1.1473895E-1,2.94878E3,-7.479521E-2,-2.6300856E-1,1.3725491E-1,2E0,-2.8385055E-1,3.8202E2,6E0,6E0,5.208333E-1,4.6153846E-1,2.4E1,1.028545E-1,-1.4339959E-2,2.9723194E-1,3E0,1E1,7.129969E-2,-1.7491052E-1,1.8231161E-1,4.5390993E-1,1.8E1,5E0,8.360937E-2,5.4483795E-1,7.124054E-2,-1.6835824E-1,9.98E-1,2.3989659E-2,-1.8795015E-1,4.304074E-1,-2.3834157E-1,6.5565616E-2,2.6852125E-1,-2.2635846E-1,-2.3815112E-1,-3.9668046E-2,2.3776062E-1,-1.2264953E-1,-2.8244027E-1,-1.4253877E-2],"split_indices":[0,24,14,24,34,15,20,11,24,7,0,0,5,0,15,0,0,18,31,0,14,26,29,24,24,26,0,0,0,29,30,0,0,6,0,35,30,0,0,0,0,5,0,0,0,0,0,0,0,0,0,0,0,0,0],"split_type":[0,0,0,0,0,0,0,0,0,0,0,0,0,0,0,0,0,0,0,0,0,0,0,0,0,0,0,0,0,0,0,0,0,0,0,0,0,0,0,0,0,0,0,0,0,0,0,0,0,0,0,0,0,0,0],"sum_hessian":[8.550082E1,3.925989E1,4.624092E1,2.249742E1,1.676247E1,2.8922169E1,1.7318754E1,7.8828526E0,1.4614568E1,1.558726E1,1.1752096E0,2.4111626E1,4.8105426E0,1.8464278E0,1.5472326E1,1.5810614E0,6.301791E0,2.0656753E0,1.2548892E1,1.3227912E1,2.3593488E0,5.8665133E0,1.8245111E1,2.6663463E0,2.1441965E0,1.4371507E1,1.1008204E0,1.0647248E0,1.0009505E0,2.6593935E0,9.889499E0,1.0057467E0,1.3536022E0,4.303681E0,1.5628322E0,8.800725E0,9.4443865E0,1.2849885E0,1.3813578E0,1.0285635E0,1.1156329E0,1.3182579E1,1.1889274E0,1.6236293E0,1.0357642E0,7.7727876E0,2.1167107E0,1.5791781E0,2.7245028E0,6.3964415E0,2.404284E0,3.1702023E0,6.2741847E0,1.2118116E1,1.0644627E0],"tree_param":{"num_deleted":"0","num_feature":"36","num_nodes":"55","size_leaf_vector":"1"}},{"base_weights":[-3.2500407E-1,-5.972309E-1,-1.6894859E-1,-2.3030779E-1,-7.624927E-1,-3.649363E-1,1.086417E-1,-4.6692136E-1,2.83493E-1,-8.398133E-1,-4.3195896E-3,1.8146713E-1,-5.616812E-1,-6.911105E-1,3.648036E-1,-7.202542E-1,1.8957758E-1,-2.8248686E-1,-2.2706786E-1,-1.690512E-1,4.140636E-1,-8.104559E-1,-1.442566E-1,-2.4532329E-1,-1.7069394E-2,6.698147E-1,-6.257986E-1,-6.415002E-2,-2.4635176E-1,2.7620146E-1,-1.6922314E-1,1.3872994E-1,-1.9405173E-1,5.276233E-1,-2.0515288E-1,-3.9353058E-2,-8.6276746E-1,3.1548974E-1,-6.5852106E-1,1.0065817E0,-4.1392276E-1,-2.2371745E-1,-3.0479968E-2,3.3733743E-1,-1.592934E-1,-7.602944E-2,-2.792806E-1,-1.1707419E-1,4.2381072E-1,-4.4170965E-2,-2.261125E-1,-1.5840954E-1,3.69464E-1,-2.0323372E-1,5.1563866E-2],"categories":[],"categories_nodes":[],"categories_segments":[],"categories_sizes":[],"default_left":[0,0,0,0,0,0,0,0,0,0,0,0,0,0,0,0,0,0,0,0,0,0,0,0,0,0,0,0,0,0,0,0,0,0,0,0,0,0,0,0,0,0,0,0,0,0,0,0,0,0,0,0,0,0,0],"id":11,"left_children":[1,3,5,7,9,11,13,15,-1,17,-1,19,21,23,25,27,29,-1,31,33,-1,35,37,-1,-1,39,41,-1,-1,-1,-1,-1,-1,43,-1,-1,45,47,49,51,53,-1,-1,-1,-1,-1,-1,-1,-1,-1,-1,-1,-1,-1,-1],"loss_changes":[3.1995478E0,1.5170355E0,2.8020763E0,3.2501786E0,1.0760956E0,3.326129E0,4.7149105E0,1.6462402E0,0E0,8.487654E-1,0E0,3.8872495E0,2.1984024E0,4.0564942E-1,5.6020775E0,1.6980338E-1,2.3481581E0,0E0,1.38294E0,3.093473E0,0E0,3.7554646E-1,2.4638717E0,0E0,0E0,5.3796287E0,2.106036E-1,0E0,0E0,0E0,0E0,0E0,0E0,2.9993534E0,0E0,0E0,2.8705883E-1,4.9761624E0,1.23996496E-1,4.3325567E0,7.2350323E-1,0E0,0E0,0E0,0E0,0E0,0E0,0E0,0E0,0E0,0E0,0E0,0E0,0E0,0E0],"parents":[2147483647,0,0,1,1,2,2,3,3,4,4,5,5,6,6,7,7,9,9,11,11,12,12,13,13,14,14,15,15,16,16,18,18,19,19,21,21,22,22,25,25,26,26,33,33,36,36,37,37,38,38,39,39,40,40],"right_children":[2,4,6,8,10,12,14,16,-1,18,-1,20,22,24,26,28,30,-1,32,34,-1,36,38,-1,-1,40,42,-1,-1,-1,-1,-1,-1,44,-1,-1,46,48,50,52,54,-1,-1,-1,-1,-1,-1,-1,-1,-1,-1,-1,-1,-1,-1],"split_conditions":[9.943226E2,4.385965E-1,8E0,4.3243244E-1,2.1E1,2E0,1.8748266E-1,4E0,2.83493E-1,7.8E1,-4.3195896E-3,9.88E-1,5E0,7E0,6E0,1E0,9.7426447E2,-2.8248686E-1,6.713E2,1.8231161E-1,4.140636E-1,3.6842105E-1,9.91E-1,-2.4532329E-1,-1.7069394E-2,1.38436E3,1.77244E3,-6.415002E-2,-2.4635176E-1,2.7620146E-1,-1.6922314E-1,1.3872994E-1,-1.9405173E-1,1E0,-2.0515288E-1,-3.9353058E-2,1E0,8E0,1.2581333E2,5.89E-1,1.4E1,-2.2371745E-1,-3.0479968E-2,3.3733743E-1,-1.592934E-1,-7.602944E-2,-2.792806E-1,-1.1707419E-1,4.2381072E-1,-4.4170965E-2,-2.261125E-1,-1.5840954E-1,3.69464E-1,-2.0323372E-1,5.1563866E-2],"split_indices":[2,24,28,24,26,29,6,16,0,34,0,4,31,33,33,11,1,0,14,6,0,24,4,0,0,17,14,0,0,0,0,0,0,33,0,0,32,27,20,5,29,0,0,0,0,0,0,0,0,0,0,0,0,0,0],"split_type":[0,0,0,0,0,0,0,0,0,0,0,0,0,0,0,0,0,0,0,0,0,0,0,0,0,0,0,0,0,0,0,0,0,0,0,0,0,0,0,0,0,0,0,0,0,0,0,0,0,0,0,0,0,0,0],"sum_hessian":[7.6689644E1,2.6913706E1,4.977594E1,9.100927E0,1.7812777E1,2.8991995E1,2.0783945E1,8.077455E0,1.0234733E0,1.6033049E1,1.7797283E0,7.6960483E0,2.1295948E1,4.6302123E0,1.6153732E1,5.758301E0,2.3191535E0,1.3288412E1,2.7446368E0,6.619464E0,1.0765842E0,1.2753573E1,8.542374E0,3.6183484E0,1.011864E0,1.2598443E1,3.5552893E0,1.4750739E0,4.283227E0,1.0647082E0,1.2544452E0,1.0001671E0,1.7444695E0,2.8022356E0,3.8172286E0,1.1627375E0,1.1590836E1,4.714336E0,3.8280382E0,9.665976E0,2.9324672E0,2.5494308E0,1.0058584E0,1.7521627E0,1.0500729E0,1.640909E0,9.949926E0,3.2610972E0,1.4532386E0,1.000548E0,2.82749E0,1.0635725E0,8.602403E0,1.9146996E0,1.0177677E0],"tree_param":{"num_deleted":"0","num_feature":"36","num_nodes":"55","size_leaf_vector":"1"}},{"base_weights":[-2.8578174E-1,-5.1954794E-1,-1.5421002E-1,-1.3413413E-1,-7.2484595E-1,-4.3047968E-1,5.809977E-3,-6.697002E-1,4.7767538E-1,-8.0857444E-1,-1.786093E-2,-6.065737E-1,2.594202E-1,4.4132224E-1,-2.3890224E-1,-5.491634E-2,-2.3454078E-1,-1.7026885E-1,9.4353306E-1,-2.7755195E-1,-2.0421211E-1,-6.844484E-2,-2.713395E-1,-6.770417E-2,1.7337419E-1,4.795079E-1,-1.0691072E-2,3.7345853E-1,-5.5750793E-1,4.8431906E-1,-5.9918944E-2,1.3392614E-1,-1.8793985E-1,-2.0625031E-1,4.2178997E-1,-2.2866847E-1,4.2658803E-1,-2.0623328E-1,1.0534631E0,-2.5853956E-1,-2.8712573E-2,2.6619723E-1,-6.49202E-2,3.166717E-1,-1.4272176E-1,-1.5232277E-1,1.4689162E-1,4.384192E-1,4.8929714E-2,2.520686E-1,-2.3097421E-1],"categories":[],"categories_nodes":[],"categories_segments":[],"categories_sizes":[],"default_left":[0,0,0,0,0,0,0,0,0,0,0,0,0,0,0,0,0,0,0,0,0,0,0,0,0,0,0,0,0,0,0,0,0,0,0,0,0,0,0,0,0,0,0,0,0,0,0,0,0,0,0],"id":12,"left_children":[1,3,5,7,9,11,13,15,17,19,-1,21,23,25,27,-1,-1,-1,29,-1,31,33,-1,-1,-1,-1,35,37,39,-1,-1,-1,-1,-1,41,-1,43,45,47,-1,49,-1,-1,-1,-1,-1,-1,-1,-1,-1,-1],"loss_changes":[2.1300297E0,1.9170313E0,2.0980628E0,3.6209216E0,8.6444473E-1,2.2711163E0,3.409538E0,1.7266011E-1,3.1095142E0,8.308525E-1,0E0,2.208095E0,7.8526485E-1,6.033876E0,4.2074227E0,0E0,0E0,0E0,3.4149399E0,0E0,1.2752146E0,2.1495993E0,0E0,0E0,0E0,0E0,3.3702526E0,3.2186227E0,2.2093225E0,0E0,0E0,0E0,0E0,0E0,1.3921087E0,0E0,4.1906075E0,1.2864264E0,1.0937309E0,0E0,4.579383E0,0E0,0E0,0E0,0E0,0E0,0E0,0E0,0E0,0E0,0E0],"parents":[2147483647,0,0,1,1,2,2,3,3,4,4,5,5,6,6,7,7,8,8,9,9,11,11,12,12,13,13,14,14,18,18,20,20,21,21,26,26,27,27,28,28,34,34,36,36,37,37,38,38,40,40],"right_children":[2,4,6,8,10,12,14,16,18,20,-1,22,24,26,28,-1,-1,-1,30,-1,32,34,-1,-1,-1,-1,36,38,40,-1,-1,-1,-1,-1,42,-1,44,46,48,-1,50,-1,-1,-1,-1,-1,-1,-1,-1,-1,-1],"split_conditions":[9.981635E2,4.385965E-1,4.6153846E-1,4.0425533E-1,2.1E1,1E0,4.9532712E-1,1E0,9.533E1,7.8E1,-1.786093E-2,2E0,4.6294E2,1.6494574E3,1.9991E2,-5.491634E-2,-2.3454078E-1,-1.7026885E-1,5E0,-2.7755195E-1,6.1259E2,1.1036005E3,-2.713395E-1,-6.770417E-2,1.7337419E-1,4.795079E-1,7.6969E2,5.09507E3,1.14701E3,4.8431906E-1,-5.9918944E-2,1.3392614E-1,-1.8793985E-1,-2.0625031E-1,1.8231161E-1,-2.2866847E-1,1.38436E3,7E0,2.9738792E3,-2.5853956E-1,1.7221382E3,2.6619723E-1,-6.49202E-2,3.166717E-1,-1.4272176E-1,-1.5232277E-1,1.4689162E-1,4.384192E-1,4.8929714E-2,2.520686E-1,-2.3097421E-1],"split_indices":[2,24,24,24,26,10,24,11,15,34,0,30,15,2,17,0,0,0,31,0,14,0,0,0,0,0,17,19,15,0,0,0,0,0,6,0,17,8,1,0,0,0,0,0,0,0,0,0,0,0,0],"split_type":[0,0,0,0,0,0,0,0,0,0,0,0,0,0,0,0,0,0,0,0,0,0,0,0,0,0,0,0,0,0,0,0,0,0,0,0,0,0,0,0,0,0,0,0,0,0,0,0,0,0,0],"sum_hessian":[7.085835E1,2.4456753E1,4.6401596E1,9.0744E0,1.5382353E1,1.6399021E1,3.0002577E1,4.7882433E0,4.2861567E0,1.3471628E1,1.9107246E0,1.3160611E1,3.23841E0,1.0504455E1,1.9498121E1,1.3894489E0,3.3987942E0,1.2540792E0,3.0320776E0,1.0847929E1,2.6237E0,5.1275883E0,8.033023E0,1.3989973E0,1.8394127E0,2.238467E0,8.265987E0,6.613943E0,1.2884178E1,1.6511128E0,1.3809648E0,1.0100802E0,1.6136197E0,2.0882313E0,3.0393572E0,2.7671177E0,5.49887E0,3.9464133E0,2.6675296E0,7.7784185E0,5.10576E0,1.5316824E0,1.5076747E0,3.1401415E0,2.3587284E0,2.9420326E0,1.0043808E0,1.3895414E0,1.2779882E0,2.2888467E0,2.8169134E0],"tree_param":{"num_deleted":"0","num_feature":"36","num_nodes":"51","size_leaf_vector":"1"}},{"base_weights":[-2.4485397E-1,-2.5266722E-1,-1.8634798E-1,5.871061E-1,-2.3847051E-1,3.4006378E-1,-7.428172E-2,-5.210965E-1,-9.840271E-2,-6.3006014E-1,1.3186291E-1,1.9046776E-1,-2.9240713E-1,2.525332E-1,-7.60764E-1,-5.860486E-2,4.4138518E-1,-7.8199786E-1,-9.3156576E-2,-5.242713E-3,1.19638085E-1,-1.0195494E-1,-2.764586E-1,-1.4028144E-1,1.19514935E-1,-2.562468E-1,-5.421385E-2,2.1890542E-1,-7.312312E-2],"categories":[],"categories_nodes":[],"categories_segments":[],"categories_sizes":[],"default_left":[0,0,0,0,0,0,0,0,0,0,0,0,0,0,0,0,0,0,0,0,0,0,0,0,0,0,0,0,0],"id":13,"left_children":[1,-1,3,5,7,-1,-1,9,11,13,-1,15,17,19,21,23,-1,25,27,-1,-1,-1,-1,-1,-1,-1,-1,-1,-1],"loss_changes":[2.1617684E0,0E0,2.6278205E0,2.189495E0,2.2655566E0,0E0,0E0,2.2825832E0,2.3178172E0,2.2246995E0,0E0,5.4529867E0,2.3212364E0,1.2637304E-1,7.4218273E-1,2.9984503E0,0E0,1.477766E-1,2.4798708E0,0E0,0E0,0E0,0E0,0E0,0E0,0E0,0E0,0E0,0E0],"parents":[2147483647,0,0,2,2,3,3,4,4,7,7,8,8,9,9,11,11,12,12,13,13,14,14,15,15,17,17,18,18],"right_children":[2,-1,4,6,8,-1,-1,10,12,14,-1,16,18,20,22,24,-1,26,28,-1,-1,-1,-1,-1,-1,-1,-1,-1,-1],"split_conditions":[1.6063893E-1,-2.5266722E-1,1.6412695E-1,4.4E1,3E0,3.4006378E-1,-7.428172E-2,1E0,9.41203E3,1.8526667E1,1.3186291E-1,5.099E2,8E0,6.750313E2,7.060658E2,6.03E-1,4.4138518E-1,5.5E-1,9E0,-5.242713E-3,1.19638085E-1,-1.0195494E-1,-2.764586E-1,-1.4028144E-1,1.19514935E-1,-2.562468E-1,-5.421385E-2,2.1890542E-1,-7.312312E-2],"split_indices":[6,0,6,11,31,0,0,10,19,20,0,21,29,0,0,5,0,24,29,0,0,0,0,0,0,0,0,0,0],"split_type":[0,0,0,0,0,0,0,0,0,0,0,0,0,0,0,0,0,0,0,0,0,0,0,0,0,0,0,0,0],"sum_hessian":[6.534429E1,4.633978E0,6.0710316E1,3.1849155E0,5.7525402E1,1.7084675E0,1.4764479E0,1.8160728E1,3.9364674E1,1.6619709E1,1.5410197E0,1.5822851E1,2.3541822E1,2.023524E0,1.4596186E1,1.404571E1,1.7771407E0,5.9636E0,1.7578222E1,1.0203637E0,1.0031602E0,4.8947363E0,9.701449E0,7.3997617E0,6.6459484E0,4.949122E0,1.0144781E0,2.1244054E0,1.5453816E1],"tree_param":{"num_deleted":"0","num_feature":"36","num_nodes":"29","size_leaf_vector":"1"}},{"base_weights":[-1.9790055E-1,-7.013586E-1,-1.3729133E-1,-3.5786943E-3,-2.4819876E-1,6.7970514E-1,-1.8574774E-1,4.1713226E-1,-1.5195473E-1,-2.3899372E-1,-1.2578186E-1,2.84124E-1,-2.1141644E-1,-1.0754763E-1,3.5281202E-1,-7.235058E-1,-1.0942079E-1,1.1659626E-1,-1.8512061E-1,-2.7022243E-3,-2.532524E-1,1.5135661E-1,-5.977689E-2],"categories":[],"categories_nodes":[],"categories_segments":[],"categories_sizes":[],"default_left":[0,0,0,0,0,0,0,0,0,0,0,0,0,0,0,0,0,0,0,0,0,0,0],"id":14,"left_children":[1,3,5,-1,-1,7,9,-1,-1,-1,11,13,15,17,-1,19,21,-1,-1,-1,-1,-1,-1],"loss_changes":[1.8000181E0,5.489199E-1,2.3713694E0,0E0,0E0,3.5622303E0,1.8897437E0,0E0,0E0,0E0,1.838098E0,3.3334112E0,2.1392384E0,2.084201E0,0E0,5.852561E-1,2.11898E0,0E0,0E0,0E0,0E0,0E0,0E0],"parents":[2147483647,0,0,1,1,2,2,5,5,6,6,10,10,11,11,12,12,13,13,15,15,16,16],"right_children":[2,4,6,-1,-1,8,10,-1,-1,-1,12,14,16,18,-1,20,22,-1,-1,-1,-1,-1,-1],"split_conditions":[1.04E-1,4.6516E2,1.13E-1,-3.5786943E-3,-2.4819876E-1,1.2068965E-1,2.32E-1,4.1713226E-1,-1.5195473E-1,-2.3899372E-1,3.1337872E1,2.44796E3,3.8009304E-1,3.179E-1,3.5281202E-1,1.3067406E3,2E0,1.1659626E-1,-1.8512061E-1,-2.7022243E-3,-2.532524E-1,1.5135661E-1,-5.977689E-2],"split_indices":[5,19,3,0,0,18,5,0,0,0,20,19,3,3,0,2,29,0,0,0,0,0,0],"split_type":[0,0,0,0,0,0,0,0,0,0,0,0,0,0,0,0,0,0,0,0,0,0,0],"sum_hessian":[6.1145092E1,5.434117E0,5.5710976E1,1.0086316E0,4.4254856E0,2.389854E0,5.332112E1,1.386787E0,1.0030669E0,3.6680596E0,4.965306E1,8.180018E0,4.147304E1,6.2950573E0,1.8849609E0,5.87632E0,3.559672E1,3.309392E0,2.9856653E0,1.0043073E0,4.8720126E0,3.954602E0,3.164212E1],"tree_param":{"num_deleted":"0","num_feature":"36","num_nodes":"23","size_leaf_vector":"1"}},{"base_weights":[-1.5918408E-1,-2.3514E-1,-1.0726414E-1,9.128912E-2,-3.169716E-1,-2.9663122E-1,3.382969E-1,-2.6035157E-1,-1.2312126E-1,9.5858455E-2,-2.4629694E-1,5.351547E-1,-3.4848082E-1,4.1436654E-1,-4.6274278E-1,5.395778E-1,-3.6727357E-1,6.5513724E-1,-1.5608631E-1,-2.21316E-1,1.5652679E-1,-3.5036076E-2,3.5429287E-1,-6.343729E-1,1.8206406E-1,-4.407503E-2,4.2037478E-1,-2.1532957E-1,1.221507E-1,8.054193E-2,3.7882277E-1,1.6790824E-1,-1.7329793E-1,-8.263876E-3,-2.6678124E-1,-1.5457392E-1,1.9401228E-1],"categories":[],"categories_nodes":[],"categories_segments":[],"categories_sizes":[],"default_left":[0,0,0,0,0,0,0,0,0,0,0,0,0,0,0,0,0,0,0,0,0,0,0,0,0,0,0,0,0,0,0,0,0,0,0,0,0],"id":15,"left_children":[1,-1,3,5,7,9,11,-1,13,15,-1,17,19,21,23,25,27,29,-1,-1,-1,31,-1,33,35,-1,-1,-1,-1,-1,-1,-1,-1,-1,-1,-1,-1],"loss_changes":[1.8274308E0,0E0,2.3430781E0,2.9101913E0,2.8033965E0,2.5362103E0,2.6718857E0,0E0,4.084363E0,1.7855927E0,0E0,2.200149E0,1.9773209E0,3.0677886E0,1.6139374E0,2.7790353E0,1.4796864E0,2.8623247E0,0E0,0E0,0E0,2.4239295E0,0E0,1.6640687E0,1.5071806E0,0E0,0E0,0E0,0E0,0E0,0E0,0E0,0E0,0E0,0E0,0E0,0E0],"parents":[2147483647,0,0,2,2,3,3,4,4,5,5,6,6,8,8,9,9,11,11,12,12,13,13,14,14,15,15,16,16,17,17,21,21,23,23,24,24],"right_children":[2,-1,4,6,8,10,12,-1,14,16,-1,18,20,22,24,26,28,30,-1,-1,-1,32,-1,34,36,-1,-1,-1,-1,-1,-1,-1,-1,-1,-1,-1,-1],"split_conditions":[1.6063893E-1,-2.3514E-1,2.0735934E-1,1.1036005E3,4.3E1,4.7368422E-1,1.38436E3,-2.6035157E-1,6.9E1,7.060658E2,-2.4629694E-1,3.6267402E3,2.3E1,2.429376E-1,1.3E1,6.0927826E2,4.4827586E-1,2.8206406E3,-1.5608631E-1,-2.21316E-1,1.5652679E-1,5.836483E2,3.5429287E-1,6E0,9.2852E2,-4.407503E-2,4.2037478E-1,-2.1532957E-1,1.221507E-1,8.054193E-2,3.7882277E-1,1.6790824E-1,-1.7329793E-1,-8.263876E-3,-2.6678124E-1,-1.5457392E-1,1.9401228E-1],"split_indices":[6,0,7,0,11,24,17,0,11,0,0,2,26,6,32,0,24,2,0,0,0,13,0,26,17,0,0,0,0,0,0,0,0,0,0,0,0],"split_type":[0,0,0,0,0,0,0,0,0,0,0,0,0,0,0,0,0,0,0,0,0,0,0,0,0,0,0,0,0,0,0,0,0,0,0,0,0],"sum_hessian":[5.7942432E1,3.3649185E0,5.457751E1,2.8324375E1,2.6253136E1,1.0940951E1,1.7383425E1,5.928682E0,2.0324455E1,6.724648E0,4.2163033E0,1.3682305E1,3.7011194E0,7.784522E0,1.2539932E1,3.350002E0,3.3746457E0,1.2626234E1,1.0560714E0,2.6625097E0,1.0386096E0,5.509207E0,2.2753153E0,9.916587E0,2.6233456E0,2.3262076E0,1.0237944E0,2.3736024E0,1.0010432E0,8.597111E0,4.0291233E0,2.6133955E0,2.8958113E0,3.2610896E0,6.6554976E0,1.0054767E0,1.6178689E0],"tree_param":{"num_deleted":"0","num_feature":"36","num_nodes":"37","size_leaf_vector":"1"}},{"base_weights":[-1.4073484E-1,-2.2136046E-1,-9.673706E-2,3.252504E-2,-3.048638E-1,-7.3881805E-2,5.0535107E-1,-5.834495E-1,1.562375E-2,8.7604605E-2,-5.061905E-1,-2.8148137E-2,7.6274884E-1,-1.4501828E-1,-2.5994778E-1,-3.4762457E-1,4.4783425E-1,-6.720317E-2,9.6424514E-1,-7.572166E-1,1.2304797E-1,2.8993496E-1,8.023683E-2,-2.2585055E-1,2.3348798E-1,-5.682627E-1,1.2173893E-1,-1.0955537E-1,8.2960826E-1,5.1479872E-2,-1.4821276E-1,4.2917684E-1,3.7066974E-2,-2.532446E-1,-4.598815E-2,-2.2272085E-1,-2.5413949E-2,3.6873025E-1,-3.2824278E-2],"categories":[],"categories_nodes":[],"categories_segments":[],"categories_sizes":[],"default_left":[0,0,0,0,0,0,0,0,0,0,0,0,0,0,0,0,0,0,0,0,0,0,0,0,0,0,0,0,0,0,0,0,0,0,0,0,0,0,0],"id":16,"left_children":[1,-1,3,5,7,9,11,13,15,17,19,-1,21,23,-1,25,27,29,31,33,-1,-1,-1,-1,-1,35,-1,-1,37,-1,-1,-1,-1,-1,-1,-1,-1,-1,-1],"loss_changes":[1.3944142E0,0E0,1.4388363E0,1.7312531E0,1.8345741E0,2.0239174E0,1.0451282E0,1.234915E0,1.8013083E0,2.9821348E0,2.1183848E0,0E0,1.9806886E-1,3.6738396E0,0E0,1.2709231E0,1.924287E0,2.0423667E0,1.1136932E0,2.1292281E-1,0E0,0E0,0E0,0E0,0E0,3.7979674E-1,0E0,0E0,1.5825264E0,0E0,0E0,0E0,0E0,0E0,0E0,0E0,0E0,0E0,0E0],"parents":[2147483647,0,0,2,2,3,3,4,4,5,5,6,6,7,7,8,8,9,9,10,10,12,12,13,13,15,15,16,16,17,17,18,18,19,19,25,25,28,28],"right_children":[2,-1,4,6,8,10,12,14,16,18,20,-1,22,24,-1,26,28,30,32,34,-1,-1,-1,-1,-1,36,-1,-1,38,-1,-1,-1,-1,-1,-1,-1,-1,-1,-1],"split_conditions":[1.6063893E-1,-2.2136046E-1,2.1441492E-1,7E0,2.3543167E-1,9.95E-1,9.91E-1,1.940836E3,9.2852E2,9.88E-1,9E1,-2.8148137E-2,8.3E1,1.115243E3,-2.5994778E-1,9.2023075E-1,5.099E2,1.2581205E3,1.7177126E2,2.0515814E-1,1.2304797E-1,2.8993496E-1,8.023683E-2,-2.2585055E-1,2.3348798E-1,6.2E1,1.2173893E-1,-1.0955537E-1,2.1631596E2,5.1479872E-2,-1.4821276E-1,4.2917684E-1,3.7066974E-2,-2.532446E-1,-4.598815E-2,-2.2272085E-1,-2.5413949E-2,3.6873025E-1,-3.2824278E-2],"split_indices":[6,0,7,8,6,4,4,1,17,5,11,0,11,1,0,3,21,0,13,7,0,0,0,0,0,34,0,0,20,0,0,0,0,0,0,0,0,0,0],"split_type":[0,0,0,0,0,0,0,0,0,0,0,0,0,0,0,0,0,0,0,0,0,0,0,0,0,0,0,0,0,0,0,0,0,0,0,0,0,0,0],"sum_hessian":[5.479184E1,2.6778436E0,5.2113995E1,3.2668297E1,1.94457E1,2.7355776E1,5.3125196E0,9.963963E0,9.481738E0,2.0496706E1,6.85907E0,1.7873503E0,3.5251694E0,4.5022974E0,5.461665E0,5.258214E0,4.223524E0,1.8205158E1,2.2915468E0,5.5204515E0,1.3386186E0,1.8238127E0,1.7013566E0,2.8263464E0,1.6759508E0,4.2572436E0,1.0009701E0,1.3634341E0,2.86009E0,1.2057407E1,6.1477513E0,1.0226035E0,1.2689433E0,4.478076E0,1.0423756E0,2.7364504E0,1.5207933E0,1.7897526E0,1.0703374E0],"tree_param":{"num_deleted":"0","num_feature":"36","num_nodes":"39","size_leaf_vector":"1"}},{"base_weights":[-1.15113035E-1,-2.9491937E-1,1.4765906E-2,-5.84395E-1,-8.348296E-2,5.603002E-1,-1.1263682E-1,8.5165806E-2,-7.624681E-1,2.375625E-1,-4.0797648E-1,4.7114532E-2,8.9953107E-1,-4.5617214E-1,6.1915252E-2,-7.1699047E-3,-2.5965166E-1,-2.633057E-1,3.3061558E-1,2.016476E-1,-2.3918512E-1,2.3223832E-1,-1.7925806E-1,4.681744E-2,3.7296E-1,-6.4505154E-1,1.3099815E-1,5.1432306E-1,-1.099103E-1,-4.8163489E-1,1.1310526E-1,-6.4553894E-2,1.5902494E-1,-2.5571123E-1,-3.655903E-5,2.912582E-1,-1.01102125E-2,-3.0636588E-1,2.4537365E-1,6.512504E-2,-2.204652E-1,-1.7706268E-1,2.0033556E-1,1.3755071E-1,-1.6184813E-1,1.4832512E-1,-1.0347058E-1],"categories":[],"categories_nodes":[],"categories_segments":[],"categories_sizes":[],"default_left":[0,0,0,0,0,0,0,0,0,0,0,0,0,0,0,0,0,0,0,0,0,0,0,0,0,0,0,0,0,0,0,0,0,0,0,0,0,0,0,0,0,0,0,0,0,0,0],"id":17,"left_children":[1,3,5,7,9,11,13,-1,15,17,19,21,23,25,27,-1,-1,29,-1,31,-1,-1,-1,-1,-1,33,-1,35,37,39,-1,-1,-1,-1,-1,-1,41,43,45,-1,-1,-1,-1,-1,-1,-1,-1],"loss_changes":[1.2423285E0,1.3148788E0,2.2685063E0,1.6447811E0,1.5598009E0,1.0325855E0,1.6206884E0,0E0,5.8332205E-1,3.6201763E0,1.905539E0,2.1088014E0,7.4171185E-1,1.8106668E0,1.4938191E0,0E0,0E0,9.751724E-1,0E0,6.1556375E-1,0E0,0E0,0E0,0E0,0E0,1.0544746E0,0E0,1.2704952E0,1.0679792E0,9.8628473E-1,0E0,0E0,0E0,0E0,0E0,0E0,1.7469841E0,1.9598856E0,9.966861E-1,0E0,0E0,0E0,0E0,0E0,0E0,0E0,0E0],"parents":[2147483647,0,0,1,1,2,2,3,3,4,4,5,5,6,6,8,8,9,9,10,10,11,11,12,12,13,13,14,14,17,17,19,19,25,25,27,27,28,28,29,29,36,36,37,37,38,38],"right_children":[2,4,6,8,10,12,14,-1,16,18,20,22,24,26,28,-1,-1,30,-1,32,-1,-1,-1,-1,-1,34,-1,36,38,40,-1,-1,-1,-1,-1,-1,42,44,46,-1,-1,-1,-1,-1,-1,-1,-1],"split_conditions":[1.1036005E3,2E0,2E0,1.18E-1,6E0,3E1,6E0,8.5165806E-2,3.913E1,5E0,9.8982513E2,1.2581205E3,9.86E-1,4.7E1,1.6710396E3,-7.1699047E-3,-2.5965166E-1,5.44998E3,3.3061558E-1,3.6E1,-2.3918512E-1,2.3223832E-1,-1.7925806E-1,4.681744E-2,3.7296E-1,6E0,1.3099815E-1,7.0921E2,1.37E2,2.3561111E1,1.1310526E-1,-6.4553894E-2,1.5902494E-1,-2.5571123E-1,-3.655903E-5,2.912582E-1,1.1E1,5E0,1.3E1,6.512504E-2,-2.204652E-1,-1.7706268E-1,2.0033556E-1,1.3755071E-1,-1.6184813E-1,1.4832512E-1,-1.0347058E-1],"split_indices":[0,32,29,4,26,22,29,0,21,26,1,0,4,23,0,0,0,19,0,27,0,0,0,0,0,32,0,13,35,20,0,0,0,0,0,0,32,27,31,0,0,0,0,0,0,0,0],"split_type":[0,0,0,0,0,0,0,0,0,0,0,0,0,0,0,0,0,0,0,0,0,0,0,0,0,0,0,0,0,0,0,0,0,0,0,0,0,0,0,0,0,0,0,0,0,0,0],"sum_hessian":[5.2011204E1,2.1280054E1,3.073115E1,8.237813E0,1.304224E1,5.1748304E0,2.555632E1,1.3008212E0,6.9369917E0,6.690616E0,6.3516245E0,2.5126302E0,2.6622002E0,8.066764E0,1.7489555E1,1.00012E0,5.9368715E0,4.6765404E0,2.0140755E0,2.6632392E0,3.6883852E0,1.0864683E0,1.426162E0,1.3012493E0,1.360951E0,6.8872776E0,1.1794862E0,4.2654805E0,1.3224075E1,3.6722493E0,1.0042912E0,1.3256509E0,1.3375883E0,4.968465E0,1.9188128E0,1.8252659E0,2.4402144E0,8.604095E0,4.61998E0,1.0149081E0,2.6573412E0,1.384662E0,1.0555525E0,1.7840552E0,6.8200407E0,3.3633456E0,1.2566341E0],"tree_param":{"num_deleted":"0","num_feature":"36","num_nodes":"47","size_leaf_vector":"1"}},{"base_weights":[-8.955893E-2,-5.737386E-1,-3.933263E-2,-2.1922095E-1,-2.6912251E-3,3.453722E-1,-1.1329558E-1,6.323795E-1,-1.9876929E-1,-3.3614975E-1,9.4256565E-2,-3.9596103E-2,8.593971E-1,-1.7158179E-1,8.712264E-2,-5.8976936E-1,-2.3196194E-2,3.934673E-1,-1.7761907E-1,4.1155306E-1,2.649136E-1,-7.0924234E-1,7.2229534E-2,2.4073981E-1,-2.826924E-1,-1.8154503E-1,6.177292E-1,-4.4114184E-1,4.2949763E-1,-7.440505E-2,1.9811317E-1,-2.5532067E-2,-2.6233926E-1,3.554977E-2,-1.99309E-1,9.067613E-2,3.144022E-1,-2.5254947E-1,6.592555E-2,2.0687704E-1,-4.6637885E-2],"categories":[],"categories_nodes":[],"categories_segments":[],"categories_sizes":[],"default_left":[0,0,0,0,0,0,0,0,0,0,0,0,0,0,0,0,0,0,0,0,0,0,0,0,0,0,0,0,0,0,0,0,0,0,0,0,0,0,0,0,0],"id":18,"left_children":[1,3,5,-1,-1,7,9,11,13,15,17,-1,19,-1,-1,21,23,25,27,-1,29,31,-1,-1,33,-1,35,37,39,-1,-1,-1,-1,-1,-1,-1,-1,-1,-1,-1,-1],"loss_changes":[1.1837859E0,4.0030885E-1,1.3485096E0,0E0,0E0,1.3231704E0,1.8517725E0,1.0260022E0,7.8832245E-1,1.5098083E0,1.7908463E0,0E0,9.123864E-1,0E0,0E0,1.2187271E0,2.2908068E0,2.6989894E0,2.0730252E0,0E0,8.084444E-1,9.038434E-1,0E0,0E0,1.314281E0,0E0,9.0128994E-1,2.4896412E0,7.2644275E-1,0E0,0E0,0E0,0E0,0E0,0E0,0E0,0E0,0E0,0E0,0E0,0E0],"parents":[2147483647,0,0,1,1,2,2,5,5,6,6,7,7,8,8,9,9,10,10,12,12,15,15,16,16,17,17,18,18,20,20,21,21,24,24,26,26,27,27,28,28],"right_children":[2,4,6,-1,-1,8,10,12,14,16,18,-1,20,-1,-1,22,24,26,28,-1,30,32,-1,-1,34,-1,36,38,40,-1,-1,-1,-1,-1,-1,-1,-1,-1,-1,-1,-1],"split_conditions":[1.04E-1,2.0833333E-1,3.43E-1,-2.1922095E-1,-2.6912251E-3,4.75E-1,8E0,6.0927826E2,2.93E-1,1.2E1,8E0,-3.9596103E-2,7.55166E2,-1.7158179E-1,8.712264E-2,2.429376E-1,1E1,1.9151779E-1,5.2238804E-1,4.1155306E-1,1.1036005E3,1E0,7.2229534E-2,2.4073981E-1,9.93E-1,-1.8154503E-1,8E0,4.7E1,1.6E1,-7.440505E-2,1.9811317E-1,-2.5532067E-2,-2.6233926E-1,3.554977E-2,-1.99309E-1,9.067613E-2,3.144022E-1,-2.5254947E-1,6.592555E-2,2.0687704E-1,-4.6637885E-2],"split_indices":[5,18,4,0,0,24,28,0,4,35,31,0,0,0,0,6,25,7,24,0,0,29,0,0,4,0,32,27,26,0,0,0,0,0,0,0,0,0,0,0,0],"split_type":[0,0,0,0,0,0,0,0,0,0,0,0,0,0,0,0,0,0,0,0,0,0,0,0,0,0,0,0,0,0,0,0,0,0,0,0,0,0,0,0,0],"sum_hessian":[4.860626E1,3.588658E0,4.50176E1,2.578108E0,1.01055E0,6.6676264E0,3.834997E1,4.259038E0,2.4085884E0,1.8194487E1,2.0155487E1,1.071136E0,3.187902E0,1.2703309E0,1.1382575E0,9.561365E0,8.633121E0,9.382459E0,1.0773028E1,1.0098158E0,2.178086E0,8.486603E0,1.0747628E0,1.5640962E0,7.069024E0,1.4091659E0,7.973293E0,7.7029138E0,3.070115E0,1.1105319E0,1.0675541E0,2.093476E0,6.3931265E0,3.7825449E0,3.2864792E0,5.5826287E0,2.390664E0,4.6250434E0,3.0778701E0,2.0013652E0,1.0687499E0],"tree_param":{"num_deleted":"0","num_feature":"36","num_nodes":"41","size_leaf_vector":"1"}},{"base_weights":[-7.486773E-2,-1.9376867E-1,-3.8442735E-2,1.2326024E-1,-2.3061791E-1,-1.9586475E-1,3.038581E-1,-2.3444693E-1,-8.092625E-2,1.121463E-1,-2.2102942E-1,4.1857225E-1,-2.4092293E-1,3.1977162E-1,-3.9292684E-1,-3.7751257E-1,3.8883904E-1,5.254938E-1,-6.5013595E-2,-1.8327609E-1,1.0383E-1,5.920656E-1,-5.4519426E-2,2.6776776E-1,-5.8505434E-1,-1.0619579E-2,-1.5781881E-1,2.2924015E-1,-3.977091E-2,-6.9932113E-3,2.0648949E-1,-4.437661E-2,2.4682999E-1,-1.3828942E-1,1.385655E-1,2.0651628E-1,-8.4118806E-2,-2.3216553E-1,-3.6227677E-3],"categories":[],"categories_nodes":[],"categories_segments":[],"categories_sizes":[],"default_left":[0,0,0,0,0,0,0,0,0,0,0,0,0,0,0,0,0,0,0,0,0,0,0,0,0,0,0,0,0,0,0,0,0,0,0,0,0,0,0],"id":19,"left_children":[1,-1,3,5,7,9,11,-1,13,15,-1,17,19,21,23,25,27,29,-1,-1,-1,31,33,35,37,-1,-1,-1,-1,-1,-1,-1,-1,-1,-1,-1,-1,-1,-1],"loss_changes":[9.593681E-1,0E0,1.4437149E0,1.5225066E0,1.6815774E0,1.7123219E0,1.138407E0,0E0,2.3451774E0,1.10882E0,0E0,1.0702734E0,9.765327E-1,8.8057876E-1,1.4806521E0,1.3745385E-1,1.0854912E0,1.1189215E0,0E0,0E0,0E0,9.5864487E-1,1.1408142E0,8.9298075E-1,8.989022E-1,0E0,0E0,0E0,0E0,0E0,0E0,0E0,0E0,0E0,0E0,0E0,0E0,0E0,0E0],"parents":[2147483647,0,0,2,2,3,3,4,4,5,5,6,6,8,8,9,9,11,11,12,12,13,13,14,14,15,15,16,16,17,17,21,21,22,22,23,23,24,24],"right_children":[2,-1,4,6,8,10,12,-1,14,16,-1,18,20,22,24,26,28,30,-1,-1,-1,32,34,36,38,-1,-1,-1,-1,-1,-1,-1,-1,-1,-1,-1,-1,-1,-1],"split_conditions":[1.6063893E-1,-1.9376867E-1,2.0735934E-1,1.1036005E3,4.3E1,4.7368422E-1,1.38436E3,-2.3444693E-1,6.9E1,4.0425533E-1,-2.2102942E-1,8.986667E-1,4.6E1,5E0,4.39E-1,2.57E-1,3.2E1,6.49E-1,-6.5013595E-2,-1.8327609E-1,1.0383E-1,3.9935E2,1.1E1,5.8E1,1.14701E3,-1.0619579E-2,-1.5781881E-1,2.2924015E-1,-3.977091E-2,-6.9932113E-3,2.0648949E-1,-4.437661E-2,2.4682999E-1,-1.3828942E-1,1.385655E-1,2.0651628E-1,-8.4118806E-2,-2.3216553E-1,-3.6227677E-3],"split_indices":[6,0,7,0,11,24,17,0,11,24,0,3,27,30,4,4,34,5,0,0,0,13,28,25,15,0,0,0,0,0,0,0,0,0,0,0,0,0,0],"split_type":[0,0,0,0,0,0,0,0,0,0,0,0,0,0,0,0,0,0,0,0,0,0,0,0,0,0,0,0,0,0,0,0,0,0,0,0,0,0,0],"sum_hessian":[4.6317917E1,1.774063E0,4.4543854E1,2.438449E1,2.0159363E1,8.781907E0,1.5602582E1,3.405674E0,1.6753689E1,6.1006236E0,2.6812835E0,1.3080004E1,2.5225785E0,7.32342E0,9.430269E0,2.0710838E0,4.0295396E0,1.1343634E1,1.73637E0,1.5223441E0,1.0002344E0,3.902528E0,3.420892E0,2.0357985E0,7.394471E0,1.0019245E0,1.0691592E0,2.072382E0,1.9571577E0,2.7912638E0,8.55237E0,1.0127825E0,2.8897457E0,1.974323E0,1.446569E0,1.0071673E0,1.0286311E0,5.29787E0,2.096601E0],"tree_param":{"num_deleted":"0","num_feature":"36","num_nodes":"39","size_leaf_vector":"1"}},{"base_weights":[-7.6837175E-2,-3.4009477E-1,-1.2559719E-2,7.914174E-2,-4.6883652E-1,3.7031233E-1,-1.181721E-1,4.831809E-2,-7.1184313E-1,-1.0658089E-1,5.903449E-1,1.1557219E-2,-3.764489E-1,-3.826732E-2,-2.4243028E-1,9.597688E-1,-1.6494952E-1,-4.1806072E-1,1.9761972E-1,-8.169925E-2,-2.3353907E-1,6.2221985E-2,1.1539302E0,-1.5903063E-1,8.936158E-2,5.317979E-2,-2.0877244E-1,5.2791387E-1,-4.428996E-2,-3.9944637E-1,3.6632326E-1,4.303436E-1,8.335629E-2,2.3493384E-1,-9.392881E-2,7.220735E-2,-1.1625008E-1,9.809646E-2,-2.1650136E-1,2.0416029E-1,-2.6461983E-2],"categories":[],"categories_nodes":[],"categories_segments":[],"categories_sizes":[],"default_left":[0,0,0,0,0,0,0,0,0,0,0,0,0,0,0,0,0,0,0,0,0,0,0,0,0,0,0,0,0,0,0,0,0,0,0,0,0,0,0,0,0],"id":20,"left_children":[1,3,5,-1,7,9,11,-1,13,-1,15,17,19,-1,-1,21,23,25,27,29,-1,-1,31,-1,-1,-1,-1,33,35,37,39,-1,-1,-1,-1,-1,-1,-1,-1,-1,-1],"loss_changes":[7.729223E-1,8.2147014E-1,1.5784773E0,0E0,1.3021665E0,1.558432E0,1.026501E0,0E0,2.2215652E-1,0E0,2.0717983E0,1.7833991E0,1.1485387E0,0E0,0E0,4.5482922E-1,6.827912E-1,1.2400398E0,1.2639197E0,1.1455996E0,0E0,0E0,4.759264E-1,0E0,0E0,0E0,0E0,1.6705667E0,1.0600677E0,1.3092554E0,5.5050325E-1,0E0,0E0,0E0,0E0,0E0,0E0,0E0,0E0,0E0,0E0],"parents":[2147483647,0,0,1,1,2,2,4,4,5,5,6,6,8,8,10,10,11,11,12,12,15,15,16,16,17,17,18,18,19,19,22,22,27,27,28,28,29,29,30,30],"right_children":[2,4,6,-1,8,10,12,-1,14,-1,16,18,20,-1,-1,22,24,26,28,30,-1,-1,32,-1,-1,-1,-1,34,36,38,40,-1,-1,-1,-1,-1,-1,-1,-1,-1,-1],"split_conditions":[1.2E1,1.6247238E-1,1.0301E2,7.914174E-2,7.797584E1,1.7190084E-1,4.9532712E-1,4.831809E-2,4E0,-1.0658089E-1,2.0777059E-1,5.8073E2,4.3096E2,-3.826732E-2,-2.4243028E-1,2.0501467E3,6E0,9.756097E-2,5.7096E2,1.14701E3,-2.3353907E-1,6.2221985E-2,2.9774285E3,-1.5903063E-1,8.936158E-2,5.317979E-2,-2.0877244E-1,6E0,2.0677988E-1,5.214E2,1.6220608E3,4.303436E-1,8.335629E-2,2.3493384E-1,-9.392881E-2,7.220735E-2,-1.1625008E-1,9.809646E-2,-2.1650136E-1,2.0416029E-1,-2.6461983E-2],"split_indices":[34,6,17,0,20,6,24,0,34,0,6,17,21,0,0,2,29,18,15,15,0,0,1,0,0,0,0,16,6,14,0,0,0,0,0,0,0,0,0,0,0],"split_type":[0,0,0,0,0,0,0,0,0,0,0,0,0,0,0,0,0,0,0,0,0,0,0,0,0,0,0,0,0,0,0,0,0,0,0,0,0,0,0,0,0],"sum_hessian":[4.4929283E1,7.9750934E0,3.695419E1,1.2170511E0,6.7580423E0,7.44777E0,2.9506418E1,1.9752418E0,4.7828E0,1.5899869E0,5.8577833E0,2.0276854E1,9.229566E0,1.0053695E0,3.777431E0,3.751941E0,2.1058424E0,5.7509766E0,1.4525876E1,6.019445E0,3.2101207E0,1.1938956E0,2.5580454E0,1.0958657E0,1.0099766E0,1.9451736E0,3.8058028E0,5.641252E0,8.8846245E0,3.5851815E0,2.4342635E0,1.4547845E0,1.1032609E0,4.380777E0,1.2604754E0,5.0172825E0,3.8673418E0,1.0970875E0,2.488094E0,1.1453029E0,1.2889607E0],"tree_param":{"num_deleted":"0","num_feature":"36","num_nodes":"41","size_leaf_vector":"1"}},{"base_weights":[-6.656555E-2,-1.5618566E-1,1.1135038E-1,-2.2638403E-1,4.683466E-1,5.7291883E-1,-1.5014824E-1,-2.4332504E-3,-5.094314E-1,-4.2413097E-2,2.4167997E-1,8.1167525E-1,-2.7654076E-2,-3.481522E-1,3.5937402E-1,-1.3110122E-1,2.842874E-1,3.8737435E-2,-6.0443455E-1,2.946375E-1,7.436892E-2,-4.8852086E-1,7.474252E-2,-7.254867E-2,2.1212316E-1,-3.370976E-1,1.6153423E-1,-2.4346982E-1,-8.235841E-2,1.5854465E-2,-6.9441885E-1,1.5603244E-2,-2.3516695E-1,1.4249444E-1,-6.2478695E-2,1.4854278E-1,-1.272375E-1,-6.148044E-2,-2.2929527E-1],"categories":[],"categories_nodes":[],"categories_segments":[],"categories_sizes":[],"default_left":[0,0,0,0,0,0,0,0,0,0,0,0,0,0,0,0,0,0,0,0,0,0,0,0,0,0,0,0,0,0,0,0,0,0,0,0,0,0,0],"id":21,"left_children":[1,3,5,7,9,11,13,15,17,-1,-1,19,-1,21,23,25,-1,-1,27,-1,-1,29,-1,-1,-1,31,33,-1,35,-1,37,-1,-1,-1,-1,-1,-1,-1,-1],"loss_changes":[7.1827286E-1,1.4058328E0,1.9337546E0,1.7309496E0,7.969224E-1,9.8695076E-1,1.1909435E0,2.111969E0,8.100188E-1,0E0,0E0,1.7250466E-1,0E0,8.02161E-1,8.918852E-1,9.707116E-1,0E0,0E0,1.0879939E0,0E0,0E0,8.0685663E-1,0E0,0E0,0E0,1.6478866E0,9.0512645E-1,0E0,1.0283741E0,0E0,1.7045975E-2,0E0,0E0,0E0,0E0,0E0,0E0,0E0,0E0],"parents":[2147483647,0,0,1,1,2,2,3,3,4,4,5,5,6,6,7,7,8,8,11,11,13,13,14,14,15,15,18,18,21,21,25,25,26,26,28,28,30,30],"right_children":[2,4,6,8,10,12,14,16,18,-1,-1,20,-1,22,24,26,-1,-1,28,-1,-1,30,-1,-1,-1,32,34,-1,36,-1,38,-1,-1,-1,-1,-1,-1,-1,-1],"split_conditions":[2.32297E3,2.3606113E2,2.98659E3,8.3375E2,5E0,1.9972843E3,2.992022E3,7.5906E2,2.07E-1,-4.2413097E-2,2.4167997E-1,9E0,-2.7654076E-2,4.8E1,1.5625E-1,3E1,2.842874E-1,3.8737435E-2,1.14701E3,2.946375E-1,7.436892E-2,1.18311E3,7.474252E-2,-7.254867E-2,2.1212316E-1,1.9200358E-1,5E0,-2.4346982E-1,1.536725E3,1.5854465E-2,9.057198E2,1.5603244E-2,-2.3516695E-1,1.4249444E-1,-6.2478695E-2,1.4854278E-1,-1.272375E-1,-6.148044E-2,-2.2929527E-1],"split_indices":[12,20,12,12,30,1,2,12,4,0,0,28,0,25,18,25,0,0,15,0,0,14,0,0,0,6,31,0,0,0,0,0,0,0,0,0,0,0,0],"split_type":[0,0,0,0,0,0,0,0,0,0,0,0,0,0,0,0,0,0,0,0,0,0,0,0,0,0,0,0,0,0,0,0,0,0,0,0,0,0,0],"sum_hessian":[4.2956623E1,2.8648094E1,1.4308527E1,2.6326473E1,2.3216214E0,4.744014E0,9.564513E0,1.5260647E1,1.1065826E1,1.0336584E0,1.2879629E0,3.3286989E0,1.4153148E0,7.115924E0,2.4485896E0,1.419958E1,1.0610666E0,1.386618E0,9.679209E0,1.9861718E0,1.3425269E0,5.909302E0,1.2066219E0,1.0088001E0,1.4397895E0,8.244236E0,5.955344E0,6.5328355E0,3.1463728E0,1.8330303E0,4.0762715E0,4.87886E0,3.3653762E0,3.0693011E0,2.886043E0,1.002917E0,2.1434557E0,1.0006733E0,3.0755985E0],"tree_param":{"num_deleted":"0","num_feature":"36","num_nodes":"39","size_leaf_vector":"1"}},{"base_weights":[-4.88736E-2,-1.7657228E-1,-1.572104E-2,3.8061368E-1,-6.0827136E-2,-3.3225816E-2,2.3115481E-1,-5.0211006E-1,7.994775E-3,4.3326452E-2,-2.236919E-1,2.4199997E-1,-5.524492E-2,-2.0128202E-1,8.283536E-3,-1.4693199E-1,2.6142031E-2],"categories":[],"categories_nodes":[],"categories_segments":[],"categories_sizes":[],"default_left":[0,0,0,0,0,0,0,0,0,0,0,0,0,0,0,0,0],"id":22,"left_children":[1,-1,3,5,7,-1,-1,9,11,-1,-1,-1,13,-1,15,-1,-1],"loss_changes":[7.4080557E-1,0E0,7.47564E-1,9.049902E-1,1.1350968E0,0E0,0E0,9.0130496E-1,1.7215754E0,0E0,0E0,0E0,1.2455858E0,0E0,1.2101452E0,0E0,0E0],"parents":[2147483647,0,0,2,2,3,3,4,4,7,7,8,8,12,12,14,14],"right_children":[2,-1,4,6,8,-1,-1,10,12,-1,-1,-1,14,-1,16,-1,-1],"split_conditions":[1.6063893E-1,-1.7657228E-1,1.6412695E-1,1.4844571E2,2.1E1,-3.3225816E-2,2.3115481E-1,1E0,2.6E1,4.3326452E-2,-2.236919E-1,2.4199997E-1,4.580709E2,-2.0128202E-1,1.7966887E-1,-1.4693199E-1,2.6142031E-2],"split_indices":[6,0,6,20,11,0,0,11,11,0,0,0,2,0,6,0,0],"split_type":[0,0,0,0,0,0,0,0,0,0,0,0,0,0,0,0,0],"sum_hessian":[4.092038E1,1.3986022E0,3.952178E1,3.2782774E0,3.62435E1,1.7671769E0,1.5111005E0,4.040461E0,3.2203037E1,1.2168602E0,2.823601E0,1.5002509E0,3.0702787E1,1.9773886E0,2.8725399E1,3.214121E0,2.5511278E1],"tree_param":{"num_deleted":"0","num_feature":"36","num_nodes":"17","size_leaf_vector":"1"}},{"base_weights":[-4.5570362E-2,-1.727528E-2,-1.6426417E-1,-2.1198478E-1,7.2314434E-2,-3.6904538E-1,3.3516532E-1,1.28527E-1,-1.4095478E-1,-4.6144877E-2,-2.3703684E-1,8.740805E-4,1.6672847E-1,-3.535313E-1,1.8954614E-1,-3.3638787E-1,1.504817E-1,-1.7204809E-1,2.2707636E-2,6.64235E-1,9.340316E-2,2.3627196E-2,-2.0266645E-1,3.048813E-1,-1.9933885E-2,-3.4980115E-2,9.2971556E-2],"categories":[],"categories_nodes":[],"categories_segments":[],"categories_sizes":[],"default_left":[0,0,0,0,0,0,0,0,0,0,0,0,0,0,0,0,0,0,0,0,0,0,0,0,0,0,0],"id":23,"left_children":[1,3,-1,5,7,9,11,13,-1,15,-1,-1,-1,17,19,21,-1,-1,-1,23,25,-1,-1,-1,-1,-1,-1],"loss_changes":[5.764631E-1,7.1454334E-1,0E0,1.2310274E0,9.197553E-1,1.3895098E0,2.4742809E-1,8.416204E-1,0E0,1.2812585E0,0E0,0E0,0E0,3.557142E-1,1.0344646E0,7.8153855E-1,0E0,0E0,0E0,1.0663383E0,9.974339E-1,0E0,0E0,0E0,0E0,0E0,0E0],"parents":[2147483647,0,0,1,1,3,3,4,4,5,5,6,6,7,7,9,9,13,13,14,14,15,15,19,19,20,20],"right_children":[2,4,-1,6,8,10,12,14,-1,16,-1,-1,-1,18,20,22,-1,-1,-1,24,26,-1,-1,-1,-1,-1,-1],"split_conditions":[8E0,1.8E1,-1.6426417E-1,1.1E1,3.6267402E3,9E0,9.94E-1,4.1666666E-1,-1.4095478E-1,2.1E1,-2.3703684E-1,8.740805E-4,1.6672847E-1,1.9947025E3,4E0,7E0,1.504817E-1,-1.7204809E-1,2.2707636E-2,1.3162E2,7E0,2.3627196E-2,-2.0266645E-1,3.048813E-1,-1.9933885E-2,-3.4980115E-2,9.2971556E-2],"split_indices":[33,25,0,27,2,25,5,24,0,11,0,0,0,1,28,11,0,0,0,15,32,0,0,0,0,0,0],"split_type":[0,0,0,0,0,0,0,0,0,0,0,0,0,0,0,0,0,0,0,0,0,0,0,0,0,0,0],"sum_hessian":[4.025202E1,3.908341E1,1.1686121E0,1.1885633E1,2.7197775E1,9.487686E0,2.397947E0,2.5334032E1,1.8637435E0,5.9978557E0,3.4898303E0,1.3611118E0,1.0368352E0,2.307864E0,2.3026167E1,4.1726947E0,1.8251611E0,1.3036623E0,1.0042015E0,2.8830073E0,2.014316E1,2.2214277E0,1.9512672E0,1.6818514E0,1.2011559E0,1.045927E1,9.683891E0],"tree_param":{"num_deleted":"0","num_feature":"36","num_nodes":"27","size_leaf_vector":"1"}},{"base_weights":[-4.3710284E-2,2.7016204E-2,-2.5733474E-1,9.6442334E-2,-3.909055E-1,-6.101985E-1,6.348235E-2,1.1495444E-2,4.8831427E-1,-2.0788087E-1,5.0594997E-2,-2.2569467E-1,-1.7068347E-2,-1.7358054E-1,1.5122293E-1,1.1266127E-1,-5.0170946E-1,2.467379E-1,-4.1799704E-3,-4.7374403E-1,1.23340294E-1,-1.0211067E-1,3.6346984E-1,-2.0474891E-1,6.2527815E-3,-4.9794046E-3,-1.9327112E-1,-8.702711E-2,1.2128364E-1,1.924698E-1,-2.6954977E-2],"categories":[],"categories_nodes":[],"categories_segments":[],"categories_sizes":[],"default_left":[0,0,0,0,0,0,0,0,0,0,0,0,0,0,0,0,0,0,0,0,0,0,0,0,0,0,0,0,0,0,0],"id":24,"left_children":[1,3,5,7,9,11,13,15,17,-1,-1,-1,-1,19,-1,21,23,-1,-1,25,-1,27,29,-1,-1,-1,-1,-1,-1,-1,-1],"loss_changes":[6.139314E-1,9.3965703E-1,1.180675E0,9.0847945E-1,8.987293E-1,3.4234583E-1,7.339694E-1,1.2813874E0,8.284191E-1,0E0,0E0,0E0,0E0,1.0316075E0,0E0,1.1426604E0,3.9854634E-1,0E0,0E0,2.7108103E-1,0E0,1.2440377E0,1.2788401E0,0E0,0E0,0E0,0E0,0E0,0E0,0E0,0E0],"parents":[2147483647,0,0,1,1,2,2,3,3,4,4,5,5,6,6,7,7,8,8,13,13,15,15,16,16,19,19,21,21,22,22],"right_children":[2,4,6,8,10,12,14,16,18,-1,-1,-1,-1,20,-1,22,24,-1,-1,26,-1,28,30,-1,-1,-1,-1,-1,-1,-1,-1],"split_conditions":[9.96E-1,1.76592E3,9.2852E2,1.13858E3,1E1,7E0,4.9E1,5.7096E2,1.6366857E3,-2.0788087E-1,5.0594997E-2,-2.2569467E-1,-1.7068347E-2,2.82458E3,1.5122293E-1,5E0,5.4E1,2.467379E-1,-4.1799704E-3,4E1,1.23340294E-1,1.3545987E2,5E0,-2.0474891E-1,6.2527815E-3,-4.9794046E-3,-1.9327112E-1,-8.702711E-2,1.2128364E-1,1.924698E-1,-2.6954977E-2],"split_indices":[4,14,17,13,30,8,25,15,0,0,0,0,0,14,0,29,34,0,0,23,0,20,30,0,0,0,0,0,0,0,0],"split_type":[0,0,0,0,0,0,0,0,0,0,0,0,0,0,0,0,0,0,0,0,0,0,0,0,0,0,0,0,0,0,0],"sum_hessian":[3.91736E1,3.0086227E1,9.087372E0,2.6459883E1,3.6263442E0,3.8979924E0,5.1893797E0,2.259192E1,3.8679628E0,2.200314E0,1.4260302E0,2.8152204E0,1.0827719E0,3.7680178E0,1.421362E0,1.9523762E1,3.0681581E0,1.9398329E0,1.9281298E0,2.61526E0,1.1527579E0,1.0836847E1,8.686915E0,2.0521088E0,1.0160493E0,1.0085009E0,1.6067591E0,8.2146E0,2.6222477E0,5.126637E0,3.5602782E0],"tree_param":{"num_deleted":"0","num_feature":"36","num_nodes":"31","size_leaf_vector":"1"}},{"base_weights":[-4.039673E-2,3.017211E-1,-7.995455E-2,-4.47466E-2,2.3035654E-1,-1.862262E-1,-3.6177043E-2,1.8265885E-1,-9.2800945E-2,-1.9433627E-1,-3.875911E-2,-1.6568275E-1,1.7553066E-1,-7.692082E-2,1.10282235E-1,1.8653959E-1,-2.7016342E-2],"categories":[],"categories_nodes":[],"categories_segments":[],"categories_sizes":[],"default_left":[0,0,0,0,0,0,0,0,0,0,0,0,0,0,0,0,0],"id":25,"left_children":[1,3,5,-1,-1,-1,7,-1,9,-1,11,13,15,-1,-1,-1,-1],"loss_changes":[5.475182E-1,1.0009733E0,8.169677E-1,0E0,0E0,0E0,1.2933393E0,0E0,9.3459356E-1,0E0,8.510832E-1,1.0374135E0,1.4459761E0,0E0,0E0,0E0,0E0],"parents":[2147483647,0,0,1,1,2,2,6,6,8,8,10,10,11,11,12,12],"right_children":[2,4,6,-1,-1,-1,8,-1,10,-1,12,14,16,-1,-1,-1,-1],"split_conditions":[2.2777555E1,1E0,1.04E-1,-4.47466E-2,2.3035654E-1,-1.862262E-1,1.13E-1,1.8265885E-1,2.77E-1,-1.9433627E-1,2.32297E3,2.3606113E2,1.9749036E3,-7.692082E-2,1.10282235E-1,1.8653959E-1,-2.7016342E-2],"split_indices":[20,27,5,0,0,0,3,0,5,0,12,20,1,0,0,0,0],"split_type":[0,0,0,0,0,0,0,0,0,0,0,0,0,0,0,0,0],"sum_hessian":[3.767416E1,3.2177696E0,3.445639E1,1.9813193E0,1.2364503E0,1.5933547E0,3.2863037E1,1.864988E0,3.0998049E1,1.7756901E0,2.9222359E1,1.8494759E1,1.07276E1,1.6249672E1,2.2450864E0,3.5019548E0,7.2256455E0],"tree_param":{"num_deleted":"0","num_feature":"36","num_nodes":"17","size_leaf_vector":"1"}},{"base_weights":[-2.7923893E-2,3.401932E-1,-6.545259E-2,-9.621578E-3,1.9846578E-1,-1.7342183E-1,-2.7917594E-2,-3.0394834E-1,2.0837756E-2,-1.681558E-1,4.656877E-2,3.9802137E-1,-5.4192536E-2,-6.1131246E-2,6.1849815E-1,-5.700744E-1,3.9630607E-2,2.597373E-1,1.95615E-3,-2.0232265E-1,-4.065869E-2,4.768936E-2,-8.261096E-2],"categories":[],"categories_nodes":[],"categories_segments":[],"categories_sizes":[],"default_left":[0,0,0,0,0,0,0,0,0,0,0,0,0,0,0,0,0,0,0,0,0,0,0],"id":26,"left_children":[1,3,5,-1,-1,-1,7,9,11,-1,-1,13,15,-1,17,19,21,-1,-1,-1,-1,-1,-1],"loss_changes":[5.434607E-1,4.5807162E-1,6.587489E-1,0E0,0E0,0E0,4.6030912E-1,6.911434E-1,8.59393E-1,0E0,0E0,7.9365814E-1,1.26037E0,0E0,5.89177E-1,8.996165E-2,8.922907E-1,0E0,0E0,0E0,0E0,0E0,0E0],"parents":[2147483647,0,0,1,1,2,2,6,6,7,7,8,8,11,11,12,12,14,14,15,15,16,16],"right_children":[2,4,6,-1,-1,-1,8,10,12,-1,-1,14,16,-1,18,20,22,-1,-1,-1,-1,-1,-1],"split_conditions":[1.0745E2,2.2E1,1.04E-1,-9.621578E-3,1.9846578E-1,-1.7342183E-1,4.1860464E-1,2.0501467E3,4.3925235E-1,-1.681558E-1,4.656877E-2,2.4E1,4.6153846E-1,-6.1131246E-2,6.9E1,9.92E-1,9.9E-1,2.597373E-1,1.95615E-3,-2.0232265E-1,-4.065869E-2,4.768936E-2,-8.261096E-2],"split_indices":[21,11,5,0,0,0,24,2,24,0,0,25,24,0,11,5,5,0,0,0,0,0,0],"split_type":[0,0,0,0,0,0,0,0,0,0,0,0,0,0,0,0,0,0,0,0,0,0,0],"sum_hessian":[3.6726807E1,2.6516848E0,3.4075123E1,1.6456039E0,1.0060809E0,1.3422977E0,3.2732822E1,4.12797E0,2.8604855E1,2.5066478E0,1.6213223E0,4.0318074E0,2.4573046E1,1.1013744E0,2.9304333E0,3.000253E0,2.1572794E1,1.7916901E0,1.138743E0,1.9742486E0,1.0260044E0,1.6004894E1,5.5678997E0],"tree_param":{"num_deleted":"0","num_feature":"36","num_nodes":"23","size_leaf_vector":"1"}},{"base_weights":[-2.8193036E-2,-1.5497111E-1,3.6741165E-4,1.1880895E-1,-1.3389583E-1,2.600064E-1,-1.2097656E-1,-2.0249867E-1,-1.8434586E-2,5.597372E-1,-3.674784E-2,-1.8040355E-1,1.5448353E-1,2.8089526E-1,-2.8080323E-1,7.286172E-1,-2.401847E-2,-2.0442003E-1,3.4359747E-1,-1.8467045E-1,4.2906675E-1,-3.7599873E-2,4.0237808E-1,-5.051891E-1,5.3132422E-2,5.9562374E-2,3.0816308E-1,1.862657E-1,-7.453254E-2,7.18389E-2,-1.6526556E-1,1.854937E-2,1.8665792E-1,1.8031502E-1,-5.4400347E-2,-1.9966318E-1,1.1017518E-2,9.8610125E-2,-1.2627986E-1],"categories":[],"categories_nodes":[],"categories_segments":[],"categories_sizes":[],"default_left":[0,0,0,0,0,0,0,0,0,0,0,0,0,0,0,0,0,0,0,0,0,0,0,0,0,0,0,0,0,0,0,0,0,0,0,0,0,0,0],"id":27,"left_children":[1,-1,3,5,7,9,11,-1,13,15,17,-1,19,21,23,25,-1,-1,27,29,31,-1,33,35,37,-1,-1,-1,-1,-1,-1,-1,-1,-1,-1,-1,-1,-1,-1],"loss_changes":[5.1698613E-1,0E0,5.884427E-1,6.970346E-1,1.0711826E0,1.1493282E0,1.1472648E0,0E0,1.2822291E0,7.471596E-1,2.0277503E0,0E0,6.249354E-1,4.283052E-1,6.761509E-1,6.1003876E-1,0E0,0E0,1.0186754E0,6.4770883E-1,2.1252823E-1,0E0,8.200857E-1,4.8309672E-1,7.1152383E-1,0E0,0E0,0E0,0E0,0E0,0E0,0E0,0E0,0E0,0E0,0E0,0E0,0E0,0E0],"parents":[2147483647,0,0,2,2,3,3,4,4,5,5,6,6,8,8,9,9,10,10,12,12,13,13,14,14,15,15,18,18,19,19,20,20,22,22,23,23,24,24],"right_children":[2,-1,4,6,8,10,12,-1,14,16,18,-1,20,22,24,26,-1,-1,28,30,32,-1,34,36,38,-1,-1,-1,-1,-1,-1,-1,-1,-1,-1,-1,-1,-1,-1],"split_conditions":[1.6063893E-1,-1.5497111E-1,2.0422634E-1,1.5783722E2,4.3E1,1.0301E2,2.1911526E2,-2.0249867E-1,6.9E1,7.3191303E-1,5E0,-1.8040355E-1,5.4897E2,6E1,4.903846E-1,1E0,-2.401847E-2,-2.0442003E-1,2.9E1,1.7236055E-1,4.7E1,-3.7599873E-2,5.429E2,9.94E-1,5.319149E-1,5.9562374E-2,3.0816308E-1,1.862657E-1,-7.453254E-2,7.18389E-2,-1.6526556E-1,1.854937E-2,1.8665792E-1,1.8031502E-1,-5.4400347E-2,-1.9966318E-1,1.1017518E-2,9.8610125E-2,-1.2627986E-1],"split_indices":[6,0,6,20,11,17,20,0,11,3,26,0,15,22,24,27,0,0,35,6,27,0,15,5,24,0,0,0,0,0,0,0,0,0,0,0,0,0,0],"split_type":[0,0,0,0,0,0,0,0,0,0,0,0,0,0,0,0,0,0,0,0,0,0,0,0,0,0,0,0,0,0,0,0,0,0,0,0,0,0,0],"sum_hessian":[3.605091E1,1.0477476E0,3.5003162E1,1.86585E1,1.6344662E1,1.1690332E1,6.9681687E0,2.0221136E0,1.4322549E1,5.3751097E0,6.3152227E0,2.1083713E0,4.8597975E0,6.657061E0,7.665488E0,4.1427703E0,1.2323395E0,2.0496738E0,4.2655487E0,2.3207517E0,2.5390458E0,1.525207E0,5.131854E0,4.2780476E0,3.3874404E0,2.092677E0,2.0500932E0,2.87179E0,1.3937588E0,1.2357152E0,1.0850365E0,1.3300585E0,1.2089872E0,3.8065557E0,1.3252981E0,3.1251628E0,1.1528846E0,2.3361194E0,1.051321E0],"tree_param":{"num_deleted":"0","num_feature":"36","num_nodes":"39","size_leaf_vector":"1"}},{"base_weights":[-3.6304373E-2,2.679979E-1,-6.875234E-2,-7.7401767E-3,1.5385717E-1,-1.5266402E-1,1.12070285E-1,-5.836343E-2,-1.8087584E-1,5.622923E-1,-8.798629E-2,-1.6675775E-1,3.4847355E-1,4.8500903E-2,2.0732908E-1,-1.8545726E-1,2.1728729E-1,-3.4793553E-1,1.8463345E-1,1.663857E-1,-3.0823993E-2,-1.9766729E-1,5.231393E-1,-2.0875718E-2,-2.0496577E-1,2.0040412E-1,-4.127115E-2,6.6485204E-2,-1.636646E-1,2.6117507E-1,-2.7822005E-2],"categories":[],"categories_nodes":[],"categories_segments":[],"categories_sizes":[],"default_left":[0,0,0,0,0,0,0,0,0,0,0,0,0,0,0,0,0,0,0,0,0,0,0,0,0,0,0,0,0,0,0],"id":28,"left_children":[1,3,5,-1,-1,7,9,11,-1,13,15,17,19,-1,-1,-1,21,23,25,-1,-1,27,29,-1,-1,-1,-1,-1,-1,-1,-1],"loss_changes":[3.7139097E-1,2.7571034E-1,5.1931524E-1,0E0,0E0,9.4267875E-1,1.0463423E0,9.4668555E-1,0E0,7.095528E-2,1.5145577E0,1.1202333E0,4.8139673E-1,0E0,0E0,0E0,8.8413006E-1,1.0061833E0,1.0724994E0,0E0,0E0,6.0749495E-1,8.972062E-1,0E0,0E0,0E0,0E0,0E0,0E0,0E0,0E0],"parents":[2147483647,0,0,1,1,2,2,5,5,6,6,7,7,9,9,10,10,11,11,12,12,16,16,17,17,18,18,21,21,22,22],"right_children":[2,4,6,-1,-1,8,10,12,-1,14,16,18,20,-1,-1,-1,22,24,26,-1,-1,28,30,-1,-1,-1,-1,-1,-1,-1,-1],"split_conditions":[1.0745E2,1.9E1,1.082825E3,-7.7401767E-3,1.5385717E-1,8.1092E2,1.170035E3,4.739E2,-1.8087584E-1,8.4E1,1.5384616E-1,5.217391E-1,5.7096E2,4.8500903E-2,2.0732908E-1,-1.8545726E-1,4E0,3E0,5.319149E-1,1.663857E-1,-3.0823993E-2,4.7191012E-1,9.5E1,-2.0875718E-2,-2.0496577E-1,2.0040412E-1,-4.127115E-2,6.6485204E-2,-1.636646E-1,2.6117507E-1,-2.7822005E-2],"split_indices":[21,25,13,0,0,13,13,15,0,11,18,24,15,0,0,0,33,33,24,0,0,24,22,0,0,0,0,0,0,0,0],"split_type":[0,0,0,0,0,0,0,0,0,0,0,0,0,0,0,0,0,0,0,0,0,0,0,0,0,0,0,0,0,0,0],"sum_hessian":[3.4746998E1,2.6486082E0,3.209839E1,1.610661E0,1.0379473E0,2.2030668E1,1.006772E1,1.9149632E1,2.8810372E0,2.540262E0,7.5274587E0,1.5586897E1,3.5627337E0,1.1666793E0,1.3735828E0,2.3759055E0,5.151553E0,1.0290788E1,5.2961097E0,2.288192E0,1.2745417E0,2.3359911E0,2.8155622E0,6.2825813E0,4.008206E0,1.6889827E0,3.6071272E0,1.2238703E0,1.1121207E0,1.535665E0,1.2798971E0],"tree_param":{"num_deleted":"0","num_feature":"36","num_nodes":"31","size_leaf_vector":"1"}},{"base_weights":[-2.4321675E-2,4.5191847E-2,-1.6577819E-1,-2.0684776E-1,1.5042767E-1,-3.9595917E-1,4.9804833E-2,-4.6566212E-1,9.7833626E-2,-6.0125906E-2,3.415182E-1,6.029542E-2,-5.703493E-1,2.4839877E-1,-2.7905214E-1,6.2496704E-3,-2.2014725E-1,3.9255854E-1,-3.4095705E-1,4.3135753E-1,-3.8568728E-2,-2.1487977E-1,-2.4502557E-2,-5.5032577E-2,4.1941085E-1,2.8836364E-2,-1.539569E-1,-6.673986E-2,2.5456634E-1,-1.8950392E-1,7.329349E-2,5.1793855E-1,-2.2258418E-2,1.827934E-1,9.282192E-3,-8.4195375E-2,1.16009526E-1,2.1221402E-1,7.1578346E-2],"categories":[],"categories_nodes":[],"categories_segments":[],"categories_sizes":[],"default_left":[0,0,0,0,0,0,0,0,0,0,0,0,0,0,0,0,0,0,0,0,0,0,0,0,0,0,0,0,0,0,0,0,0,0,0,0,0,0,0],"id":29,"left_children":[1,3,5,7,9,11,13,15,-1,17,19,-1,21,23,25,-1,-1,27,29,31,-1,-1,-1,-1,33,-1,-1,-1,-1,-1,35,37,-1,-1,-1,-1,-1,-1,-1],"loss_changes":[3.4185165E-1,6.5668046E-1,5.863244E-1,1.1681952E0,7.1326184E-1,7.0112026E-1,5.123923E-1,7.1604836E-1,0E0,1.2832989E0,4.4295037E-1,0E0,2.7097774E-1,4.283866E-1,3.1508103E-1,0E0,0E0,1.2899572E0,7.827649E-1,3.8565814E-1,0E0,0E0,0E0,0E0,2.5507778E-1,0E0,0E0,0E0,0E0,0E0,4.8766527E-1,1.9627142E-1,0E0,0E0,0E0,0E0,0E0,0E0,0E0],"parents":[2147483647,0,0,1,1,2,2,3,3,4,4,5,5,6,6,7,7,9,9,10,10,12,12,13,13,14,14,17,17,18,18,19,19,24,24,30,30,31,31],"right_children":[2,4,6,8,10,12,14,16,-1,18,20,-1,22,24,26,-1,-1,28,30,32,-1,-1,-1,-1,34,-1,-1,-1,-1,-1,36,38,-1,-1,-1,-1,-1,-1,-1],"split_conditions":[2.1441492E-1,1.7438103E-1,2.3543167E-1,2.2492078E2,1.9954637E3,2E0,4.3E1,1.5148833E3,9.7833626E-2,2.3495604E-1,2.2274606E2,6.029542E-2,1E1,5.3272E2,5.04E-1,6.2496704E-3,-2.2014725E-1,1.6863637E-1,9E0,3.011566E3,-3.8568728E-2,-2.1487977E-1,-2.4502557E-2,-5.5032577E-2,5E0,2.8836364E-2,-1.539569E-1,-6.673986E-2,2.5456634E-1,-1.8950392E-1,3.1E1,5.263158E-2,-2.2258418E-2,1.827934E-1,9.282192E-3,-8.4195375E-2,1.16009526E-1,2.1221402E-1,7.1578346E-2],"split_indices":[7,6,6,20,1,31,34,1,0,3,20,0,31,17,4,0,0,3,28,2,0,0,0,0,30,0,0,0,0,0,34,18,0,0,0,0,0,0,0],"split_type":[0,0,0,0,0,0,0,0,0,0,0,0,0,0,0,0,0,0,0,0,0,0,0,0,0,0,0,0,0,0,0,0,0,0,0,0,0,0,0],"sum_hessian":[3.3003365E1,2.2585222E1,1.041814E1,6.368091E0,1.621713E1,4.633837E0,5.784303E0,4.371492E0,1.9965993E0,8.041708E0,8.175423E0,1.0131807E0,3.6206565E0,3.7589595E0,2.0253434E0,1.8811183E0,2.4903736E0,2.9265018E0,5.1152062E0,6.932832E0,1.2425911E0,2.4294865E0,1.1911701E0,1.045691E0,2.7132685E0,1.0047829E0,1.0205605E0,1.4640265E0,1.4624754E0,2.6973333E0,2.417873E0,5.8982034E0,1.0346284E0,1.4405692E0,1.2726994E0,1.1845767E0,1.2332962E0,2.601599E0,3.2966046E0],"tree_param":{"num_deleted":"0","num_feature":"36","num_nodes":"39","size_leaf_vector":"1"}},{"base_weights":[-2.4415134E-2,9.188978E-3,-2.9070622E-1,-4.141911E-2,4.0431657E-1,-1.7709978E-1,4.6105396E-2,7.2686315E-2,-2.0245408E-1,1.9065788E-1,-2.2538776E-2,-1.4317344E-1,2.770813E-1,1.0506629E-1,-3.0774078E-1,2.4614616E-1,-1.925803E-1,-6.155622E-2,4.0884325E-1,-5.6165004E-1,4.0152736E-2,1.2181434E-1,-6.298092E-2,1.604411E-1,-3.6758274E-2,-2.0960961E-1,-1.4302995E-2,8.263078E-2,-1.1805049E-1],"categories":[],"categories_nodes":[],"categories_segments":[],"categories_sizes":[],"default_left":[0,0,0,0,0,0,0,0,0,0,0,0,0,0,0,0,0,0,0,0,0,0,0,0,0,0,0,0,0],"id":30,"left_children":[1,3,5,7,9,-1,-1,11,13,-1,-1,15,17,-1,19,21,-1,-1,23,25,27,-1,-1,-1,-1,-1,-1,-1,-1],"loss_changes":[2.9459393E-1,6.1537653E-1,5.815334E-1,5.190101E-1,4.3482858E-1,0E0,0E0,7.808405E-1,7.854469E-1,0E0,0E0,1.872505E0,6.5383273E-1,0E0,9.3367976E-1,4.9959725E-1,0E0,0E0,5.593958E-1,3.914001E-1,6.476397E-1,0E0,0E0,0E0,0E0,0E0,0E0,0E0,0E0],"parents":[2147483647,0,0,1,1,2,2,3,3,4,4,7,7,8,8,11,11,12,12,14,14,15,15,18,18,19,19,20,20],"right_children":[2,4,6,8,10,-1,-1,12,14,-1,-1,16,18,-1,20,22,-1,-1,24,26,28,-1,-1,-1,-1,-1,-1,-1,-1],"split_conditions":[6E0,5E0,7.8E1,4.8672566E-1,2.5E1,-1.7709978E-1,4.6105396E-2,4.739E2,7E0,1.9065788E-1,-2.2538776E-2,2E0,5E0,1.0506629E-1,6E0,3.179E-1,-1.925803E-1,-6.155622E-2,1E1,7.8E1,1.170035E3,1.2181434E-1,-6.298092E-2,1.604411E-1,-3.6758274E-2,-2.0960961E-1,-1.4302995E-2,8.263078E-2,-1.1805049E-1],"split_indices":[16,16,34,24,25,0,0,15,34,0,0,27,28,0,32,3,0,0,32,34,13,0,0,0,0,0,0,0,0],"split_type":[0,0,0,0,0,0,0,0,0,0,0,0,0,0,0,0,0,0,0,0,0,0,0,0,0,0,0,0,0],"sum_hessian":[3.1622614E1,2.8936516E1,2.6860976E0,2.644465E1,2.4918654E0,1.4082141E0,1.2778834E0,1.5798705E1,1.0645945E1,1.4615154E0,1.03035E0,7.829531E0,7.9691744E0,1.3312963E0,9.314649E0,4.681646E0,3.1478853E0,1.5904883E0,6.378686E0,5.02947E0,4.285178E0,3.5475776E0,1.1340683E0,5.151155E0,1.227531E0,3.6869543E0,1.3425157E0,3.014489E0,1.2706896E0],"tree_param":{"num_deleted":"0","num_feature":"36","num_nodes":"29","size_leaf_vector":"1"}},{"base_weights":[-2.9225796E-2,-2.4570948E-1,1.2471908E-2,-1.8051669E-1,5.8767438E-2,1.737909E-1,-3.138653E-2,-8.5564435E-2,1.0515031E-1,-1.18936196E-1,1.7169167E-1,-1.6779205E-1,-3.0001339E-2,-1.9618297E-1,3.7476277E-1,1.4530775E-1,-3.4088266E-1,9.235874E-2,-1.7749076E-1,2.0870095E-1,-5.26214E-2,9.760444E-2,-5.953257E-2,-1.9447431E-1,4.1742414E-2,-1.2274818E-1,8.600291E-2],"categories":[],"categories_nodes":[],"categories_segments":[],"categories_sizes":[],"default_left":[0,0,0,0,0,0,0,0,0,0,0,0,0,0,0,0,0,0,0,0,0,0,0,0,0,0,0],"id":31,"left_children":[1,3,5,-1,7,-1,9,-1,-1,11,13,-1,15,17,19,21,23,-1,-1,-1,25,-1,-1,-1,-1,-1,-1],"loss_changes":[2.875961E-1,5.924218E-1,6.988945E-1,0E0,4.6936437E-1,0E0,4.8914996E-1,0E0,0E0,7.2783124E-1,6.9738793E-1,0E0,9.6920764E-1,9.0503156E-1,8.217157E-1,7.757381E-1,1.0320343E0,0E0,0E0,0E0,5.267437E-1,0E0,0E0,0E0,0E0,0E0,0E0],"parents":[2147483647,0,0,1,1,2,2,4,4,6,6,9,9,10,10,12,12,13,13,14,14,15,15,16,16,20,20],"right_children":[2,4,6,-1,8,-1,10,-1,-1,12,14,-1,16,18,20,22,24,-1,-1,-1,26,-1,-1,-1,-1,-1,-1],"split_conditions":[2.07E-1,9.533E1,2.61E-1,-1.8051669E-1,4E0,1.737909E-1,5.217391E-1,-8.5564435E-2,1.0515031E-1,3E0,5.6E1,-1.6779205E-1,8E0,2E0,2.6865E2,6.9E1,4.7E1,9.235874E-2,-1.7749076E-1,2.0870095E-1,1.14701E3,9.760444E-2,-5.953257E-2,-1.9447431E-1,4.1742414E-2,-1.2274818E-1,8.600291E-2],"split_indices":[5,15,4,0,16,0,24,0,0,28,11,0,31,29,17,11,27,0,0,0,15,0,0,0,0,0,0],"split_type":[0,0,0,0,0,0,0,0,0,0,0,0,0,0,0,0,0,0,0,0,0,0,0,0,0,0,0],"sum_hessian":[3.052051E1,4.139041E0,2.6381468E1,1.4580047E0,2.6810365E0,1.0178747E0,2.5363594E1,1.2405971E0,1.4404393E0,1.80125E1,7.3510914E0,2.137834E0,1.5874667E1,2.6266637E0,4.724428E0,1.049118E1,5.383487E0,1.2521559E0,1.3745078E0,2.339811E0,2.3846169E0,6.920218E0,3.5709624E0,3.068343E0,2.3151443E0,1.0623643E0,1.3222525E0],"tree_param":{"num_deleted":"0","num_feature":"36","num_nodes":"27","size_leaf_vector":"1"}},{"base_weights":[-3.1890437E-2,4.913095E-2,-1.5014075E-1,-1.7769374E-1,1.5747797E-1,1.9529836E-2,-3.6713764E-1,-3.9418438E-1,6.931787E-2,4.0649676E-1,-1.9769164E-2,-1.8057375E-1,4.1333643E-1,1.5031344E-2,-1.8392906E-1,1.1790696E-2,-2.0044813E-1,-3.25573E-2,1.9300203E-1,-1.5331396E-1,2.1643649E-1,-1.360496E-1,7.302582E-2,1.4517274E-2,1.718126E-1,3.5006294E-1,-5.0281506E-2,1.0524718E-1,-6.4182416E-2,-1.593744E-2,1.4546385E-1],"categories":[],"categories_nodes":[],"categories_segments":[],"categories_sizes":[],"default_left":[0,0,0,0,0,0,0,0,0,0,0,0,0,0,0,0,0,0,0,0,0,0,0,0,0,0,0,0,0,0,0],"id":32,"left_children":[1,3,5,7,9,11,13,15,-1,17,19,21,23,-1,-1,-1,-1,-1,-1,-1,25,-1,27,-1,-1,29,-1,-1,-1,-1,-1],"loss_changes":[2.988564E-1,4.901802E-1,4.7167677E-1,6.70642E-1,5.932007E-1,7.073971E-1,6.040377E-1,5.7866E-1,0E0,7.479119E-1,1.1200122E0,4.498015E-1,1.4732295E-1,0E0,0E0,0E0,0E0,0E0,0E0,0E0,3.9617726E-1,0E0,3.9249018E-1,0E0,0E0,3.0856633E-1,0E0,0E0,0E0,0E0,0E0],"parents":[2147483647,0,0,1,1,2,2,3,3,4,4,5,5,6,6,7,7,9,9,10,10,11,11,12,12,20,20,22,22,25,25],"right_children":[2,4,6,8,10,12,14,16,-1,18,20,22,24,-1,-1,-1,-1,-1,-1,-1,26,-1,28,-1,-1,30,-1,-1,-1,-1,-1],"split_conditions":[2.0735934E-1,1.7438103E-1,1.945664E3,2.2492078E2,1.0301E2,1.5756263E3,4.6448088E-1,1.92664E3,6.931787E-2,1.4E1,6E0,5E0,1.00392E3,1.5031344E-2,-1.8392906E-1,1.1790696E-2,-2.0044813E-1,-3.25573E-2,1.9300203E-1,-1.5331396E-1,4.9532712E-1,-1.360496E-1,6E0,1.4517274E-2,1.718126E-1,9.677419E-2,-5.0281506E-2,1.0524718E-1,-6.4182416E-2,-1.593744E-2,1.4546385E-1],"split_indices":[7,6,2,20,17,2,24,19,0,34,26,29,15,0,0,0,0,0,0,0,24,0,26,0,0,18,0,0,0,0,0],"split_type":[0,0,0,0,0,0,0,0,0,0,0,0,0,0,0,0,0,0,0,0,0,0,0,0,0,0,0,0,0,0,0],"sum_hessian":[2.9423317E1,1.7807024E1,1.1616294E1,5.5493684E0,1.2257655E1,7.0297265E0,4.586567E0,3.6512015E0,1.8981669E0,4.55909E0,7.698565E0,5.020263E0,2.009463E0,1.9963213E0,2.5902455E0,1.7456967E0,1.9055047E0,1.6068175E0,2.9522727E0,2.1218417E0,5.5767236E0,2.038343E0,2.9819202E0,1.0070528E0,1.0024104E0,4.2028327E0,1.3738906E0,1.4020985E0,1.5798218E0,1.205015E0,2.9978178E0],"tree_param":{"num_deleted":"0","num_feature":"36","num_nodes":"31","size_leaf_vector":"1"}},{"base_weights":[-3.103695E-2,2.4295957E-3,-9.840881E-2,3.6362015E-2,-1.1459423E-1,-9.5412865E-2,1.328324E-1,9.147267E-3,-1.6461606E-1,4.783121E-1,6.888435E-3,-1.0352377E-1,1.2567477E-1,7.512163E-3,2.1816857E-1,-4.0622428E-1,2.0188077E-1,9.420121E-2,-5.2072167E-2,-1.7133722E-1,1.853649E-2,-3.2276772E-2,1.1174508E-1],"categories":[],"categories_nodes":[],"categories_segments":[],"categories_sizes":[],"default_left":[0,0,0,0,0,0,0,0,0,0,0,0,0,0,0,0,0,0,0,0,0,0,0],"id":33,"left_children":[1,3,-1,5,-1,7,9,11,-1,13,15,-1,17,-1,-1,19,21,-1,-1,-1,-1,-1,-1],"loss_changes":[2.9182553E-1,3.700928E-1,0E0,3.4327158E-1,0E0,5.535874E-1,6.681809E-1,4.7215673E-1,0E0,4.4530755E-1,1.0747592E0,0E0,5.3634036E-1,0E0,0E0,3.65889E-1,5.1737106E-1,0E0,0E0,0E0,0E0,0E0,0E0],"parents":[2147483647,0,0,1,1,3,3,5,5,6,6,7,7,9,9,10,10,12,12,15,15,16,16],"right_children":[2,4,-1,6,-1,8,10,12,-1,14,16,-1,18,-1,-1,20,22,-1,-1,-1,-1,-1,-1],"split_conditions":[9.99E-1,2.8257805E3,-9.840881E-2,1.1036005E3,-1.1459423E-1,5.319149E-1,1.2581205E3,4.0425533E-1,-1.6461606E-1,1E0,9.86E-1,-1.0352377E-1,6.1259E2,7.512163E-3,2.1816857E-1,1E0,1.9954637E3,9.420121E-2,-5.2072167E-2,-1.7133722E-1,1.853649E-2,-3.2276772E-2,1.1174508E-1],"split_indices":[4,0,0,0,0,24,0,24,0,30,4,0,14,0,0,8,1,0,0,0,0,0,0],"split_type":[0,0,0,0,0,0,0,0,0,0,0,0,0,0,0,0,0,0,0,0,0,0,0],"sum_hessian":[2.828056E1,2.630788E1,1.9726801E0,2.5005976E1,1.301903E0,1.0573686E1,1.4432291E1,9.388053E0,1.1856327E0,3.1082268E0,1.1324064E1,1.8383585E0,7.549694E0,1.491973E0,1.6162539E0,3.2837646E0,8.0403E0,4.603327E0,2.946367E0,2.2652926E0,1.018472E0,2.9885287E0,5.051771E0],"tree_param":{"num_deleted":"0","num_feature":"36","num_nodes":"23","size_leaf_vector":"1"}},{"base_weights":[-3.509308E-2,4.0708512E-2,-1.5717888E-1,-5.5805046E-2,3.68472E-1,-3.1536222E-1,2.384257E-1,7.335145E-2,-3.9853552E-1,1.9272055E-1,-4.5048848E-2,6.5596506E-2,-4.475653E-1,1.498779E-1,-5.1225375E-2,-8.885524E-2,4.2625722E-1,-1.7091303E-1,1.5400889E-2,-5.897454E-1,5.7474934E-3,-4.7898948E-1,1.4608881E-1,1.9774163E-1,9.725069E-3,-3.9102066E-2,-2.2570081E-1,-1.7293999E-2,-1.8609715E-1,1.05924286E-1,-5.5536564E-2],"categories":[],"categories_nodes":[],"categories_segments":[],"categories_sizes":[],"default_left":[0,0,0,0,0,0,0,0,0,0,0,0,0,0,0,0,0,0,0,0,0,0,0,0,0,0,0,0,0,0,0],"id":34,"left_children":[1,3,5,7,9,11,13,15,17,-1,-1,-1,19,-1,-1,21,23,-1,-1,25,-1,27,29,-1,-1,-1,-1,-1,-1,-1,-1],"loss_changes":[2.70904E-1,6.0349977E-1,7.7319443E-1,6.978396E-1,7.1069336E-1,6.9079393E-1,4.8663443E-1,7.1419793E-1,3.5956937E-1,0E0,0E0,0E0,4.7980654E-1,0E0,0E0,8.8775164E-1,3.3568484E-1,0E0,0E0,3.085128E-1,0E0,1.7785412E-1,4.996613E-1,0E0,0E0,0E0,0E0,0E0,0E0,0E0,0E0],"parents":[2147483647,0,0,1,1,2,2,3,3,4,4,5,5,6,6,7,7,8,8,12,12,15,15,16,16,19,19,21,21,22,22],"right_children":[2,4,6,8,10,12,14,16,18,-1,-1,-1,20,-1,-1,22,24,-1,-1,26,-1,28,30,-1,-1,-1,-1,-1,-1,-1,-1],"split_conditions":[9.91E-1,9.86E-1,7E0,1.2581205E3,5.7E1,5.598095E-1,1.9784601E-1,1.1036005E3,4.4E1,1.9272055E-1,-4.5048848E-2,6.5596506E-2,8.9E1,1.498779E-1,-5.1225375E-2,9.533E1,1E0,-1.7091303E-1,1.5400889E-2,6E0,5.7474934E-3,1.9002E2,7.060658E2,1.9774163E-1,9.725069E-3,-3.9102066E-2,-2.2570081E-1,-1.7293999E-2,-1.8609715E-1,1.05924286E-1,-5.5536564E-2],"split_indices":[4,4,8,0,11,3,6,0,23,0,0,0,11,0,0,15,33,0,0,26,0,19,0,0,0,0,0,0,0,0,0],"split_type":[0,0,0,0,0,0,0,0,0,0,0,0,0,0,0,0,0,0,0,0,0,0,0,0,0,0,0,0,0,0,0],"sum_hessian":[2.7581907E1,1.7427773E1,1.0154135E1,1.4104336E1,3.3234365E0,7.398617E0,2.755518E0,1.0814803E1,3.2895324E0,2.0186152E0,1.3048214E0,1.338398E0,6.060219E0,1.5470834E0,1.2084347E0,7.921876E0,2.8929272E0,2.1899002E0,1.0996323E0,4.443108E0,1.6171104E0,2.5871193E0,5.3347564E0,1.3946427E0,1.4982845E0,1.6323879E0,2.8107204E0,1.0034701E0,1.5836493E0,3.2423801E0,2.0923762E0],"tree_param":{"num_deleted":"0","num_feature":"36","num_nodes":"31","size_leaf_vector":"1"}},{"base_weights":[-3.1881507E-2,-9.7587496E-2,1.2459482E-1,-2.3999266E-2,-1.5431695E-1,1.5257503E-1,-8.484922E-2,-7.6362364E-2,1.2731351E-1,-1.5276212E-1,1.5242885E-1,1.0966786E-2,-3.551828E-1,-4.975533E-2,3.5770658E-1,1.6336139E-1,-1.7809758E-1,-1.9147469E-1,3.79079E-2,1.7418791E-1,-2.2003992E-2,-6.8443664E-3,1.4479677E-1,-1.3424063E-1,3.2858934E-2],"categories":[],"categories_nodes":[],"categories_segments":[],"categories_sizes":[],"default_left":[0,0,0,0,0,0,0,0,0,0,0,0,0,0,0,0,0,0,0,0,0,0,0,0,0],"id":35,"left_children":[1,3,5,7,-1,-1,9,11,-1,-1,13,15,17,-1,19,21,23,-1,-1,-1,-1,-1,-1,-1,-1],"loss_changes":[2.9417366E-1,5.9736526E-1,7.3085606E-1,4.537158E-1,0E0,0E0,7.2103506E-1,4.1577423E-1,0E0,0E0,3.7738293E-1,4.28178E-1,6.346635E-1,0E0,3.5739234E-1,4.979182E-1,5.6503624E-1,0E0,0E0,0E0,0E0,0E0,0E0,0E0,0E0],"parents":[2147483647,0,0,1,1,2,2,3,3,6,6,7,7,10,10,11,11,12,12,14,14,15,15,16,16],"right_children":[2,4,6,8,-1,-1,10,12,-1,-1,14,16,18,-1,20,22,24,-1,-1,-1,-1,-1,-1,-1,-1],"split_conditions":[1.082825E3,8.1092E2,1.170035E3,7.776475E2,-1.5431695E-1,1.5257503E-1,1.5384616E-1,6.1959E2,1.2731351E-1,-1.5276212E-1,4E0,5.656774E-1,6.2540907E-1,-4.975533E-2,9.5E1,5E0,6E0,-1.9147469E-1,3.79079E-2,1.7418791E-1,-2.2003992E-2,-6.8443664E-3,1.4479677E-1,-1.3424063E-1,3.2858934E-2],"split_indices":[13,13,13,13,0,0,18,14,0,0,33,3,3,0,22,29,32,0,0,0,0,0,0,0,0],"split_type":[0,0,0,0,0,0,0,0,0,0,0,0,0,0,0,0,0,0,0,0,0,0,0,0,0],"sum_hessian":[2.6429522E1,1.8878565E1,7.5509562E0,1.6944517E1,1.9340473E0,2.1609251E0,5.3900313E0,1.5915538E1,1.0289799E0,1.5219963E0,3.868035E0,1.2851116E1,3.0644214E0,1.5918934E0,2.2761414E0,7.190882E0,5.6602345E0,1.7249906E0,1.3394309E0,1.2715585E0,1.004583E0,5.128864E0,2.0620182E0,2.635908E0,3.0243266E0],"tree_param":{"num_deleted":"0","num_feature":"36","num_nodes":"25","size_leaf_vector":"1"}},{"base_weights":[-2.7480923E-2,8.074414E-2,-5.6148425E-2,-1.2216737E-1,-1.4227583E-2,9.58131E-2,-4.626536E-2,-1.2692837E-1,1.05228476E-1,1.352706E-2,-3.7404203E-1,4.1431215E-1,-7.012155E-2,-5.6913402E-2,6.923467E-2,-1.421361E-1,5.3759697E-3,3.3948783E-2,1.5219346E-1,-1.3645643E-1,4.0240206E-2],"categories":[],"categories_nodes":[],"categories_segments":[],"categories_sizes":[],"default_left":[0,0,0,0,0,0,0,0,0,0,0,0,0,0,0,0,0,0,0,0,0],"id":36,"left_children":[1,-1,3,-1,5,-1,7,9,11,13,15,17,19,-1,-1,-1,-1,-1,-1,-1,-1],"loss_changes":[2.3882997E-1,0E0,3.5945562E-1,0E0,2.6280537E-1,0E0,2.827642E-1,5.201237E-1,4.7384405E-1,5.041772E-1,2.2011179E-1,2.9842436E-2,5.3970176E-1,0E0,0E0,0E0,0E0,0E0,0E0,0E0,0E0],"parents":[2147483647,0,0,2,2,4,4,6,6,7,7,8,8,9,9,10,10,11,11,12,12],"right_children":[2,-1,4,-1,6,-1,8,10,12,14,16,18,20,-1,-1,-1,-1,-1,-1,-1,-1],"split_conditions":[1.8526667E1,8.074414E-2,5.271617E2,-1.2216737E-1,6.158965E2,9.58131E-2,1.082825E3,7E1,1.170035E3,4.9E1,5.28E-1,8.4E1,1.5384616E-1,-5.6913402E-2,6.923467E-2,-1.421361E-1,5.3759697E-3,3.3948783E-2,1.5219346E-1,-1.3645643E-1,4.0240206E-2],"split_indices":[20,0,0,0,0,0,13,11,13,11,24,11,18,0,0,0,0,0,0,0,0],"split_type":[0,0,0,0,0,0,0,0,0,0,0,0,0,0,0,0,0,0,0,0,0],"sum_hessian":[2.5308638E1,1.4911234E0,2.3817514E1,1.6110725E0,2.2206442E1,1.1598926E0,2.104655E1,1.3839729E1,7.20682E0,9.426894E0,4.4128356E0,2.1153648E0,5.0914555E0,4.9360695E0,4.4908247E0,3.3512616E0,1.0615739E0,1.0221761E0,1.0931886E0,1.3401935E0,3.751262E0],"tree_param":{"num_deleted":"0","num_feature":"36","num_nodes":"21","size_leaf_vector":"1"}},{"base_weights":[-2.07832E-2,-2.1255118E-1,1.6278798E-2,-1.3505256E-1,3.5138916E-2,2.8304747E-1,-4.8885167E-2,1.7964202E-1,6.3437275E-3,-2.3974803E-1,9.209674E-2,-8.612682E-2,9.804819E-2,-3.4871134E-1,6.5226026E-2,-8.324893E-2,1.7533852E-1,-3.2261692E-2,-4.7161517E-1,-1.6335963E-1,2.8976592E-1,4.0328655E-2,-5.3731628E-2,-1.6440035E-1,-2.5247503E-2,3.5413187E-2,-1.12350024E-1,-2.0474557E-2,1.17080875E-1],"categories":[],"categories_nodes":[],"categories_segments":[],"categories_sizes":[],"default_left":[0,0,0,0,0,0,0,0,0,0,0,0,0,0,0,0,0,0,0,0,0,0,0,0,0,0,0,0,0],"id":37,"left_children":[1,3,5,-1,-1,7,9,-1,11,13,15,-1,-1,17,-1,-1,19,21,23,25,27,-1,-1,-1,-1,-1,-1,-1,-1],"loss_changes":[1.8595627E-1,3.8410032E-1,4.0405515E-1,0E0,0E0,3.940984E-1,5.3046465E-1,0E0,4.1712534E-1,4.8948738E-1,4.0520075E-1,0E0,0E0,2.6053333E-1,0E0,0E0,4.3767184E-1,9.889857E-2,1.02844715E-1,2.3331791E-1,3.104844E-1,0E0,0E0,0E0,0E0,0E0,0E0,0E0,0E0],"parents":[2147483647,0,0,1,1,2,2,5,5,6,6,8,8,9,9,10,10,13,13,16,16,17,17,18,18,19,19,20,20],"right_children":[2,4,6,-1,-1,8,10,-1,12,14,16,-1,-1,18,-1,-1,20,22,24,26,28,-1,-1,-1,-1,-1,-1,-1,-1],"split_conditions":[2.07E-1,4E0,9E0,-1.3505256E-1,3.5138916E-2,2.3495604E-1,8E0,1.7964202E-1,5.3061223E-1,1.32042E3,1.8808244E-1,-8.612682E-2,9.804819E-2,4.3925235E-1,6.5226026E-2,-8.324893E-2,2E1,1.8028274E-1,7E0,7E0,4.6153846E-1,4.0328655E-2,-5.3731628E-2,-1.6440035E-1,-2.5247503E-2,3.5413187E-2,-1.12350024E-1,-2.0474557E-2,1.17080875E-1],"split_indices":[5,16,25,0,0,3,28,0,24,15,6,0,0,24,0,0,34,6,31,30,24,0,0,0,0,0,0,0,0],"split_type":[0,0,0,0,0,0,0,0,0,0,0,0,0,0,0,0,0,0,0,0,0,0,0,0,0,0,0,0,0],"sum_hessian":[2.467727E1,3.229908E0,2.1447363E1,1.6646156E0,1.5652925E0,3.5540695E0,1.7893293E1,1.1162239E0,2.4378457E0,7.3042116E0,1.0589081E1,1.3270265E0,1.1108191E0,6.0899453E0,1.2142663E0,1.5175493E0,9.071531E0,2.0567567E0,4.033189E0,2.1828375E0,6.8886943E0,1.0028783E0,1.0538784E0,3.0228822E0,1.0103064E0,1.1247356E0,1.058102E0,1.5802956E0,5.3083987E0],"tree_param":{"num_deleted":"0","num_feature":"36","num_nodes":"29","size_leaf_vector":"1"}},{"base_weights":[-2.1708803E-2,9.913286E-2,-8.3486035E-2,2.6351956E-1,-1.3255575E-1,-2.668706E-1,4.222328E-2,-5.1296145E-2,1.4715013E-1,-1.576163E-1,1.5317385E-1,-4.8148665E-1,5.891513E-2,3.6294827E-1,-9.6332826E-2,-3.156947E-2,1.0258245E-1,-2.0287524E-1,-9.705141E-3,8.8093035E-2,-5.581251E-2,1.4305289E-1,1.28675E-2,-1.984621E-1,9.831953E-2,8.71088E-2,-3.478671E-1,-1.424413E-1,-1.0641406E-2],"categories":[],"categories_nodes":[],"categories_segments":[],"categories_sizes":[],"default_left":[0,0,0,0,0,0,0,0,0,0,0,0,0,0,0,0,0,0,0,0,0,0,0,0,0,0,0,0,0],"id":38,"left_children":[1,3,5,7,9,11,13,-1,-1,-1,15,17,19,21,23,-1,-1,-1,-1,-1,-1,-1,-1,25,-1,-1,27,-1,-1],"loss_changes":[1.948544E-1,3.7435302E-1,4.0503857E-1,6.3101596E-1,5.703182E-1,5.236359E-1,5.23675E-1,0E0,0E0,0E0,1.9698769E-1,3.612101E-1,2.676109E-1,1.08133614E-1,4.3187398E-1,0E0,0E0,0E0,0E0,0E0,0E0,0E0,0E0,6.450225E-1,0E0,0E0,2.2743529E-1,0E0,0E0],"parents":[2147483647,0,0,1,1,2,2,3,3,4,4,5,5,6,6,10,10,11,11,12,12,13,13,14,14,23,23,26,26],"right_children":[2,4,6,8,10,12,14,-1,-1,-1,16,18,20,22,24,-1,-1,-1,-1,-1,-1,-1,-1,26,-1,-1,28,-1,-1],"split_conditions":[1.0301E2,4E0,4.739E2,1E0,5.6E1,6.8E1,5.7096E2,-5.1296145E-2,1.4715013E-1,-1.576163E-1,5.2238804E-1,5E0,5.214E2,4.651163E-1,1.9E1,-3.156947E-2,1.0258245E-1,-2.0287524E-1,-9.705141E-3,8.8093035E-2,-5.581251E-2,1.4305289E-1,1.28675E-2,2E0,9.831953E-2,8.71088E-2,8.7E1,-1.424413E-1,-1.0641406E-2],"split_indices":[17,28,15,28,11,34,15,0,0,0,24,16,14,24,8,0,0,0,0,0,0,0,0,29,0,0,11,0,0],"split_type":[0,0,0,0,0,0,0,0,0,0,0,0,0,0,0,0,0,0,0,0,0,0,0,0,0,0,0,0,0],"sum_hessian":[2.399285E1,7.911865E0,1.6080984E1,4.5477667E0,3.3640985E0,6.0834856E0,9.997498E0,1.6451551E0,2.9026117E0,1.0633738E0,2.3007247E0,3.3793592E0,2.7041264E0,2.5274765E0,7.4700212E0,1.1580269E0,1.1426978E0,2.0044684E0,1.3748907E0,1.2793968E0,1.4247296E0,1.5028164E0,1.02466E0,6.4489045E0,1.0211169E0,1.2887851E0,5.160119E0,3.2995267E0,1.8605926E0],"tree_param":{"num_deleted":"0","num_feature":"36","num_nodes":"29","size_leaf_vector":"1"}},{"base_weights":[-1.8386992E-2,1.0985302E-2,-8.416481E-2,3.977368E-2,-9.148787E-2,-5.399811E-2,1.4708456E-1,4.0392376E-2,-3.4251535E-1,-7.9767264E-2,2.2253244E-1,1.6894388E-1,-1.9256671E-1,-1.6041088E-1,9.402351E-3,1.6066054E-1,3.4597706E-2,9.497132E-2,-5.108783E-2,-1.5985452E-1,3.4967106E-2,-7.0106655E-2,6.548307E-2],"categories":[],"categories_nodes":[],"categories_segments":[],"categories_sizes":[],"default_left":[0,0,0,0,0,0,0,0,0,0,0,0,0,0,0,0,0,0,0,0,0,0,0],"id":39,"left_children":[1,3,-1,5,-1,7,9,11,13,-1,15,17,19,-1,-1,-1,21,-1,-1,-1,-1,-1,-1],"loss_changes":[1.8855633E-1,2.1789041E-1,0E0,2.2547498E-1,0E0,3.4793454E-1,3.8164327E-1,3.361493E-1,2.4162781E-1,0E0,5.282564E-1,4.0777332E-1,4.9048865E-1,0E0,0E0,0E0,3.8990095E-1,0E0,0E0,0E0,0E0,0E0,0E0],"parents":[2147483647,0,0,1,1,3,3,5,5,6,6,7,7,8,8,10,10,11,11,12,12,16,16],"right_children":[2,4,-1,6,-1,8,10,12,14,-1,16,18,20,-1,-1,-1,22,-1,-1,-1,-1,-1,-1],"split_conditions":[9.99E-1,2.8257805E3,-8.416481E-2,1.3545987E2,-9.148787E-2,1.2016113E2,5.082778E-1,4.857143E-1,1.13547E3,-7.9767264E-2,7.418409E-1,1.09313E3,7.6E1,-1.6041088E-1,9.402351E-3,1.6066054E-1,1E1,9.497132E-2,-5.108783E-2,-1.5985452E-1,3.4967106E-2,-7.0106655E-2,6.548307E-2],"split_indices":[4,0,0,20,0,20,3,24,17,0,3,12,34,0,0,0,28,0,0,0,0,0,0],"split_type":[0,0,0,0,0,0,0,0,0,0,0,0,0,0,0,0,0,0,0,0,0,0,0],"sum_hessian":[2.3086613E1,2.162219E1,1.4644216E0,2.0617655E1,1.004535E0,1.126806E1,9.349596E0,9.138375E0,2.1296847E0,1.0543399E0,8.295256E0,6.065888E0,3.072487E0,1.1224395E0,1.0072452E0,2.418199E0,5.8770566E0,4.2731395E0,1.7927485E0,1.118029E0,1.9544582E0,2.2777908E0,3.599266E0],"tree_param":{"num_deleted":"0","num_feature":"36","num_nodes":"23","size_leaf_vector":"1"}},{"base_weights":[-2.9113943E-2,4.6082977E-2,-1.23408295E-1,1.2608132E-1,-1.4948021E-1,-2.2496139E-1,1.3684385E-1,-1.6711722E-1,2.5919288E-1,5.2820124E-2,-3.2013175E-1,-1.621573E-1,-3.6728237E-2,1.099248E-1,-2.809473E-2,-1.1835018E-1,7.073973E-2,3.756884E-1,-2.9287687E-2,-1.5355149E-1,-3.5756894E-3,1.6475432E-1,-1.3119984E-1,1.504219E-1,1.728434E-2,3.1450406E-1,-2.9483989E-2,1.7129049E-2,1.2685268E-1],"categories":[],"categories_nodes":[],"categories_segments":[],"categories_sizes":[],"default_left":[0,0,0,0,0,0,0,0,0,0,0,0,0,0,0,0,0,0,0,0,0,0,0,0,0,0,0,0,0],"id":40,"left_children":[1,3,5,7,9,11,13,15,17,-1,19,-1,21,-1,-1,-1,-1,23,-1,-1,-1,25,-1,-1,-1,27,-1,-1,-1],"loss_changes":[1.7306139E-1,2.3568939E-1,3.1475598E-1,4.4839087E-1,3.053277E-1,4.6169412E-1,2.26797E-1,4.4563282E-1,3.496946E-1,0E0,1.8858787E-1,0E0,5.685166E-1,0E0,0E0,0E0,0E0,2.0636445E-1,0E0,0E0,0E0,2.2072197E-1,0E0,0E0,0E0,6.812912E-2,0E0,0E0,0E0],"parents":[2147483647,0,0,1,1,2,2,3,3,