{"learner":{"attributes":{"scikit_learn":"{\"_estimator_type\": \"classifier\"}"},"feature_names":["credit_balance_mean","credit_balance_max","credit_balance_last","credit_utilization_mean","credit_utilization_max","credit_utilization_last","interest_rate_mean","interest_rate_last","current_missed_payments_sum","current_missed_payments_max","current_missed_payments_last"],"feature_types":["float","float","float","float","float","float","float","float","int","int","int"],"gradient_booster":{"model":{"gbtree_model_param":{"num_parallel_tree":"1","num_trees":"500"},"iteration_indptr":[0,5,10,15,20,25,30,35,40,45,50,55,60,65,70,75,80,85,90,95,100,105,110,115,120,125,130,135,140,145,150,155,160,165,170,175,180,185,190,195,200,205,210,215,220,225,230,235,240,245,250,255,260,265,270,275,280,285,290,295,300,305,310,315,320,325,330,335,340,345,350,355,360,365,370,375,380,385,390,395,400,405,410,415,420,425,430,435,440,445,450,455,460,465,470,475,480,485,490,495,500],"tree_info":[0,1,2,3,4,0,1,2,3,4,0,1,2,3,4,0,1,2,3,4,0,1,2,3,4,0,1,2,3,4,0,1,2,3,4,0,1,2,3,4,0,1,2,3,4,0,1,2,3,4,0,1,2,3,4,0,1,2,3,4,0,1,2,3,4,0,1,2,3,4,0,1,2,3,4,0,1,2,3,4,0,1,2,3,4,0,1,2,3,4,0,1,2,3,4,0,1,2,3,4,0,1,2,3,4,0,1,2,3,4,0,1,2,3,4,0,1,2,3,4,0,1,2,3,4,0,1,2,3,4,0,1,2,3,4,0,1,2,3,4,0,1,2,3,4,0,1,2,3,4,0,1,2,3,4,0,1,2,3,4,0,1,2,3,4,0,1,2,3,4,0,1,2,3,4,0,1,2,3,4,0,1,2,3,4,0,1,2,3,4,0,1,2,3,4,0,1,2,3,4,0,1,2,3,4,0,1,2,3,4,0,1,2,3,4,0,1,2,3,4,0,1,2,3,4,0,1,2,3,4,0,1,2,3,4,0,1,2,3,4,0,1,2,3,4,0,1,2,3,4,0,1,2,3,4,0,1,2,3,4,0,1,2,3,4,0,1,2,3,4,0,1,2,3,4,0,1,2,3,4,0,1,2,3,4,0,1,2,3,4,0,1,2,3,4,0,1,2,3,4,0,1,2,3,4,0,1,2,3,4,0,1,2,3,4,0,1,2,3,4,0,1,2,3,4,0,1,2,3,4,0,1,2,3,4,0,1,2,3,4,0,1,2,3,4,0,1,2,3,4,0,1,2,3,4,0,1,2,3,4,0,1,2,3,4,0,1,2,3,4,0,1,2,3,4,0,1,2,3,4,0,1,2,3,4,0,1,2,3,4,0,1,2,3,4,0,1,2,3,4,0,1,2,3,4,0,1,2,3,4,0,1,2,3,4,0,1,2,3,4,0,1,2,3,4,0,1,2,3,4,0,1,2,3,4,0,1,2,3,4,0,1,2,3,4,0,1,2,3,4,0,1,2,3,4,0,1,2,3,4,0,1,2,3,4,0,1,2,3,4,0,1,2,3,4,0,1,2,3,4,0,1,2,3,4,0,1,2,3,4,0,1,2,3,4,0,1,2,3,4],"trees":[{"base_weights":[1.3808923E0,1.5736496E0,7.648909E-2,1.7501421E0,1.409261E0,-6.1346173E-2,7.140115E-1,2.068488E0,1.6779605E0,1.2816002E0,1.7077739E0,1.1530714E0,-2.166903E-1,1.6513952E0,2.3807957E0,1.6182384E0,2.2127037E0,1.2423936E0,2.185104E0,1.739268E0,-1.5686274E-1,3.5999998E-1,7.0229006E-1,6.885246E-1,-3.1847984E-1,1.8290482E0,-1.291866E-1,7.434555E-1,6.965174E-1,1.6603899E0,8.3262527E-1,1.2197392E0,7.4003184E-1,1.6522732E0,1.1507384E0,1.2660943E0,7.234042E-1,1.8369757E0,9.029779E-1,1.2033194E0,-1.5892419E-1,-3.458992E-1,5.56701E-1,7.2770506E-1,4.3147752E-1,-4.379562E-2,5.3932583E-1,4.8412418E-1,7.3339236E-1,1.3221407E-1,6.7469877E-1,6.8686867E-1,-2.8301885E-2,-1.0843373E-1,5.3285754E-1,7.322611E-1,3.2052267E-1,6.335404E-1,-1.3917525E-1,3.8516745E-1,5.962324E-1,6.602871E-1,1.6802801E-1,-7.964602E-2,6.2745094E-1,-1.5976332E-1,2.8301885E-2,5.185185E-1,-1.102791E-1],"categories":[],"categories_nodes":[],"categories_segments":[],"categories_sizes":[],"default_left":[0,0,0,0,0,0,0,0,0,0,0,0,0,0,0,0,0,0,0,0,0,0,0,0,0,0,0,0,0,0,0,0,0,0,0,0,0,0,0,0,0,0,0,0,0,0,0,0,0,0,0,0,0,0,0,0,0,0,0,0,0,0,0,0,0,0,0,0,0],"id":0,"left_children":[1,3,5,7,9,11,-1,13,15,17,19,21,23,25,27,29,31,33,35,37,-1,39,-1,-1,41,43,-1,-1,45,47,49,51,-1,53,55,57,-1,59,61,63,65,67,-1,-1,-1,-1,-1,-1,-1,-1,-1,-1,-1,-1,-1,-1,-1,-1,-1,-1,-1,-1,-1,-1,-1,-1,-1,-1,-1],"loss_changes":[7.1782227E2,6.9711426E1,1.1720571E2,2.4001465E1,4.709131E1,6.605946E1,0E0,2.4293396E1,2.771289E1,2.9513428E1,2.7911621E1,3.6576897E1,8.001998E1,3.6310547E1,1.8226562E1,2.79292E1,2.1139557E1,3.0943237E1,4.5402527E0,2.932959E1,0E0,1.1131709E1,0E0,0E0,1.8461622E1,1.7187805E1,0E0,0E0,7.7219086E0,2.6748291E1,2.5142582E1,3.0413267E1,0E0,3.9939148E1,7.363397E1,1.4615632E1,0E0,2.5626831E1,1.729943E1,1.3131321E1,1.5982964E0,1.3959408E1,0E0,0E0,0E0,0E0,0E0,0E0,0E0,0E0,0E0,0E0,0E0,0E0,0E0,0E0,0E0,0E0,0E0,0E0,0E0,0E0,0E0,0E0,0E0,0E0,0E0,0E0,0E0],"parents":[2147483647,0,0,1,1,2,2,3,3,4,4,5,5,7,7,8,8,9,9,10,10,11,11,12,12,13,13,14,14,15,15,16,16,17,17,18,18,19,19,21,21,24,24,25,25,28,28,29,29,30,30,31,31,33,33,34,34,35,35,37,37,38,38,39,39,40,40,41,41],"right_children":[2,4,6,8,10,12,-1,14,16,18,20,22,24,26,28,30,32,34,36,38,-1,40,-1,-1,42,44,-1,-1,46,48,50,52,-1,54,56,58,-1,60,62,64,66,68,-1,-1,-1,-1,-1,-1,-1,-1,-1,-1,-1,-1,-1,-1,-1,-1,-1,-1,-1,-1,-1,-1,-1,-1,-1,-1,-1],"split_conditions":[1E0,1.9129918E3,4.9714336E3,1.78E-1,3.428441E3,1.7045004E3,7.140115E-1,4.7141364E2,1.2466051E3,2.4471043E-1,8.929545E-1,8E0,1.7187984E-1,4.5986584E2,1.1105502E3,1.1182056E3,1.644499E-1,1.733965E-1,1.0913411E3,2.4335805E-1,-1.5686274E-1,9.93E-1,7.0229006E-1,6.885246E-1,9.308387E-1,2.630243E2,-1.291866E-1,7.434555E-1,1.1138053E3,9.9687866E2,2.82E-1,1.6170305E-1,7.4003184E-1,7.9941176E-2,8.374509E2,1.0582819E3,7.234042E-1,1.8421006E3,7.61E-1,1.5561718E-1,9.935154E2,1.7485714E-1,5.56701E-1,7.2770506E-1,4.3147752E-1,-4.379562E-2,5.3932583E-1,4.8412418E-1,7.3339236E-1,1.3221407E-1,6.7469877E-1,6.8686867E-1,-2.8301885E-2,-1.0843373E-1,5.3285754E-1,7.322611E-1,3.2052267E-1,6.335404E-1,-1.3917525E-1,3.8516745E-1,5.962324E-1,6.602871E-1,1.6802801E-1,-7.964602E-2,6.2745094E-1,-1.5976332E-1,2.8301885E-2,5.185185E-1,-1.102791E-1],"split_indices":[10,1,1,4,1,1,0,2,2,7,3,8,6,2,0,2,6,6,2,6,0,4,0,0,3,0,0,0,0,2,3,6,0,3,0,2,0,0,4,6,1,3,0,0,0,0,0,0,0,0,0,0,0,0,0,0,0,0,0,0,0,0,0,0,0,0,0,0,0],"split_type":[0,0,0,0,0,0,0,0,0,0,0,0,0,0,0,0,0,0,0,0,0,0,0,0,0,0,0,0,0,0,0,0,0,0,0,0,0,0,0,0,0,0,0,0,0,0,0,0,0,0,0,0,0,0,0,0,0,0,0,0,0,0,0,0,0,0,0,0,0],"sum_hessian":[2.8544001E3,2.4867202E3,3.6768002E2,1.19456E3,1.29216E3,3.4784003E2,1.9840002E1,2.1568001E2,9.7888007E2,9.0880005E2,3.8336002E2,3.872E1,3.0912003E2,9.504001E1,1.2064001E2,8.8416003E2,9.472001E1,8.732801E2,3.5520004E1,3.7824002E2,5.1200004E0,2.4000002E1,1.4720001E1,1.1200001E1,2.9792E2,8.768001E1,7.3600006E0,1.13600006E2,7.0400004E0,8.380801E2,4.608E1,2.0480001E1,7.4240005E1,1.5648001E2,7.1680005E2,8.320001E0,2.7200003E1,3.3760004E2,4.0640003E1,8.64E0,1.5360001E1,2.9504E2,2.88E0,3.2640003E1,5.5040005E1,4.4800005E0,2.5600002E0,7.9392004E2,4.4160004E1,3.7120003E1,8.960001E0,1.0880001E1,9.6E0,8.960001E0,1.4752E2,4.1280003E1,6.7552E2,5.4400005E0,2.88E0,7.4240005E1,2.6336002E2,7.3600006E0,3.3280003E1,3.5200002E0,5.1200004E0,5.76E0,9.6E0,2.2400002E0,2.9280002E2],"tree_param":{"num_deleted":"0","num_feature":"11","num_nodes":"69","size_leaf_vector":"1"}},{"base_weights":[-3.4425998E-1,-1.8742462E-1,1.5493109E0,-1.8277946E-1,1.804461E0,-1.7980295E-1,1.9895629E0,2.1365576E0,-1.7667437E-1,2.202003E0,-1.6321245E-1,-1.2328767E-1,6.663826E-1],"categories":[],"categories_nodes":[],"categories_segments":[],"categories_sizes":[],"default_left":[0,0,0,0,0,0,0,0,0,0,0,0,0],"id":1,"left_children":[1,-1,3,-1,5,-1,7,9,-1,11,-1,-1,-1],"loss_changes":[1.5175433E3,0E0,2.0415393E2,0E0,1.4800757E2,0E0,1.174668E2,5.212256E1,0E0,1.5192383E1,0E0,0E0,0E0],"parents":[2147483647,0,0,2,2,4,4,6,6,7,7,9,9],"right_children":[2,-1,4,-1,6,-1,8,10,-1,12,-1,-1,-1],"split_conditions":[1E0,-1.8742462E-1,1.7045004E3,-1.8277946E-1,1.8229067E-1,-1.7980295E-1,4.9714336E3,9.116264E-1,-1.7667437E-1,1.7485714E-1,-1.6321245E-1,-1.2328767E-1,6.663826E-1],"split_indices":[10,0,1,0,6,0,1,3,0,3,0,0,0],"split_type":[0,0,0,0,0,0,0,0,0,0,0,0,0],"sum_hessian":[2.8544001E3,2.4867202E3,3.6768002E2,3.872E1,3.2896002E2,2.3360003E1,3.0560004E2,2.8928003E2,1.6320002E1,2.8256003E2,6.7200003E0,1.9200001E0,2.8064E2],"tree_param":{"num_deleted":"0","num_feature":"11","num_nodes":"13","size_leaf_vector":"1"}},{"base_weights":[-3.526651E-1,-4.2388955E-1,-1.9078556E-1,-4.3022949E-1,1.1244018E0,-1.09008856E-1,-1.8615648E-1,-4.409797E-1,2.2867736E-1,-1.3483146E-1,5.689655E-1,-2.8292987E-2,-1.8563469E-1,-3.8260338E-1,-5.816491E-1,-1.7889908E-1,1.7647058E0,-4.709105E-1,1.1201124E-1,-4.9178526E-1,3.8705137E-2,-6.0391724E-1,1.4739229E-1,-1.05263166E-1,6.186771E-1,1.6129032E-1,-5.540819E-1,1.0079051E0,7.3685176E-3,-1.5214963E-1,1.1349693E-1,6.410788E-1,-1.0451444E-2,-1.8706857E-1,-1.5789473E-1,-1.735905E-1,6.046512E-1,-1.7128028E-1,3.5820895E-1,-4.6783622E-2,-1.8588641E-1,-1.6666666E-1,3.943662E-1,7.8163296E-2,-1.8600193E-1],"categories":[],"categories_nodes":[],"categories_segments":[],"categories_sizes":[],"default_left":[0,0,0,0,0,0,0,0,0,0,0,0,0,0,0,0,0,0,0,0,0,0,0,0,0,0,0,0,0,0,0,0,0,0,0,0,0,0,0,0,0,0,0,0,0],"id":2,"left_children":[1,3,5,7,9,11,-1,13,15,-1,-1,17,-1,19,21,-1,23,25,27,29,31,33,35,-1,-1,37,39,41,43,-1,-1,-1,-1,-1,-1,-1,-1,-1,-1,-1,-1,-1,-1,-1,-1],"loss_changes":[3.2841278E1,1.9940338E1,3.0656654E1,1.4088806E1,1.1011792E1,3.0255024E1,0E0,1.5736237E1,4.206008E1,0E0,0E0,3.9561478E1,0E0,6.3330612E1,9.310791E0,0E0,8.000542E0,8.151089E0,4.535573E1,1.4820953E1,4.3929436E1,5.1239014E-1,2.5091372E1,0E0,0E0,1.4746982E1,3.4448051E0,2.498964E1,6.914089E1,0E0,0E0,0E0,0E0,0E0,0E0,0E0,0E0,0E0,0E0,0E0,0E0,0E0,0E0,0E0,0E0],"parents":[2147483647,0,0,1,1,2,2,3,3,4,4,5,5,7,7,8,8,11,11,13,13,14,14,16,16,17,17,18,18,19,19,20,20,21,21,22,22,25,25,26,26,27,27,28,28],"right_children":[2,4,6,8,10,12,-1,14,16,-1,-1,18,-1,20,22,-1,24,26,28,30,32,34,36,-1,-1,38,40,42,44,-1,-1,-1,-1,-1,-1,-1,-1,-1,-1,-1,-1,-1,-1,-1,-1],"split_conditions":[9.61E-1,2.9E1,9.99E-1,4.385926E3,4.7009525E-1,1.2E1,-1.8615648E-1,1.4014221E3,9.99E-1,-1.3483146E-1,5.689655E-1,9.86E-1,-1.8563469E-1,1.0285154E3,8.899452E-1,-1.7889908E-1,4.34E-1,9.67E-1,5.57E-1,2.9383582E3,1.1807504E3,7.15E-1,2.9918066E3,-1.05263166E-1,6.186771E-1,1.9324054E3,9.728049E2,2.9657917E3,2.9770906E3,-1.5214963E-1,1.1349693E-1,6.410788E-1,-1.0451444E-2,-1.8706857E-1,-1.5789473E-1,-1.735905E-1,6.046512E-1,-1.7128028E-1,3.5820895E-1,-4.6783622E-2,-1.8588641E-1,-1.6666666E-1,3.943662E-1,7.8163296E-2,-1.8600193E-1],"split_indices":[5,8,4,0,3,8,0,0,4,0,0,4,0,0,3,0,5,4,3,1,1,5,1,0,0,2,2,2,1,0,0,0,0,0,0,0,0,0,0,0,0,0,0,0,0],"split_type":[0,0,0,0,0,0,0,0,0,0,0,0,0,0,0,0,0,0,0,0,0,0,0,0,0,0,0,0,0,0,0,0,0,0,0,0,0,0,0,0,0,0,0,0,0],"sum_hessian":[2.8544001E3,1.9811201E3,8.732801E2,1.9737601E3,7.3600006E0,7.3472003E2,1.3856001E2,1.9424001E3,3.1360003E1,2.5600002E0,4.8E0,6.352001E2,9.9520004E1,1.3753601E3,5.6704004E2,2.0800001E1,1.056E1,1.5232E2,4.8288004E2,1.09216E3,2.832E2,5.504E2,1.6640001E1,1.2800001E0,9.280001E0,1.76E1,1.3472002E2,4.9600002E1,4.3328003E2,1.0736001E3,1.8560001E1,8.64E0,2.7456003E2,4.3360004E2,1.1680001E2,1.24800005E1,4.1600003E0,1.056E1,7.0400004E0,1.952E1,1.15200005E2,8.000001E0,4.1600002E1,3.0912003E2,1.2416001E2],"tree_param":{"num_deleted":"0","num_feature":"11","num_nodes":"45","size_leaf_vector":"1"}},{"base_weights":[-3.4531063E-1,-3.1930855E-1,-1.8673117E-1,-3.250964E-1,1.1320754E0,-5.3587973E-1,-2.879841E-1,6.390533E-1,-1.4876033E-1,-3.4905958E-1,-1.8678989E-1,3.2831734E-1,-3.1324574E-1,-4.3188798E-1,7.296137E-1,-3.3466533E-1,8.668857E-1,1.2745098E0,-3.1767407E-1,-1.5027322E-1,1.5789473E-1,5.4651165E-1,-1.511628E-1,-1.8222721E-1,4.489051E-1,1.2117503E-1,5.117647E-1,5.840708E-1,-1.15384616E-1,-1.2947056E-1,-7.587376E-2],"categories":[],"categories_nodes":[],"categories_segments":[],"categories_sizes":[],"default_left":[0,0,0,0,0,0,0,0,0,0,0,0,0,0,0,0,0,0,0,0,0,0,0,0,0,0,0,0,0,0,0],"id":3,"left_children":[1,3,-1,5,7,9,11,-1,-1,13,-1,15,17,19,21,23,25,27,29,-1,-1,-1,-1,-1,-1,-1,-1,-1,-1,-1,-1],"loss_changes":[2.0376862E1,2.23143E1,0E0,2.0207428E1,1.8279732E1,6.079506E0,3.459395E1,0E0,0E0,1.1526097E1,0E0,3.1611557E1,1.5371857E1,8.012346E0,1.34727335E1,2.0905918E1,1.82197E1,7.5761814E0,1.5554169E1,0E0,0E0,0E0,0E0,0E0,0E0,0E0,0E0,0E0,0E0,0E0,0E0],"parents":[2147483647,0,0,1,1,3,3,4,4,5,5,6,6,9,9,11,11,12,12,13,13,14,14,15,15,16,16,17,17,18,18],"right_children":[2,4,-1,6,8,10,12,-1,-1,14,-1,16,18,20,22,24,26,28,30,-1,-1,-1,-1,-1,-1,-1,-1,-1,-1,-1,-1],"split_conditions":[1.6E1,1.5E1,-1.8673117E-1,2.57E-1,5.738072E2,4.1598575E2,3.236982E2,6.390533E-1,-1.4876033E-1,1.2283798E3,-1.8678989E-1,1.65E-1,7.9941176E-2,4.0571442E2,1.2626692E3,9.935154E2,7.52E-1,9.2E-2,9.5264246E2,-1.5027322E-1,1.5789473E-1,5.4651165E-1,-1.511628E-1,-1.8222721E-1,4.489051E-1,1.2117503E-1,5.117647E-1,5.840708E-1,-1.15384616E-1,-1.2947056E-1,-7.587376E-2],"split_indices":[8,8,0,4,0,0,0,0,0,1,0,5,3,0,1,1,4,5,0,0,0,0,0,0,0,0,0,0,0,0,0],"split_type":[0,0,0,0,0,0,0,0,0,0,0,0,0,0,0,0,0,0,0,0,0,0,0,0,0,0,0,0,0,0,0],"sum_hessian":[2.8544001E3,2.6115203E3,2.4288002E2,2.6019202E3,9.6E0,3.8752002E2,2.2144001E3,5.76E0,3.8400002E0,1.2448001E2,2.6304E2,8.672001E1,2.1276802E3,1.1616001E2,8.320001E0,3.904E1,4.7680004E1,5.1200004E0,2.12256E3,1.0880001E2,7.3600006E0,4.1600003E0,4.1600003E0,3.456E1,4.4800005E0,3.1680002E1,1.6000002E1,3.5200002E0,1.6000001E0,7.6736005E2,1.3552001E3],"tree_param":{"num_deleted":"0","num_feature":"11","num_nodes":"31","size_leaf_vector":"1"}},{"base_weights":[-3.3865657E-1,1.9343166E-1,-3.667222E-1,-1.1891279E-1,1.0423115E0,-3.296375E-1,-6.016057E-1,-3.1126696E-1,1.005089E0,1.4759427E0,-1.6666666E-1,4.5616817E-2,-3.46345E-1,-1.8695801E-1,-2.613828E-1,2.734731E-2,-1.8362282E-1,-1.511628E-1,1.5916954E0,-1.6101694E-1,1.9935169E0,-4.285714E-1,4.8448142E-1,-3.5899535E-1,2.35732E-1,1.1570247E0,-1.7806841E-1,-1.8069665E-1,1.0277135E0,6.666666E-1,-1.3483146E-1,6.764706E-1,-1.2962963E-1,4.1551244E-2,-1.8222721E-1,1.5264797E0,1.4634146E-1,-4.2342916E-1,-2.370203E-1,1.4356434E0,-1.8106994E-1,-1.05263166E-1,5.3932583E-1,-1.5328467E-1,4.813084E-1,-1.7128028E-1,5.56701E-1,-1.3483146E-1,6.186771E-1,-8.181818E-2,5E-1,-1.01123594E-1,-1.4876032E-1,-1.106246E-1,3.3098724E-2,4.9562365E-1,-1.2328767E-1],"categories":[],"categories_nodes":[],"categories_segments":[],"categories_sizes":[],"default_left":[0,0,0,0,0,0,0,0,0,0,0,0,0,0,0,0,0,0,0,0,0,0,0,0,0,0,0,0,0,0,0,0,0,0,0,0,0,0,0,0,0,0,0,0,0,0,0,0,0,0,0,0,0,0,0,0,0],"id":4,"left_children":[1,3,5,7,9,11,13,15,17,19,-1,21,23,-1,25,27,-1,-1,29,-1,31,33,35,37,39,41,-1,-1,43,-1,-1,-1,-1,45,-1,47,49,51,53,55,-1,-1,-1,-1,-1,-1,-1,-1,-1,-1,-1,-1,-1,-1,-1,-1,-1],"loss_changes":[4.271176E1,3.8230293E1,2.3430664E1,2.3222088E1,2.7676193E1,1.4717926E1,2.5449371E0,9.310285E0,1.47168665E1,3.3112778E1,0E0,2.1192888E1,1.6616821E1,0E0,1.1862789E1,2.8259033E1,0E0,0E0,1.5876345E1,0E0,1.6621933E1,4.1452923E0,1.8394323E1,1.7172852E1,4.9569088E1,5.306981E0,0E0,0E0,1.6187199E1,0E0,0E0,0E0,0E0,1.710406E1,0E0,1.4519941E1,2.6576496E1,8.820435E0,3.4904736E1,8.752266E0,0E0,0E0,0E0,0E0,0E0,0E0,0E0,0E0,0E0,0E0,0E0,0E0,0E0,0E0,0E0,0E0,0E0],"parents":[2147483647,0,0,1,1,2,2,3,3,4,4,5,5,6,6,7,7,8,8,9,9,11,11,12,12,14,14,15,15,18,18,20,20,21,21,22,22,23,23,24,24,25,25,28,28,33,33,35,35,36,36,37,37,38,38,39,39],"right_children":[2,4,6,8,10,12,14,16,18,20,-1,22,24,-1,26,28,-1,-1,30,-1,32,34,36,38,40,42,-1,-1,44,-1,-1,-1,-1,46,-1,48,50,52,54,56,-1,-1,-1,-1,-1,-1,-1,-1,-1,-1,-1,-1,-1,-1,-1,-1,-1],"split_conditions":[3.3E-2,8.563681E2,1E0,2.5008943E2,1.2755266E3,1.5478782E-1,9.2786664E-1,7.152253E2,3.236982E2,1.3904545E-1,-1.6666666E-1,1.531422E-1,6.051392E3,-1.8695801E-1,9.308387E-1,6.495967E2,-1.8362282E-1,-1.511628E-1,4.0571442E2,-1.6101694E-1,5.8E-1,9.4545215E2,3.1E-1,2.1963625E-1,6.48E-1,9.98E-1,-1.7806841E-1,-1.8069665E-1,1.5992409E2,6.666666E-1,-1.3483146E-1,6.764706E-1,-1.2962963E-1,9.370977E2,-1.8222721E-1,1.99E-1,9.96E-1,9.4165173E2,1.7526917E3,3.4752444E3,-1.8106994E-1,-1.05263166E-1,5.3932583E-1,-1.5328467E-1,4.813084E-1,-1.7128028E-1,5.56701E-1,-1.3483146E-1,6.186771E-1,-8.181818E-2,5E-1,-1.01123594E-1,-1.4876032E-1,-1.106246E-1,3.3098724E-2,4.9562365E-1,-1.2328767E-1],"split_indices":[5,0,10,2,0,6,3,1,0,3,0,6,2,0,3,1,0,0,0,0,4,1,4,7,4,4,0,0,0,0,0,0,0,1,0,4,5,0,0,0,0,0,0,0,0,0,0,0,0,0,0,0,0,0,0,0,0],"split_type":[0,0,0,0,0,0,0,0,0,0,0,0,0,0,0,0,0,0,0,0,0,0,0,0,0,0,0,0,0,0,0,0,0,0,0,0,0,0,0,0,0,0,0,0,0,0,0,0,0,0,0,0,0,0,0,0,0],"sum_hessian":[2.8544001E3,1.4272002E2,2.7116802E3,1.0496001E2,3.7760002E1,2.3440002E3,3.6768002E2,9.0240005E1,1.4720001E1,2.9760002E1,8.000001E0,9.9840004E1,2.2441602E3,3.4496002E2,2.2720001E1,4.2880005E1,4.7360004E1,4.1600003E0,1.056E1,6.0800004E0,2.3680002E1,4.8000004E1,5.1840004E1,2.1968E3,4.7360004E1,3.8400002E0,1.8880001E1,2.6560001E1,1.6320002E1,8.000001E0,2.5600002E0,2.1440002E1,2.2400002E0,1.3440001E1,3.456E1,1.1840001E1,4.0000004E1,1.4358401E3,7.609601E2,1.92E1,2.8160002E1,1.2800001E0,2.5600002E0,4.4800005E0,1.1840001E1,1.056E1,2.88E0,2.5600002E0,9.280001E0,3.2000004E1,8.000001E0,6.5760004E2,7.7824005E2,5.5168005E2,2.0928001E2,1.728E1,1.9200001E0],"tree_param":{"num_deleted":"0","num_feature":"11","num_nodes":"57","size_leaf_vector":"1"}},{"base_weights":[8.422103E-1,9.2431736E-1,7.90451E-2,9.943429E-1,8.236045E-1,-3.1954467E-2,3.8535544E-1,1.0006751E0,-4.8299924E-2,6.512605E-1,9.572563E-1,3.9751545E-1,-2.9013836E-1,1.0096214E0,2.8454316E-1,3.091124E-1,-1.3482068E-1,7.4322116E-1,5.6518577E-3,5.027141E-1,9.1925716E-1,7.897819E-1,-2.0581013E-1,3.611445E-1,-3.5617343E-1,9.660851E-1,1.2098894E0,4.1275087E-1,-4.8518926E-1,3.3438286E-1,8.0025226E-1,3.860917E-1,-9.010734E-2,5.8898926E-1,1.0012248E0,1.3884838E0,2.0343675E-1,-3.2555968E-1,4.110654E-1,-4.7403276E-1,3.3357865E-1,3.115508E-1,2.248037E-1,4.657523E-1,2.9617384E-1,-8.573679E-2,-1.8890536E-1,4.0132153E-1,1.7832639E-2,3.073681E-1,1.9610675E-1,1.3501984E-1,-9.492738E-2,3.0498976E-1,-2.1489921E-3,2.4662897E-1,3.5468996E-1,4.9748547E-2,4.8106304E-1,-1.7013174E-1,2.4253766E-1,-1.3695778E-1,2.0681563E-1,5.70247E-1,-1.5765563E-1,-1.7123686E-1,7.3463607E-1],"categories":[],"categories_nodes":[],"categories_segments":[],"categories_sizes":[],"default_left":[0,0,0,0,0,0,0,0,0,0,0,0,0,0,0,0,0,0,0,0,0,0,0,0,0,0,0,0,0,0,0,0,0,0,0,0,0,0,0,0,0,0,0,0,0,0,0,0,0,0,0,0,0,0,0,0,0,0,0,0,0,0,0,0,0,0,0],"id":5,"left_children":[1,3,5,7,9,11,-1,13,15,17,19,21,23,25,27,-1,-1,29,31,-1,33,35,37,-1,39,41,43,-1,45,47,49,-1,51,53,55,57,59,61,-1,63,65,-1,-1,-1,-1,-1,-1,-1,-1,-1,-1,-1,-1,-1,-1,-1,-1,-1,-1,-1,-1,-1,-1,-1,-1,-1,-1],"loss_changes":[2.2932495E2,2.249121E1,4.77706E1,1.288855E1,3.073529E1,3.6440826E1,0E0,1.2097534E1,5.955216E0,3.5485153E1,1.9335022E1,2.9372377E1,2.0670584E1,1.5474487E1,2.187243E1,0E0,0E0,1.1932098E1,9.384182E0,0E0,1.9130493E1,2.6046215E1,9.7735E0,0E0,1.6194742E1,2.3910767E1,2.4167145E1,0E0,2.6784682E-1,1.8063992E1,1.4402008E1,0E0,8.848927E0,3.755288E1,1.7911438E1,9.4466095E0,1.866948E1,6.527614E0,0E0,2.1649666E1,5.7590614E1,0E0,0E0,0E0,0E0,0E0,0E0,0E0,0E0,0E0,0E0,0E0,0E0,0E0,0E0,0E0,0E0,0E0,0E0,0E0,0E0,0E0,0E0,0E0,0E0,0E0,0E0],"parents":[2147483647,0,0,1,1,2,2,3,3,4,4,5,5,7,7,8,8,9,9,10,10,11,11,12,12,13,13,14,14,17,17,18,18,20,20,21,21,22,22,24,24,25,25,26,26,28,28,29,29,30,30,32,32,33,33,34,34,35,35,36,36,37,37,39,39,40,40],"right_children":[2,4,6,8,10,12,-1,14,16,18,20,22,24,26,28,-1,-1,30,32,-1,34,36,38,-1,40,42,44,-1,46,48,50,-1,52,54,56,58,60,62,-1,64,66,-1,-1,-1,-1,-1,-1,-1,-1,-1,-1,-1,-1,-1,-1,-1,-1,-1,-1,-1,-1,-1,-1,-1,-1,-1,-1],"split_conditions":[1E0,1.9932609E3,4.9714336E3,2.4966954E-1,2.9770906E3,2.3935059E3,3.8535544E-1,9.6775E-1,9.83E-1,2.949351E3,1.2258379E3,2.3097931E-1,1.7187984E-1,8.4183514E-1,2.221529E-1,3.091124E-1,-1.3482068E-1,1.15914285E-1,1.6234961E-1,5.027141E-1,1.5982206E3,9.94E-1,1.9E1,3.611445E-1,2.1267036E-1,9.69E-1,9.121868E2,4.1275087E-1,9.799695E2,8.095265E2,3.9495605E-1,3.860917E-1,9.89E-1,3.08E-1,2.031626E-1,6.3623566E2,5.6315386E-1,9.94E-1,4.110654E-1,7E0,2.402003E3,3.115508E-1,2.248037E-1,4.657523E-1,2.9617384E-1,-8.573679E-2,-1.8890536E-1,4.0132153E-1,1.7832639E-2,3.073681E-1,1.9610675E-1,1.3501984E-1,-9.492738E-2,3.0498976E-1,-2.1489921E-3,2.4662897E-1,3.5468996E-1,4.9748547E-2,4.8106304E-1,-1.7013174E-1,2.4253766E-1,-1.3695778E-1,2.0681563E-1,5.70247E-1,-1.5765563E-1,-1.7123686E-1,7.3463607E-1],"split_indices":[10,1,1,7,1,1,0,3,4,2,0,6,6,3,6,0,0,3,6,0,2,5,8,0,6,4,0,0,0,2,3,0,4,5,7,0,3,4,0,8,1,0,0,0,0,0,0,0,0,0,0,0,0,0,0,0,0,0,0,0,0,0,0,0,0,0,0],"split_type":[0,0,0,0,0,0,0,0,0,0,0,0,0,0,0,0,0,0,0,0,0,0,0,0,0,0,0,0,0,0,0,0,0,0,0,0,0,0,0,0,0,0,0,0,0,0,0,0,0,0,0,0,0,0,0,0,0,0,0,0,0,0,0,0,0,0,0],"sum_hessian":[3.659928E3,3.3042236E3,3.5570447E2,1.9438164E3,1.3604071E3,3.2660434E2,2.9100128E1,1.9321224E3,1.169398E1,5.9675903E2,7.6364813E2,1.22423004E2,2.0418132E2,1.9078787E3,2.4243807E1,2.744475E0,8.949505E0,5.2222235E2,7.453669E1,3.6195404E1,7.274527E2,7.400066E1,4.8422344E1,7.913743E0,1.9626758E2,1.5719718E3,3.3590686E2,9.701716E0,1.454209E1,6.4769936E1,4.5745242E2,4.3180947E0,7.021859E1,1.4627197E2,5.811807E2,3.593764E1,3.8063023E1,4.5740337E1,2.682006E0,1.6789224E2,2.8375338E1,1.1754396E3,3.9653214E2,1.2995325E2,2.0595361E2,7.3613925E0,7.180698E0,1.3099542E1,5.167039E1,1.784114E2,2.7904102E2,2.0441122E1,4.977747E1,8.476293E1,6.150904E1,2.9494604E2,2.862347E2,5.6406336E0,3.0297009E1,1.6769032E1,2.1293991E1,4.0999985E1,4.7403502E0,2.8004115E0,1.6509183E2,2.0388346E1,7.9869924E0],"tree_param":{"num_deleted":"0","num_feature":"11","num_nodes":"67","size_leaf_vector":"1"}},{"base_weights":[-3.1332272E-1,-1.7862588E-1,9.1420263E-1,-1.7582968E-1,1.029846E0,-1.7154881E-1,1.1067814E0,1.1615856E0,-1.6506204E-1,1.1872059E0,-1.5474877E-1,3.5953784E-1,-1.64248E-1],"categories":[],"categories_nodes":[],"categories_segments":[],"categories_sizes":[],"default_left":[0,0,0,0,0,0,0,0,0,0,0,0,0],"id":6,"left_children":[1,-1,3,-1,5,-1,7,9,-1,11,-1,-1,-1],"loss_changes":[8.903956E2,0E0,8.398596E1,0E0,5.5660614E1,0E0,3.9363586E1,1.8365845E1,0E0,8.605103E0,0E0,0E0,0E0],"parents":[2147483647,0,0,2,2,4,4,6,6,7,7,9,9],"right_children":[2,-1,4,-1,6,-1,8,10,-1,12,-1,-1,-1],"split_conditions":[1E0,-1.7862588E-1,1.7045004E3,-1.7582968E-1,1.8229067E-1,-1.7154881E-1,4.9714336E3,9.116264E-1,-1.6506204E-1,4.0455374E3,-1.5474877E-1,3.5953784E-1,-1.64248E-1],"split_indices":[10,0,1,0,6,0,1,3,0,0,0,0,0],"split_type":[0,0,0,0,0,0,0,0,0,0,0,0,0],"sum_hessian":[2.5687373E3,2.0891467E3,4.7959064E2,3.4030243E1,4.455604E2,2.0126467E1,4.2543393E2,4.1210275E2,1.3331155E1,4.0619098E2,5.9117823E0,4.0388E2,2.3109617E0],"tree_param":{"num_deleted":"0","num_feature":"11","num_nodes":"13","size_leaf_vector":"1"}},{"base_weights":[-3.046259E-1,-4.5439038E-1,-2.2574654E-1,-3.692459E-1,-5.7064193E-1,-1.1526976E-1,-4.303846E-1,-4.535356E-1,1.1682357E0,-1.8085007E-1,7.510309E-1,-1.8069966E-1,1.3379406E0,-4.8189408E-1,1.09875634E-1,-4.9159095E-1,8.110439E-1,2.0845227E0,-1.6139324E-1,1.5616786E0,-1.411829E-1,-1.9585715E-1,1.7233326E0,1.6951454E0,-1.6690859E-1,-5.2692574E-1,6.567616E-2,-1.7435408E-1,8.250797E-1,-5.3456956E-1,-3.0304554E-1,7.5489396E-1,-1.610034E-1,-1.2192399E-1,7.3659277E-1,-9.633235E-2,6.267737E-1,-3.571531E-1,-8.114612E-2,6.3344574E-1,-1.00530855E-1,-1.2588796E-1,1.8159816E0,-5.710941E-1,-3.112757E-1,4.1436723E-1,-1.7214927E-1,5.0450486E-1,1.1510547E-1,-1.7867708E-1,-1.3724723E-1,5.595555E-1,-1.384416E-1,-1.18975215E-1,4.371388E-1,3.4099692E-1,-4.2177442E-2,4.079095E-1,6.084491E-1,-1.3985528E-1,-1.7827584E-1,3.059949E-1,-1.7587234E-1,3.4084183E-1,-1.6331238E-1],"categories":[],"categories_nodes":[],"categories_segments":[],"categories_sizes":[],"default_left":[0,0,0,0,0,0,0,0,0,0,0,0,0,0,0,0,0,0,0,0,0,0,0,0,0,0,0,0,0,0,0,0,0,0,0,0,0,0,0,0,0,0,0,0,0,0,0,0,0,0,0,0,0,0,0,0,0,0,0,0,0,0,0,0,0],"id":7,"left_children":[1,3,5,7,9,11,13,15,17,-1,19,21,23,25,27,29,31,33,-1,35,-1,37,39,41,-1,43,45,-1,47,49,51,-1,-1,-1,-1,-1,-1,53,55,-1,-1,-1,57,59,61,-1,-1,-1,63,-1,-1,-1,-1,-1,-1,-1,-1,-1,-1,-1,-1,-1,-1,-1,-1],"loss_changes":[3.011882E1,8.515289E0,3.7878708E1,6.68436E1,1.623217E1,1.0396417E2,1.6410866E1,2.377877E1,4.3137157E1,0E0,9.908983E0,3.0489075E1,3.282572E1,1.327182E1,2.617008E1,3.664917E0,3.4836723E1,1.7336533E1,0E0,6.4321184E0,0E0,1.9165169E1,7.381716E0,1.09555435E1,0E0,4.5480194E0,3.5860504E1,0E0,1.5592381E1,1.5302429E0,3.176796E1,0E0,0E0,0E0,0E0,0E0,0E0,3.1400623E1,4.4140736E1,0E0,0E0,0E0,9.136734E-1,7.205658E-1,3.2276688E1,0E0,0E0,0E0,1.0898234E1,0E0,0E0,0E0,0E0,0E0,0E0,0E0,0E0,0E0,0E0,0E0,0E0,0E0,0E0,0E0,0E0],"parents":[2147483647,0,0,1,1,2,2,3,3,4,4,5,5,6,6,7,7,8,8,10,10,11,11,12,12,13,13,14,14,15,15,16,16,17,17,19,19,21,21,22,22,23,23,25,25,26,26,28,28,29,29,30,30,37,37,38,38,42,42,43,43,44,44,48,48],"right_children":[2,4,6,8,10,12,14,16,18,-1,20,22,24,26,28,30,32,34,-1,36,-1,38,40,42,-1,44,46,-1,48,50,52,-1,-1,-1,-1,-1,-1,54,56,-1,-1,-1,58,60,62,-1,-1,-1,64,-1,-1,-1,-1,-1,-1,-1,-1,-1,-1,-1,-1,-1,-1,-1,-1],"split_conditions":[9.609411E2,7.0667896E2,2.9770906E3,6.9499536E2,2.4821898E-1,2.9657917E3,2.4335805E-1,7.3682606E-1,2.3592857E-1,-1.8085007E-1,3.5479546E-1,2.4963959E-1,2.200076E-1,8.899452E-1,4.975283E3,7.3533496E2,6.2403394E2,7.6E-2,-1.6139324E-1,2.7657142E-1,-1.411829E-1,1.0536146E3,9.90048E2,1.5823065E-1,-1.6690859E-1,9.97E-1,5.12E-1,-1.7435408E-1,4.978985E3,2.0417234E-1,7.395587E2,7.5489396E-1,-1.610034E-1,-1.2192399E-1,7.3659277E-1,-9.633235E-2,6.267737E-1,2.9445698E3,1.5231047E3,6.3344574E-1,-1.00530855E-1,-1.2588796E-1,2.1163477E3,1.8421006E3,5.231731E-1,4.1436723E-1,-1.7214927E-1,5.0450486E-1,2.43482E-1,-1.7867708E-1,-1.3724723E-1,5.595555E-1,-1.384416E-1,-1.18975215E-1,4.371388E-1,3.4099692E-1,-4.2177442E-2,4.079095E-1,6.084491E-1,-1.3985528E-1,-1.7827584E-1,3.059949E-1,-1.7587234E-1,3.4084183E-1,-1.6331238E-1],"split_indices":[2,0,1,0,6,2,6,3,3,0,3,6,6,3,1,2,0,5,0,3,0,0,1,6,0,5,5,0,1,6,2,0,0,0,0,0,0,1,1,0,0,0,0,0,3,0,0,0,6,0,0,0,0,0,0,0,0,0,0,0,0,0,0,0,0],"split_type":[0,0,0,0,0,0,0,0,0,0,0,0,0,0,0,0,0,0,0,0,0,0,0,0,0,0,0,0,0,0,0,0,0,0,0,0,0,0,0,0,0,0,0,0,0,0,0,0,0,0,0,0,0,0,0,0,0,0,0,0,0,0,0,0,0],"sum_hessian":[2.557245E3,8.805764E2,1.6766687E3,5.1070447E2,3.6987192E2,1.089857E3,5.8681165E2,4.8482956E2,2.587491E1,3.6160822E2,8.263714E0,1.043739E3,4.6118053E1,5.358324E2,5.09793E1,4.712591E2,1.3570473E1,1.6690104E1,9.184806E0,4.8001313E0,3.4635828E0,1.0363857E3,7.353258E0,3.8889816E1,7.2282386E0,4.9514948E2,4.06829E1,2.6022663E1,2.4956638E1,3.8228302E2,8.897605E1,5.6078224E0,7.9626503E0,2.150046E0,1.4540058E1,1.1362857E0,3.6638455E0,4.298531E2,6.0653265E2,6.164975E0,1.1882831E0,1.968374E0,3.692144E1,4.0960742E2,8.554205E1,1.2928172E1,2.7754728E1,1.0690096E1,1.4266542E1,2.0961276E2,1.7267027E2,5.3249807E0,8.365108E1,4.2147433E2,8.378759E0,2.738571E1,5.79147E2,1.4070954E1,2.2850487E1,7.7890274E1,3.3171713E2,1.4179897E1,7.136216E1,5.314946E0,8.951596E0],"tree_param":{"num_deleted":"0","num_feature":"11","num_nodes":"65","size_leaf_vector":"1"}},{"base_weights":[-2.9490554E-1,-2.6962304E-1,-1.7698099E-1,-4.9419406E-1,-2.3294511E-1,9.720913E-2,-5.297237E-1,2.948597E-1,-2.571467E-1,-1.6721638E-1,5.984421E-1,-3.7678633E-2,-5.554333E-1,-2.9083732E-1,6.791115E-1,-2.6682895E-1,5.8474296E-1,-1.6509396E-1,7.7378476E-1,-3.262946E-1,-1.781826E-1,-1.7360656E-1,1.1012441E0,2.435911E-1,1.1596587E0,9.473078E-2,-2.8942278E-1,1.4204425E0,-1.6414264E-1,4.5928776E-1,-1.2669848E-1,-1.7321631E-1,1.9422589E-1,4.4999728E-1,-1.1221288E-1,3.0622384E-1,-1.7939126E-1,4.1203973E-1,-1.474831E-1,-6.296477E-2,3.6597222E-1,-1.336142E-1,-6.81357E-2,-1.1268679E-1,5.142972E-1],"categories":[],"categories_nodes":[],"categories_segments":[],"categories_sizes":[],"default_left":[0,0,0,0,0,0,0,0,0,0,0,0,0,0,0,0,0,0,0,0,0,0,0,0,0,0,0,0,0,0,0,0,0,0,0,0,0,0,0,0,0,0,0,0,0],"id":8,"left_children":[1,3,-1,5,7,9,11,13,15,-1,-1,17,19,21,23,25,27,-1,29,31,-1,-1,33,35,37,39,41,43,-1,-1,-1,-1,-1,-1,-1,-1,-1,-1,-1,-1,-1,-1,-1,-1,-1],"loss_changes":[1.8933167E1,1.9318695E1,0E0,6.993004E0,2.6006897E1,2.5417032E1,3.9232635E0,2.033286E1,1.5982574E1,0E0,0E0,7.3123736E0,2.420105E0,1.5120508E1,1.1087055E1,1.5713379E1,2.1955078E1,0E0,6.827687E0,1.1337009E1,0E0,0E0,4.4068985E0,2.0076365E1,9.699738E0,3.9221825E1,1.7461792E1,7.588913E0,0E0,0E0,0E0,0E0,0E0,0E0,0E0,0E0,0E0,0E0,0E0,0E0,0E0,0E0,0E0,0E0,0E0],"parents":[2147483647,0,0,1,1,3,3,4,4,5,5,6,6,7,7,8,8,11,11,12,12,13,13,14,14,15,15,16,16,18,18,19,19,22,22,23,23,24,24,25,25,26,26,27,27],"right_children":[2,4,-1,6,8,10,12,14,16,-1,-1,18,20,22,24,26,28,-1,30,32,-1,-1,34,36,38,40,42,44,-1,-1,-1,-1,-1,-1,-1,-1,-1,-1,-1,-1,-1,-1,-1,-1,-1],"split_conditions":[1.6E1,2.57E-1,-1.7698099E-1,1.5992409E2,3.236982E2,6.670497E2,4.867713E2,1.65E-1,1.3E1,-1.6721638E-1,5.984421E-1,4.5986584E2,4.8935484E-2,9.935154E2,2.663897E2,1.7044444E-1,5.9092754E-1,-1.6509396E-1,8.2E-2,1.2283798E3,-1.781826E-1,-1.7360656E-1,2.663897E2,2.797897E2,9.6885095E2,1.6225E-1,7.68E-1,4.7009525E-1,-1.6414264E-1,4.5928776E-1,-1.2669848E-1,-1.7321631E-1,1.9422589E-1,4.4999728E-1,-1.1221288E-1,3.0622384E-1,-1.7939126E-1,4.1203973E-1,-1.474831E-1,-6.296477E-2,3.6597222E-1,-1.336142E-1,-6.81357E-2,-1.1268679E-1,5.142972E-1],"split_indices":[8,4,0,0,0,1,1,5,8,0,0,2,3,1,0,3,3,0,3,1,0,0,0,2,1,3,4,3,0,0,0,0,0,0,0,0,0,0,0,0,0,0,0,0,0],"split_type":[0,0,0,0,0,0,0,0,0,0,0,0,0,0,0,0,0,0,0,0,0,0,0,0,0,0,0,0,0,0,0,0,0,0,0,0,0,0,0,0,0,0,0,0,0],"sum_hessian":[2.5585774E3,2.3583904E3,2.0018697E2,3.2935376E2,2.0290367E3,1.8566816E1,3.1078693E2,8.846853E1,1.9405681E3,1.4329845E1,4.23697E0,1.5554836E1,2.9523212E2,3.5143715E1,5.3324814E1,1.9191794E3,2.1388773E1,9.729893E0,5.8249435E0,4.384055E1,2.5139156E2,2.9606133E1,5.537584E0,2.8763412E1,2.4561403E1,1.12687805E2,1.8064916E3,1.2157584E1,9.23119E0,3.3955297E0,2.429414E0,3.5176548E1,8.664001E0,4.3461447E0,1.1914392E0,1.4843242E1,1.392017E1,2.1894703E1,2.6666994E0,8.93201E1,2.3367706E1,5.13916E2,1.2925756E3,1.6704478E0,1.0487136E1],"tree_param":{"num_deleted":"0","num_feature":"11","num_nodes":"45","size_leaf_vector":"1"}},{"base_weights":[-2.9007053E-1,1.7359796E-1,-3.173463E-1,-8.8607095E-2,7.5352806E-1,-2.812528E-1,-5.6668705E-1,-3.463658E-1,5.0964725E-1,1.0018809E0,-1.5725742E-1,-5.229806E-1,-2.517097E-1,-1.7715508E-1,-2.3203106E-1,4.222154E-2,-1.7646919E-1,8.9243686E-1,-1.5963009E-1,-1.5253031E-1,1.2685105E0,8.998535E-2,-1.8035573E-1,2.724299E-1,-2.694027E-1,8.003331E-1,-1.6936639E-1,-1.6847603E-1,6.309467E-1,-1.460187E-1,3.736779E-1,4.1783816E-1,-1.2137038E-1,-2.056554E-1,6.122401E-1,8.824784E-1,-1.746894E-1,1.6893178E-1,-2.9026988E-1,-1.02287084E-1,3.5560745E-1,4.494469E-1,-1.5387689E-1,-1.7099686E-1,3.311537E-1,2.200106E-2,6.2728715E-1,2.3777619E-1,-5.7672273E-2,-9.142715E-2,6.8971045E-2],"categories":[],"categories_nodes":[],"categories_segments":[],"categories_sizes":[],"default_left":[0,0,0,0,0,0,0,0,0,0,0,0,0,0,0,0,0,0,0,0,0,0,0,0,0,0,0,0,0,0,0,0,0,0,0,0,0,0,0,0,0,0,0,0,0,0,0,0,0,0,0],"id":9,"left_children":[1,3,5,7,9,11,13,15,17,19,-1,21,23,-1,25,27,-1,29,-1,-1,31,33,-1,35,37,39,-1,-1,41,-1,-1,-1,-1,43,-1,45,-1,47,49,-1,-1,-1,-1,-1,-1,-1,-1,-1,-1,-1,-1],"loss_changes":[3.249193E1,2.1832867E1,2.1643509E1,1.5514973E1,1.470112E1,1.4995926E1,2.298195E0,6.61434E0,1.2579889E1,1.5845303E1,0E0,1.1068497E1,1.7596138E1,0E0,7.985521E0,1.0247449E1,0E0,1.1600412E1,0E0,0E0,7.2941284E0,1.5915415E1,0E0,3.294543E1,1.67724E1,2.9353466E0,0E0,0E0,1.52137575E1,0E0,0E0,0E0,0E0,1.2194135E1,0E0,3.572454E1,0E0,1.9009073E1,1.3224823E1,0E0,0E0,0E0,0E0,0E0,0E0,0E0,0E0,0E0,0E0,0E0,0E0],"parents":[2147483647,0,0,1,1,2,2,3,3,4,4,5,5,6,6,7,7,8,8,9,9,11,11,12,12,14,14,15,15,17,17,20,20,21,21,23,23,24,24,25,25,28,28,33,33,35,35,37,37,38,38],"right_children":[2,4,6,8,10,12,14,16,18,20,-1,22,24,-1,26,28,-1,30,-1,-1,32,34,-1,36,38,40,-1,-1,42,-1,-1,-1,-1,44,-1,46,-1,48,50,-1,-1,-1,-1,-1,-1,-1,-1,-1,-1,-1,-1],"split_conditions":[3.3E-2,8.563681E2,1E0,1.5427544E2,1.2755266E3,5.1003995E2,9.2786664E-1,1E-2,4.5074075E-2,1.3904545E-1,-1.5725742E-1,1.6170305E-1,7.4086017E2,-1.7715508E-1,9.308387E-1,9.4291665E-2,-1.7646919E-1,2.630243E2,-1.5963009E-1,-1.5253031E-1,5.8E-1,1.6120996E-1,-1.8035573E-1,5.900606E2,1.5478782E-1,9.98E-1,-1.6936639E-1,-1.6847603E-1,1.0711628E-1,-1.460187E-1,3.736779E-1,4.1783816E-1,-1.2137038E-1,7.61E-1,6.122401E-1,6.80208E2,-1.746894E-1,7.315759E2,6.051392E3,-1.02287084E-1,3.5560745E-1,4.494469E-1,-1.5387689E-1,-1.7099686E-1,3.311537E-1,2.200106E-2,6.2728715E-1,2.3777619E-1,-5.7672273E-2,-9.142715E-2,6.8971045E-2],"split_indices":[5,0,10,2,0,0,3,5,3,3,0,6,1,0,3,3,0,0,0,0,4,6,0,0,6,4,0,0,3,0,0,0,0,4,0,2,0,0,2,0,0,0,0,0,0,0,0,0,0,0,0],"split_type":[0,0,0,0,0,0,0,0,0,0,0,0,0,0,0,0,0,0,0,0,0,0,0,0,0,0,0,0,0,0,0,0,0,0,0,0,0,0,0,0,0,0,0,0,0,0,0,0,0,0,0],"sum_hessian":[2.5637998E3,1.4214095E2,2.4216587E3,9.8467735E1,4.367322E1,2.117296E3,3.043628E2,6.911184E1,2.935589E1,3.6746593E1,6.926625E0,2.2876779E2,1.8885282E3,2.8341693E2,2.0945847E1,2.6830532E1,4.228131E1,2.1572437E1,7.7834544E0,5.3777266E0,3.1368868E1,2.5867748E1,2.0290004E2,6.119789E1,1.8273303E3,4.760229E0,1.6185617E1,1.3268348E1,1.3562185E1,4.3207116E0,1.7251726E1,2.9355726E1,2.0131423E0,2.3240318E1,2.6274283E0,3.5691315E1,2.5506578E1,8.271557E1,1.7446147E3,1.2296778E0,3.5305514E0,7.5377865E0,6.0243983E0,1.8623539E1,4.6167803E0,2.2013065E1,1.3678247E1,2.9896776E1,5.281879E1,1.6977452E3,4.686952E1],"tree_param":{"num_deleted":"0","num_feature":"11","num_nodes":"51","size_leaf_vector":"1"}},{"base_weights":[6.060441E-1,6.5361875E-1,7.935844E-2,8.510986E-1,6.339782E-1,-1.3320027E-2,2.8441668E-1,6.8031293E-1,9.745277E-1,6.415587E-1,2.4894693E-1,3.2468697E-1,-2.4499308E-1,7.553138E-1,-1.4196894E-1,3.040773E-1,2.3366024E-1,6.3403934E-1,1.0273609E0,4.3202903E-2,3.3683556E-1,5.594693E-1,-2.5794187E-1,6.5121603E-1,-3.3572266E-1,6.1288464E-1,3.4703866E-1,-1.0356022E-1,3.105996E-1,6.7188174E-1,5.580914E-1,5.749858E-1,3.6230114E-1,-7.544121E-2,2.823331E-1,3.2099012E-1,1.4537634E0,-4.6461588E-1,6.336648E-1,3.2452893E-1,-1.3207233E-1,-4.7199804E-1,3.1620806E-1,2.99225E-1,5.8085907E-2,1.9501732E-1,3.11503E-1,8.948367E-2,1.9118243E-1,3.5044864E-1,-1.966935E-1,-1.08385E-1,7.8347296E-2,2.6952508E-1,-2.8913746E-2,2.6428849E-1,5.3143287E-1,-1.6364022E-1,-9.796143E-2,3.7997866E-1,-1.3026619E-1,-1.44178E-1,2.0662217E-1,3.9726764E-1,-1.538001E-1,-1.6247252E-1,4.6038485E-1],"categories":[],"categories_nodes":[],"categories_segments":[],"categories_sizes":[],"default_left":[0,0,0,0,0,0,0,0,0,0,0,0,0,0,0,0,0,0,0,0,0,0,0,0,0,0,0,0,0,0,0,0,0,0,0,0,0,0,0,0,0,0,0,0,0,0,0,0,0,0,0,0,0,0,0,0,0,0,0,0,0,0,0,0,0,0,0],"id":10,"left_children":[1,3,5,7,9,11,-1,13,15,17,19,21,23,25,-1,-1,27,29,31,33,-1,35,37,39,41,43,-1,-1,-1,45,47,49,-1,51,-1,53,55,57,59,-1,61,63,65,-1,-1,-1,-1,-1,-1,-1,-1,-1,-1,-1,-1,-1,-1,-1,-1,-1,-1,-1,-1,-1,-1,-1,-1],"loss_changes":[9.987805E1,1.3646851E1,2.670433E1,6.250046E0,9.561523E0,2.3615559E1,0E0,1.2546883E1,5.2055206E0,8.822388E0,1.1806959E1,1.692303E1,1.4765523E1,6.8777466E0,0E0,0E0,5.3312855E0,8.838745E0,4.2665405E0,5.86788E0,0E0,1.8246576E1,6.9126368E0,5.804013E0,1.46406555E1,1.5938557E1,0E0,0E0,0E0,1.639862E1,2.1865265E1,1.4812172E1,0E0,4.8078494E0,0E0,1.709034E1,1.7492485E0,1.5382814E-1,5.4040155E0,0E0,2.289266E0,1.0563656E1,3.0930988E1,0E0,0E0,0E0,0E0,0E0,0E0,0E0,0E0,0E0,0E0,0E0,0E0,0E0,0E0,0E0,0E0,0E0,0E0,0E0,0E0,0E0,0E0,0E0,0E0],"parents":[2147483647,0,0,1,1,2,2,3,3,4,4,5,5,7,7,8,8,9,9,10,10,11,11,12,12,13,13,16,16,17,17,18,18,19,19,21,21,22,22,23,23,24,24,25,25,29,29,30,30,31,31,33,33,35,35,36,36,37,37,38,38,40,40,41,41,42,42],"right_children":[2,4,6,8,10,12,-1,14,16,18,20,22,24,26,-1,-1,28,30,32,34,-1,36,38,40,42,44,-1,-1,-1,46,48,50,-1,52,-1,54,56,58,60,-1,62,64,66,-1,-1,-1,-1,-1,-1,-1,-1,-1,-1,-1,-1,-1,-1,-1,-1,-1,-1,-1,-1,-1,-1,-1,-1],"split_conditions":[1E0,1.78E-1,4.9714336E3,4.7141364E2,1.3E1,2.3935059E3,2.8441668E-1,4.5986584E2,1.1105502E3,1E0,6.56E-1,2.3738565E-1,1.8229067E-1,4.0571442E2,-1.4196894E-1,3.040773E-1,1.8442754E-1,9.23E-1,6.56E-1,2.2552493E3,3.3683556E-1,1.127599E3,9.81E-1,9.214878E-1,2.1267036E-1,2.630243E2,3.4703866E-1,-1.0356022E-1,3.105996E-1,8.22E-1,6.454516E-1,6.5374076E-1,3.6230114E-1,1.7E1,2.823331E-1,9.93E-1,1.7131506E-1,8.8884503E2,1.9976265E3,3.2452893E-1,9.2786664E-1,6E0,2.402003E3,2.99225E-1,5.8085907E-2,1.9501732E-1,3.11503E-1,8.948367E-2,1.9118243E-1,3.5044864E-1,-1.966935E-1,-1.08385E-1,7.8347296E-2,2.6952508E-1,-2.8913746E-2,2.6428849E-1,5.3143287E-1,-1.6364022E-1,-9.796143E-2,3.7997866E-1,-1.3026619E-1,-1.44178E-1,2.0662217E-1,3.9726764E-1,-1.538001E-1,-1.6247252E-1,4.6038485E-1],"split_indices":[10,4,1,2,8,1,0,2,0,4,5,6,6,0,0,0,6,5,3,2,0,0,4,3,6,0,0,0,0,5,3,3,0,8,0,5,6,0,1,0,3,8,1,0,0,0,0,0,0,0,0,0,0,0,0,0,0,0,0,0,0,0,0,0,0,0,0],"split_type":[0,0,0,0,0,0,0,0,0,0,0,0,0,0,0,0,0,0,0,0,0,0,0,0,0,0,0,0,0,0,0,0,0,0,0,0,0,0,0,0,0,0,0,0,0,0,0,0,0,0,0,0,0,0,0,0,0,0,0,0,0,0,0,0,0,0,0],"sum_hessian":[3.987122E3,3.6565874E3,3.3053476E2,3.2694342E2,3.329644E3,2.995603E2,3.0974451E1,1.3989124E2,1.8705217E2,3.2647021E3,6.494174E1,1.21659584E2,1.7790073E2,1.3167522E2,8.216017E0,1.773339E2,9.718284E0,3.204882E3,5.982E1,5.341475E1,1.152699E1,8.674403E1,3.4915546E1,1.5786566E1,1.6211417E2,9.905955E1,3.2615673E1,5.9740305E0,3.7442532E0,2.1338223E3,1.07106E3,1.8241972E1,4.157803E1,4.7989666E1,5.425086E0,6.9554924E1,1.7189108E1,2.8733934E1,6.181612E0,9.941182E0,5.8453827E0,1.3431403E2,2.7800135E1,5.0950737E1,4.8108807E1,2.0165065E3,1.17315704E2,2.512939E2,8.197661E2,1.2343192E1,5.89878E0,2.5911825E1,2.2077839E1,2.8698387E1,4.085654E1,7.478281E0,9.710828E0,1.6261547E1,1.2472386E1,3.764395E0,2.4172173E0,4.394113E0,1.4512699E0,2.2749596E0,1.3203906E2,1.6640444E1,1.1159692E1],"tree_param":{"num_deleted":"0","num_feature":"11","num_nodes":"67","size_leaf_vector":"1"}},{"base_weights":[-2.9437214E-1,-1.724146E-1,6.841961E-1,-1.7060411E-1,7.645561E-1,-1.6296457E-1,8.129804E-1,8.467385E-1,-1.5629365E-1,8.6273354E-1,-1.4500411E-1,2.6111856E-1,-1.4732681E-1],"categories":[],"categories_nodes":[],"categories_segments":[],"categories_sizes":[],"default_left":[0,0,0,0,0,0,0,0,0,0,0,0,0],"id":11,"left_children":[1,-1,3,-1,5,-1,7,9,-1,11,-1,-1,-1],"loss_changes":[6.178577E2,0E0,5.0943848E1,0E0,3.0323639E1,0E0,2.0949371E1,9.874786E0,0E0,4.9874268E0,0E0,0E0,0E0],"parents":[2147483647,0,0,2,2,4,4,6,6,7,7,9,9],"right_children":[2,-1,4,-1,6,-1,8,10,-1,12,-1,-1,-1],"split_conditions":[1E0,-1.724146E-1,1.7045004E3,-1.7060411E-1,1.8229067E-1,-1.6296457E-1,4.9714336E3,9.116264E-1,-1.5629365E-1,4.0455374E3,-1.4500411E-1,2.6111856E-1,-1.4732681E-1],"split_indices":[10,0,1,0,6,0,1,3,0,0,0,0,0],"split_type":[0,0,0,0,0,0,0,0,0,0,0,0,0],"sum_hessian":[2.249769E3,1.7490957E3,5.006735E2,2.9811522E1,4.7086197E2,1.6447752E1,4.544142E2,4.4355453E2,1.0859668E1,4.3863113E2,4.923415E0,4.3651788E2,2.1132534E0],"tree_param":{"num_deleted":"0","num_feature":"11","num_nodes":"13","size_leaf_vector":"1"}},{"base_weights":[-2.6433036E-1,-4.1686106E-1,-1.8852514E-1,-3.2711834E-1,-5.438165E-1,-8.63687E-2,-3.9537653E-1,-4.1410345E-1,8.356956E-1,-1.739924E-1,6.1510706E-1,-1.4265852E-1,8.693363E-1,-4.5008123E-1,1.2581481E-1,-4.5468557E-1,6.1720943E-1,1.2932239E0,-1.5308249E-1,1.140698E0,-1.3263889E-1,-3.1670943E-1,-4.638245E-2,1.0705061E0,-1.6327551E-1,-4.9658915E-1,7.249728E-2,-1.6711234E-1,7.051313E-1,-5.356666E-1,-3.2697314E-1,4.5420703E-1,-1.5349929E-1,-1.12145744E-1,1.4496423E0,-8.8576816E-2,4.3036878E-1,-3.8409913E-1,1.0725079E0,1.011313E0,-8.461966E-2,-1.1399376E-1,3.3854654E-1,-5.4540795E-1,-2.6633304E-1,3.1451648E-1,-1.64977E-1,9.991358E-1,-1.4635737E-1,-9.5253445E-2,-1.7296304E-1,2.939739E-1,-1.21758E-1,2.8704092E-1,4.854563E-1,5.2149184E-3,-1.5309091E-1,5.001788E-1,-1.5628351E-1,-1.5618758E-1,5.4129213E-1,-9.726427E-2,1.1547373E-2,-1.2732726E-1,-1.7200372E-1,2.4249934E-1,-1.6895384E-1,-1.2181367E-1,3.533701E-1],"categories":[],"categories_nodes":[],"categories_segments":[],"categories_sizes":[],"default_left":[0,0,0,0,0,0,0,0,0,0,0,0,0,0,0,0,0,0,0,0,0,0,0,0,0,0,0,0,0,0,0,0,0,0,0,0,0,0,0,0,0,0,0,0,0,0,0,0,0,0,0,0,0,0,0,0,0,0,0,0,0,0,0,0,0,0,0,0,0],"id":12,"left_children":[1,3,5,7,9,11,13,15,17,-1,19,21,23,25,27,29,31,33,-1,35,-1,37,39,41,-1,43,45,-1,47,49,51,-1,-1,-1,53,-1,-1,55,57,59,61,-1,-1,63,65,-1,-1,67,-1,-1,-1,-1,-1,-1,-1,-1,-1,-1,-1,-1,-1,-1,-1,-1,-1,-1,-1,-1,-1],"loss_changes":[2.6488693E1,8.503632E0,3.2438244E1,4.5753944E1,1.3517105E1,5.5532043E1,1.453331E1,1.7789833E1,2.0105242E1,0E0,6.054021E0,1.6298637E1,1.691402E1,1.1209404E1,1.9781706E1,3.9937057E0,1.7239202E1,6.760601E0,0E0,3.35641E0,0E0,3.28553E1,2.5483181E1,4.685417E0,0E0,4.601631E0,2.3927896E1,0E0,9.9428005E0,2.0026855E0,1.678795E1,0E0,0E0,0E0,2.7981567E-1,0E0,0E0,1.6792866E1,1.631309E1,2.7650185E1,1.791676E1,0E0,0E0,9.3109894E-1,2.4644474E1,0E0,0E0,5.993559E0,0E0,0E0,0E0,0E0,0E0,0E0,0E0,0E0,0E0,0E0,0E0,0E0,0E0,0E0,0E0,0E0,0E0,0E0,0E0,0E0,0E0],"parents":[2147483647,0,0,1,1,2,2,3,3,4,4,5,5,6,6,7,7,8,8,10,10,11,11,12,12,13,13,14,14,15,15,16,16,17,17,19,19,21,21,22,22,23,23,25,25,26,26,28,28,29,29,30,30,34,34,37,37,38,38,39,39,40,40,43,43,44,44,47,47],"right_children":[2,4,6,8,10,12,14,16,18,-1,20,22,24,26,28,30,32,34,-1,36,-1,38,40,42,-1,44,46,-1,48,50,52,-1,-1,-1,54,-1,-1,56,58,60,62,-1,-1,64,66,-1,-1,68,-1,-1,-1,-1,-1,-1,-1,-1,-1,-1,-1,-1,-1,-1,-1,-1,-1,-1,-1,-1,-1],"split_conditions":[9.609411E2,7.0667896E2,2.9770906E3,6.9499536E2,2.4821898E-1,2.9657917E3,2.4335805E-1,7.3682606E-1,2.3592857E-1,-1.739924E-1,3.5479546E-1,3.9495605E-1,2.200076E-1,8.899452E-1,4.975283E3,5.627562E2,6.2403394E2,7.6E-2,-1.5308249E-1,2.7657142E-1,-1.3263889E-1,2.9277751E3,4.118226E-1,1.5823065E-1,-1.6327551E-1,9.97E-1,5.12E-1,-1.6711234E-1,4.983948E3,1.02E-1,5.733274E2,4.5420703E-1,-1.5349929E-1,-1.12145744E-1,1.4454545E-1,-8.8576816E-2,4.3036878E-1,2.34E-1,1.1362963E-1,1.1843011E3,1.9265975E-1,-1.1399376E-1,3.3854654E-1,1.8421006E3,5.231731E-1,3.1451648E-1,-1.64977E-1,3.6843718E3,-1.4635737E-1,-9.5253445E-2,-1.7296304E-1,2.939739E-1,-1.21758E-1,2.8704092E-1,4.854563E-1,5.2149184E-3,-1.5309091E-1,5.001788E-1,-1.5628351E-1,-1.5618758E-1,5.4129213E-1,-9.726427E-2,1.1547373E-2,-1.2732726E-1,-1.7200372E-1,2.4249934E-1,-1.6895384E-1,-1.2181367E-1,3.533701E-1],"split_indices":[2,0,1,0,6,2,6,3,3,0,3,3,6,3,1,2,0,5,0,3,0,1,3,6,0,5,5,0,2,4,2,0,0,0,3,0,0,4,3,0,6,0,0,0,3,0,0,2,0,0,0,0,0,0,0,0,0,0,0,0,0,0,0,0,0,0,0,0,0],"split_type":[0,0,0,0,0,0,0,0,0,0,0,0,0,0,0,0,0,0,0,0,0,0,0,0,0,0,0,0,0,0,0,0,0,0,0,0,0,0,0,0,0,0,0,0,0,0,0,0,0,0,0,0,0,0,0,0,0,0,0,0,0,0,0,0,0,0,0,0,0],"sum_hessian":[2.296687E3,7.609832E2,1.5357037E3,4.479274E2,3.130558E2,1.0289568E3,5.06747E2,4.1735104E2,3.0576353E1,3.0406848E2,8.987305E0,9.725269E2,5.6429867E1,4.587343E2,4.8012703E1,4.02088E2,1.5263036E1,2.2848707E1,7.727645E0,5.9502673E0,3.0370376E0,3.4554684E2,6.2698004E2,4.961219E1,6.817679E0,4.2129044E2,3.744386E1,2.2054693E1,2.595801E1,2.4410774E2,1.5798027E2,8.3156395E0,6.947396E0,1.8407614E0,2.1007946E1,1.0100373E0,4.94023E0,3.302502E2,1.5296633E1,2.0987509E1,6.0599255E2,1.6935296E0,4.791866E1,3.4646454E2,7.482592E1,1.431502E1,2.312884E1,2.0956026E1,5.0019836E0,3.99053E1,2.0420245E2,8.343022E0,1.4963725E2,7.0551076E0,1.3952839E1,7.919042E1,2.5105978E2,1.1105278E1,4.1913543E0,7.2756267E0,1.3711883E1,2.051339E2,4.0085867E2,6.803463E1,2.784299E2,1.5822205E1,5.900372E1,2.2216117E0,1.8734415E1],"tree_param":{"num_deleted":"0","num_feature":"11","num_nodes":"69","size_leaf_vector":"1"}},{"base_weights":[-2.503739E-1,-2.2589959E-1,-1.7017037E-1,-4.6021518E-1,-1.9058035E-1,-2.4933124E-1,-1.711192E-1,3.2098252E-1,-2.1176612E-1,2.4378324E-2,-1.699939E-1,-7.869426E-2,1.0053979E0,-1.8378778E-1,-4.7929022E-1,-1.638929E-1,3.1672108E-1,-1.7315969E-1,4.9403948E-1,-1.0250896E-1,1.0922679E0,-2.0525984E-1,8.799737E-1,4.5216823E-1,-1.7552257E-1,2.98261E-1,-5.357712E-2,3.6303633E-1,-1.6781715E-1,3.5382783E-1,-1.1699628E-1,-8.000846E-2,-1.371397E-2,7.0851713E-1,1.13556184E-1,5.776468E-1,-1.6186339E-1],"categories":[],"categories_nodes":[],"categories_segments":[],"categories_sizes":[],"default_left":[0,0,0,0,0,0,0,0,0,0,0,0,0,0,0,0,0,0,0,0,0,0,0,0,0,0,0,0,0,0,0,0,0,0,0,0,0],"id":13,"left_children":[1,3,-1,5,7,9,-1,11,13,15,-1,17,19,21,23,-1,25,-1,27,-1,29,31,33,35,-1,-1,-1,-1,-1,-1,-1,-1,-1,-1,-1,-1,-1],"loss_changes":[1.777237E1,1.7659225E1,0E0,6.368164E0,2.028312E1,8.519321E0,0E0,2.0477951E1,1.3322304E1,9.104924E0,0E0,1.3991583E1,3.5989857E0,3.7266666E1,1.6918213E1,0E0,1.2269559E1,0E0,1.7935453E1,0E0,3.8362045E0,1.5595482E1,2.3116343E1,2.704845E1,0E0,0E0,0E0,0E0,0E0,0E0,0E0,0E0,0E0,0E0,0E0,0E0,0E0],"parents":[2147483647,0,0,1,1,3,3,4,4,5,5,7,7,8,8,9,9,11,11,12,12,13,13,14,14,16,16,18,18,20,20,21,21,22,22,23,23],"right_children":[2,4,-1,6,8,10,-1,12,14,16,-1,18,20,22,24,-1,26,-1,28,-1,30,32,34,36,-1,-1,-1,-1,-1,-1,-1,-1,-1,-1,-1,-1,-1],"split_conditions":[1.6E1,2.57E-1,-1.7017037E-1,4.1598575E2,2.8895837E2,2.0012426E-1,-1.711192E-1,2.630243E2,4.9641567E3,4.5074075E-2,-1.699939E-1,5.66E-1,6E-2,4.614054E3,1.6213085E-1,-1.638929E-1,5.932E-2,-1.7315969E-1,2.0395349E-1,-1.0250896E-1,9.7E-1,9.94E-1,4.650384E3,3.88E-1,-1.7552257E-1,2.98261E-1,-5.357712E-2,3.6303633E-1,-1.6781715E-1,3.5382783E-1,-1.1699628E-1,-8.000846E-2,-1.371397E-2,7.0851713E-1,1.13556184E-1,5.776468E-1,-1.6186339E-1],"split_indices":[8,4,0,0,0,6,0,0,1,3,0,4,5,2,6,0,3,0,3,0,4,4,1,5,0,0,0,0,0,0,0,0,0,0,0,0,0],"split_type":[0,0,0,0,0,0,0,0,0,0,0,0,0,0,0,0,0,0,0,0,0,0,0,0,0,0,0,0,0,0,0,0,0,0,0,0,0],"sum_hessian":[2.3072698E3,2.1434246E3,1.6384525E2,2.791895E2,1.864235E3,9.693085E1,1.8225865E2,7.357215E1,1.7906628E3,5.2536823E1,4.4394024E1,4.7006733E1,2.6565416E1,1.622649E3,1.6801381E2,1.7502033E1,3.503479E1,2.5127811E1,2.187892E1,1.4316328E0,2.5133783E1,1.591335E3,3.1314129E1,1.680122E1,1.5121259E2,1.4371021E1,2.0663769E1,1.2936462E1,8.942458E0,2.3930922E1,1.202862E0,1.1484436E3,4.428913E2,6.9797673E0,2.4334362E1,6.380525E0,1.0420695E1],"tree_param":{"num_deleted":"0","num_feature":"11","num_nodes":"37","size_leaf_vector":"1"}},{"base_weights":[-2.4618076E-1,1.7315431E-1,-2.7236277E-1,-5.8696087E-2,6.315566E-1,-2.3719682E-1,-5.4134977E-1,-3.0979353E-1,4.5080772E-1,8.145322E-1,-1.4965963E-1,-4.8986536E-1,-2.0846966E-1,-1.7042097E-1,-1.9896594E-1,5.7413343E-2,-1.6933267E-1,7.4179596E-1,-1.522569E-1,-1.4349729E-1,9.964315E-1,1.1500046E-1,-1.733424E-1,2.556877E-1,-2.256534E-1,6.743598E-1,-1.6221784E-1,-1.6072974E-1,5.417088E-1,-1.3697326E-1,9.83976E-1,3.2448325E-1,-1.137223E-1,-1.6200085E-1,7.819578E-1,8.5761595E-1,-3.3280772E-1,1.6368477E-1,-2.457675E-1,-9.481243E-2,2.8932738E-1,3.4283492E-1,-1.4599746E-1,-9.899875E-2,3.2190067E-1,4.7352085E-1,-1.4703314E-1,-1.5917581E-1,3.97259E-1,-1.7038044E-1,2.587406E-1,-1.00627445E-1,1.560861E-1,-9.4929755E-2,-3.5572115E-2],"categories":[],"categories_nodes":[],"categories_segments":[],"categories_sizes":[],"default_left":[0,0,0,0,0,0,0,0,0,0,0,0,0,0,0,0,0,0,0,0,0,0,0,0,0,0,0,0,0,0,0,0,0,0,0,0,0,0,0,0,0,0,0,0,0,0,0,0,0,0,0,0,0,0,0],"id":14,"left_children":[1,3,5,7,9,11,13,15,17,19,-1,21,23,-1,25,27,-1,29,-1,-1,31,33,-1,35,37,39,-1,-1,41,-1,43,-1,-1,-1,45,47,49,51,53,-1,-1,-1,-1,-1,-1,-1,-1,-1,-1,-1,-1,-1,-1,-1,-1],"loss_changes":[2.5429123E1,1.454162E1,2.045842E1,1.1851909E1,9.905567E0,1.3881523E1,2.1819077E0,5.8222995E0,8.918102E0,9.861597E0,0E0,1.0488934E1,1.3868835E1,0E0,6.2440743E0,7.834921E0,0E0,7.3861856E0,0E0,0E0,4.54702E0,1.1651874E1,0E0,2.234922E1,1.3120766E1,2.02433E0,0E0,0E0,9.800679E0,0E0,2.7171307E0,0E0,0E0,0E0,1.4091149E1,2.0827736E1,9.543589E0,1.4885459E1,1.42415695E1,0E0,0E0,0E0,0E0,0E0,0E0,0E0,0E0,0E0,0E0,0E0,0E0,0E0,0E0,0E0,0E0],"parents":[2147483647,0,0,1,1,2,2,3,3,4,4,5,5,6,6,7,7,8,8,9,9,11,11,12,12,14,14,15,15,17,17,20,20,21,21,23,23,24,24,25,25,28,28,30,30,34,34,35,35,36,36,37,37,38,38],"right_children":[2,4,6,8,10,12,14,16,18,20,-1,22,24,-1,26,28,-1,30,-1,-1,32,34,-1,36,38,40,-1,-1,42,-1,44,-1,-1,-1,46,48,50,52,54,-1,-1,-1,-1,-1,-1,-1,-1,-1,-1,-1,-1,-1,-1,-1,-1],"split_conditions":[3.3E-2,8.563681E2,1E0,1.5427544E2,1.2755266E3,5.1003995E2,9.2786664E-1,1E-2,4.0571442E2,1.3904545E-1,-1.4965963E-1,1.6170305E-1,7.4086017E2,-1.7042097E-1,9.308387E-1,9.4291665E-2,-1.6933267E-1,2.630243E2,-1.522569E-1,-1.4349729E-1,5.8E-1,2.8025E-1,-1.733424E-1,5.61166E2,1.5478782E-1,9.98E-1,-1.6221784E-1,-1.6072974E-1,1.0711628E-1,-1.3697326E-1,6.282498E2,3.2448325E-1,-1.137223E-1,-1.6200085E-1,4.103273E-1,5.88155E2,2.452829E-1,1.531422E-1,2.1963263E-1,-9.481243E-2,2.8932738E-1,3.4283492E-1,-1.4599746E-1,-9.899875E-2,3.2190067E-1,4.7352085E-1,-1.4703314E-1,-1.5917581E-1,3.97259E-1,-1.7038044E-1,2.587406E-1,-1.00627445E-1,1.560861E-1,-9.4929755E-2,-3.5572115E-2],"split_indices":[5,0,10,2,0,0,3,5,0,3,0,6,1,0,3,3,0,0,0,0,4,3,0,0,6,4,0,0,3,0,1,0,0,0,3,2,6,6,6,0,0,0,0,0,0,0,0,0,0,0,0,0,0,0,0],"split_type":[0,0,0,0,0,0,0,0,0,0,0,0,0,0,0,0,0,0,0,0,0,0,0,0,0,0,0,0,0,0,0,0,0,0,0,0,0,0,0,0,0,0,0,0,0,0,0,0,0,0,0,0,0,0,0],"sum_hessian":[2.310859E3,1.3547392E2,2.175385E3,9.054838E1,4.4925545E1,1.9255328E3,2.4985213E2,6.0918194E1,2.9630186E1,3.890727E1,6.018278E0,1.9493527E2,1.7305975E3,2.3115344E2,1.8698696E1,2.5263058E1,3.5655136E1,2.290212E1,6.7280664E0,4.5978994E0,3.430937E1,2.4705338E1,1.7022993E2,6.1286297E1,1.6693113E3,4.985549E0,1.3713147E1,1.1307287E1,1.3955771E1,3.7013824E0,1.9200739E1,3.2509834E1,1.7995337E0,1.2560404E1,1.2144933E1,3.0071299E1,3.1214996E1,8.1653366E1,1.587658E3,1.1090926E0,3.8764565E0,8.737497E0,5.2182736E0,1.0466166E0,1.8154121E1,7.3206434E0,4.824289E0,7.530091E0,2.2541208E1,2.6522509E1,4.692488E0,3.4052296E1,4.760107E1,1.01967175E3,5.679862E2],"tree_param":{"num_deleted":"0","num_feature":"11","num_nodes":"55","size_leaf_vector":"1"}},{"base_weights":[4.6478146E-1,4.9807337E-1,9.226671E-2,6.888981E-1,4.8000538E-1,-9.6514545E-2,5.1701844E-1,4.8849854E-1,7.756329E-1,4.595092E-1,6.566509E-1,5.766103E-1,-2.56949E-1,1.01957805E-1,9.774105E-1,2.4283293E-1,2.781292E-1,8.0363876E-1,1.6053008E-1,4.937822E-1,2.7094558E-1,6.638588E-2,6.916296E-1,7.936319E-1,-3.212163E-1,6.660544E-1,-3.5879728E-1,-8.512063E-2,2.9839998E-1,1.0525678E0,3.4904554E-1,-9.499909E-2,2.624424E-1,6.4540404E-1,2.508638E-1,-1.03361726E-1,2.5193468E-1,5.3025407E-1,3.171562E-1,6.1150485E-1,1.5069115E-1,2.5676596E-1,-5.395654E-1,2.8644753E-1,7.325523E-1,2.840321E-1,2.2259453E-1,-1.9113119E-1,1.7804855E-1,2.8926018E-1,-1.7157382E-1,-4.2544556E-1,2.2429086E-1,2.7796438E-1,-3.290845E-1,3.41055E-1,2.2543165E-1,2.2590609E-1,-1.1778418E-1,-8.7510794E-2,2.829122E-1,2.7301478E-1,-1.3328852E-1,6.2424842E-2,1.6611403E-1,-5.1991094E-2,1.22782804E-1,-1.8874739E-1,2.4616048E-1,-2.6209757E-2,8.8687986E-2,-8.729258E-2,-2.2764926E-1,2.8751144E-1,-2.0167173E-1,2.7573586E-1,1.9179568E-1,-9.492344E-2,2.226217E-1,-1.654936E-1,1.6978925E-1,-1.3184582E-1,2.173914E-1,-1.4122052E-1,2.76698E-1],"categories":[],"categories_nodes":[],"categories_segments":[],"categories_sizes":[],"default_left":[0,0,0,0,0,0,0,0,0,0,0,0,0,0,0,0,0,0,0,0,0,0,0,0,0,0,0,0,0,0,0,0,0,0,0,0,0,0,0,0,0,0,0,0,0,0,0,0,0,0,0,0,0,0,0,0,0,0,0,0,0,0,0,0,0,0,0,0,0,0,0,0,0,0,0,0,0,0,0,0,0,0,0,0,0],"id":15,"left_children":[1,3,5,7,9,11,13,15,17,19,21,23,25,27,29,-1,31,33,35,37,39,41,43,45,47,49,51,53,-1,55,57,59,-1,61,-1,-1,-1,63,65,67,69,-1,71,73,75,-1,77,-1,-1,-1,79,81,-1,-1,83,-1,-1,-1,-1,-1,-1,-1,-1,-1,-1,-1,-1,-1,-1,-1,-1,-1,-1,-1,-1,-1,-1,-1,-1,-1,-1,-1,-1,-1,-1],"loss_changes":[5.0288086E1,1.2513977E1,2.6847225E1,5.182022E0,1.2031799E1,2.5224659E1,1.9580187E1,6.4822083E0,3.6881714E0,1.9613953E1,7.2182465E0,9.023224E0,1.7931463E1,9.316171E0,1.9330254E0,0E0,1.378256E1,5.514221E-1,4.02853E0,1.6480835E1,1.9245766E1,1.0407312E1,5.295822E0,2.9836864E0,3.1149955E0,4.923811E0,1.2865379E1,1.1811362E1,0E0,2.3733139E-1,2.3030152E0,8.189386E0,0E0,1.20899105E1,0E0,0E0,0E0,1.6063782E1,2.0168636E1,3.238756E1,1.2111955E1,0E0,4.5373416E-1,2.1322973E1,4.647064E0,0E0,2.7638042E0,0E0,0E0,0E0,1.9522386E0,2.9202194E0,0E0,0E0,7.223404E0,0E0,0E0,0E0,0E0,0E0,0E0,0E0,0E0,0E0,0E0,0E0,0E0,0E0,0E0,0E0,0E0,0E0,0E0,0E0,0E0,0E0,0E0,0E0,0E0,0E0,0E0,0E0,0E0,0E0,0E0],"parents":[2147483647,0,0,1,1,2,2,3,3,4,4,5,5,6,6,7,7,8,8,9,9,10,10,11,11,12,12,13,13,14,14,16,16,17,17,18,18,19,19,20,20,21,21,22,22,23,23,24,24,25,25,26,26,27,27,29,29,30,30,31,31,33,33,37,37,38,38,39,39,40,40,42,42,43,43,44,44,46,46,50,50,51,51,54,54],"right_children":[2,4,6,8,10,12,14,16,18,20,22,24,26,28,30,-1,32,34,36,38,40,42,44,46,48,50,52,54,-1,56,58,60,-1,62,-1,-1,-1,64,66,68,70,-1,72,74,76,-1,78,-1,-1,-1,80,82,-1,-1,84,-1,-1,-1,-1,-1,-1,-1,-1,-1,-1,-1,-1,-1,-1,-1,-1,-1,-1,-1,-1,-1,-1,-1,-1,-1,-1,-1,-1,-1,-1],"split_conditions":[7E0,1.78E-1,2.1439566E-1,4.5E-2,2.5370808E3,1.8258725E-1,6.31E-1,2.630243E2,1.1105502E3,2.6671152E3,1.5561718E-1,9.99E-1,1.0956125E3,1.9E1,9.99E-1,2.4283293E-1,4.0571442E2,4.7141364E2,1.8442754E-1,2.3571916E-1,6.31E-1,1.544991E-1,1.5982206E3,2.777551E3,9.5638104E2,9.97E-1,4.972579E3,1.3E1,2.9839998E-1,4.9641567E3,8.141765E-1,2.264248E-1,2.624424E-1,4.5986584E2,2.508638E-1,-1.03361726E-1,2.5193468E-1,3.3368244E1,2.3704925E-1,2.73E-1,9.56E-1,2.5676596E-1,7.976084E3,1.4690287E3,3.8134644E3,2.840321E-1,2.8284517E3,-1.9113119E-1,1.7804855E-1,2.8926018E-1,9.99E-1,9.116264E-1,2.2429086E-1,2.7796438E-1,1.7392194E3,3.41055E-1,2.2543165E-1,2.2590609E-1,-1.1778418E-1,-8.7510794E-2,2.829122E-1,2.7301478E-1,-1.3328852E-1,6.2424842E-2,1.6611403E-1,-5.1991094E-2,1.22782804E-1,-1.8874739E-1,2.4616048E-1,-2.6209757E-2,8.8687986E-2,-8.729258E-2,-2.2764926E-1,2.8751144E-1,-2.0167173E-1,2.7573586E-1,1.9179568E-1,-9.492344E-2,2.226217E-1,-1.654936E-1,1.6978925E-1,-1.3184582E-1,2.173914E-1,-1.4122052E-1,2.76698E-1],"split_indices":[8,4,6,5,0,6,5,0,0,2,6,5,0,8,5,0,0,2,6,6,5,6,2,0,0,5,2,8,0,1,3,6,0,2,0,0,0,2,6,4,5,0,1,2,2,0,0,0,0,0,4,3,0,0,2,0,0,0,0,0,0,0,0,0,0,0,0,0,0,0,0,0,0,0,0,0,0,0,0,0,0,0,0,0,0],"split_type":[0,0,0,0,0,0,0,0,0,0,0,0,0,0,0,0,0,0,0,0,0,0,0,0,0,0,0,0,0,0,0,0,0,0,0,0,0,0,0,0,0,0,0,0,0,0,0,0,0,0,0,0,0,0,0,0,0,0,0,0,0,0,0,0,0,0,0,0,0,0,0,0,0,0,0,0,0,0,0,0,0,0,0,0,0],"sum_hessian":[4.0576345E3,3.7244417E3,3.3319302E2,3.189312E2,3.4055105E3,2.3120607E2,1.01986946E2,9.8343094E1,2.2058812E2,3.0546775E3,3.5083295E2,4.4000763E1,1.872053E2,5.4276295E1,4.771065E1,3.7810604E1,6.053249E1,2.1068889E2,9.899235E0,2.5834885E3,4.7118896E2,1.9789148E1,3.3104382E2,3.5528828E1,8.471932E0,1.8053665E1,1.6915164E2,4.5620575E1,8.655721E0,4.201075E1,5.699903E0,3.7760223E1,2.2772266E1,3.952096E1,1.7116792E2,5.960198E0,3.9390368E0,2.1396626E3,4.438259E2,1.2189592E2,3.4929306E2,8.413995E0,1.1375154E1,3.110162E1,2.999422E2,2.7496723E1,8.032106E0,6.522824E0,1.9491086E0,1.3203052E1,4.8506136E0,1.6012186E2,9.029786E0,8.320259E0,3.7300316E1,3.0655405E1,1.1355345E1,3.680081E0,2.0198224E0,3.2349194E1,5.4110303E0,3.193103E1,7.5899324E0,1.4589738E2,1.9937651E3,7.004015E1,3.7378574E2,1.728627E1,1.0460965E2,1.3233295E2,2.169601E2,6.42168E0,4.953474E0,1.8285803E1,1.2815817E1,9.699317E1,2.0294902E2,4.1338067E0,3.8982997E0,3.3673701E0,1.4832436E0,1.5880104E2,1.3208126E0,3.4067913E1,3.232402E0],"tree_param":{"num_deleted":"0","num_feature":"11","num_nodes":"85","size_leaf_vector":"1"}},{"base_weights":[-2.834078E-1,-1.677827E-1,5.551082E-1,-1.6638666E-1,6.205152E-1,-1.5572698E-1,6.560101E-1,6.804701E-1,-1.4870724E-1,6.9187886E-1,-1.3472907E-1,2.0936595E-1,-1.3336383E-1],"categories":[],"categories_nodes":[],"categories_segments":[],"categories_sizes":[],"default_left":[0,0,0,0,0,0,0,0,0,0,0,0,0],"id":16,"left_children":[1,-1,3,-1,5,-1,7,9,-1,11,-1,-1,-1],"loss_changes":[4.488413E2,0E0,3.5221375E1,0E0,1.8714401E1,0E0,1.2759277E1,5.8805695E0,0E0,3.234192E0,0E0,0E0,0E0],"parents":[2147483647,0,0,2,2,4,4,6,6,7,7,9,9],"right_children":[2,-1,4,-1,6,-1,8,10,-1,12,-1,-1,-1],"split_conditions":[1E0,-1.677827E-1,1.7045004E3,-1.6638666E-1,1.8229067E-1,-1.5572698E-1,4.9714336E3,9.116264E-1,-1.4870724E-1,4.0455374E3,-1.3472907E-1,2.0936595E-1,-1.3336383E-1],"split_indices":[10,0,1,0,6,0,1,3,0,0,0,0,0],"split_type":[0,0,0,0,0,0,0,0,0,0,0,0,0],"sum_hessian":[1.9380095E3,1.4585021E3,4.7950735E2,2.6272615E1,4.532347E2,1.3278801E1,4.3995593E2,4.3120706E2,8.748878E0,4.2727896E2,3.928082E0,4.2541592E2,1.8630323E0],"tree_param":{"num_deleted":"0","num_feature":"11","num_nodes":"13","size_leaf_vector":"1"}},{"base_weights":[-2.274363E-1,-3.8411164E-1,-1.5404002E-1,-2.8926155E-1,-5.230418E-1,-5.7763927E-2,-3.6726737E-1,-3.7738326E-1,6.8177646E-1,-1.689631E-1,5.4301167E-1,-1.0704958E-1,6.9543046E-1,-4.2344707E-1,1.19159825E-1,-4.1997847E-1,5.4235685E-1,9.953721E-1,-1.4668E-1,2.810606E-1,-1.24692716E-1,-1.21220835E-1,1.0988699E0,8.446657E-1,-1.566773E-1,-2.3501356E-1,-1.6878046E-1,-1.6141683E-1,5.890659E-1,-4.7595888E-1,-1.9085224E-1,3.5076672E-1,-1.4594427E-1,-1.02840215E-1,1.0934608E0,-2.848007E-1,-1.54504245E-2,3.853251E-1,-9.256766E-2,-1.0634116E-1,8.8627714E-1,-4.8976174E-1,9.4234544E-1,-1.4186095E-1,8.0694544E-1,-1.6727188E-1,-1.1425043E-1,4.3149745E-1,-1.14722796E-1,2.180108E-1,3.6469254E-1,-9.747165E-2,3.0280808E-1,6.2381376E-2,-7.863751E-2,2.299115E-1,3.1500253E-1,-1.6824628E-1,-5.745763E-2,8.24215E-1,2.046505E-1,2.8705657E-1,-1.1875629E-1],"categories":[],"categories_nodes":[],"categories_segments":[],"categories_sizes":[],"default_left":[0,0,0,0,0,0,0,0,0,0,0,0,0,0,0,0,0,0,0,0,0,0,0,0,0,0,0,0,0,0,0,0,0,0,0,0,0,0,0,0,0,0,0,0,0,0,0,0,0,0,0,0,0,0,0,0,0,0,0,0,0,0,0],"id":17,"left_children":[1,3,5,7,9,11,13,15,17,-1,19,21,23,25,27,29,31,33,-1,-1,-1,35,37,39,-1,41,-1,-1,43,45,47,-1,-1,-1,49,51,53,-1,-1,-1,55,57,59,-1,61,-1,-1,-1,-1,-1,-1,-1,-1,-1,-1,-1,-1,-1,-1,-1,-1,-1,-1],"loss_changes":[2.3656174E1,8.509514E0,2.8843662E1,3.387067E1,1.1671593E1,3.6077972E1,1.1997868E1,1.4361912E1,1.2616165E1,0E0,4.220601E0,1.5704699E1,1.1289963E1,1.0150467E1,1.4537386E1,4.3391495E0,1.1149359E1,3.8385086E0,0E0,0E0,0E0,1.5593203E1,3.1860228E0,2.9869041E0,0E0,5.0938766E1,0E0,0E0,6.704233E0,1.9372902E0,2.2234474E1,0E0,0E0,0E0,2.2898865E-1,1.8698608E1,3.0281792E1,0E0,0E0,0E0,2.1723557E-1,2.838707E0,1.2345821E1,0E0,4.5338497E0,0E0,0E0,0E0,0E0,0E0,0E0,0E0,0E0,0E0,0E0,0E0,0E0,0E0,0E0,0E0,0E0,0E0,0E0],"parents":[2147483647,0,0,1,1,2,2,3,3,4,4,5,5,6,6,7,7,8,8,10,10,11,11,12,12,13,13,14,14,15,15,16,16,17,17,21,21,22,22,23,23,25,25,28,28,29,29,30,30,34,34,35,35,36,36,40,40,41,41,42,42,44,44],"right_children":[2,4,6,8,10,12,14,16,18,-1,20,22,24,26,28,30,32,34,-1,-1,-1,36,38,40,-1,42,-1,-1,44,46,48,-1,-1,-1,50,52,54,-1,-1,-1,56,58,60,-1,62,-1,-1,-1,-1,-1,-1,-1,-1,-1,-1,-1,-1,-1,-1,-1,-1,-1,-1],"split_conditions":[9.609411E2,7.0667896E2,2.9770906E3,6.9499536E2,2.4821898E-1,2.9657917E3,2.4335805E-1,7.3682606E-1,2.3592857E-1,-1.689631E-1,3.5479546E-1,2.4963959E-1,2.200076E-1,1.9177191E-1,4.975283E3,7.3533496E2,6.2403394E2,7.6E-2,-1.4668E-1,2.810606E-1,-1.24692716E-1,1.0536146E3,9.90048E2,1.5823065E-1,-1.566773E-1,1.8883176E-1,-1.6878046E-1,-1.6141683E-1,4.852967E-1,2.0417234E-1,7.395587E2,3.5076672E-1,-1.4594427E-1,-1.02840215E-1,1.4454545E-1,9.7535896E-1,1.9798331E3,3.853251E-1,-9.256766E-2,-1.0634116E-1,2.9755334E3,4.983948E3,1.8871696E-1,-1.4186095E-1,5.804857E-1,-1.6727188E-1,-1.1425043E-1,4.3149745E-1,-1.14722796E-1,2.180108E-1,3.6469254E-1,-9.747165E-2,3.0280808E-1,6.2381376E-2,-7.863751E-2,2.299115E-1,3.1500253E-1,-1.6824628E-1,-5.745763E-2,8.24215E-1,2.046505E-1,2.8705657E-1,-1.1875629E-1],"split_indices":[2,0,1,0,6,2,6,3,3,0,3,6,6,6,1,2,0,5,0,0,0,0,1,6,0,7,0,0,3,6,2,0,0,0,3,3,2,0,0,0,2,2,6,0,3,0,0,0,0,0,0,0,0,0,0,0,0,0,0,0,0,0,0],"split_type":[0,0,0,0,0,0,0,0,0,0,0,0,0,0,0,0,0,0,0,0,0,0,0,0,0,0,0,0,0,0,0,0,0,0,0,0,0,0,0,0,0,0,0,0,0,0,0,0,0,0,0,0,0,0,0,0,0,0,0,0,0,0,0],"sum_hessian":[2.0613142E3,6.5623956E2,1.4050747E3,3.9181943E2,2.644201E2,9.6887885E2,4.361959E2,3.597807E2,3.2038742E1,2.552732E2,9.146922E0,9.101788E2,5.870013E1,3.911497E2,4.5046192E1,3.4437527E2,1.5405411E1,2.5387905E1,6.6508355E0,6.499407E0,2.647515E0,9.004961E2,9.682621E0,5.2564377E1,6.1357546E0,1.672967E2,2.23853E2,1.871965E1,2.6326542E1,2.7589175E2,6.848353E1,9.487982E0,5.9174285E0,1.5634725E0,2.3824432E1,3.5294864E2,5.475475E2,8.632028E0,1.0505931E0,1.5107172E0,5.1053658E1,1.3801752E2,2.9279186E1,4.282668E0,2.2043875E1,1.4587407E2,1.300177E2,6.5203013E0,6.1963226E1,7.689657E0,1.6134777E1,3.4306628E2,9.882343E0,2.8741852E2,2.6012897E2,3.2750282E1,1.8303375E1,1.10749374E2,2.7268139E1,2.4842787E0,2.6794907E1,1.9782747E1,2.2611263E0],"tree_param":{"num_deleted":"0","num_feature":"11","num_nodes":"63","size_leaf_vector":"1"}},{"base_weights":[-2.0887001E-1,-1.8533015E-1,-1.6523886E-1,-4.3017837E-1,-1.5168212E-1,-2.1605034E-1,-1.6600698E-1,-1.1703105E-3,-2.2473077E-1,3.8272213E-2,-1.6489224E-1,-4.8914753E-2,1.3654505E0,7.112192E-1,-2.4753787E-1,-2.3839353E-1,5.12813E-1,-1.2780845E-1,5.691007E-1,-1.4824559E-1,2.1112957E0,-1.6520144E-1,1.7802385E0,-5.190089E-1,-1.948572E-1,-1.6520172E-1,2.6524574E-1,-1.4182486E-1,2.6252645E-1,4.892264E-2,-9.570302E-2,6.0727394E-1,5.7704784E-2,7.0846295E-1,-9.818732E-2,6.4939886E-1,-1.21813364E-1,-1.7180681E-1,1.5816413E-1,4.0056458E-1,-6.157591E-2],"categories":[],"categories_nodes":[],"categories_segments":[],"categories_sizes":[],"default_left":[0,0,0,0,0,0,0,0,0,0,0,0,0,0,0,0,0,0,0,0,0,0,0,0,0,0,0,0,0,0,0,0,0,0,0,0,0,0,0,0,0],"id":18,"left_children":[1,3,-1,5,7,9,-1,11,13,15,-1,17,19,21,23,25,27,29,31,-1,33,-1,35,37,39,-1,-1,-1,-1,-1,-1,-1,-1,-1,-1,-1,-1,-1,-1,-1,-1],"loss_changes":[1.6759766E1,1.6094856E1,0E0,6.1168785E0,1.8977158E1,7.485709E0,0E0,3.6931923E1,2.4981697E1,6.7995267E0,0E0,2.673766E1,2.7544266E1,3.8618973E1,1.6133057E1,1.198859E1,7.2148952E0,2.7070679E1,3.36523E1,0E0,9.210861E0,0E0,1.3772728E1,1.0629108E1,1.5421284E1,0E0,0E0,0E0,0E0,0E0,0E0,0E0,0E0,0E0,0E0,0E0,0E0,0E0,0E0,0E0,0E0],"parents":[2147483647,0,0,1,1,3,3,4,4,5,5,7,7,8,8,9,9,11,11,12,12,13,13,14,14,15,15,16,16,17,17,18,18,20,20,22,22,23,23,24,24],"right_children":[2,4,-1,6,8,10,-1,12,14,16,-1,18,20,22,24,26,28,30,32,-1,34,-1,36,38,40,-1,-1,-1,-1,-1,-1,-1,-1,-1,-1,-1,-1,-1,-1,-1,-1],"split_conditions":[1.6E1,2.57E-1,-1.6523886E-1,4.1598575E2,4.24E-1,2.0012426E-1,-1.6600698E-1,8.0446154E-1,7.6416725E1,1.8654276E-1,-1.6489224E-1,2.6671152E3,1.6417058E3,2.9751839E1,7.88E-1,1.2076099E3,5.8E-2,6.84248E2,2.73E-1,-1.4824559E-1,2.3449927E3,-1.6520144E-1,2.0809321E-1,2E0,8E-1,-1.6520172E-1,2.6524574E-1,-1.4182486E-1,2.6252645E-1,4.892264E-2,-9.570302E-2,6.0727394E-1,5.7704784E-2,7.0846295E-1,-9.818732E-2,6.4939886E-1,-1.21813364E-1,-1.7180681E-1,1.5816413E-1,4.0056458E-1,-6.157591E-2],"split_indices":[8,4,0,0,5,6,0,3,2,6,0,2,0,2,4,1,3,0,4,0,0,0,6,8,4,0,0,0,0,0,0,0,0,0,0,0,0,0,0,0,0],"split_type":[0,0,0,0,0,0,0,0,0,0,0,0,0,0,0,0,0,0,0,0,0,0,0,0,0,0,0,0,0,0,0,0,0,0,0,0,0,0,0,0,0],"sum_hessian":[2.0939265E3,1.9604983E3,1.3342827E2,2.3544429E2,1.7250541E3,8.698575E1,1.4845854E2,5.639954E2,1.1610586E3,4.9859303E1,3.7126446E1,5.4588837E2,1.810702E1,2.690145E1,1.1341572E3,3.1810717E1,1.8048584E1,4.847944E2,6.1093964E1,5.279986E0,1.2827034E1,1.2560123E1,1.4341326E1,1.8288298E2,9.512742E2,2.528592E1,6.5247974E0,4.7691793E0,1.3279405E1,1.9233434E2,2.9246008E2,1.1665361E1,4.9428604E1,1.1661886E1,1.1651478E0,1.220513E1,2.136196E0,1.7438794E2,8.495031E0,5.5596495E0,9.4571454E2],"tree_param":{"num_deleted":"0","num_feature":"11","num_nodes":"41","size_leaf_vector":"1"}},{"base_weights":[-2.0573616E-1,-1.7133668E-1,-5.222791E-1,1.7017084E-1,-1.9596474E-1,-1.6542637E-1,-1.8629572E-1,-1.6041273E-1,2.8900197E-1,-4.6379435E-1,-1.6781792E-1,1.7299958E-1,-1.5746337E-1,3.9863837E-1,-1.5997142E-1,1.1840464E-1,-1.6821113E-1,-2.347773E-2,-2.2158541E-1,-1.5808547E-1,5.009813E-1,-1.5531312E-1,6.35568E-1,-1.7854501E-1,6.189772E-1,-3.1813696E-1,-8.510999E-2,1.6890469E-1,-1.4138192E-1,3.4874868E-1,-1.4005825E-1,4.6551652E-2,-1.075072E-1,6.2117465E-2,5.814301E-1,-1.02134705E-1,1.7410602E-1,2.2239001E-1,-4.8037343E-2],"categories":[],"categories_nodes":[],"categories_segments":[],"categories_sizes":[],"default_left":[0,0,0,0,0,0,0,0,0,0,0,0,0,0,0,0,0,0,0,0,0,0,0,0,0,0,0,0,0,0,0,0,0,0,0,0,0,0,0],"id":19,"left_children":[1,3,5,7,9,-1,11,-1,13,15,17,-1,-1,19,-1,21,-1,23,25,-1,27,-1,29,31,33,35,37,-1,-1,-1,-1,-1,-1,-1,-1,-1,-1,-1,-1],"loss_changes":[2.2681381E1,1.5910233E1,1.8995056E0,1.0835117E1,1.3199036E1,0E0,4.909004E0,0E0,1.010765E1,9.484077E0,1.2375427E1,0E0,0E0,9.492701E0,0E0,8.436709E0,0E0,4.3355686E1,1.5287014E1,0E0,5.5871696E0,0E0,8.70001E0,2.108542E1,4.5581955E1,1.3835434E1,3.005519E1,0E0,0E0,0E0,0E0,0E0,0E0,0E0,0E0,0E0,0E0,0E0,0E0],"parents":[2147483647,0,0,1,1,2,2,3,3,4,4,6,6,8,8,9,9,10,10,13,13,15,15,17,17,18,18,20,20,22,22,23,23,24,24,25,25,26,26],"right_children":[2,4,6,8,10,-1,12,-1,14,16,18,-1,-1,20,-1,22,-1,24,26,-1,28,-1,30,32,34,36,38,-1,-1,-1,-1,-1,-1,-1,-1,-1,-1,-1,-1],"split_conditions":[1E0,3.3E-2,9.2786664E-1,6.495967E2,5.1003995E2,-1.6542637E-1,9.308387E-1,-1.6041273E-1,2.2680913E-1,1.6170305E-1,8.41173E2,1.7299958E-1,-1.5746337E-1,1.644499E-1,-1.5997142E-1,2.8025E-1,-1.6821113E-1,7.8427454E2,1.7526917E3,-1.5808547E-1,5.8E-1,-1.5531312E-1,4.103273E-1,9.4545215E2,2.3571916E-1,3.5016836E3,1.7888561E3,1.6890469E-1,-1.4138192E-1,3.4874868E-1,-1.4005825E-1,4.6551652E-2,-1.075072E-1,6.2117465E-2,5.814301E-1,-1.02134705E-1,1.7410602E-1,2.2239001E-1,-4.8037343E-2],"split_indices":[10,5,3,1,0,0,3,0,7,6,0,0,0,6,0,3,0,0,0,0,4,0,3,1,6,2,0,0,0,0,0,0,0,0,0,0,0,0,0],"split_type":[0,0,0,0,0,0,0,0,0,0,0,0,0,0,0,0,0,0,0,0,0,0,0,0,0,0,0,0,0,0,0,0,0,0,0,0,0,0,0],"sum_hessian":[2.090199E3,1.8867074E3,2.0349171E2,1.26511604E2,1.7601957E3,1.866602E2,1.6831514E1,1.7746075E1,1.08765526E2,1.6591951E2,1.5942762E3,4.95738E0,1.1874134E1,9.64237E1,1.2341827E1,2.3645214E1,1.422743E2,4.3308502E2,1.1611912E3,9.187051E0,8.723665E1,1.0602724E1,1.3042491E1,3.4945926E2,8.362577E1,6.792879E2,4.8190332E2,8.2400055E1,4.8365946E0,8.787734E0,4.254757E0,1.224111E2,2.2704816E2,6.460783E1,1.9017946E1,6.63434E2,1.5853858E1,3.9363743E1,4.4253955E2],"tree_param":{"num_deleted":"0","num_feature":"11","num_nodes":"39","size_leaf_vector":"1"}},{"base_weights":[3.6807996E-1,3.909158E-1,8.8330425E-2,5.9188247E-1,3.7342474E-1,-8.149292E-2,4.458913E-1,4.0779468E-1,6.7311054E-1,3.5828748E-1,5.69498E-1,4.8200938E-1,-2.2688127E-1,9.2601255E-2,8.919778E-1,2.2615825E-1,2.3803566E-1,7.0105106E-1,1.124948E-1,4.0610737E-1,2.8855318E-1,3.050915E-1,7.2988105E-1,6.865955E-1,-3.3609334E-1,5.5478925E-1,-3.2208848E-1,2.3750375E-1,-8.6237475E-2,9.6148676E-1,2.5943542E-1,2.0585181E-1,5.7645373E-2,5.4448175E-1,2.2026427E-1,-1.0251044E-1,2.1949135E-1,2.812843E-1,4.516431E-1,4.8778388E-1,2.2953753E-1,-1.317635E-1,6.6816205E-1,7.686753E-1,1.1518459E-1,2.430357E-1,2.0141265E-1,-1.8583107E-1,1.5458852E-1,2.4953826E-1,-1.918639E-1,-3.8379243E-1,1.9578335E-1,-3.7099728E-1,2.3340504E-1,3.3078316E-1,2.099582E-1,-1.09329194E-1,1.9128422E-1,-6.622519E-2,2.1739602E-1,2.2997075E-1,-1.21560544E-1,1.501759E-1,2.8396888E-2,1.778139E-1,1.0836414E-1,3.2485306E-2,1.9025053E-1,2.7574885E-1,6.122092E-2,2.2939028E-1,-1.0955225E-1,-6.932009E-3,2.4808848E-1,2.5313488E-1,1.4864212E-1,2.0266254E-1,-1.2646137E-1,-8.441466E-2,1.909002E-1,-1.6219594E-1,1.5064621E-1,2.0605864E-1,-1.2007448E-1,-1.4282906E-1,1.8748827E-1],"categories":[],"categories_nodes":[],"categories_segments":[],"categories_sizes":[],"default_left":[0,0,0,0,0,0,0,0,0,0,0,0,0,0,0,0,0,0,0,0,0,0,0,0,0,0,0,0,0,0,0,0,0,0,0,0,0,0,0,0,0,0,0,0,0,0,0,0,0,0,0,0,0,0,0,0,0,0,0,0,0,0,0,0,0,0,0,0,0,0,0,0,0,0,0,0,0,0,0,0,0,0,0,0,0,0,0],"id":20,"left_children":[1,3,5,7,9,11,13,15,17,19,21,23,25,27,29,-1,31,33,35,37,39,41,43,45,47,49,51,-1,53,55,57,-1,59,61,-1,-1,-1,63,65,67,69,71,73,75,77,-1,79,-1,-1,-1,81,83,-1,85,-1,-1,-1,-1,-1,-1,-1,-1,-1,-1,-1,-1,-1,-1,-1,-1,-1,-1,-1,-1,-1,-1,-1,-1,-1,-1,-1,-1,-1,-1,-1,-1,-1],"loss_changes":[2.5417114E1,1.2725586E1,1.837247E1,4.1095123E0,9.860291E0,1.695154E1,1.5266071E1,5.242812E0,3.0834656E0,1.0389099E1,1.00112E1,7.3411217E0,1.2390682E1,7.0025525E0,1.6379395E0,0E0,5.0843344E0,5.977402E-1,3.2801533E0,1.0482086E1,1.499778E1,1.4812389E1,3.4764252E0,1.8932266E0,2.5312796E0,3.9204988E0,9.086057E0,0E0,1.1380002E1,6.4269257E-1,1.5582297E0,0E0,8.754515E0,8.209026E0,0E0,0E0,0E0,2.048034E1,1.7211243E1,1.619645E1,1.7258083E1,9.269972E0,5.6025314E0,2.463768E0,3.3076603E0,0E0,1.9205738E0,0E0,0E0,0E0,1.6592984E0,2.7202435E0,0E0,3.9167385E0,0E0,0E0,0E0,0E0,0E0,0E0,0E0,0E0,0E0,0E0,0E0,0E0,0E0,0E0,0E0,0E0,0E0,0E0,0E0,0E0,0E0,0E0,0E0,0E0,0E0,0E0,0E0,0E0,0E0,0E0,0E0,0E0,0E0],"parents":[2147483647,0,0,1,1,2,2,3,3,4,4,5,5,6,6,7,7,8,8,9,9,10,10,11,11,12,12,13,13,14,14,16,16,17,17,18,18,19,19,20,20,21,21,22,22,23,23,24,24,25,25,26,26,28,28,29,29,30,30,32,32,33,33,37,37,38,38,39,39,40,40,41,41,42,42,43,43,44,44,46,46,50,50,51,51,53,53],"right_children":[2,4,6,8,10,12,14,16,18,20,22,24,26,28,30,-1,32,34,36,38,40,42,44,46,48,50,52,-1,54,56,58,-1,60,62,-1,-1,-1,64,66,68,70,72,74,76,78,-1,80,-1,-1,-1,82,84,-1,86,-1,-1,-1,-1,-1,-1,-1,-1,-1,-1,-1,-1,-1,-1,-1,-1,-1,-1,-1,-1,-1,-1,-1,-1,-1,-1,-1,-1,-1,-1,-1,-1,-1],"split_conditions":[7E0,1.78E-1,2.1439566E-1,4.5E-2,4.978985E3,1.8258725E-1,1.7392194E3,1.5E-2,1.1105502E3,1.9932609E3,1.8511456E-1,9.99E-1,1.0956125E3,1.3E1,9.99E-1,2.2615825E-1,2.630243E2,4.7141364E2,1.1138053E3,2.3592857E-1,1.798707E-1,3.0173872E3,9.981363E3,2.777551E3,9.5638104E2,9.97E-1,4.972579E3,2.3750375E-1,1.9E1,2.6978804E3,1.9981042E3,2.0585181E-1,4.0571442E2,4.5986584E2,2.2026427E-1,-1.0251044E-1,2.1949135E-1,5.2467896E2,9.69E-1,2.3935059E3,2.67E-1,3.3199507E3,1.5561718E-1,6.312268E3,2.2779094E-1,2.430357E-1,2.8284517E3,-1.8583107E-1,1.5458852E-1,2.4953826E-1,9.99E-1,1.3658442E-1,1.9578335E-1,8.76E-1,2.3340504E-1,3.3078316E-1,2.099582E-1,-1.09329194E-1,1.9128422E-1,-6.622519E-2,2.1739602E-1,2.2997075E-1,-1.21560544E-1,1.501759E-1,2.8396888E-2,1.778139E-1,1.0836414E-1,3.2485306E-2,1.9025053E-1,2.7574885E-1,6.122092E-2,2.2939028E-1,-1.0955225E-1,-6.932009E-3,2.4808848E-1,2.5313488E-1,1.4864212E-1,2.0266254E-1,-1.2646137E-1,-8.441466E-2,1.909002E-1,-1.6219594E-1,1.5064621E-1,2.0605864E-1,-1.2007448E-1,-1.4282906E-1,1.8748827E-1],"split_indices":[8,4,6,5,1,6,2,5,0,1,6,5,0,8,5,0,0,2,0,3,6,0,1,0,0,5,2,0,8,0,1,0,0,2,0,0,0,0,4,1,4,2,6,2,6,0,0,0,0,0,4,3,0,3,0,0,0,0,0,0,0,0,0,0,0,0,0,0,0,0,0,0,0,0,0,0,0,0,0,0,0,0,0,0,0,0,0],"split_type":[0,0,0,0,0,0,0,0,0,0,0,0,0,0,0,0,0,0,0,0,0,0,0,0,0,0,0,0,0,0,0,0,0,0,0,0,0,0,0,0,0,0,0,0,0,0,0,0,0,0,0,0,0,0,0,0,0,0,0,0,0,0,0,0,0,0,0,0,0,0,0,0,0,0,0,0,0,0,0,0,0,0,0,0,0,0,0],"sum_hessian":[3.983089E3,3.6821213E3,3.0096762E2,2.9218405E2,3.3899373E3,2.0457631E2,9.639133E1,9.129711E1,2.0088695E2,3.1496082E3,2.403291E2,4.148226E1,1.6309404E2,5.446439E1,4.1926933E1,2.8913689E1,6.2383423E1,1.9111165E2,9.775311E0,1.8655167E3,1.2840916E3,9.183417E1,1.4849493E2,3.331244E1,8.169826E0,1.7183868E1,1.4591017E2,1.0396775E1,4.4067616E1,3.730727E1,4.6196656E0,1.7099627E1,4.52838E1,3.644873E1,1.5466292E2,5.897257E0,3.8780546E0,5.005581E2,1.3649586E3,2.917863E2,9.923053E2,4.1970894E1,4.9863277E1,1.3944395E2,9.050974E0,2.6018604E1,7.2938333E0,6.3342233E0,1.8356017E0,1.2450688E1,4.733179E0,1.3779333E2,8.116844E0,3.3575638E1,1.0491976E1,2.2146675E1,1.5160593E1,1.757214E0,2.8624516E0,3.2420967E1,1.286283E1,2.9696825E1,6.7519064E0,2.2936024E2,2.7119788E2,5.3101685E2,8.339417E2,8.170559E1,2.1008069E2,3.4090855E1,9.582144E2,8.200709E0,3.3770184E1,9.474484E0,4.0388794E1,1.0773686E2,3.1707098E1,4.301458E0,4.7495155E0,3.6239777E0,3.6698558E0,3.297135E0,1.4360441E0,1.4691191E0,1.3632422E2,3.084288E1,2.7327578E0],"tree_param":{"num_deleted":"0","num_feature":"11","num_nodes":"87","size_leaf_vector":"1"}},{"base_weights":[-2.7708167E-1,-1.6424675E-1,4.7020116E-1,-1.6240394E-1,5.261673E-1,-1.4947967E-1,5.5424964E-1,5.7347447E-1,-1.4184652E-1,5.826586E-1,-1.2648654E-1,1.378507E-1,1.9509116E-1],"categories":[],"categories_nodes":[],"categories_segments":[],"categories_sizes":[],"default_left":[0,0,0,0,0,0,0,0,0,0,0,0,0],"id":21,"left_children":[1,-1,3,-1,5,-1,7,9,-1,11,-1,-1,-1],"loss_changes":[3.3422302E2,0E0,2.5175934E1,0E0,1.22764435E1,0E0,8.297119E0,3.896347E0,0E0,3.0021057E0,0E0,0E0,0E0],"parents":[2147483647,0,0,2,2,4,4,6,6,7,7,9,9],"right_children":[2,-1,4,-1,6,-1,8,10,-1,12,-1,-1,-1],"split_conditions":[1E0,-1.6424675E-1,1.7045004E3,-1.6240394E-1,1.8229067E-1,-1.4947967E-1,4.9714336E3,9.116264E-1,-1.4184652E-1,1.6563783E3,-1.2648654E-1,1.378507E-1,1.9509116E-1],"split_indices":[10,0,1,0,6,0,1,3,0,0,0,0,0],"split_type":[0,0,0,0,0,0,0,0,0,0,0,0,0],"sum_hessian":[1.6517148E3,1.2130388E3,4.3867596E2,2.25436E1,4.1613235E2,1.0656197E1,4.0547617E2,3.984594E2,7.016743E0,3.952262E2,3.233227E0,1.4288316E2,2.5234303E2],"tree_param":{"num_deleted":"0","num_feature":"11","num_nodes":"13","size_leaf_vector":"1"}},{"base_weights":[-1.925913E-1,-3.403478E-1,-1.148604E-1,-3.738441E-1,4.868914E-1,-1.4081933E-2,-3.4077913E-1,-2.587556E-1,-5.209677E-1,-1.4251448E-1,7.808879E-1,-1.0883874E-1,3.1137997E-1,-4.97227E-1,-1.5746953E-1,-3.4552968E-1,5.680387E-1,-1.6570505E-1,-2.6317015E-1,2.766982E-1,-1.1136341E-1,-2.925786E-1,8.1247896E-2,8.386348E-1,5.3688478E-2,-3.3663774E-1,-1.6352282E-1,3.8128063E-1,-3.9001867E-1,-3.881545E-1,3.7655112E-1,8.214171E-1,-1.428926E-1,1.5141416E0,-1.6511199E-1,4.663738E-2,-4.2581174E-1,-3.4478363E-1,2.789758E-1,1.2290425E0,-3.7513804E-2,-3.8576433E-1,5.648648E-1,-1.6483176E-1,3.656873E-1,-1.6078213E-1,6.2750864E-1,1.991094E-1,-1.6255018E-1,-8.601694E-2,-1.6569006E-1,2.9619497E-1,-1.4782539E-1,-9.868776E-2,2.7019346E-1,-1.06422E-1,8.0799705E-1,-1.6473523E-1,1.5195853E-1,9.1095865E-2,-1.4306828E-1,5.736202E-2,-1.7320836E-1,2.6796886E-1,2.4958532E-2,2.4915977E-1,6.884182E-1,-1.642843E-1,2.1496856E-1,-1.7489707E-1,5.199043E-1,2.2588655E-1,-1.7011714E-1,-1.6600424E-1,2.4083821E-1,-1.5247247E-1,2.2934417E-1],"categories":[],"categories_nodes":[],"categories_segments":[],"categories_sizes":[],"default_left":[0,0,0,0,0,0,0,0,0,0,0,0,0,0,0,0,0,0,0,0,0,0,0,0,0,0,0,0,0,0,0,0,0,0,0,0,0,0,0,0,0,0,0,0,0,0,0,0,0,0,0,0,0,0,0,0,0,0,0,0,0,0,0,0,0,0,0,0,0,0,0,0,0,0,0,0,0],"id":22,"left_children":[1,3,5,7,9,11,13,15,17,-1,19,21,23,25,27,29,31,-1,33,-1,-1,35,37,39,41,43,-1,45,47,49,51,53,-1,55,-1,57,59,61,63,65,67,69,71,-1,-1,-1,73,75,-1,-1,-1,-1,-1,-1,-1,-1,-1,-1,-1,-1,-1,-1,-1,-1,-1,-1,-1,-1,-1,-1,-1,-1,-1,-1,-1,-1,-1],"loss_changes":[2.1282516E1,1.7900764E1,2.7726007E1,1.0280701E1,7.531349E0,2.6041319E1,1.0695526E1,2.5100685E1,2.0309448E0,0E0,3.5640144E0,2.2861822E1,2.5827194E1,1.3704224E0,2.2005005E1,9.834568E0,9.216066E0,0E0,1.6709682E1,0E0,0E0,1.5056746E1,2.7235788E1,2.1405739E1,2.919062E1,1.6902939E1,0E0,1.2329449E1,1.1050531E1,4.7986107E0,1.0071747E1,2.7758045E0,0E0,1.1078153E1,0E0,2.623194E1,9.050068E0,1.2897349E1,2.6454975E1,1.6451782E1,8.16959E0,3.0239761E1,1.3207119E1,0E0,0E0,0E0,9.205019E0,1.0706263E1,0E0,0E0,0E0,0E0,0E0,0E0,0E0,0E0,0E0,0E0,0E0,0E0,0E0,0E0,0E0,0E0,0E0,0E0,0E0,0E0,0E0,0E0,0E0,0E0,0E0,0E0,0E0,0E0,0E0],"parents":[2147483647,0,0,1,1,2,2,3,3,4,4,5,5,6,6,7,7,8,8,10,10,11,11,12,12,13,13,14,14,15,15,16,16,18,18,21,21,22,22,23,23,24,24,25,25,27,27,28,28,29,29,30,30,31,31,33,33,35,35,36,36,37,37,38,38,39,39,40,40,41,41,42,42,46,46,47,47],"right_children":[2,4,6,8,10,12,14,16,18,-1,20,22,24,26,28,30,32,-1,34,-1,-1,36,38,40,42,44,-1,46,48,50,52,54,-1,56,-1,58,60,62,64,66,68,70,72,-1,-1,-1,74,76,-1,-1,-1,-1,-1,-1,-1,-1,-1,-1,-1,-1,-1,-1,-1,-1,-1,-1,-1,-1,-1,-1,-1,-1,-1,-1,-1,-1,-1],"split_conditions":[9.859868E2,2.4821898E-1,2.9770906E3,7.0667896E2,7.489093E2,2.679404E3,9.95E-1,6.9499536E2,9.7149255E2,-1.4251448E-1,1.0360753E3,6.295E-1,1.4014221E3,1.8421006E3,5.804857E-1,7.3682606E-1,2.3592857E-1,-1.6570505E-1,9.728049E2,2.766982E-1,-1.1136341E-1,1.8229067E-1,1.9265975E-1,2.8478867E3,9.85E-1,1.8265669E3,-1.6352282E-1,2.9925442E3,5.12E-1,2.1241961E-1,6.2403394E2,1.01E-1,-1.428926E-1,9.73E-1,-1.6511199E-1,1.0610406E3,1.32E-1,1.6120996E-1,7.4720836E-1,1.3500878E3,2.9657917E3,2.7E1,2.1475197E-1,-1.6483176E-1,3.656873E-1,-1.6078213E-1,4.7009525E-1,8.899452E-1,-1.6255018E-1,-8.601694E-2,-1.6569006E-1,2.9619497E-1,-1.4782539E-1,-9.868776E-2,2.7019346E-1,-1.06422E-1,8.0799705E-1,-1.6473523E-1,1.5195853E-1,9.1095865E-2,-1.4306828E-1,5.736202E-2,-1.7320836E-1,2.6796886E-1,2.4958532E-2,2.4915977E-1,6.884182E-1,-1.642843E-1,2.1496856E-1,-1.7489707E-1,5.199043E-1,2.2588655E-1,-1.7011714E-1,-1.6600424E-1,2.4083821E-1,-1.5247247E-1,2.2934417E-1],"split_indices":[2,6,1,0,0,1,4,0,2,0,0,3,0,0,3,3,3,0,2,0,0,6,6,2,5,0,0,2,5,6,0,5,0,5,0,0,5,6,3,0,2,8,6,0,0,0,3,3,0,0,0,0,0,0,0,0,0,0,0,0,0,0,0,0,0,0,0,0,0,0,0,0,0,0,0,0,0],"split_type":[0,0,0,0,0,0,0,0,0,0,0,0,0,0,0,0,0,0,0,0,0,0,0,0,0,0,0,0,0,0,0,0,0,0,0,0,0,0,0,0,0,0,0,0,0,0,0,0,0,0,0,0,0,0,0,0,0,0,0,0,0,0,0,0,0,0,0,0,0,0,0,0,0,0,0,0,0],"sum_hessian":[1.8554347E3,6.38448E2,1.2169867E3,6.1412897E2,2.4319006E1,8.4230927E2,3.746774E2,3.461273E2,2.6800168E2,5.5485706E0,1.8770433E1,6.5288904E2,1.894202E2,2.0122603E2,1.7345139E2,3.1377765E2,3.2349644E1,2.37899E2,3.0102669E1,1.6895649E1,1.874785E0,3.3171268E2,3.2117636E2,6.1445004E1,1.279752E2,4.803801E1,1.5318802E2,5.2103302E1,1.2134808E2,2.967243E2,1.7053354E1,2.6205225E1,6.1444197E0,3.5934064E0,2.6509262E1,9.372801E1,2.3798466E2,1.0157519E2,2.1960118E2,4.2226357E1,1.9218645E1,6.894729E1,5.90279E1,4.2826283E1,5.211728E0,1.0777938E1,4.1325367E1,2.4799736E1,9.654835E1,1.8509459E2,1.11629715E2,9.936374E0,7.1169796E0,1.4853956E0,2.471983E1,1.6606351E0,1.9327712E0,4.074799E1,5.2980022E1,1.5251206E1,2.2273346E2,3.0791655E1,7.078353E1,5.2215343E1,1.6738585E2,3.2028667E1,1.019769E1,1.1627155E1,7.591489E0,6.373901E1,5.2082806E0,5.0904034E1,8.123871E0,5.0626507E0,3.6262714E1,1.1061476E1,1.373826E1],"tree_param":{"num_deleted":"0","num_feature":"11","num_nodes":"77","size_leaf_vector":"1"}},{"base_weights":[-1.7191222E-1,-1.498103E-1,-1.6144082E-1,-4.0609008E-1,-1.1817165E-1,1.8799137E-1,-4.5650682E-1,1.5899738E-2,-1.8655188E-1,-1.4859948E-1,3.0496454E-1,3.997019E-2,-4.9155843E-1,-1.0496908E-1,3.2229662E-1,-4.9153194E-1,-1.3692231E-1,-1.4337566E-1,5.5433637E-1,-2.1527046E-1,-1.6333938E-1,1.5507108E-1,-3.605068E-1,8.565733E-1,-1.8923658E-1,-1.6682936E-1,4.6230027E-1,-3.1843856E-2,-2.9577446E-1,2.565987E-1,-9.912665E-2,-1.5594953E-1,1.3258614E-1,-3.8693916E-2,1.690085E-1,-1.3872568E-1,1.8803203E-1,6.469471E-2,3.7573147E-1,-1.6982836E-1,2.2454697E-1,5.4454786E-1,-1.4708908E-1,9.067134E-3,-1.6556916E-1,3.767644E-2,-1.1927284E-1],"categories":[],"categories_nodes":[],"categories_segments":[],"categories_sizes":[],"default_left":[0,0,0,0,0,0,0,0,0,0,0,0,0,0,0,0,0,0,0,0,0,0,0,0,0,0,0,0,0,0,0,0,0,0,0,0,0,0,0,0,0,0,0,0,0,0,0],"id":23,"left_children":[1,3,-1,5,7,9,11,13,15,-1,-1,17,19,21,23,25,27,-1,29,31,-1,33,35,37,39,-1,41,43,45,-1,-1,-1,-1,-1,-1,-1,-1,-1,-1,-1,-1,-1,-1,-1,-1,-1,-1],"loss_changes":[1.5432682E1,1.4619068E1,0E0,6.0271263E0,1.4777119E1,9.689981E0,3.2066689E0,2.0225786E1,1.608723E1,0E0,0E0,3.728409E0,2.3843498E0,2.6087368E1,4.2382973E1,9.432461E0,1.5335537E1,0E0,2.1430528E0,6.066138E0,0E0,2.2671722E1,2.0200052E1,1.8947575E1,2.8603542E1,0E0,1.3766637E1,1.7912594E1,1.5744541E1,0E0,0E0,0E0,0E0,0E0,0E0,0E0,0E0,0E0,0E0,0E0,0E0,0E0,0E0,0E0,0E0,0E0,0E0],"parents":[2147483647,0,0,1,1,3,3,4,4,5,5,6,6,7,7,8,8,11,11,12,12,13,13,14,14,15,15,16,16,18,18,19,19,21,21,22,22,23,23,24,24,26,26,27,27,28,28],"right_children":[2,4,-1,6,8,10,12,14,16,-1,-1,18,20,22,24,26,28,-1,30,32,-1,34,36,38,40,-1,42,44,46,-1,-1,-1,-1,-1,-1,-1,-1,-1,-1,-1,-1,-1,-1,-1,-1,-1,-1],"split_conditions":[1.6E1,2.57E-1,-1.6144082E-1,1.5992409E2,4.24E-1,6.670497E2,4.867713E2,1.4455624E3,7.68E-1,-1.4859948E-1,3.0496454E-1,4.5986584E2,4.8935484E-2,6.84248E2,1.8502805E3,2E0,8.174545E-1,-1.4337566E-1,8.2E-2,1.2283798E3,-1.6333938E-1,5.42E-1,2.0271022E3,4.78E-1,3.79E-1,-1.6682936E-1,2.195909E-1,4.9641567E3,9.56E-1,2.565987E-1,-9.912665E-2,-1.5594953E-1,1.3258614E-1,-3.8693916E-2,1.690085E-1,-1.3872568E-1,1.8803203E-1,6.469471E-2,3.7573147E-1,-1.6982836E-1,2.2454697E-1,5.4454786E-1,-1.4708908E-1,9.067134E-3,-1.6556916E-1,3.767644E-2,-1.1927284E-1],"split_indices":[8,4,0,0,5,1,1,0,4,0,0,2,3,0,0,8,3,0,3,1,0,4,2,4,5,0,3,1,5,0,0,0,0,0,0,0,0,0,0,0,0,0,0,0,0,0,0],"split_type":[0,0,0,0,0,0,0,0,0,0,0,0,0,0,0,0,0,0,0,0,0,0,0,0,0,0,0,0,0,0,0,0,0,0,0,0,0,0,0,0,0,0,0,0,0,0,0],"sum_hessian":[1.9155819E3,1.8078837E3,1.0769827E2,1.9736336E2,1.6105203E3,1.5225551E1,1.821378E2,5.4423E2,1.0662903E3,8.564478E0,6.6610727E0,1.2001808E1,1.70136E2,3.907447E2,1.534853E2,1.4798703E2,9.183033E2,6.015733E0,5.986076E0,2.8157915E1,1.4197807E2,1.9386105E2,1.9688362E2,7.474379E1,7.8741516E1,1.3899527E2,8.991753E0,5.534225E2,3.6488077E2,4.491381E0,1.4946945E0,1.9384214E1,8.773703E0,1.1472801E2,7.913304E1,1.7894376E2,1.7939863E1,2.9128351E1,4.561544E1,5.6451027E1,2.2290491E1,3.341185E0,5.650568E0,4.9525623E2,5.816626E1,7.095609E1,2.9392468E2],"tree_param":{"num_deleted":"0","num_feature":"11","num_nodes":"47","size_leaf_vector":"1"}},{"base_weights":[-1.6829751E-1,-1.3613722E-1,-5.0665015E-1,1.5105821E-1,-1.5778036E-1,-1.615954E-1,-1.7494436E-1,-5.6814887E-2,5.192827E-1,-4.398724E-1,-1.3083178E-1,1.4542446E-1,-1.5323125E-1,2.1895413E-1,-3.925053E-1,6.5163225E-1,-1.4015901E-1,1.3270955E-1,-1.6405202E-1,-2.9018074E-2,-2.0739381E-1,-1.5621977E-1,6.1737186E-1,-1.647451E-1,3.1187528E-1,-1.3434982E-1,7.8026897E-1,-1.4931425E-1,5.632658E-1,-1.2946497E-1,5.0674576E-1,-3.8616952E-1,-5.5330742E-2,-1.19060144E-1,2.1820216E-1,-1.0959987E-1,1.5897468E-1,2.511508E-1,-1.0076177E-1,2.8709757E-1,-1.3278782E-1,-1.7519963E-3,-1.1289141E-1,2.4936016E-1,-1.6502555E-1,3.2966828E-1,-1.2427034E-1,-8.863774E-2,6.1001938E-2],"categories":[],"categories_nodes":[],"categories_segments":[],"categories_sizes":[],"default_left":[0,0,0,0,0,0,0,0,0,0,0,0,0,0,0,0,0,0,0,0,0,0,0,0,0,0,0,0,0,0,0,0,0,0,0,0,0,0,0,0,0,0,0,0,0,0,0,0,0],"id":24,"left_children":[1,3,5,7,9,-1,11,13,15,17,19,-1,-1,21,23,25,-1,27,-1,29,31,-1,33,-1,35,-1,37,-1,39,41,43,45,47,-1,-1,-1,-1,-1,-1,-1,-1,-1,-1,-1,-1,-1,-1,-1,-1],"loss_changes":[2.0718678E1,1.0876095E1,1.6620255E0,9.433916E0,1.22884445E1,0E0,3.8007734E0,7.439172E0,6.10538E0,8.720449E0,1.1560719E1,0E0,0E0,1.3362094E1,4.163492E0,5.94911E0,0E0,6.531489E0,0E0,3.4403282E1,2.2998909E1,0E0,3.5473328E0,0E0,1.2597353E0,0E0,2.55546E0,0E0,6.0289874E0,1.6418743E1,3.5069702E1,1.6669868E1,2.8554981E1,0E0,0E0,0E0,0E0,0E0,0E0,0E0,0E0,0E0,0E0,0E0,0E0,0E0,0E0,0E0,0E0],"parents":[2147483647,0,0,1,1,2,2,3,3,4,4,6,6,7,7,8,8,9,9,10,10,13,13,14,14,15,15,17,17,19,19,20,20,22,22,24,24,26,26,28,28,29,29,30,30,31,31,32,32],"right_children":[2,4,6,8,10,-1,12,14,16,18,20,-1,-1,22,24,26,-1,28,-1,30,32,-1,34,-1,36,-1,38,-1,40,42,44,46,48,-1,-1,-1,-1,-1,-1,-1,-1,-1,-1,-1,-1,-1,-1,-1,-1],"split_conditions":[1E0,3.3E-2,9.2786664E-1,8.563681E2,5.1003995E2,-1.615954E-1,9.308387E-1,7.152253E2,1.2755266E3,1.6170305E-1,1.0285154E3,1.4542446E-1,-1.5323125E-1,6.495967E2,2.5008943E2,1.3904545E-1,-1.4015901E-1,2.8025E-1,-1.6405202E-1,1.9349691E3,1.7526917E3,-1.5621977E-1,1.5992409E2,-1.647451E-1,1.2931173E3,-1.3434982E-1,5.8E-1,-1.4931425E-1,4.103273E-1,8.305479E2,2.6516602E3,1.64E-1,2.1241961E-1,-1.19060144E-1,2.1820216E-1,-1.0959987E-1,1.5897468E-1,2.511508E-1,-1.0076177E-1,2.8709757E-1,-1.3278782E-1,-1.7519963E-3,-1.1289141E-1,2.4936016E-1,-1.6502555E-1,3.2966828E-1,-1.2427034E-1,-8.863774E-2,6.1001938E-2],"split_indices":[10,5,3,0,0,0,3,1,0,6,0,0,0,1,2,3,0,3,0,1,0,0,0,0,1,0,4,0,3,0,1,4,6,0,0,0,0,0,0,0,0,0,0,0,0,0,0,0,0],"split_type":[0,0,0,0,0,0,0,0,0,0,0,0,0,0,0,0,0,0,0,0,0,0,0,0,0,0,0,0,0,0,0,0,0,0,0,0,0,0,0,0,0,0,0,0,0,0,0,0,0],"sum_hessian":[1.9093629E3,1.744912E3,1.6445087E2,1.2186288E2,1.6230492E3,1.4941248E2,1.5038381E1,7.843169E1,4.343119E1,1.4019502E2,1.4828541E3,4.9234266E0,1.0114954E1,4.324981E1,3.518188E1,3.8592873E1,4.8383183E0,2.2030167E1,1.1816485E2,6.3705927E2,8.4579486E2,1.5033047E1,2.821676E1,2.8961584E1,6.2202992E0,3.7824755E0,3.48104E1,8.876763E0,1.3153403E1,5.37117E2,9.9942245E1,3.8804416E2,4.577507E2,2.5049284E0,2.5711832E1,1.3504444E0,4.869855E0,3.335968E1,1.4507158E0,9.488161E0,3.6652417E0,3.5856183E2,1.785552E2,7.662983E1,2.3312416E1,6.489608E0,3.8155457E2,2.3730971E2,2.2044098E2],"tree_param":{"num_deleted":"0","num_feature":"11","num_nodes":"49","size_leaf_vector":"1"}},{"base_weights":[2.9759765E-1,5.286408E-1,2.806676E-1,3.494194E-1,6.092484E-1,2.965666E-1,8.335055E-2,2.0260878E-1,1.9546683E-1,6.37835E-1,8.376376E-2,2.8211045E-1,5.158234E-1,-7.1574815E-2,3.9610726E-1,1.8641415E-1,3.602498E-2,4.8532563E-1,2.0089947E-1,-9.945142E-2,1.9937517E-1,2.7395776E-1,6.3911885E-1,2.1237828E-1,8.180851E-1,4.106186E-1,-2.0069993E-1,5.3880148E-2,8.095401E-1,-2.327297E-1,2.6102152E-1,2.0311166E-1,-1.0703178E-1,2.8050137E-1,-3.71819E-1,-1.9460991E-1,2.2357674E-1,8.493254E-2,2.3473613E-1,2.6244682E-1,-1.6503052E-1,6.1388123E-1,-3.4521094E-1,4.7679865E-1,-2.8857818E-1,-1.1535063E-1,2.0739701E-1,8.666946E-1,2.399124E-1,1.3655498E-2,2.0161653E-1,9.898218E-2,6.4593196E-2,1.9155063E-1,-1.5469566E-1,-2.0281135E-1,1.7732689E-1,2.2659019E-1,-3.3981778E-2,-1.4910163E-1,1.3895178E-1,2.166514E-1,5.8949176E-2,-1.795207E-1,1.360047E-1,2.2471632E-1,-6.338871E-2,-1.0339077E-1,1.7539407E-1,2.0928101E-1,-1.10480085E-1,2.9175222E-1,1.9113459E-1,-1.0138716E-1,1.7588378E-1],"categories":[],"categories_nodes":[],"categories_segments":[],"categories_sizes":[],"default_left":[0,0,0,0,0,0,0,0,0,0,0,0,0,0,0,0,0,0,0,0,0,0,0,0,0,0,0,0,0,0,0,0,0,0,0,0,0,0,0,0,0,0,0,0,0,0,0,0,0,0,0,0,0,0,0,0,0,0,0,0,0,0,0,0,0,0,0,0,0,0,0,0,0,0,0],"id":25,"left_children":[1,3,5,7,9,11,13,-1,15,17,19,21,23,25,27,-1,29,31,-1,-1,-1,33,35,37,39,41,43,45,47,-1,49,-1,-1,51,53,55,-1,57,-1,-1,59,61,63,65,67,69,-1,71,73,-1,-1,-1,-1,-1,-1,-1,-1,-1,-1,-1,-1,-1,-1,-1,-1,-1,-1,-1,-1,-1,-1,-1,-1,-1,-1],"loss_changes":[1.4828339E1,3.5472183E0,1.1173462E1,4.0374794E0,2.62323E0,1.0323608E1,1.2992832E1,0E0,3.9056015E0,4.9460602E-1,2.7153423E0,8.850281E0,1.8454205E1,1.1275883E1,1.2518601E1,0E0,8.083577E0,5.534631E0,0E0,0E0,0E0,1.2922531E1,6.2048664E0,7.3951015E0,5.800209E0,6.096235E0,8.620189E0,5.4354935E0,1.0988598E0,0E0,3.0283084E0,0E0,0E0,9.609314E0,4.8135777E0,3.624751E0,0E0,1.1387173E1,0E0,0E0,1.5594357E0,1.2386417E0,2.0419242E0,3.2934794E0,6.405508E0,8.499621E0,0E0,2.5725746E-1,1.2075013E0,0E0,0E0,0E0,0E0,0E0,0E0,0E0,0E0,0E0,0E0,0E0,0E0,0E0,0E0,0E0,0E0,0E0,0E0,0E0,0E0,0E0,0E0,0E0,0E0,0E0,0E0],"parents":[2147483647,0,0,1,1,2,2,3,3,4,4,5,5,6,6,8,8,9,9,10,10,11,11,12,12,13,13,14,14,16,16,17,17,21,21,22,22,23,23,24,24,25,25,26,26,27,27,28,28,30,30,33,33,34,34,35,35,37,37,40,40,41,41,42,42,43,43,44,44,45,45,47,47,48,48],"right_children":[2,4,6,8,10,12,14,-1,16,18,20,22,24,26,28,-1,30,32,-1,-1,-1,34,36,38,40,42,44,46,48,-1,50,-1,-1,52,54,56,-1,58,-1,-1,60,62,64,66,68,70,-1,72,74,-1,-1,-1,-1,-1,-1,-1,-1,-1,-1,-1,-1,-1,-1,-1,-1,-1,-1,-1,-1,-1,-1,-1,-1,-1,-1],"split_conditions":[1.78E-1,4.5E-2,7E0,1.5E-2,1.1105502E3,9.99E-1,2.1439566E-1,2.0260878E-1,2.630243E2,4.7141364E2,1.8442754E-1,6.519075E3,2.0199487E-1,1.8258725E-1,1.7392194E3,1.8641415E-1,2.663897E2,4.5986584E2,2.0089947E-1,-9.945142E-2,1.9937517E-1,6.051392E3,1.5561718E-1,2.8913955E3,4.385926E3,9.99E-1,1.0956125E3,1.9E1,9.99E-1,-2.327297E-1,4.8935484E-2,2.0311166E-1,-1.0703178E-1,7.13E-1,1.7860448E-1,3.8134644E3,2.2357674E-1,9.121868E2,2.3473613E-1,2.6244682E-1,5.8711064E3,2.9721052E3,9.5638104E2,9.97E-1,4.972579E3,1.3E1,2.0739701E-1,2.6978804E3,1.9981042E3,1.3655498E-2,2.0161653E-1,9.898218E-2,6.4593196E-2,1.9155063E-1,-1.5469566E-1,-2.0281135E-1,1.7732689E-1,2.2659019E-1,-3.3981778E-2,-1.4910163E-1,1.3895178E-1,2.166514E-1,5.8949176E-2,-1.795207E-1,1.360047E-1,2.2471632E-1,-6.338871E-2,-1.0339077E-1,1.7539407E-1,2.0928101E-1,-1.10480085E-1,2.9175222E-1,1.9113459E-1,-1.0138716E-1,1.7588378E-1],"split_indices":[4,5,8,5,0,4,6,0,0,2,6,1,7,6,2,0,0,2,0,0,0,2,6,2,0,5,0,8,5,0,3,0,0,5,6,2,0,0,0,0,0,2,0,5,2,8,0,0,1,0,0,0,0,0,0,0,0,0,0,0,0,0,0,0,0,0,0,0,0,0,0,0,0,0,0],"split_type":[0,0,0,0,0,0,0,0,0,0,0,0,0,0,0,0,0,0,0,0,0,0,0,0,0,0,0,0,0,0,0,0,0,0,0,0,0,0,0,0,0,0,0,0,0,0,0,0,0,0,0,0,0,0,0,0,0,0,0,0,0,0,0,0,0,0,0,0,0,0,0,0,0,0,0],"sum_hessian":[3.8278157E3,2.5927573E2,3.5685398E3,8.209101E1,1.7718472E2,3.3019768E3,2.6656296E2,2.524863E1,5.6842377E1,1.6784033E2,9.344396E0,3.0998806E3,2.0209624E2,1.7877644E2,8.7786514E1,1.4693831E1,4.214855E1,3.1786407E1,1.3605392E2,5.699019E0,3.6453764E0,3.0323997E3,6.748093E1,1.01700325E2,1.00395905E2,3.7301395E1,1.4147505E2,4.8647728E1,3.913879E1,8.615566E0,3.353298E1,2.6051498E1,5.73491E0,3.002541E3,2.985882E1,7.526336E0,5.9954594E1,8.405747E1,1.7642857E1,9.5022125E1,5.373778E0,2.9544027E1,7.757369E0,1.5735597E1,1.2573945E2,3.908922E1,9.558509E0,3.5095875E1,4.0429144E0,2.2727688E1,1.0805292E1,1.705253E3,1.2972878E3,3.292472E0,2.6566349E1,4.7533503E0,2.772986E0,1.8540207E1,6.5517265E1,3.6524704E0,1.7213075E0,2.2878086E1,6.6659403E0,6.080222E0,1.6771467E0,1.1211136E1,4.524461E0,1.1872321E2,7.01624E0,8.858127E0,3.0231092E1,2.1808386E1,1.3287488E1,1.5242218E0,2.5186925E0],"tree_param":{"num_deleted":"0","num_feature":"11","num_nodes":"75","size_leaf_vector":"1"}},{"base_weights":[-2.7484724E-1,-1.6151749E-1,4.055559E-1,-1.582512E-1,4.546435E-1,-1.438568E-1,4.7805464E-1,4.9382E-1,-1.3514838E-1,5.018133E-1,-1.1989601E-1,1.15459725E-1,1.7066613E-1],"categories":[],"categories_nodes":[],"categories_segments":[],"categories_sizes":[],"default_left":[0,0,0,0,0,0,0,0,0,0,0,0,0],"id":26,"left_children":[1,-1,3,-1,5,-1,7,9,-1,11,-1,-1,-1],"loss_changes":[2.5082236E2,0E0,1.8137215E1,0E0,8.359703E0,0E0,5.538986E0,2.754387E0,0E0,2.5646439E0,0E0,0E0,0E0],"parents":[2147483647,0,0,2,2,4,4,6,6,7,7,9,9],"right_children":[2,-1,4,-1,6,-1,8,10,-1,12,-1,-1,-1],"split_conditions":[1E0,-1.6151749E-1,1.7045004E3,-1.582512E-1,1.8229067E-1,-1.438568E-1,4.9714336E3,9.116264E-1,-1.3514838E-1,1.6563783E3,-1.1989601E-1,1.15459725E-1,1.7066613E-1],"split_indices":[10,0,1,0,6,0,1,3,0,0,0,0,0],"split_type":[0,0,0,0,0,0,0,0,0,0,0,0,0],"sum_hessian":[1.3965522E3,1.00679395E3,3.897584E2,1.8992962E1,3.707654E2,8.588269E0,3.6217715E2,3.5659094E2,5.5861926E0,3.5386356E2,2.7274117E0,1.3143533E2,2.224282E2],"tree_param":{"num_deleted":"0","num_feature":"11","num_nodes":"13","size_leaf_vector":"1"}},{"base_weights":[-1.6409743E-1,-1.6599493E-1,-1.3520215E-1,6.6517645E-1,-1.5741728E-1,1.1188662E0,-1.5197001E-1,-3.288329E-1,-8.987154E-2,-1.4135087E-1,1.5609412E0,-4.5999426E-1,-1.914163E-1,-9.483427E-3,-3.032218E-1,1.0379368E0,7.545504E-1,-1.256972E-1,-1.6299832E-1,4.6909946E-1,-3.9146477E-1,-1.0156763E-1,3.052708E-1,-4.744511E-1,-1.2174413E-1,-1.2905578E-1,4.3070504E-1,-1.562131E-1,1.5120637E-1,2.8894886E-1,-1.5409231E-1,2.0055558E-1,-1.3351934E-1,-8.377834E-2,1.2624877E-2,1.7714989E-1,2.6698606E-3,-9.0485364E-2,-1.6038123E-1,1.1026325E-1,-1.1067797E-1],"categories":[],"categories_nodes":[],"categories_segments":[],"categories_sizes":[],"default_left":[0,0,0,0,0,0,0,0,0,0,0,0,0,0,0,0,0,0,0,0,0,0,0,0,0,0,0,0,0,0,0,0,0,0,0,0,0,0,0,0,0],"id":27,"left_children":[1,-1,3,5,7,9,-1,11,13,-1,15,17,19,21,23,25,-1,27,-1,29,31,33,35,37,39,-1,-1,-1,-1,-1,-1,-1,-1,-1,-1,-1,-1,-1,-1,-1,-1],"loss_changes":[1.8761265E1,0E0,2.7849493E1,2.3070778E1,1.7558868E1,2.2404888E1,0E0,7.644333E0,1.8709736E1,0E0,9.543308E0,6.026741E0,2.8093517E1,2.3029737E1,9.21982E0,1.0797928E1,0E0,1.144556E1,0E0,2.4555958E1,9.539379E0,1.5701144E1,1.5198233E1,1.4322472E0,1.7828205E1,0E0,0E0,0E0,0E0,0E0,0E0,0E0,0E0,0E0,0E0,0E0,0E0,0E0,0E0,0E0,0E0],"parents":[2147483647,0,0,2,2,3,3,4,4,5,5,7,7,8,8,10,10,11,11,12,12,13,13,14,14,15,15,17,17,19,19,20,20,21,21,22,22,23,23,24,24],"right_children":[2,-1,4,6,8,10,-1,12,14,-1,16,18,20,22,24,26,-1,28,-1,30,32,34,36,38,40,-1,-1,-1,-1,-1,-1,-1,-1,-1,-1,-1,-1,-1,-1,-1,-1],"split_conditions":[1.6044535E-1,-1.6599493E-1,1.6277973E-1,1.9890095E3,9.609411E2,9.9550256E2,-1.5197001E-1,2.11E-1,2.9770906E3,-1.4135087E-1,1.5792297E3,1.22E-1,2.3592857E-1,2.679404E3,9.95E-1,1.6213085E-1,7.545504E-1,9.7E-2,-1.6299832E-1,2.1241961E-1,2.14E-1,6.295E-1,1.6737017E3,1.8421006E3,5.804857E-1,-1.2905578E-1,4.3070504E-1,-1.562131E-1,1.5120637E-1,2.8894886E-1,-1.5409231E-1,2.0055558E-1,-1.3351934E-1,-8.377834E-2,1.2624877E-2,1.7714989E-1,2.6698606E-3,-9.0485364E-2,-1.6038123E-1,1.1026325E-1,-1.1067797E-1],"split_indices":[6,0,6,1,2,1,0,5,1,0,0,4,3,1,4,6,0,4,0,6,5,3,0,0,3,0,0,0,0,0,0,0,0,0,0,0,0,0,0,0,0],"split_type":[0,0,0,0,0,0,0,0,0,0,0,0,0,0,0,0,0,0,0,0,0,0,0,0,0,0,0,0,0,0,0,0,0,0,0,0,0,0,0,0,0],"sum_hessian":[1.6738259E3,1.14421455E2,1.5594045E3,4.1331947E1,1.5180725E3,2.982793E1,1.1504015E1,4.2801077E2,1.0900618E3,6.4745917E0,2.3353338E1,2.1778857E2,2.1022221E2,7.925004E2,2.975613E2,1.6433817E1,6.9195223E0,4.3957764E1,1.7383081E2,4.8556026E1,1.6166618E2,6.136491E2,1.7885132E2,1.5227304E2,1.4528827E2,3.4858038E0,1.2948012E1,2.7119318E1,1.6838444E1,3.232491E1,1.6231117E1,7.2292233E0,1.5443697E2,2.738978E2,3.3975134E2,9.063316E1,8.821815E1,4.0866993E1,1.11406044E2,4.8599823E1,9.6688446E1],"tree_param":{"num_deleted":"0","num_feature":"11","num_nodes":"41","size_leaf_vector":"1"}},{"base_weights":[-1.384004E-1,-1.17951125E-1,-1.5852538E-1,-4.234389E-1,-9.2175715E-2,-2.6410466E-1,-1.6039747E-1,3.2583597E-1,-1.1556445E-1,-3.9672711E-1,1.7312527E-1,5.6026172E-2,8.03421E-1,-4.721565E-1,-8.841562E-2,-1.5652052E-1,9.782058E-2,3.928793E-1,-1.6655076E-1,-1.1361308E-1,8.784145E-1,3.2554328E-1,-1.6770014E-1,-3.559593E-2,-2.6754627E-1,1.6134706E-1,-1.2966502E-1,-1.5236264E-1,1.9034383E-1,2.8320718E-1,-1.09025106E-1,-1.6302269E-2,3.282939E-1,6.522392E-1,-9.6231975E-2],"categories":[],"categories_nodes":[],"categories_segments":[],"categories_sizes":[],"default_left":[0,0,0,0,0,0,0,0,0,0,0,0,0,0,0,0,0,0,0,0,0,0,0,0,0,0,0,0,0,0,0,0,0,0,0],"id":28,"left_children":[1,3,-1,5,7,9,-1,11,13,15,-1,17,19,21,23,-1,25,27,-1,-1,29,-1,-1,31,33,-1,-1,-1,-1,-1,-1,-1,-1,-1,-1],"loss_changes":[1.4003956E1,1.3166517E1,0E0,2.1663456E0,1.517088E1,6.421132E0,0E0,1.0557359E1,1.415646E1,3.0518064E0,0E0,1.1264131E1,2.9592667E0,1.4607964E1,1.2896783E1,0E0,2.7129056E0,7.9769554E0,0E0,0E0,2.6375904E0,0E0,0E0,2.2395924E1,4.1047276E1,0E0,0E0,0E0,0E0,0E0,0E0,0E0,0E0,0E0,0E0],"parents":[2147483647,0,0,1,1,3,3,4,4,5,5,7,7,8,8,9,9,11,11,12,12,13,13,14,14,16,16,17,17,20,20,23,23,24,24],"right_children":[2,4,-1,6,8,10,-1,12,14,16,-1,18,20,22,24,-1,26,28,-1,-1,30,-1,-1,32,34,-1,-1,-1,-1,-1,-1,-1,-1,-1,-1],"split_conditions":[1.6E1,2.27E-1,-1.5852538E-1,1.27E-1,2.8895837E2,1.245482E3,-1.6039747E-1,2.630243E2,9.4545215E2,7.9941176E-2,1.7312527E-1,1.8809999E2,1.02098905E-1,4.23599E2,2.290171E-1,-1.5652052E-1,4.867713E2,1.4115245E2,-1.6655076E-1,-1.1361308E-1,9.7E-1,3.2554328E-1,-1.6770014E-1,2.2858611E-1,9.5742395E2,1.6134706E-1,-1.2966502E-1,-1.5236264E-1,1.9034383E-1,2.8320718E-1,-1.09025106E-1,-1.6302269E-2,3.282939E-1,6.522392E-1,-9.6231975E-2],"split_indices":[8,4,0,4,0,1,0,0,1,3,0,0,3,1,6,0,1,0,0,0,4,0,0,6,1,0,0,0,0,0,0,0,0,0,0],"split_type":[0,0,0,0,0,0,0,0,0,0,0,0,0,0,0,0,0,0,0,0,0,0,0,0,0,0,0,0,0,0,0,0,0,0,0],"sum_hessian":[1.7626698E3,1.6760919E3,8.657795E1,1.2921538E2,1.5468765E3,5.4505177E1,7.47102E1,8.128005E1,1.4655964E3,4.753858E1,6.9665947E0,5.2651886E1,2.8628164E1,1.02528114E2,1.3630684E3,3.7902824E1,9.635756E0,3.4174313E1,1.8477575E1,1.4662105E0,2.7161953E1,4.808364E0,9.771975E1,1.0535964E3,3.0947192E2,5.2570224E0,4.3787327E0,6.994535E0,2.7179777E1,2.6026705E1,1.1352481E0,1.0373391E3,1.6257345E1,5.752263E0,3.0371967E2],"tree_param":{"num_deleted":"0","num_feature":"11","num_nodes":"35","size_leaf_vector":"1"}},{"base_weights":[-1.3485482E-1,-1.0523471E-1,-4.932329E-1,-9.1082424E-2,-1.6792886E-1,-1.585373E-1,-1.6840464E-1,-9.839076E-2,8.6379135E-1,-1.5084063E-1,4.1650507E-1,-1.1097939E-1,3.6128786E-1,-1.4141712E-1,5.673045E-1,1.905144E-1,-8.605161E-2,-8.2736276E-2,-4.863986E-1,1.123859E0,-1.6209823E-1,-2.8014751E-2,4.7669277E-1,-1.68511E-1,1.3342679E-1,-1.2266581E-1,3.8358018E-1],"categories":[],"categories_nodes":[],"categories_segments":[],"categories_sizes":[],"default_left":[0,0,0,0,0,0,0,0,0,0,0,0,0,0,0,0,0,0,0,0,0,0,0,0,0,0,0],"id":29,"left_children":[1,3,5,7,-1,-1,9,11,13,-1,15,17,19,-1,-1,-1,-1,21,23,25,-1,-1,-1,-1,-1,-1,-1],"loss_changes":[1.8556967E1,1.0372953E1,1.4391708E0,1.1060443E1,0E0,0E0,3.0521445E0,9.077206E0,1.7415829E1,0E0,1.0788505E0,1.6085167E1,2.9390106E1,0E0,0E0,0E0,0E0,2.5342957E1,7.696846E0,5.9791393E0,0E0,0E0,0E0,0E0,0E0,0E0,0E0],"parents":[2147483647,0,0,1,1,2,2,3,3,6,6,7,7,8,8,10,10,11,11,12,12,17,17,18,18,19,19],"right_children":[2,4,6,8,-1,-1,10,12,14,-1,16,18,20,-1,-1,-1,-1,22,24,26,-1,-1,-1,-1,-1,-1,-1],"split_conditions":[1E0,2.4669988E-1,9.2786664E-1,2.4631405E-1,-1.6792886E-1,-1.585373E-1,1.9953976E3,6.051392E3,3.6843718E3,-1.5084063E-1,1.8672999E3,3.5861736E3,6.48E-1,-1.4141712E-1,5.673045E-1,1.905144E-1,-8.605161E-2,3.5016836E3,8.0058336E-1,1.7860448E-1,-1.6209823E-1,-2.8014751E-2,4.7669277E-1,-1.68511E-1,1.3342679E-1,-1.2266581E-1,3.8358018E-1],"split_indices":[10,6,3,6,0,0,1,2,2,0,0,2,4,0,0,0,0,2,3,6,0,0,0,0,0,0,0],"split_type":[0,0,0,0,0,0,0,0,0,0,0,0,0,0,0,0,0,0,0,0,0,0,0,0,0,0,0],"sum_hessian":[1.75204E3,1.6194827E3,1.3255737E2,1.5717449E3,4.77378E1,1.19023445E2,1.353393E1,1.5606968E3,1.1048169E1,8.700286E0,4.8336444E0,1.5198336E3,4.086318E1,5.039259E0,6.00891E0,3.761861E0,1.0717834E0,1.4146301E3,1.05203476E2,2.200512E1,1.8858059E1,1.4066162E3,8.013835E0,9.769908E1,7.5043955E0,1.8672515E0,2.0137869E1],"tree_param":{"num_deleted":"0","num_feature":"11","num_nodes":"27","size_leaf_vector":"1"}},{"base_weights":[2.3915486E-1,4.740926E-1,2.2358811E-1,2.9120532E-1,5.609008E-1,2.0980488E-1,4.1093928E-1,1.8666421E-1,1.4721653E-1,5.934288E-1,3.781551E-2,2.517172E-1,1.307294E-1,2.7839842E-1,6.449976E-1,1.9821705E-1,2.531134E-2,4.458256E-1,1.8732771E-1,-1.0087033E-1,1.8099247E-1,2.3794901E-1,2.4411824E-1,3.6635348E-1,6.852872E-2,3.6682627E-1,-4.0039235E-1,2.0864353E-1,1.4848286E-1,-1.380761E-1,1.7646982E-1,1.8716477E-1,-3.201376E-1,2.4659409E-1,-4.2581472E-1,-3.7805957E-1,4.5693168E-1,2.2017929E-1,4.9632322E-2,2.0880535E-1,2.0666166E-1,-7.001041E-1,1.712606E-1,1.6262001E-1,-8.481857E-2,1.6571721E-1,-1.01335615E-1,-4.4164553E-2,-1.20542996E-1,6.381791E-2,1.06156014E-1,-2.3551385E-1,2.2054377E-1,-1.6547999E-1,1.8681875E-1,2.068705E-1,8.678281E-2,-1.8548104E-1,1.9305564E-2,-3.3976197E-2,1.4044352E-1,1.2959713E-1,-2.7089107E-1],"categories":[],"categories_nodes":[],"categories_segments":[],"categories_sizes":[],"default_left":[0,0,0,0,0,0,0,0,0,0,0,0,0,0,0,0,0,0,0,0,0,0,0,0,0,0,0,0,0,0,0,0,0,0,0,0,0,0,0,0,0,0,0,0,0,0,0,0,0,0,0,0,0,0,0,0,0,0,0,0,0,0,0],"id":30,"left_children":[1,3,5,7,9,11,13,-1,15,17,19,21,23,25,27,-1,29,31,-1,-1,-1,33,-1,35,37,39,41,-1,43,45,-1,-1,47,49,51,53,55,-1,57,59,-1,61,-1,-1,-1,-1,-1,-1,-1,-1,-1,-1,-1,-1,-1,-1,-1,-1,-1,-1,-1,-1,-1],"loss_changes":[1.3331146E1,3.447277E0,8.816818E0,3.496451E0,2.5832596E0,1.0617386E1,7.1174965E0,0E0,3.349307E0,3.809471E-1,2.325199E0,1.6049713E1,1.6320597E1,9.266779E0,2.009224E0,0E0,4.1736073E0,4.08766E0,0E0,0E0,0E0,1.1870895E1,0E0,1.586305E1,1.1073616E1,6.7236366E0,5.636556E0,0E0,1.6891458E0,5.0535655E0,0E0,0E0,2.6118457E-2,7.279663E0,1.1724415E1,4.8226185E0,7.9095535E0,0E0,8.497263E0,7.733985E0,0E0,3.6506E0,0E0,0E0,0E0,0E0,0E0,0E0,0E0,0E0,0E0,0E0,0E0,0E0,0E0,0E0,0E0,0E0,0E0,0E0,0E0,0E0,0E0],"parents":[2147483647,0,0,1,1,2,2,3,3,4,4,5,5,6,6,8,8,9,9,10,10,11,11,12,12,13,13,14,14,16,16,17,17,21,21,23,23,24,24,25,25,26,26,28,28,29,29,32,32,33,33,34,34,35,35,36,36,38,38,39,39,41,41],"right_children":[2,4,6,8,10,12,14,-1,16,18,20,22,24,26,28,-1,30,32,-1,-1,-1,34,-1,36,38,40,42,-1,44,46,-1,-1,48,50,52,54,56,-1,58,60,-1,62,-1,-1,-1,-1,-1,-1,-1,-1,-1,-1,-1,-1,-1,-1,-1,-1,-1,-1,-1,-1,-1],"split_conditions":[1.78E-1,4.5E-2,4.978985E3,1.5E-2,1.1105502E3,2.2956943E3,2.1439566E-1,1.8666421E-1,6.8E-2,4.7141364E2,1.1138053E3,2.1175676E3,1.798707E-1,2.1241961E-1,9.981363E3,1.9821705E-1,4.0571442E2,4.5986584E2,1.8732771E-1,-1.0087033E-1,1.8099247E-1,2.0271022E3,2.4411824E-1,2.3935059E3,8.710096E2,1.8910551E-1,3.4752444E3,2.0864353E-1,2.3397417E-1,2.506689E2,1.7646982E-1,1.8716477E-1,4.1598575E2,8.4354836E-1,4.22E-1,1.3001375E3,1.8265669E3,2.2017929E-1,8.9701337E2,3.0173872E3,2.0666166E-1,3.2192979E3,1.712606E-1,1.6262001E-1,-8.481857E-2,1.6571721E-1,-1.01335615E-1,-4.4164553E-2,-1.20542996E-1,6.381791E-2,1.06156014E-1,-2.3551385E-1,2.2054377E-1,-1.6547999E-1,1.8681875E-1,2.068705E-1,8.678281E-2,-1.8548104E-1,1.9305564E-2,-3.3976197E-2,1.4044352E-1,1.2959713E-1,-2.7089107E-1],"split_indices":[4,5,1,5,0,1,7,0,4,2,0,1,6,6,1,0,0,2,0,0,0,2,0,1,0,6,0,0,6,0,0,0,0,3,4,0,0,0,0,0,0,0,0,0,0,0,0,0,0,0,0,0,0,0,0,0,0,0,0,0,0,0,0],"split_type":[0,0,0,0,0,0,0,0,0,0,0,0,0,0,0,0,0,0,0,0,0,0,0,0,0,0,0,0,0,0,0,0,0,0,0,0,0,0,0,0,0,0,0,0,0,0,0,0,0,0,0,0,0,0,0,0,0,0,0,0,0,0,0],"sum_hessian":[3.673138E3,2.2642426E2,3.4467136E3,7.4281906E1,1.5214235E2,3.2124937E3,2.3422002E2,2.1510715E1,5.277119E1,1.4310869E2,9.033665E0,2.0982014E3,1.1142921E3,1.509376E2,8.328242E1,9.276285E0,4.3494907E1,2.7507023E1,1.1560166E2,5.6812E0,3.3524644E0,2.049418E3,4.87835E1,2.3169862E2,8.825935E2,1.339475E2,1.69901E1,7.5232765E1,8.049655E0,3.429541E1,9.199498E0,2.2469276E1,5.0377474E0,2.0236893E3,2.5728682E1,2.4789911E1,2.0690872E2,2.3327244E1,8.592663E2,9.096253E1,4.2984966E1,1.3196962E1,3.793139E0,4.0740385E0,3.9756162E0,7.2979155E0,2.6997494E1,2.5151043E0,2.522643E0,1.5403109E3,4.833784E2,1.9896105E1,5.8325768E0,2.1509007E1,3.2809048E0,8.5356384E1,1.2155233E2,1.7644423E1,8.416218E2,4.0826145E1,5.0136387E1,1.8338307E0,1.13631315E1],"tree_param":{"num_deleted":"0","num_feature":"11","num_nodes":"63","size_leaf_vector":"1"}},{"base_weights":[-2.7301067E-1,-1.5939249E-1,3.553338E-1,-1.5557401E-1,4.007798E-1,-1.3922691E-1,4.2135805E-1,4.35448E-1,-1.5256757E-1,3.4893087E-1,5.298441E-1,1.5726252E-1,-5.2477192E-2,-1.8814538E-1,1.6366659E-1],"categories":[],"categories_nodes":[],"categories_segments":[],