{"learner":{"attributes":{},"feature_names":["credit_balance_mean","credit_balance_max","credit_balance_last","credit_utilization_mean","credit_utilization_max","credit_utilization_last","interest_rate_mean","interest_rate_last","current_missed_payments_sum","current_missed_payments_max","current_missed_payments_last","timestamp_diff","amount_sum","amount_mean","amount_max","amount_min","amount_count","amount_last","payment_frequency","total_transaction_amount","average_transaction_amount","max_transaction_amount","total_transactions","completed_transactions","unique_merchants","online_transactions","online_transaction_proportion","merchant_category_Agricultural","merchant_category_Business","merchant_category_Clothing","merchant_category_Contractor","merchant_category_Misc","merchant_category_Professional","merchant_category_Retail","merchant_category_Transportation","merchant_category_Utility"],"feature_types":["float","float","float","float","float","float","float","float","int","int","int","int","float","float","float","float","float","float","float","float","float","float","float","float","float","float","float","i","i","i","i","i","i","i","i","i"],"gradient_booster":{"model":{"gbtree_model_param":{"num_parallel_tree":"1","num_trees":"100"},"iteration_indptr":[0,1,2,3,4,5,6,7,8,9,10,11,12,13,14,15,16,17,18,19,20,21,22,23,24,25,26,27,28,29,30,31,32,33,34,35,36,37,38,39,40,41,42,43,44,45,46,47,48,49,50,51,52,53,54,55,56,57,58,59,60,61,62,63,64,65,66,67,68,69,70,71,72,73,74,75,76,77,78,79,80,81,82,83,84,85,86,87,88,89,90,91,92,93,94,95,96,97,98,99,100],"tree_info":[0,0,0,0,0,0,0,0,0,0,0,0,0,0,0,0,0,0,0,0,0,0,0,0,0,0,0,0,0,0,0,0,0,0,0,0,0,0,0,0,0,0,0,0,0,0,0,0,0,0,0,0,0,0,0,0,0,0,0,0,0,0,0,0,0,0,0,0,0,0,0,0,0,0,0,0,0,0,0,0,0,0,0,0,0,0,0,0,0,0,0,0,0,0,0,0,0,0,0,0],"trees":[{"base_weights":[-1.1168396E0,-3.403316E-1,-7.175987E-1,9.439215E-2,-7.720047E-1,-9.095466E-1,-1.4245811E-1,-2.9531962E-1,-2.7924E-2,3.742484E-1,-2.3135506E-1,-2.0897071E-1,4.0190405E-1],"categories":[],"categories_nodes":[],"categories_segments":[],"categories_sizes":[],"default_left":[0,0,0,0,0,0,0,0,0,0,0,0,0],"id":0,"left_children":[1,-1,3,-1,5,7,9,-1,-1,11,-1,-1,-1],"loss_changes":[3.5561523E0,0E0,1.8705416E0,0E0,2.2793865E0,1.2924004E0,2.294357E0,0E0,0E0,5.132681E0,0E0,0E0,0E0],"parents":[2147483647,0,0,2,2,4,4,5,5,6,6,9,9],"right_children":[2,-1,4,-1,6,8,10,-1,-1,12,-1,-1,-1],"split_conditions":[1E0,-3.403316E-1,3.8372093E-1,9.439215E-2,5.2380955E-1,2.45616E3,1.243496E4,-2.9531962E-1,-2.7924E-2,7.5E1,-2.3135506E-1,-2.0897071E-1,4.0190405E-1],"split_indices":[10,0,26,0,26,12,19,0,0,22,0,0,0],"split_type":[0,0,0,0,0,0,0,0,0,0,0,0,0],"sum_hessian":[6.2099194E2,5.930098E2,2.7982124E1,1.1615222E0,2.6820602E1,2.164655E1,5.174053E0,1.9640284E1,2.0062654E0,3.0621948E0,2.1118584E0,1.5838938E0,1.4783009E0],"tree_param":{"num_deleted":"0","num_feature":"36","num_nodes":"13","size_leaf_vector":"1"}},{"base_weights":[-1.0726391E0,-3.2838035E-1,-6.2837404E-1,1.2283652E-1,-6.89993E-1,-8.3323365E-1,-1.3445167E-1,-2.8934214E-1,-2.5724673E-1,3.8874304E-1,-5.6384623E-1,-2.425689E-1,2.5851217E-1,-1.8239503E-1,3.5377032E-1,-2.1656492E-1,-2.1601917E-2],"categories":[],"categories_nodes":[],"categories_segments":[],"categories_sizes":[],"default_left":[0,0,0,0,0,0,0,0,0,0,0,0,0,0,0,0,0],"id":1,"left_children":[1,-1,3,-1,5,7,9,-1,11,13,15,-1,-1,-1,-1,-1,-1],"loss_changes":[3.9719849E0,0E0,1.8713655E0,0E0,1.7838783E0,1.1691675E0,1.5842569E0,0E0,3.6843588E0,3.3413527E0,2.391423E-1,0E0,0E0,0E0,0E0,0E0,0E0],"parents":[2147483647,0,0,2,2,4,4,5,5,6,6,8,8,9,9,10,10],"right_children":[2,-1,4,-1,6,8,10,-1,12,14,16,-1,-1,-1,-1,-1,-1],"split_conditions":[1E0,-3.2838035E-1,3.8181818E-1,1.2283652E-1,5.2380955E-1,2.9E1,3.3458E2,-2.8934214E-1,5.8032666E2,1.8028274E-1,1.3614056E2,-2.425689E-1,2.5851217E-1,-1.8239503E-1,3.5377032E-1,-2.1656492E-1,-2.1601917E-2],"split_indices":[10,0,26,0,26,8,15,0,13,6,20,0,0,0,0,0,0],"split_type":[0,0,0,0,0,0,0,0,0,0,0,0,0,0,0,0,0],"sum_hessian":[4.7659158E2,4.5274646E2,2.3845125E1,1.020035E0,2.282509E1,1.7748867E1,5.076222E0,1.39059E1,3.8429682E0,2.3308613E0,2.7453606E0,2.760329E0,1.0826391E0,1.1330649E0,1.1977965E0,1.7237648E0,1.0215958E0],"tree_param":{"num_deleted":"0","num_feature":"36","num_nodes":"17","size_leaf_vector":"1"}},{"base_weights":[-1.03885E0,-3.2002506E-1,-5.4621667E-1,9.872531E-2,-6.099926E-1,-7.5747555E-1,-1.23666525E-1,-2.7192894E-1,-2.940443E-1,2.8263047E-1,-2.1142498E-1,-2.4517636E-1,5.283277E-1,-1.7794919E-1,8.1681806E-1,-1.6558792E-1,4.0083185E-1,4.0408066E-1,-3.6839325E-2],"categories":[],"categories_nodes":[],"categories_segments":[],"categories_sizes":[],"default_left":[0,0,0,0,0,0,0,0,0,0,0,0,0,0,0,0,0,0,0],"id":2,"left_children":[1,-1,3,-1,5,7,9,11,-1,13,-1,-1,15,-1,17,-1,-1,-1,-1],"loss_changes":[4.425293E0,0E0,1.4053254E0,0E0,1.3740711E0,1.4100208E0,1.6055503E0,3.163407E0,0E0,2.4585154E0,0E0,0E0,3.4811544E0,0E0,1.6804099E0,0E0,0E0,0E0,0E0],"parents":[2147483647,0,0,2,2,4,4,5,5,6,6,7,7,9,9,12,12,14,14],"right_children":[2,-1,4,-1,6,8,10,12,-1,14,-1,-1,16,-1,18,-1,-1,-1,-1],"split_conditions":[1E0,-3.2002506E-1,3.8181818E-1,9.872531E-2,5.2380955E-1,4.5378152E-1,1.243496E4,4.6294E2,-2.940443E-1,7.5E1,-2.1142498E-1,-2.4517636E-1,9.92E-1,-1.7794919E-1,2E1,-1.6558792E-1,4.0083185E-1,4.0408066E-1,-3.6839325E-2],"split_indices":[10,0,26,0,26,26,19,15,0,22,0,0,5,0,8,0,0,0,0],"split_type":[0,0,0,0,0,0,0,0,0,0,0,0,0,0,0,0,0,0,0],"sum_hessian":[3.633573E2,3.4277866E2,2.057862E1,1.1150448E0,1.9463575E1,1.4506729E1,4.9568467E0,5.259455E0,9.247274E0,3.219422E0,1.7374247E0,3.1153176E0,2.1441374E0,1.1778866E0,2.0415354E0,1.0528269E0,1.0913105E0,1.0280364E0,1.0134991E0],"tree_param":{"num_deleted":"0","num_feature":"36","num_nodes":"19","size_leaf_vector":"1"}},{"base_weights":[-1.0111983E0,-3.1400192E-1,-4.7562444E-1,-2.6889467E-1,-2.7685538E-1,3.5043493E-1,-5.911322E-1,-4.6838388E-1,1.0808916E0,1.1791605E-1,-7.4777025E-1,-2.150137E-2,-1.8402733E-1,8.684816E-2,4.1555387E-1,5.095498E-3,-2.816504E-1],"categories":[],"categories_nodes":[],"categories_segments":[],"categories_sizes":[],"default_left":[0,0,0,0,0,0,0,0,0,0,0,0,0,0,0,0,0],"id":3,"left_children":[1,-1,3,-1,5,7,9,11,13,-1,15,-1,-1,-1,-1,-1,-1],"loss_changes":[4.766815E0,0E0,1.3445411E0,0E0,3.0424643E0,3.7529752E0,1.8283942E0,1.4344114E-1,3.6267614E-1,0E0,1.3210115E0,0E0,0E0,0E0,0E0,0E0,0E0],"parents":[2147483647,0,0,2,2,4,4,5,5,6,6,7,7,8,8,10,10],"right_children":[2,-1,4,-1,6,8,10,12,14,-1,16,-1,-1,-1,-1,-1,-1],"split_conditions":[1E0,-3.1400192E-1,1.8231161E-1,-2.6889467E-1,2.071679E-1,1.4E1,1.82105E3,1.7857143E-1,4.1267667E2,1.1791605E-1,8E0,-2.150137E-2,-1.8402733E-1,8.684816E-2,4.1555387E-1,5.095498E-3,-2.816504E-1],"split_indices":[10,0,6,0,7,8,19,18,13,0,8,0,0,0,0,0,0],"split_type":[0,0,0,0,0,0,0,0,0,0,0,0,0,0,0,0,0],"sum_hessian":[2.7609607E2,2.580494E2,1.8046682E1,4.664667E0,1.3382014E1,4.428255E0,8.953759E0,2.2570043E0,2.1712506E0,1.0221417E0,7.9316177E0,1.0042744E0,1.2527299E0,1.144915E0,1.0263357E0,1.7676233E0,6.1639943E0],"tree_param":{"num_deleted":"0","num_feature":"36","num_nodes":"17","size_leaf_vector":"1"}},{"base_weights":[-9.857058E-1,-3.095181E-1,-4.036201E-1,-2.5965303E-1,-1.8995233E-1,7.392654E-2,-2.4097003E-1,-2.1630573E-1,3.797477E-1,8.0482733E-1,-1.633362E-1,-1.720252E-2,4.217486E-1,-2.1712019E-1,1.8954371E-1],"categories":[],"categories_nodes":[],"categories_segments":[],"categories_sizes":[],"default_left":[0,0,0,0,0,0,0,0,0,0,0,0,0,0,0],"id":4,"left_children":[1,-1,3,-1,5,7,-1,-1,9,11,13,-1,-1,-1,-1],"loss_changes":[5.2247467E0,0E0,1.5204492E0,0E0,2.1556861E0,2.6982186E0,0E0,0E0,1.9452446E0,2.45171E0,2.364834E0,0E0,0E0,0E0,0E0],"parents":[2147483647,0,0,2,2,4,4,5,5,8,8,9,9,10,10],"right_children":[2,-1,4,-1,6,8,-1,-1,10,12,14,-1,-1,-1,-1],"split_conditions":[1E0,-3.095181E-1,1.6922845E3,-2.5965303E-1,4.972497E3,1.8231161E-1,-2.4097003E-1,-2.1630573E-1,2.1279243E-1,9.94E-1,2.3485547E-1,-1.720252E-2,4.217486E-1,-2.1712019E-1,1.8954371E-1],"split_indices":[10,0,1,0,1,6,0,0,6,5,6,0,0,0,0],"split_type":[0,0,0,0,0,0,0,0,0,0,0,0,0,0,0],"sum_hessian":[2.0958434E2,1.9351233E2,1.6072018E1,4.118418E0,1.1953599E1,8.972446E0,2.9811528E0,2.1155853E0,6.856861E0,3.575953E0,3.280908E0,1.8403953E0,1.7355577E0,1.977228E0,1.3036801E0],"tree_param":{"num_deleted":"0","num_feature":"36","num_nodes":"15","size_leaf_vector":"1"}},{"base_weights":[-9.618297E-1,-3.0604362E-1,-3.5534298E-1,-2.4345586E-1,-1.6802518E-1,1.066884E-1,-6.455626E-1,-1.9269927E-1,3.624879E-1,-2.3148237E-1,-2.8110096E-2,-1.8715717E-2,2.8701815E-1,-1.17018424E-1,2.0488928E-1],"categories":[],"categories_nodes":[],"categories_segments":[],"categories_sizes":[],"default_left":[0,0,0,0,0,0,0,0,0,0,0,0,0,0,0],"id":5,"left_children":[1,-1,3,-1,5,7,9,-1,11,-1,-1,13,-1,-1,-1],"loss_changes":[5.3083344E0,0E0,1.1966031E0,0E0,1.685024E0,1.8956753E0,2.5051105E-1,0E0,1.6281959E0,0E0,0E0,1.6503636E0,0E0,0E0,0E0],"parents":[2147483647,0,0,2,2,4,4,5,5,6,6,8,8,11,11],"right_children":[2,-1,4,-1,6,8,10,-1,12,-1,-1,14,-1,-1,-1],"split_conditions":[1E0,-3.0604362E-1,1.6922845E3,-2.4345586E-1,3.1942654E3,1.8207893E-1,2.9E1,-1.9269927E-1,2.9770906E3,-2.3148237E-1,-2.8110096E-2,2.3485547E-1,2.8701815E-1,-1.17018424E-1,2.0488928E-1],"split_indices":[10,0,1,0,2,6,8,0,2,0,0,6,0,0,0],"split_type":[0,0,0,0,0,0,0,0,0,0,0,0,0,0,0],"sum_hessian":[1.5933928E2,1.4473999E2,1.4599288E1,3.2797568E0,1.1319531E1,7.678752E0,3.6407795E0,1.5701236E0,6.1086283E0,2.6396863E0,1.0010931E0,4.311385E0,1.797243E0,3.1097403E0,1.2016449E0],"tree_param":{"num_deleted":"0","num_feature":"36","num_nodes":"15","size_leaf_vector":"1"}},{"base_weights":[-9.36382E-1,-3.03202E-1,-3.0857256E-1,6.3154094E-2,-4.9952656E-1,-4.771185E-1,6.0241264E-1,-2.618722E-1,6.684168E-2,-1.7951237E-2,-1.878819E-1,3.4666654E-1,-5.6846276E-2,1.581397E-1,-1.2952873E-1],"categories":[],"categories_nodes":[],"categories_segments":[],"categories_sizes":[],"default_left":[0,0,0,0,0,0,0,0,0,0,0,0,0,0,0],"id":6,"left_children":[1,-1,3,5,7,9,11,-1,13,-1,-1,-1,-1,-1,-1],"loss_changes":[5.4008484E0,0E0,1.0536845E0,1.9698179E0,2.0938094E0,1.7679018E-1,1.6784722E0,0E0,1.3184634E0,0E0,0E0,0E0,0E0,0E0,0E0],"parents":[2147483647,0,0,2,2,3,3,4,4,5,5,6,6,8,8],"right_children":[2,-1,4,6,8,10,12,-1,14,-1,-1,-1,-1,-1,-1],"split_conditions":[1E0,-3.03202E-1,4.5378152E-1,9.94E-1,5.2380955E-1,1.9762E2,9.97E-1,-2.618722E-1,9.7E-1,-1.7951237E-2,-1.878819E-1,3.4666654E-1,-5.6846276E-2,1.581397E-1,-1.2952873E-1],"split_indices":[10,0,26,5,26,15,4,0,5,0,0,0,0,0,0],"split_type":[0,0,0,0,0,0,0,0,0,0,0,0,0,0,0],"sum_hessian":[1.2148326E2,1.0808345E2,1.3399809E1,4.774551E0,8.625258E0,2.442595E0,2.331956E0,4.8720813E0,3.753177E0,1.0121467E0,1.4304482E0,1.1025832E0,1.2293726E0,1.921818E0,1.8313589E0],"tree_param":{"num_deleted":"0","num_feature":"36","num_nodes":"15","size_leaf_vector":"1"}},{"base_weights":[-9.0843254E-1,-3.0070704E-1,-2.6210228E-1,-2.1869574E-1,-9.659554E-2,8.388926E-2,-1.9914582E-1,-1.7581004E-1,2.6708886E-1,5.473443E-1,-1.4276832E-1,3.1450328E-1,2.9436457E-3,1.5375704E-1,-2.0204479E-1],"categories":[],"categories_nodes":[],"categories_segments":[],"categories_sizes":[],"default_left":[0,0,0,0,0,0,0,0,0,0,0,0,0,0,0],"id":7,"left_children":[1,-1,3,-1,5,7,-1,-1,9,11,13,-1,-1,-1,-1],"loss_changes":[5.4381638E0,0E0,9.549423E-1,0E0,1.1766293E0,1.2849176E0,0E0,0E0,9.8634744E-1,1.310021E0,1.7376761E0,0E0,0E0,0E0,0E0],"parents":[2147483647,0,0,2,2,4,4,5,5,8,8,9,9,10,10],"right_children":[2,-1,4,-1,6,8,-1,-1,10,12,14,-1,-1,-1,-1],"split_conditions":[1E0,-3.0070704E-1,1.6922845E3,-2.1869574E-1,4.972497E3,1.8231161E-1,-1.9914582E-1,-1.7581004E-1,2.1279243E-1,4.5378152E-1,9.7E-1,3.1450328E-1,2.9436457E-3,1.5375704E-1,-2.0204479E-1],"split_indices":[10,0,1,0,1,6,0,0,6,26,5,0,0,0,0],"split_type":[0,0,0,0,0,0,0,0,0,0,0,0,0,0,0],"sum_hessian":[9.290961E1,8.064019E1,1.2269416E1,2.3200736E0,9.949343E0,8.194153E0,1.7551899E0,1.2874258E0,6.9067273E0,3.9026737E0,3.0040536E0,1.528119E0,2.3745546E0,1.3595924E0,1.644461E0],"tree_param":{"num_deleted":"0","num_feature":"36","num_nodes":"15","size_leaf_vector":"1"}},{"base_weights":[-8.784792E-1,-2.9832447E-1,-2.3553742E-1,-3.2041153E-1,1.0679778E-1,-2.3321499E-1,-8.6503655E-2,2.0372228E-1,-5.4736817E-1,-1.6321006E-1,4.840989E-1,-4.3102592E-2,-1.9455057E-1,-5.567883E-2,2.2057769E-1],"categories":[],"categories_nodes":[],"categories_segments":[],"categories_sizes":[],"default_left":[0,0,0,0,0,0,0,0,0,0,0,0,0,0,0],"id":8,"left_children":[1,-1,3,5,-1,-1,7,9,11,-1,13,-1,-1,-1,-1],"loss_changes":[5.1732864E0,0E0,7.3627675E-1,1.1474975E0,0E0,0E0,1.2674317E0,1.5278889E0,5.4235816E-2,0E0,9.6330595E-1,0E0,0E0,0E0,0E0],"parents":[2147483647,0,0,2,2,3,3,6,6,7,7,8,8,10,10],"right_children":[2,-1,4,6,-1,-1,8,10,12,-1,14,-1,-1,-1,-1],"split_conditions":[1E0,-2.9832447E-1,2.4232122E-1,7E0,1.0679778E-1,-2.3321499E-1,2.1279243E-1,1.8207893E-1,1.9728429E3,-1.6321006E-1,2.3938665E3,-4.3102592E-2,-1.9455057E-1,-5.567883E-2,2.2057769E-1],"split_indices":[10,0,6,8,0,0,6,6,1,0,2,0,0,0,0],"split_type":[0,0,0,0,0,0,0,0,0,0,0,0,0,0,0],"sum_hessian":[7.15452E1,6.0151905E1,1.1393294E1,1.0364506E1,1.0287893E0,2.7224197E0,7.6420856E0,5.0314956E0,2.6105902E0,1.1156703E0,3.9158254E0,1.0079259E0,1.6026642E0,1.1392268E0,2.7765985E0],"tree_param":{"num_deleted":"0","num_feature":"36","num_nodes":"15","size_leaf_vector":"1"}},{"base_weights":[-8.4431964E-1,-2.9584596E-1,-2.1683386E-1,7.766418E-2,-3.2713652E-1,-6.925494E-1,2.3239888E-2,-2.378046E-1,-4.8419453E-2,4.4676784E-1,-3.3559817E-1,-2.654186E-2,2.1971418E-1,9.932558E-2,-2.0598343E-1],"categories":[],"categories_nodes":[],"categories_segments":[],"categories_sizes":[],"default_left":[0,0,0,0,0,0,0,0,0,0,0,0,0,0,0],"id":9,"left_children":[1,-1,3,-1,5,7,9,-1,-1,11,13,-1,-1,-1,-1],"loss_changes":[4.823868E0,0E0,6.9953954E-1,0E0,1.2904989E0,1.329279E-1,1.0692453E0,0E0,0E0,5.5449855E-1,1.1272573E0,0E0,0E0,0E0,0E0],"parents":[2147483647,0,0,2,2,4,4,5,5,6,6,9,9,10,10],"right_children":[2,-1,4,-1,6,8,10,-1,-1,12,14,-1,-1,-1,-1],"split_conditions":[1E0,-2.9584596E-1,4.86E-1,7.766418E-2,4.8752E2,9.98E-1,4.5378152E-1,-2.378046E-1,-4.8419453E-2,2.1E1,9.78E-1,-2.654186E-2,2.1971418E-1,9.932558E-2,-2.0598343E-1],"split_indices":[10,0,4,0,17,5,26,0,0,8,5,0,0,0,0],"split_type":[0,0,0,0,0,0,0,0,0,0,0,0,0,0,0],"sum_hessian":[5.560429E1,4.4886734E1,1.0717555E1,1.7637657E0,8.953789E0,3.9048133E0,5.048976E0,2.871158E0,1.0336553E0,2.2033613E0,2.8456147E0,1.0068154E0,1.1965458E0,1.001061E0,1.8445537E0],"tree_param":{"num_deleted":"0","num_feature":"36","num_nodes":"15","size_leaf_vector":"1"}},{"base_weights":[-8.031636E-1,-2.930721E-1,-1.8328397E-1,-1.8857884E-1,-4.250343E-2,1.5956151E-1,-1.5230432E-1,-1.1082644E-1,3.6365104E-1,6.832904E-1,-5.9526693E-2,6.167824E-2,2.9882056E-1],"categories":[],"categories_nodes":[],"categories_segments":[],"categories_sizes":[],"default_left":[0,0,0,0,0,0,0,0,0,0,0,0,0],"id":10,"left_children":[1,-1,3,-1,5,7,-1,-1,9,11,-1,-1,-1],"loss_changes":[4.61397E0,0E0,6.6124564E-1,0E0,9.655482E-1,9.247651E-1,0E0,0E0,1.175292E0,3.8004434E-1,0E0,0E0,0E0],"parents":[2147483647,0,0,2,2,4,4,5,5,8,8,9,9],"right_children":[2,-1,4,-1,6,8,-1,-1,10,12,-1,-1,-1],"split_conditions":[1E0,-2.930721E-1,1.6922845E3,-1.8857884E-1,3.1942654E3,2.8773722E1,-1.5230432E-1,-1.1082644E-1,1.243496E4,4.9E1,-5.9526693E-2,6.167824E-2,2.9882056E-1],"split_indices":[10,0,1,0,2,20,0,0,19,25,0,0,0],"split_type":[0,0,0,0,0,0,0,0,0,0,0,0,0],"sum_hessian":[4.3503395E1,3.3529568E1,9.9738245E0,1.5634125E0,8.410412E0,6.3214664E0,2.0889456E0,1.5343817E0,4.7870846E0,2.9141867E0,1.8728979E0,1.8088707E0,1.105316E0],"tree_param":{"num_deleted":"0","num_feature":"36","num_nodes":"13","size_leaf_vector":"1"}},{"base_weights":[-7.555381E-1,-2.8980115E-1,-1.5562354E-1,-1.7435047E-1,-3.0651491E-2,1.364393E-1,-1.3338448E-1,-2.0061007E-1,3.894627E-1,-2.067828E-1,1.6827649E-1,2.114629E-1,4.212978E-2,9.471051E-2,-6.838835E-2],"categories":[],"categories_nodes":[],"categories_segments":[],"categories_sizes":[],"default_left":[0,0,0,0,0,0,0,0,0,0,0,0,0,0,0],"id":11,"left_children":[1,-1,3,-1,5,7,-1,9,11,-1,-1,-1,13,-1,-1],"loss_changes":[4.3320026E0,0E0,5.3590536E-1,0E0,6.903828E-1,6.965231E-1,0E0,1.7893331E0,4.6130735E-1,0E0,0E0,0E0,3.0816007E-1,0E0,0E0],"parents":[2147483647,0,0,2,2,4,4,5,5,7,7,8,8,12,12],"right_children":[2,-1,4,-1,6,8,-1,10,12,-1,-1,-1,14,-1,-1],"split_conditions":[1E0,-2.8980115E-1,1.6922845E3,-1.7435047E-1,3.1942654E3,2.0548056E-1,-1.3338448E-1,2.9944136E3,2.1279243E-1,-2.067828E-1,1.6827649E-1,2.114629E-1,3.522564E1,9.471051E-2,-6.838835E-2],"split_indices":[10,0,1,0,2,6,0,1,6,0,0,0,20,0,0],"split_type":[0,0,0,0,0,0,0,0,0,0,0,0,0,0,0],"sum_hessian":[3.450043E1,2.5088495E1,9.411935E0,1.3079212E0,8.104013E0,6.2512054E0,1.8528079E0,2.7693443E0,3.4818614E0,1.7446835E0,1.0246607E0,1.2852904E0,2.1965709E0,1.0073581E0,1.1892128E0],"tree_param":{"num_deleted":"0","num_feature":"36","num_nodes":"15","size_leaf_vector":"1"}},{"base_weights":[-7.0494074E-1,-2.8582406E-1,-1.3393708E-1,-2.8246114E-1,1.618197E-1,9.436316E-2,-2.1675734E-1,1.4199904E-1,-7.928492E-2,-1.0154916E-1,1.4109175E-1],"categories":[],"categories_nodes":[],"categories_segments":[],"categories_sizes":[],"default_left":[0,0,0,0,0,0,0,0,0,0,0],"id":12,"left_children":[1,-1,3,5,7,9,-1,-1,-1,-1,-1],"loss_changes":[3.926978E0,0E0,4.7775984E-1,1.2143433E0,6.4592874E-1,9.090493E-1,0E0,0E0,0E0,0E0,0E0],"parents":[2147483647,0,0,2,2,3,3,4,4,5,5],"right_children":[2,-1,4,6,8,10,-1,-1,-1,-1,-1],"split_conditions":[1E0,-2.8582406E-1,5.2380955E-1,4.5378152E-1,3.3458E2,9.94E-1,-2.1675734E-1,1.4199904E-1,-7.928492E-2,-1.0154916E-1,1.4109175E-1],"split_indices":[10,0,26,26,15,5,0,0,0,0,0],"split_type":[0,0,0,0,0,0,0,0,0,0,0],"sum_hessian":[2.7654694E1,1.881901E1,8.835685E0,5.911822E0,2.9238625E0,3.6079335E0,2.3038883E0,1.6250232E0,1.2988392E0,1.7233139E0,1.8846196E0],"tree_param":{"num_deleted":"0","num_feature":"36","num_nodes":"11","size_leaf_vector":"1"}},{"base_weights":[-6.5102303E-1,-2.8092688E-1,-1.1816453E-1,-2.4001388E-1,8.704628E-2,-5.275053E-1,1.331676E-1,-2.1441448E-1,-3.1205317E-2,3.8098985E-1,-9.439039E-2,1.5799099E-1,1.6726887E-2],"categories":[],"categories_nodes":[],"categories_segments":[],"categories_sizes":[],"default_left":[0,0,0,0,0,0,0,0,0,0,0,0,0],"id":13,"left_children":[1,-1,3,5,-1,7,9,-1,-1,11,-1,-1,-1],"loss_changes":[3.4643745E0,0E0,5.345224E-1,9.010215E-1,0E0,2.8840673E-1,5.824206E-1,0E0,0E0,1.1915979E-1,0E0,0E0,0E0],"parents":[2147483647,0,0,2,2,3,3,5,5,6,6,9,9],"right_children":[2,-1,4,6,-1,8,10,-1,-1,12,-1,-1,-1],"split_conditions":[1E0,-2.8092688E-1,2.3677653E-1,5.2E1,8.704628E-2,7.929E2,8.892174E-1,-2.1441448E-1,-3.1205317E-2,5.1008E2,-9.439039E-2,1.5799099E-1,1.6726887E-2],"split_indices":[10,0,6,25,0,12,3,0,0,12,0,0,0],"split_type":[0,0,0,0,0,0,0,0,0,0,0,0,0],"sum_hessian":[2.2507895E1,1.416418E1,8.343714E0,6.7435207E0,1.6001928E0,3.5754962E0,3.1680245E0,2.0025485E0,1.5729477E0,2.1354349E0,1.0325896E0,1.0472132E0,1.0882217E0],"tree_param":{"num_deleted":"0","num_feature":"36","num_nodes":"13","size_leaf_vector":"1"}},{"base_weights":[-5.890975E-1,-2.7490255E-1,-9.957602E-2,8.1258036E-2,-2.1059361E-1,-1.776953E-1,1.039457E-1,4.1316715E-1,-8.454807E-2,2.9630423E-2,1.6073078E-1],"categories":[],"categories_nodes":[],"categories_segments":[],"categories_sizes":[],"default_left":[0,0,0,0,0,0,0,0,0,0,0],"id":14,"left_children":[1,-1,3,-1,5,-1,7,9,-1,-1,-1],"loss_changes":[3.070784E0,0E0,4.284184E-1,0E0,9.6336126E-1,0E0,7.0912284E-1,6.901783E-2,0E0,0E0,0E0],"parents":[2147483647,0,0,2,2,4,4,6,6,7,7],"right_children":[2,-1,4,-1,6,-1,8,10,-1,-1,-1],"split_conditions":[1E0,-2.7490255E-1,4.86E-1,8.1258036E-2,4.8752E2,-1.776953E-1,1.35862E3,1.997994E3,-8.454807E-2,2.9630423E-2,1.6073078E-1],"split_indices":[10,0,4,0,17,0,12,1,0,0,0],"split_type":[0,0,0,0,0,0,0,0,0,0,0],"sum_hessian":[1.873886E1,1.07084E1,8.03046E0,1.5197303E0,6.51073E0,2.542288E0,3.9684415E0,2.163359E0,1.8050828E0,1.1135038E0,1.049855E0],"tree_param":{"num_deleted":"0","num_feature":"36","num_nodes":"11","size_leaf_vector":"1"}},{"base_weights":[-5.2267885E-1,-2.675732E-1,-7.573116E-2,-1.8389319E-1,7.449759E-2,-4.732431E-1,1.5431021E-1,-1.9421546E-1,-3.1124657E-2,1.388467E-1,-5.2392934E-2],"categories":[],"categories_nodes":[],"categories_segments":[],"categories_sizes":[],"default_left":[0,0,0,0,0,0,0,0,0,0,0],"id":15,"left_children":[1,-1,3,5,-1,7,9,-1,-1,-1,-1],"loss_changes":[2.7154655E0,0E0,3.5137236E-1,7.691741E-1,0E0,1.9533867E-1,4.902339E-1,0E0,0E0,0E0,0E0],"parents":[2147483647,0,0,2,2,3,3,5,5,6,6],"right_children":[2,-1,4,6,-1,8,10,-1,-1,-1,-1],"split_conditions":[1E0,-2.675732E-1,2.3677653E-1,5.2E1,7.449759E-2,7.929E2,4.5378152E-1,-1.9421546E-1,-3.1124657E-2,1.388467E-1,-5.2392934E-2],"split_indices":[10,0,6,25,0,12,26,0,0,0,0],"split_type":[0,0,0,0,0,0,0,0,0,0,0],"sum_hessian":[1.5863948E1,8.142072E0,7.721876E0,6.113776E0,1.6080999E0,3.0796747E0,3.0341012E0,1.5819988E0,1.497676E0,1.3556949E0,1.6784065E0],"tree_param":{"num_deleted":"0","num_feature":"36","num_nodes":"11","size_leaf_vector":"1"}},{"base_weights":[-4.6205568E-1,-2.5882167E-1,-6.582619E-2,1.157799E-1,-3.1041366E-1,-2.5229213E-1,4.250815E-1,-1.8483141E-1,3.6105916E-2,5.8322273E-2,-1.666609E-1,2.0843692E-1,-9.986046E-3],"categories":[],"categories_nodes":[],"categories_segments":[],"categories_sizes":[],"default_left":[0,0,0,0,0,0,0,0,0,0,0,0,0],"id":16,"left_children":[1,-1,3,5,7,9,11,-1,-1,-1,-1,-1,-1],"loss_changes":[2.279738E0,0E0,4.12711E-1,7.4434876E-1,5.858731E-1,5.3915143E-1,4.4510394E-1,0E0,0E0,0E0,0E0,0E0,0E0],"parents":[2147483647,0,0,2,2,3,3,4,4,5,5,6,6],"right_children":[2,-1,4,6,8,10,12,-1,-1,-1,-1,-1,-1],"split_conditions":[1E0,-2.5882167E-1,1.243496E4,4.2E1,1.52E2,4.2E-1,1.9E1,-1.8483141E-1,3.6105916E-2,5.8322273E-2,-1.666609E-1,2.0843692E-1,-9.986046E-3],"split_indices":[10,0,19,25,22,26,8,0,0,0,0,0,0],"split_type":[0,0,0,0,0,0,0,0,0,0,0,0,0],"sum_hessian":[1.3717134E1,6.234841E0,7.482293E0,4.5962276E0,2.8860655E0,2.1828868E0,2.4133406E0,1.4364475E0,1.449618E0,1.0277894E0,1.1550975E0,1.1946238E0,1.2187169E0],"tree_param":{"num_deleted":"0","num_feature":"36","num_nodes":"13","size_leaf_vector":"1"}},{"base_weights":[-4.0944764E-1,-2.4862705E-1,-5.9850987E-2,5.5993162E-2,-1.1569519E-1,2.09829E-1,-9.967637E-2,4.5042026E-1,-1.03179105E-1,-1.2334229E-2,2.0458815E-1],"categories":[],"categories_nodes":[],"categories_segments":[],"categories_sizes":[],"default_left":[0,0,0,0,0,0,0,0,0,0,0],"id":17,"left_children":[1,-1,3,5,-1,7,-1,9,-1,-1,-1],"loss_changes":[1.8504632E0,0E0,3.290533E-1,4.8079938E-1,0E0,8.933321E-1,0E0,5.170495E-1,0E0,0E0,0E0],"parents":[2147483647,0,0,2,2,3,3,5,5,7,7],"right_children":[2,-1,4,6,-1,8,-1,10,-1,-1,-1],"split_conditions":[1E0,-2.4862705E-1,8.892174E-1,1.35862E3,-1.1569519E-1,2.4E1,-9.967637E-2,1.5667305E3,-1.03179105E-1,-1.2334229E-2,2.0458815E-1],"split_indices":[10,0,3,12,0,8,0,0,0,0,0],"split_type":[0,0,0,0,0,0,0,0,0,0,0],"sum_hessian":[1.1961847E1,4.815494E0,7.1463532E0,5.882763E0,1.2635901E0,4.5424514E0,1.3403119E0,3.2967355E0,1.2457157E0,1.3190243E0,1.9777112E0],"tree_param":{"num_deleted":"0","num_feature":"36","num_nodes":"11","size_leaf_vector":"1"}},{"base_weights":[-3.6362663E-1,-2.3709221E-1,-6.171971E-2,1.1493326E-1,-2.3765899E-1,-9.281716E-2,3.587581E-1,-1.3869172E-1,3.938838E-2,1.7134556E-1,-1.13455895E-2],"categories":[],"categories_nodes":[],"categories_segments":[],"categories_sizes":[],"default_left":[0,0,0,0,0,0,0,0,0,0,0],"id":18,"left_children":[1,-1,3,5,7,-1,9,-1,-1,-1,-1],"loss_changes":[1.4563491E0,0E0,2.736959E-1,5.899824E-1,4.169033E-1,0E0,3.0825505E-1,0E0,0E0,0E0,0E0],"parents":[2147483647,0,0,2,2,3,3,4,4,6,6],"right_children":[2,-1,4,6,8,-1,10,-1,-1,-1,-1],"split_conditions":[1E0,-2.3709221E-1,1.09295395E2,2.8985239E1,1.52E2,-9.281716E-2,1.0638298E-1,-1.3869172E-1,3.938838E-2,1.7134556E-1,-1.13455895E-2],"split_indices":[10,0,20,20,22,0,18,0,0,0,0],"split_type":[0,0,0,0,0,0,0,0,0,0,0],"sum_hessian":[1.0684146E1,3.7568815E0,6.9272647E0,3.6296432E0,3.2976215E0,1.2264209E0,2.4032223E0,1.8923796E0,1.4052418E0,1.2783654E0,1.1248568E0],"tree_param":{"num_deleted":"0","num_feature":"36","num_nodes":"11","size_leaf_vector":"1"}},{"base_weights":[-3.151101E-1,-2.2445104E-1,-5.1247768E-2,6.5096684E-2,-8.698671E-2,-9.371113E-2,2.6322553E-1,1.3211156E-1,-4.2388462E-3],"categories":[],"categories_nodes":[],"categories_segments":[],"categories_sizes":[],"default_left":[0,0,0,0,0,0,0,0,0],"id":19,"left_children":[1,-1,3,5,-1,-1,7,-1,-1],"loss_changes":[1.1804374E0,0E0,2.3275676E-1,5.305231E-1,0E0,0E0,2.2602528E-1,0E0,0E0],"parents":[2147483647,0,0,2,2,3,3,6,6],"right_children":[2,-1,4,6,-1,-1,8,-1,-1],"split_conditions":[1E0,-2.2445104E-1,9.97E-1,4.2E1,-8.698671E-2,-9.371113E-2,1.243496E4,1.3211156E-1,-4.2388462E-3],"split_indices":[10,0,4,25,0,0,19,0,0],"split_type":[0,0,0,0,0,0,0,0,0],"sum_hessian":[9.6659565E0,2.964712E0,6.7012444E0,4.9943376E0,1.7069069E0,1.5206513E0,3.4736862E0,1.7611113E0,1.7125748E0],"tree_param":{"num_deleted":"0","num_feature":"36","num_nodes":"9","size_leaf_vector":"1"}},{"base_weights":[-2.7376285E-1,-2.1104647E-1,-4.5153588E-2,1.5522996E-1,-2.052131E-1,-6.680073E-2,1.2626088E-1,5.860351E-2,-1.532529E-1],"categories":[],"categories_nodes":[],"categories_segments":[],"categories_sizes":[],"default_left":[0,0,0,0,0,0,0,0,0],"id":20,"left_children":[1,-1,3,5,7,-1,-1,-1,-1],"loss_changes":[9.407883E-1,0E0,2.7338883E-1,4.8656434E-1,6.650454E-1,0E0,0E0,0E0,0E0],"parents":[2147483647,0,0,2,2,3,3,4,4],"right_children":[2,-1,4,6,8,-1,-1,-1,-1],"split_conditions":[1E0,-2.1104647E-1,4.5378152E-1,4.6702E2,9.7E-1,-6.680073E-2,1.2626088E-1,5.860351E-2,-1.532529E-1],"split_indices":[10,0,26,15,5,0,0,0,0],"split_type":[0,0,0,0,0,0,0,0,0],"sum_hessian":[8.89985E0,2.3691738E0,6.530676E0,2.9134324E0,3.6172438E0,1.2693776E0,1.6440547E0,1.72167E0,1.8955739E0],"tree_param":{"num_deleted":"0","num_feature":"36","num_nodes":"9","size_leaf_vector":"1"}},{"base_weights":[-2.4000303E-1,-1.983089E-1,-3.9033964E-2,1.8527795E-1,-2.4949987E-1,1.1881939E-1,-4.6368945E-2,-1.45807E-1,5.985645E-2],"categories":[],"categories_nodes":[],"categories_segments":[],"categories_sizes":[],"default_left":[0,0,0,0,0,0,0,0,0],"id":21,"left_children":[1,-1,3,5,7,-1,-1,-1,-1],"loss_changes":[7.5456035E-1,0E0,3.9112264E-1,3.5565493E-1,5.4252505E-1,0E0,0E0,0E0,0E0],"parents":[2147483647,0,0,2,2,3,3,4,4],"right_children":[2,-1,4,6,8,-1,-1,-1,-1],"split_conditions":[1.6879968E3,-1.983089E-1,1.09295395E2,8.3E1,1.53E2,1.1881939E-1,-4.6368945E-2,-1.45807E-1,5.985645E-2],"split_indices":[2,0,20,11,22,0,0,0,0],"split_type":[0,0,0,0,0,0,0,0,0],"sum_hessian":[8.222695E0,1.9171306E0,6.305565E0,3.1103113E0,3.1952536E0,1.81754E0,1.2927712E0,2.0388677E0,1.1563859E0],"tree_param":{"num_deleted":"0","num_feature":"36","num_nodes":"9","size_leaf_vector":"1"}},{"base_weights":[-2.0908156E-1,-1.85988E-1,-2.6417723E-2,-1.2816228E-1,6.772363E-2,-4.1463557E-1,1.8330489E-1,-1.6753323E-1,-2.1473149E-2,1.13221966E-1,-2.8864875E-2],"categories":[],"categories_nodes":[],"categories_segments":[],"categories_sizes":[],"default_left":[0,0,0,0,0,0,0,0,0,0,0],"id":22,"left_children":[1,-1,3,5,-1,7,9,-1,-1,-1,-1],"loss_changes":[6.358763E-1,0E0,2.1007977E-1,5.817973E-1,0E0,1.208266E-1,2.2128418E-1,0E0,0E0,0E0,0E0],"parents":[2147483647,0,0,2,2,3,3,5,5,6,6],"right_children":[2,-1,4,6,-1,8,10,-1,-1,-1,-1],"split_conditions":[1E0,-1.85988E-1,2.3677653E-1,5.2E1,6.772363E-2,7.929E2,4.5378152E-1,-1.6753323E-1,-2.1473149E-2,1.13221966E-1,-2.8864875E-2],"split_indices":[10,0,6,25,0,12,26,0,0,0,0],"split_type":[0,0,0,0,0,0,0,0,0,0,0],"sum_hessian":[7.6906247E0,1.630049E0,6.0605755E0,4.6686034E0,1.3919724E0,2.2593358E0,2.4092674E0,1.1495924E0,1.1097434E0,1.2152197E0,1.1940477E0],"tree_param":{"num_deleted":"0","num_feature":"36","num_nodes":"11","size_leaf_vector":"1"}},{"base_weights":[-1.86E-1,-1.7561746E-1,-1.9751165E-2,1.1587953E-1,-1.019943E-1,2.3728849E-1,-5.385414E-2,4.4384816E-1,-4.3855824E-2,3.2424096E-2,1.681602E-1],"categories":[],"categories_nodes":[],"categories_segments":[],"categories_sizes":[],"default_left":[0,0,0,0,0,0,0,0,0,0,0],"id":23,"left_children":[1,-1,3,5,-1,7,-1,9,-1,-1,-1],"loss_changes":[5.3725135E-1,0E0,3.3782756E-1,2.4244666E-1,0E0,4.118277E-1,0E0,6.065476E-2,0E0,0E0,0E0],"parents":[2147483647,0,0,2,2,3,3,5,5,7,7],"right_children":[2,-1,4,6,-1,8,-1,10,-1,-1,-1],"split_conditions":[1.6879968E3,-1.7561746E-1,3.2433237E3,1.16878E3,-1.019943E-1,8E1,-5.385414E-2,4.4E1,-4.3855824E-2,3.2424096E-2,1.681602E-1],"split_indices":[2,0,1,12,0,11,0,25,0,0,0],"split_type":[0,0,0,0,0,0,0,0,0,0,0],"sum_hessian":[7.265467E0,1.3944069E0,5.87106E0,4.5725365E0,1.2985237E0,3.3800237E0,1.1925128E0,2.09442E0,1.2856036E0,1.0369135E0,1.0575064E0],"tree_param":{"num_deleted":"0","num_feature":"36","num_nodes":"11","size_leaf_vector":"1"}},{"base_weights":[-1.6178268E-1,-1.634302E-1,-1.1858052E-2,7.416585E-2,-1.1466295E-1,-1.348648E-1,1.3401298E-1,-3.8257822E-2,9.63633E-2],"categories":[],"categories_nodes":[],"categories_segments":[],"categories_sizes":[],"default_left":[0,0,0,0,0,0,0,0,0],"id":24,"left_children":[1,-1,3,-1,5,-1,7,-1,-1],"loss_changes":[4.462986E-1,0E0,2.0650692E-1,0E0,5.159414E-1,0E0,2.3242077E-1,0E0,0E0],"parents":[2147483647,0,0,2,2,4,4,6,6],"right_children":[2,-1,4,-1,6,-1,8,-1,-1],"split_conditions":[1E0,-1.634302E-1,4.86E-1,7.416585E-2,4.8752E2,-1.348648E-1,1.7E1,-3.8257822E-2,9.63633E-2],"split_indices":[10,0,4,0,17,0,8,0,0],"split_type":[0,0,0,0,0,0,0,0,0],"sum_hessian":[6.885193E0,1.1961085E0,5.6890845E0,1.2171112E0,4.4719734E0,1.5614419E0,2.9105313E0,1.3471532E0,1.5633781E0],"tree_param":{"num_deleted":"0","num_feature":"36","num_nodes":"9","size_leaf_vector":"1"}},{"base_weights":[-1.4362916E-1,-1.5428078E-1,-5.091358E-3,1.1518981E-1,-8.970483E-2,-4.998598E-2,9.7373135E-2,-9.918883E-2,1.0671099E-1],"categories":[],"categories_nodes":[],"categories_segments":[],"categories_sizes":[],"default_left":[0,0,0,0,0,0,0,0,0],"id":25,"left_children":[1,-1,3,5,-1,7,-1,-1,-1],"loss_changes":[3.8581866E-1,0E0,2.6482856E-1,2.0112437E-1,0E0,5.565285E-1,0E0,0E0,0E0],"parents":[2147483647,0,0,2,2,3,3,5,5],"right_children":[2,-1,4,6,-1,8,-1,-1,-1],"split_conditions":[1.6879968E3,-1.5428078E-1,3.2433237E3,2.9770906E3,-8.970483E-2,2.3716527E-1,9.7373135E-2,-9.918883E-2,1.0671099E-1],"split_indices":[2,0,1,2,0,6,0,0,0],"split_type":[0,0,0,0,0,0,0,0,0],"sum_hessian":[6.564842E0,1.0482533E0,5.516589E0,4.34614E0,1.170449E0,2.855134E0,1.491006E0,1.7970251E0,1.0581089E0],"tree_param":{"num_deleted":"0","num_feature":"36","num_nodes":"9","size_leaf_vector":"1"}},{"base_weights":[-1.2687694E-1,-3.0408046E-1,9.915721E-2,-1.3645945E-1,1.2216789E-2,1.2730259E-1,-5.2510303E-2],"categories":[],"categories_nodes":[],"categories_segments":[],"categories_sizes":[],"default_left":[0,0,0,0,0,0,0],"id":26,"left_children":[1,3,5,-1,-1,-1,-1],"loss_changes":[3.210361E-1,2.429561E-1,4.260689E-1,0E0,0E0,0E0,0E0],"parents":[2147483647,0,0,1,1,2,2],"right_children":[2,4,6,-1,-1,-1,-1],"split_conditions":[4.9E1,1.7E1,5.4E1,-1.3645945E-1,1.2216789E-2,1.2730259E-1,-5.2510303E-2],"split_indices":[25,8,25,0,0,0,0],"split_type":[0,0,0,0,0,0,0],"sum_hessian":[6.2622952E0,3.3167691E0,2.9455261E0,2.085546E0,1.2312231E0,1.0969536E0,1.8485724E0],"tree_param":{"num_deleted":"0","num_feature":"36","num_nodes":"7","size_leaf_vector":"1"}},{"base_weights":[-1.0182894E-1,-2.9664105E-1,6.4301826E-2,-1.2181394E-1,-5.312586E-3,9.867348E-2,-1.6051629E-1,-1.1066235E-1,3.7837848E-2],"categories":[],"categories_nodes":[],"categories_segments":[],"categories_sizes":[],"default_left":[0,0,0,0,0,0,0,0,0],"id":27,"left_children":[1,3,5,-1,-1,-1,7,-1,-1],"loss_changes":[2.4497154E-1,9.628385E-2,3.2579562E-1,0E0,0E0,0E0,2.3484282E-1,0E0,0E0],"parents":[2147483647,0,0,1,1,2,2,6,6],"right_children":[2,4,6,-1,-1,-1,8,-1,-1],"split_conditions":[2.3938665E3,5.6581E2,4.385965E-1,-1.2181394E-1,-5.312586E-3,9.867348E-2,5.2380955E-1,-1.1066235E-1,3.7837848E-2],"split_indices":[2,15,26,0,0,0,26,0,0],"split_type":[0,0,0,0,0,0,0,0,0],"sum_hessian":[5.9798226E0,2.3907447E0,3.589078E0,1.389878E0,1.0008667E0,1.4359549E0,2.1531231E0,1.0806946E0,1.0724287E0],"tree_param":{"num_deleted":"0","num_feature":"36","num_nodes":"9","size_leaf_vector":"1"}},{"base_weights":[-8.996589E-2,-2.4821484E-1,1.00170925E-1,1.4475729E-2,-1.3544698E-1,1.0950556E-1,-4.0791266E-2],"categories":[],"categories_nodes":[],"categories_segments":[],"categories_sizes":[],"default_left":[0,0,0,0,0,0,0],"id":28,"left_children":[1,3,5,-1,-1,-1,-1],"loss_changes":[2.2976242E-1,2.6308763E-1,2.8764647E-1,0E0,0E0,0E0,0E0],"parents":[2147483647,0,0,1,1,2,2],"right_children":[2,4,6,-1,-1,-1,-1],"split_conditions":[4.9E1,2.75578E3,1.243496E4,1.4475729E-2,-1.3544698E-1,1.0950556E-1,-4.0791266E-2],"split_indices":[25,19,19,0,0,0,0],"split_type":[0,0,0,0,0,0,0],"sum_hessian":[5.8097587E0,3.0040576E0,2.8057008E0,1.5321349E0,1.4719229E0,1.0652252E0,1.7404757E0],"tree_param":{"num_deleted":"0","num_feature":"36","num_nodes":"7","size_leaf_vector":"1"}},{"base_weights":[-7.407231E-2,-2.635041E-1,7.9798676E-2,-1.0491324E-1,-1.2599116E-2,2.4097201E-1,-6.181373E-2,1.151401E-1,3.320229E-4],"categories":[],"categories_nodes":[],"categories_segments":[],"categories_sizes":[],"default_left":[0,0,0,0,0,0,0,0,0],"id":29,"left_children":[1,3,5,-1,-1,7,-1,-1,-1],"loss_changes":[2.1433038E-1,4.6511114E-2,2.5360134E-1,0E0,0E0,1.1234784E-1,0E0,0E0,0E0],"parents":[2147483647,0,0,1,1,2,2,5,5],"right_children":[2,4,6,-1,-1,8,-1,-1,-1],"split_conditions":[2.3938665E3,2.190628E-1,2.1279243E-1,-1.0491324E-1,-1.2599116E-2,4.5378152E-1,-6.181373E-2,1.151401E-1,3.320229E-4],"split_indices":[2,7,6,0,0,26,0,0,0],"split_type":[0,0,0,0,0,0,0,0,0],"sum_hessian":[5.631767E0,2.2048538E0,3.4269128E0,1.1705257E0,1.0343281E0,2.2917128E0,1.1351999E0,1.060293E0,1.2314199E0],"tree_param":{"num_deleted":"0","num_feature":"36","num_nodes":"9","size_leaf_vector":"1"}},{"base_weights":[-6.37676E-2,-2.0675667E-1,1.037799E-1,4.013993E-2,-1.2779967E-1,-3.9071962E-2,1.0156984E-1],"categories":[],"categories_nodes":[],"categories_segments":[],"categories_sizes":[],"default_left":[0,0,0,0,0,0,0],"id":30,"left_children":[1,3,5,-1,-1,-1,-1],"loss_changes":[1.7675668E-1,3.4308764E-1,2.4467742E-1,0E0,0E0,0E0,0E0],"parents":[2147483647,0,0,1,1,2,2],"right_children":[2,4,6,-1,-1,-1,-1],"split_conditions":[1.7E1,5.1008E2,2E0,4.013993E-2,-1.2779967E-1,-3.9071962E-2,1.0156984E-1],"split_indices":[8,12,16,0,0,0,0],"split_type":[0,0,0,0,0,0,0],"sum_hessian":[5.4823017E0,2.8316689E0,2.6506329E0,1.2616391E0,1.5700299E0,1.5504887E0,1.1001441E0],"tree_param":{"num_deleted":"0","num_feature":"36","num_nodes":"7","size_leaf_vector":"1"}},{"base_weights":[-5.13754E-2,-8.649694E-2,4.8072554E-2,8.4752925E-2,-1.14059985E-1,-1.2351696E-1,6.258771E-2],"categories":[],"categories_nodes":[],"categories_segments":[],"categories_sizes":[],"default_left":[0,0,0,0,0,0,0],"id":31,"left_children":[1,-1,3,-1,5,-1,-1],"loss_changes":[1.6287217E-1,0E0,2.3410657E-1,0E0,4.5591098E-1,0E0,0E0],"parents":[2147483647,0,0,2,2,4,4],"right_children":[2,-1,4,-1,6,-1,-1],"split_conditions":[1.1164288E3,-8.649694E-2,2.4284558E3,8.4752925E-2,8.08E-1,-1.2351696E-1,6.258771E-2],"split_indices":[0,0,1,0,3,0,0],"split_type":[0,0,0,0,0,0,0],"sum_hessian":[5.3237114E0,1.0123702E0,4.311341E0,1.4590914E0,2.8522496E0,1.340121E0,1.5121286E0],"tree_param":{"num_deleted":"0","num_feature":"36","num_nodes":"7","size_leaf_vector":"1"}},{"base_weights":[-4.872565E-2,1.10691E-1,-2.1082446E-1,-2.5085332E-2,8.327088E-2,-1.1019341E-1,2.1316854E-2],"categories":[],"categories_nodes":[],"categories_segments":[],"categories_sizes":[],"default_left":[0,0,0,0,0,0,0],"id":32,"left_children":[1,3,5,-1,-1,-1,-1],"loss_changes":[1.83178E-1,1.4559454E-1,1.7657167E-1,0E0,0E0,0E0,0E0],"parents":[2147483647,0,0,1,1,2,2],"right_children":[2,4,6,-1,-1,-1,-1],"split_conditions":[1.09295395E2,1.5667305E3,1.53E2,-2.5085332E-2,8.327088E-2,-1.1019341E-1,2.1316854E-2],"split_indices":[20,0,22,0,0,0,0],"split_type":[0,0,0,0,0,0,0],"sum_hessian":[5.185522E0,2.7742825E0,2.4112396E0,1.5123152E0,1.2619673E0,1.3555999E0,1.0556396E0],"tree_param":{"num_deleted":"0","num_feature":"36","num_nodes":"7","size_leaf_vector":"1"}},{"base_weights":[-4.085988E-2,-1.403319E-1,5.7075292E-2,-1.5222496E-1,8.9209706E-2,-5.9586264E-2,8.7210946E-2],"categories":[],"categories_nodes":[],"categories_segments":[],"categories_sizes":[],"default_left":[0,0,0,0,0,0,0],"id":33,"left_children":[1,3,-1,-1,5,-1,-1],"loss_changes":[1.6648766E-1,4.5195478E-1,0E0,0E0,2.7928877E-1,0E0,0E0],"parents":[2147483647,0,0,1,1,4,4],"right_children":[2,4,-1,-1,6,-1,-1],"split_conditions":[2.3716527E-1,7E0,5.7075292E-2,-1.5222496E-1,4.8752E2,-5.9586264E-2,8.7210946E-2],"split_indices":[6,8,0,0,17,0,0],"split_type":[0,0,0,0,0,0,0],"sum_hessian":[5.0806913E0,3.8265197E0,1.2541715E0,1.0064435E0,2.8200762E0,1.1671191E0,1.6529571E0],"tree_param":{"num_deleted":"0","num_feature":"36","num_nodes":"7","size_leaf_vector":"1"}},{"base_weights":[-4.282576E-2,-1.5622185E-1,4.358303E-2,7.263628E-2,-1.22333385E-1,-3.5555752E-3,3.6510017E-2],"categories":[],"categories_nodes":[],"categories_segments":[],"categories_sizes":[],"default_left":[0,0,0,0,0,0,0],"id":34,"left_children":[1,3,-1,5,-1,-1,-1],"loss_changes":[1.4921387E-1,2.7040496E-1,0E0,1.403925E-2,0E0,0E0,0E0],"parents":[2147483647,0,0,1,1,3,3],"right_children":[2,4,-1,6,-1,-1,-1],"split_conditions":[5.2380955E-1,4.4578314E-1,4.358303E-2,4.2465752E-1,-1.22333385E-1,-3.5555752E-3,3.6510017E-2],"split_indices":[26,26,0,26,0,0,0],"split_type":[0,0,0,0,0,0,0],"sum_hessian":[4.9314537E0,3.1824346E0,1.7490194E0,2.038825E0,1.1436095E0,1.0276473E0,1.0111778E0],"tree_param":{"num_deleted":"0","num_feature":"36","num_nodes":"7","size_leaf_vector":"1"}},{"base_weights":[-3.9400276E-2,9.2927314E-2,-1.7868872E-1,6.597263E-2,-3.424581E-2,-1.0221093E-1,1.9528352E-2],"categories":[],"categories_nodes":[],"categories_segments":[],"categories_sizes":[],"default_left":[0,0,0,0,0,0,0],"id":35,"left_children":[1,3,5,-1,-1,-1,-1],"loss_changes":[1.2439156E-1,1.2125857E-1,1.4821628E-1,0E0,0E0,0E0,0E0],"parents":[2147483647,0,0,1,1,2,2],"right_children":[2,4,6,-1,-1,-1,-1],"split_conditions":[1.09295395E2,8.3E1,1.16363E3,6.597263E-2,-3.424581E-2,-1.0221093E-1,1.9528352E-2],"split_indices":[20,11,15,0,0,0,0],"split_type":[0,0,0,0,0,0,0],"sum_hessian":[4.847886E0,2.656749E0,2.1911368E0,1.608479E0,1.0482699E0,1.0774891E0,1.1136477E0],"tree_param":{"num_deleted":"0","num_feature":"36","num_nodes":"7","size_leaf_vector":"1"}},{"base_weights":[-3.7570912E-2,-1.7882861E-1,1.1080234E-1,1.3843629E-2,-1.0480042E-1,1.0246419E-1,-3.7271727E-2],"categories":[],"categories_nodes":[],"categories_segments":[],"categories_sizes":[],"default_left":[0,0,0,0,0,0,0],"id":36,"left_children":[1,3,5,-1,-1,-1,-1],"loss_changes":[1.4094478E-1,1.4436615E-1,2.2879204E-1,0E0,0E0,0E0,0E0],"parents":[2147483647,0,0,1,1,2,2],"right_children":[2,4,6,-1,-1,-1,-1],"split_conditions":[4.9E1,2.75578E3,1.243496E4,1.3843629E-2,-1.0480042E-1,1.0246419E-1,-3.7271727E-2],"split_indices":[25,19,19,0,0,0,0],"split_type":[0,0,0,0,0,0,0],"sum_hessian":[4.779423E0,2.3432689E0,2.4361544E0,1.3247248E0,1.0185442E0,1.0006547E0,1.4354997E0],"tree_param":{"num_deleted":"0","num_feature":"36","num_nodes":"7","size_leaf_vector":"1"}},{"base_weights":[-3.1957805E-2,-5.60194E-2,8.786406E-2,8.3295986E-2,-3.1791978E-2],"categories":[],"categories_nodes":[],"categories_segments":[],"categories_sizes":[],"default_left":[0,0,0,0,0],"id":37,"left_children":[1,-1,3,-1,-1],"loss_changes":[1.2173097E-1,0E0,1.7220314E-1,0E0,0E0],"parents":[2147483647,0,0,2,2],"right_children":[2,-1,4,-1,-1],"split_conditions":[2.3938665E3,-5.60194E-2,4.385965E-1,8.3295986E-2,-3.1791978E-2],"split_indices":[2,0,26,0,0],"split_type":[0,0,0,0,0],"sum_hessian":[4.679297E0,1.7981826E0,2.8811145E0,1.2372751E0,1.6438394E0],"tree_param":{"num_deleted":"0","num_feature":"36","num_nodes":"5","size_leaf_vector":"1"}},{"base_weights":[-2.3781857E-2,-6.177377E-2,8.882952E-2,8.328413E-2,-4.4756074E-2],"categories":[],"categories_nodes":[],"categories_segments":[],"categories_sizes":[],"default_left":[0,0,0,0,0],"id":38,"left_children":[1,-1,3,-1,-1],"loss_changes":[1.3358696E-1,0E0,2.2889318E-1,0E0,0E0],"parents":[2147483647,0,0,2,2],"right_children":[2,-1,4,-1,-1],"split_conditions":[4.2E1,-6.177377E-2,1.243496E4,8.328413E-2,-4.4756074E-2],"split_indices":[25,0,19,0,0],"split_type":[0,0,0,0,0],"sum_hessian":[4.6214485E0,1.4491533E0,3.172295E0,1.6763352E0,1.4959599E0],"tree_param":{"num_deleted":"0","num_feature":"36","num_nodes":"5","size_leaf_vector":"1"}},{"base_weights":[-2.1508643E-2,1.17387466E-1,-1.455888E-1,-2.3339124E-2,7.996683E-2,2.3197986E-2,-9.455269E-2],"categories":[],"categories_nodes":[],"categories_segments":[],"categories_sizes":[],"default_left":[0,0,0,0,0,0,0],"id":39,"left_children":[1,3,5,-1,-1,-1,-1],"loss_changes":[1.1259911E-1,1.1298683E-1,1.5189761E-1,0E0,0E0,0E0,0E0],"parents":[2147483647,0,0,1,1,2,2],"right_children":[2,4,6,-1,-1,-1,-1],"split_conditions":[4.5378152E-1,5.3E1,3.3458E2,-2.3339124E-2,7.996683E-2,2.3197986E-2,-9.455269E-2],"split_indices":[26,25,15,0,0,0,0],"split_type":[0,0,0,0,0,0,0],"sum_hessian":[4.541803E0,2.1684096E0,2.373393E0,1.1465851E0,1.0218246E0,1.2605188E0,1.1128744E0],"tree_param":{"num_deleted":"0","num_feature":"36","num_nodes":"7","size_leaf_vector":"1"}},{"base_weights":[-1.861467E-2,-1.1192086E-1,5.2809805E-2,-1.085849E-1,5.309097E-2],"categories":[],"categories_nodes":[],"categories_segments":[],"categories_sizes":[],"default_left":[0,0,0,0,0],"id":40,"left_children":[1,3,-1,-1,-1],"loss_changes":[1.1884167E-1,3.747366E-1,0E0,0E0,0E0],"parents":[2147483647,0,0,1,1],"right_children":[2,4,-1,-1,-1],"split_conditions":[2.3716527E-1,2.9770906E3,5.2809805E-2,-1.085849E-1,5.309097E-2],"split_indices":[6,2,0,0,0],"split_type":[0,0,0,0,0],"sum_hessian":[4.4587054E0,3.3012328E0,1.1574726E0,1.6340784E0,1.6671546E0],"tree_param":{"num_deleted":"0","num_feature":"36","num_nodes":"5","size_leaf_vector":"1"}},{"base_weights":[-1.4970309E-2,-1.3790362E-1,1.0351715E-1,5.8904454E-2,-1.1847741E-1,8.406414E-2,-3.0438082E-2],"categories":[],"categories_nodes":[],"categories_segments":[],"categories_sizes":[],"default_left":[0,0,0,0,0,0,0],"id":41,"left_children":[1,3,5,-1,-1,-1,-1],"loss_changes":[9.252313E-2,3.4088045E-1,1.4819324E-1,0E0,0E0,0E0,0E0],"parents":[2147483647,0,0,1,1,2,2],"right_children":[2,4,6,-1,-1,-1,-1],"split_conditions":[4.8752E2,3.179E-1,1.16878E3,5.8904454E-2,-1.1847741E-1,8.406414E-2,-3.0438082E-2],"split_indices":[17,3,12,0,0,0,0],"split_type":[0,0,0,0,0,0,0],"sum_hessian":[4.371924E0,2.0652823E0,2.3066416E0,1.0003741E0,1.0649083E0,1.041656E0,1.2649856E0],"tree_param":{"num_deleted":"0","num_feature":"36","num_nodes":"7","size_leaf_vector":"1"}},{"base_weights":[-1.2887345E-2,-1.320577E-1,1.0600686E-1,-6.852373E-2,1.0211705E-2,7.199846E-2,-1.9313866E-2],"categories":[],"categories_nodes":[],"categories_segments":[],"categories_sizes":[],"default_left":[0,0,0,0,0,0,0],"id":42,"left_children":[1,3,5,-1,-1,-1,-1],"loss_changes":[8.874162E-2,5.7065148E-2,8.840035E-2,0E0,0E0,0E0,0E0],"parents":[2147483647,0,0,1,1,2,2],"right_children":[2,4,6,-1,-1,-1,-1],"split_conditions":[4.9E1,1.4E1,2.22561E4,-6.852373E-2,1.0211705E-2,7.199846E-2,-1.9313866E-2],"split_indices":[25,8,19,0,0,0,0],"split_type":[0,0,0,0,0,0,0],"sum_hessian":[4.275205E0,2.0798295E0,2.195376E0,1.0788172E0,1.0010121E0,1.0002606E0,1.1951152E0],"tree_param":{"num_deleted":"0","num_feature":"36","num_nodes":"7","size_leaf_vector":"1"}},{"base_weights":[-1.0532819E-2,1.1375217E-1,-1.2749937E-1,-1.171345E-2,6.420359E-2,-6.973924E-2,1.4377397E-2],"categories":[],"categories_nodes":[],"categories_segments":[],"categories_sizes":[],"default_left":[0,0,0,0,0,0,0],"id":43,"left_children":[1,3,5,-1,-1,-1,-1],"loss_changes":[9.031665E-2,5.5186752E-2,6.92933E-2,0E0,0E0,0E0,0E0],"parents":[2147483647,0,0,1,1,2,2],"right_children":[2,4,6,-1,-1,-1,-1],"split_conditions":[4.5378152E-1,2.0806958E3,5.443038E-1,-1.171345E-2,6.420359E-2,-6.973924E-2,1.4377397E-2],"split_indices":[26,0,26,0,0,0,0],"split_type":[0,0,0,0,0,0,0],"sum_hessian":[4.21513E0,2.056955E0,2.1581748E0,1.056857E0,1.0000982E0,1.1468205E0,1.0113542E0],"tree_param":{"num_deleted":"0","num_feature":"36","num_nodes":"7","size_leaf_vector":"1"}},{"base_weights":[-8.28599E-3,-9.255372E-2,4.7025755E-2,-9.784241E-2,4.9496356E-2],"categories":[],"categories_nodes":[],"categories_segments":[],"categories_sizes":[],"default_left":[0,0,0,0,0],"id":44,"left_children":[1,3,-1,-1,-1],"loss_changes":[8.6388536E-2,2.9746675E-1,0E0,0E0,0E0],"parents":[2147483647,0,0,1,1],"right_children":[2,4,-1,-1,-1],"split_conditions":[2.3716527E-1,9.94E-1,4.7025755E-2,-9.784241E-2,4.9496356E-2],"split_indices":[6,5,0,0,0],"split_type":[0,0,0,0,0],"sum_hessian":[4.168501E0,3.0502563E0,1.1182444E0,1.4598358E0,1.5904205E0],"tree_param":{"num_deleted":"0","num_feature":"36","num_nodes":"5","size_leaf_vector":"1"}},{"base_weights":[-7.0404094E-3,9.456512E-2,-4.9242217E-2,-3.5354555E-2,7.233034E-2],"categories":[],"categories_nodes":[],"categories_segments":[],"categories_sizes":[],"default_left":[0,0,0,0,0],"id":45,"left_children":[1,3,-1,-1,-1],"loss_changes":[9.695307E-2,1.4458784E-1,0E0,0E0,0E0],"parents":[2147483647,0,0,1,1],"right_children":[2,4,-1,-1,-1],"split_conditions":[1.243496E4,4.2E1,-4.9242217E-2,-3.5354555E-2,7.233034E-2],"split_indices":[19,25,0,0,0],"split_type":[0,0,0,0,0],"sum_hessian":[4.1014752E0,2.7323627E0,1.3691125E0,1.1953682E0,1.5369946E0],"tree_param":{"num_deleted":"0","num_feature":"36","num_nodes":"5","size_leaf_vector":"1"}},{"base_weights":[-7.6156342E-3,-4.4534404E-2,8.578302E-2,7.1074076E-2,-2.406847E-2],"categories":[],"categories_nodes":[],"categories_segments":[],"categories_sizes":[],"default_left":[0,0,0,0,0],"id":46,"left_children":[1,-1,3,-1,-1],"loss_changes":[7.914708E-2,0E0,1.11073114E-1,0E0,0E0],"parents":[2147483647,0,0,2,2],"right_children":[2,-1,4,-1,-1],"split_conditions":[1.5667305E3,-4.4534404E-2,4.385965E-1,7.1074076E-2,-2.406847E-2],"split_indices":[0,0,26,0,0],"split_type":[0,0,0,0,0],"sum_hessian":[4.049035E0,1.3795143E0,2.6695206E0,1.1738224E0,1.4956983E0],"tree_param":{"num_deleted":"0","num_feature":"36","num_nodes":"5","size_leaf_vector":"1"}},{"base_weights":[-5.067055E-3,4.6488445E-2,-8.434677E-2,3.1634714E-2,-9.573422E-2],"categories":[],"categories_nodes":[],"categories_segments":[],"categories_sizes":[],"default_left":[0,0,0,0,0],"id":47,"left_children":[1,-1,3,-1,-1],"loss_changes":[7.675978E-2,0E0,2.1208228E-1,0E0,0E0],"parents":[2147483647,0,0,2,2],"right_children":[2,-1,4,-1,-1],"split_conditions":[4.86E-1,4.6488445E-2,2.1280092E-1,3.1634714E-2,-9.573422E-2],"split_indices":[4,0,7,0,0],"split_type":[0,0,0,0,0],"sum_hessian":[4.0200357E0,1.0155334E0,3.0045023E0,1.9659672E0,1.0385351E0],"tree_param":{"num_deleted":"0","num_feature":"36","num_nodes":"5","size_leaf_vector":"1"}},{"base_weights":[-7.845746E-3,-8.778251E-2,4.3682422E-2,-9.288389E-2,4.6660185E-2],"categories":[],"categories_nodes":[],"categories_segments":[],"categories_sizes":[],"default_left":[0,0,0,0,0],"id":48,"left_children":[1,3,-1,-1,-1],"loss_changes":[7.374553E-2,2.582031E-1,0E0,0E0,0E0],"parents":[2147483647,0,0,1,1],"right_children":[2,4,-1,-1,-1],"split_conditions":[2.3716527E-1,5.2E1,4.3682422E-2,-9.288389E-2,4.6660185E-2],"split_indices":[6,25,0,0,0],"split_type":[0,0,0,0,0],"sum_hessian":[3.9698923E0,2.891575E0,1.078317E0,1.3700429E0,1.521532E0],"tree_param":{"num_deleted":"0","num_feature":"36","num_nodes":"5","size_leaf_vector":"1"}},{"base_weights":[-6.8440237E-3,9.309531E-2,-4.8205078E-2,-2.3991866E-2,7.325926E-2],"categories":[],"categories_nodes":[],"categories_segments":[],"categories_sizes":[],"default_left":[0,0,0,0,0],"id":49,"left_children":[1,3,-1,-1,-1],"loss_changes":[9.0455286E-2,1.1393051E-1,0E0,0E0,0E0],"parents":[2147483647,0,0,1,1],"right_children":[2,4,-1,-1,-1],"split_conditions":[1.243496E4,3.2E1,-4.8205078E-2,-2.3991866E-2,7.325926E-2],"split_indices":[19,24,0,0,0],"split_type":[0,0,0,0,0],"sum_hessian":[3.9104543E0,2.6098578E0,1.3005965E0,1.4359256E0,1.1739322E0],"tree_param":{"num_deleted":"0","num_feature":"36","num_nodes":"5","size_leaf_vector":"1"}},{"base_weights":[-4.7485246E-3,4.1907135E-2,-9.763937E-2,-9.513493E-2,4.7439568E-2],"categories":[],"categories_nodes":[],"categories_segments":[],"categories_sizes":[],"default_left":[0,0,0,0,0],"id":50,"left_children":[1,-1,3,-1,-1],"loss_changes":[7.8930974E-2,0E0,2.494419E-1,0E0,0E0],"parents":[2147483647,0,0,2,2],"right_children":[2,-1,4,-1,-1],"split_conditions":[8.5E1,4.1907135E-2,6.1402E2,-9.513493E-2,4.7439568E-2],"split_indices":[22,0,15,0,0],"split_type":[0,0,0,0,0],"sum_hessian":[3.8663192E0,1.3160843E0,2.550235E0,1.2434167E0,1.3068184E0],"tree_param":{"num_deleted":"0","num_feature":"36","num_nodes":"5","size_leaf_vector":"1"}},{"base_weights":[-5.3080767E-3,8.980856E-2,-3.607799E-2,7.669732E-2,-3.3697717E-2],"categories":[],"categories_nodes":[],"categories_segments":[],"categories_sizes":[],"default_left":[0,0,0,0,0],"id":51,"left_children":[1,3,-1,-1,-1],"loss_changes":[6.342491E-2,1.3620117E-1,0E0,0E0,0E0],"parents":[2147483647,0,0,1,1],"right_children":[2,4,-1,-1,-1],"split_conditions":[2.6086956E-1,3.925E-1,-3.607799E-2,7.669732E-2,-3.3697717E-2],"split_indices":[18,3,0,0,0],"split_type":[0,0,0,0,0],"sum_hessian":[3.8129966E0,2.2062063E0,1.6067903E0,1.0664243E0,1.1397821E0],"tree_param":{"num_deleted":"0","num_feature":"36","num_nodes":"5","size_leaf_vector":"1"}},{"base_weights":[-2.4350705E-3,-1.0591487E-1,3.609447E-2,2.7208311E-2,-7.233634E-2],"categories":[],"categories_nodes":[],"categories_segments":[],"categories_sizes":[],"default_left":[0,0,0,0,0],"id":52,"left_children":[1,3,-1,-1,-1],"loss_changes":[7.3463015E-2,1.04954466E-1,0E0,0E0,0E0],"parents":[2147483647,0,0,1,1],"right_children":[2,4,-1,-1,-1],"split_conditions":[4.8E1,5.17E-1,3.609447E-2,2.7208311E-2,-7.233634E-2],"split_indices":[24,4,0,0,0],"split_type":[0,0,0,0,0],"sum_hessian":[3.7802863E0,2.125561E0,1.6547254E0,1.0002577E0,1.1253031E0],"tree_param":{"num_deleted":"0","num_feature":"36","num_nodes":"5","size_leaf_vector":"1"}},{"base_weights":[-3.9892485E-3,8.002899E-2,-3.9498467E-2,-3.4767464E-2,6.504614E-2],"categories":[],"categories_nodes":[],"categories_segments":[],"categories_sizes":[],"default_left":[0,0,0,0,0],"id":53,"left_children":[1,3,-1,-1,-1],"loss_changes":[6.148916E-2,1.1857273E-1,0E0,0E0,0E0],"parents":[2147483647,0,0,1,1],"right_children":[2,4,-1,-1,-1],"split_conditions":[1.243496E4,4.2E1,-3.9498467E-2,-3.4767464E-2,6.504614E-2],"split_indices":[19,25,0,0,0],"split_type":[0,0,0,0,0],"sum_hessian":[3.7500105E0,2.4867234E0,1.2632873E0,1.0852102E0,1.4015131E0],"tree_param":{"num_deleted":"0","num_feature":"36","num_nodes":"5","size_leaf_vector":"1"}},{"base_weights":[-4.901009E-3,3.3232123E-2,-3.555338E-2],"categories":[],"categories_nodes":[],"categories_segments":[],"categories_sizes":[],"default_left":[0,0,0],"id":54,"left_children":[1,-1,-1],"loss_changes":[7.501041E-2,0E0,0E0],"parents":[2147483647,0,0],"right_children":[2,-1,-1],"split_conditions":[4.5378152E-1,3.3232123E-2,-3.555338E-2],"split_indices":[26,0,0],"split_type":[0,0,0],"sum_hessian":[3.708814E0,1.8500808E0,1.858733E0],"tree_param":{"num_deleted":"0","num_feature":"36","num_nodes":"3","size_leaf_vector":"1"}},{"base_weights":[-4.057131E-3,-9.8549284E-2,3.2318335E-2,2.708399E-2,-7.1019545E-2],"categories":[],"categories_nodes":[],"categories_segments":[],"categories_sizes":[],"default_left":[0,0,0,0,0],"id":55,"left_children":[1,3,-1,-1,-1],"loss_changes":[6.023543E-2,1.014228E-1,0E0,0E0,0E0],"parents":[2147483647,0,0,1,1],"right_children":[2,4,-1,-1,-1],"split_conditions":[4.8E1,8E1,3.2318335E-2,2.708399E-2,-7.1019545E-2],"split_indices":[24,22,0,0,0],"split_type":[0,0,0,0,0],"sum_hessian":[3.6975188E0,2.0679102E0,1.6296086E0,1.0203046E0,1.0476055E0],"tree_param":{"num_deleted":"0","num_feature":"36","num_nodes":"5","size_leaf_vector":"1"}},{"base_weights":[-5.6671407E-3,7.886015E-2,-3.970144E-2,-3.3350296E-2,6.318479E-2],"categories":[],"categories_nodes":[],"categories_segments":[],"categories_sizes":[],"default_left":[0,0,0,0,0],"id":56,"left_children":[1,3,-1,-1,-1],"loss_changes":[6.046906E-2,1.0927275E-1,0E0,0E0,0E0],"parents":[2147483647,0,0,1,1],"right_children":[2,4,-1,-1,-1],"split_conditions":[1.243496E4,4.2E1,-3.970144E-2,-3.3350296E-2,6.318479E-2],"split_indices":[19,25,0,0,0],"split_type":[0,0,0,0,0],"sum_hessian":[3.6728442E0,2.429251E0,1.2435932E0,1.0586495E0,1.3706013E0],"tree_param":{"num_deleted":"0","num_feature":"36","num_nodes":"5","size_leaf_vector":"1"}},{"base_weights":[-6.248968E-3,-4.1751478E-2,8.374181E-2,6.5785155E-2,-2.2698797E-2],"categories":[],"categories_nodes":[],"categories_segments":[],"categories_sizes":[],"default_left":[0,0,0,0,0],"id":57,"left_children":[1,-1,3,-1,-1],"loss_changes":[6.707574E-2,0E0,8.9772955E-2,0E0,0E0],"parents":[2147483647,0,0,2,2],"right_children":[2,-1,4,-1,-1],"split_conditions":[2.3938665E3,-4.1751478E-2,4.385965E-1,6.5785155E-2,-2.2698797E-2],"split_indices":[2,0,26,0,0],"split_type":[0,0,0,0,0],"sum_hessian":[3.633183E0,1.246099E0,2.387084E0,1.0870869E0,1.2999971E0],"tree_param":{"num_deleted":"0","num_feature":"36","num_nodes":"5","size_leaf_vector":"1"}},{"base_weights":[-4.246813E-3,-3.252958E-2,2.7133169E-2],"categories":[],"categories_nodes":[],"categories_segments":[],"categories_sizes":[],"default_left":[0,0,0],"id":58,"left_children":[1,-1,-1],"loss_changes":[5.5258036E-2,0E0,0E0],"parents":[2147483647,0,0],"right_children":[2,-1,-1],"split_conditions":[4.8752E2,-3.252958E-2,2.7133169E-2],"split_indices":[17,0,0],"split_type":[0,0,0],"sum_hessian":[3.6071324E0,1.6483688E0,1.9587636E0],"tree_param":{"num_deleted":"0","num_feature":"36","num_nodes":"3","size_leaf_vector":"1"}},{"base_weights":[-4.2510293E-3,9.165005E-2,-3.4368973E-2,6.183117E-2,-2.0566804E-2],"categories":[],"categories_nodes":[],"categories_segments":[],"categories_sizes":[],"default_left":[0,0,0,0,0],"id":59,"left_children":[1,3,-1,-1,-1],"loss_changes":[5.909589E-2,6.93744E-2,0E0,0E0,0E0],"parents":[2147483647,0,0,1,1],"right_children":[2,4,-1,-1,-1],"split_conditions":[1.09295395E2,8.1E1,-3.4368973E-2,6.183117E-2,-2.0566804E-2],"split_indices":[20,11,0,0,0],"split_type":[0,0,0,0,0],"sum_hessian":[3.5936189E0,2.0128782E0,1.5807408E0,1.0069814E0,1.0058967E0],"tree_param":{"num_deleted":"0","num_feature":"36","num_nodes":"5","size_leaf_vector":"1"}},{"base_weights":[-1.5847104E-3,-3.2744758E-2,2.9717537E-2],"categories":[],"categories_nodes":[],"categories_segments":[],"categories_sizes":[],"default_left":[0,0,0],"id":60,"left_children":[1,-1,-1],"loss_changes":[6.0294528E-2,0E0,0E0],"parents":[2147483647,0,0],"right_children":[2,-1,-1],"split_conditions":[4.9E1,-3.2744758E-2,2.9717537E-2],"split_indices":[25,0,0],"split_type":[0,0,0],"sum_hessian":[3.5708551E0,1.685222E0,1.885633E0],"tree_param":{"num_deleted":"0","num_feature":"36","num_nodes":"3","size_leaf_vector":"1"}},{"base_weights":[-1.8764101E-3,7.8665264E-2,-3.703987E-2,-2.8284367E-2,5.8070306E-2],"categories":[],"categories_nodes":[],"categories_segments":[],"categories_sizes":[],"default_left":[0,0,0,0,0],"id":61,"left_children":[1,3,-1,-1,-1],"loss_changes":[5.432752E-2,8.484673E-2,0E0,0E0,0E0],"parents":[2147483647,0,0,1,1],"right_children":[2,4,-1,-1,-1],"split_conditions":[1.243496E4,4.2E1,-3.703987E-2,-2.8284367E-2,5.8070306E-2],"split_indices":[19,25,0,0,0],"split_type":[0,0,0,0,0],"sum_hessian":[3.5557852E0,2.3513002E0,1.2044849E0,1.010222E0,1.3410783E0],"tree_param":{"num_deleted":"0","num_feature":"36","num_nodes":"5","size_leaf_vector":"1"}},{"base_weights":[-3.0177499E-3,3.1561416E-2,-3.3745836E-2],"categories":[],"categories_nodes":[],"categories_segments":[],"categories_sizes":[],"default_left":[0,0,0],"id":62,"left_children":[1,-1,-1],"loss_changes":[6.5418705E-2,0E0,0E0],"parents":[2147483647,0,0],"right_children":[2,-1,-1],"split_conditions":[4.5378152E-1,3.1561416E-2,-3.3745836E-2],"split_indices":[26,0,0],"split_type":[0,0,0],"sum_hessian":[3.5230803E0,1.7912078E0,1.7318726E0],"tree_param":{"num_deleted":"0","num_feature":"36","num_nodes":"3","size_leaf_vector":"1"}},{"base_weights":[-2.7048648E-3,-3.6783982E-2,7.696253E-2,5.7051416E-2,-1.8582812E-2],"categories":[],"categories_nodes":[],"categories_segments":[],"categories_sizes":[],"default_left":[0,0,0,0,0],"id":63,"left_children":[1,-1,3,-1,-1],"loss_changes":[5.2556437E-2,0E0,6.4087756E-2,0E0,0E0],"parents":[2147483647,0,0,2,2],"right_children":[2,-1,4,-1,-1],"split_conditions":[2.3938665E3,-3.6783982E-2,4.385965E-1,5.7051416E-2,-1.8582812E-2],"split_indices":[2,0,26,0,0],"split_type":[0,0,0,0,0],"sum_hessian":[3.5138447E0,1.1874835E0,2.3263612E0,1.0783912E0,1.24797E0],"tree_param":{"num_deleted":"0","num_feature":"36","num_nodes":"5","size_leaf_vector":"1"}},{"base_weights":[-1.6294499E-3,-8.392712E-2,3.574385E-2,1.8118508E-2,-5.41968E-2],"categories":[],"categories_nodes":[],"categories_segments":[],"categories_sizes":[],"default_left":[0,0,0,0,0],"id":64,"left_children":[1,3,-1,-1,-1],"loss_changes":[5.467225E-2,5.641695E-2,0E0,0E0,0E0],"parents":[2147483647,0,0,1,1],"right_children":[2,4,-1,-1,-1],"split_conditions":[5.2380955E-1,2.0677988E-1,3.574385E-2,1.8118508E-2,-5.41968E-2],"split_indices":[26,6,0,0,0],"split_type":[0,0,0,0,0],"sum_hessian":[3.4944334E0,2.2597303E0,1.2347032E0,1.0575149E0,1.2022153E0],"tree_param":{"num_deleted":"0","num_feature":"36","num_nodes":"5","size_leaf_vector":"1"}},{"base_weights":[-1.4439579E-3,-3.3896685E-2,8.430192E-2,4.6575475E-2,-9.668514E-3],"categories":[],"categories_nodes":[],"categories_segments":[],"categories_sizes":[],"default_left":[0,0,0,0,0],"id":65,"left_children":[1,-1,3,-1,-1],"loss_changes":[5.223947E-2,0E0,3.0614242E-2,0E0,0E0],"parents":[2147483647,0,0,2,2],"right_children":[2,-1,4,-1,-1],"split_conditions":[2.061331E-1,-3.3896685E-2,6.2122E2,4.6575475E-2,-9.668514E-3],"split_indices":[7,0,12,0,0],"split_type":[0,0,0,0,0],"sum_hessian":[3.4659092E0,1.3682557E0,2.0976534E0,1.0972847E0,1.0003688E0],"tree_param":{"num_deleted":"0","num_feature":"36","num_nodes":"5","size_leaf_vector":"1"}},{"base_weights":[-4.243829E-4,-2.6766678E-2,3.066734E-2],"categories":[],"categories_nodes":[],"categories_segments":[],"categories_sizes":[],"default_left":[0,0,0],"id":66,"left_children":[1,-1,-1],"loss_changes":[4.971056E-2,0E0,0E0],"parents":[2147483647,0,0],"right_children":[2,-1,-1],"split_conditions":[4.8E1,-2.6766678E-2,3.066734E-2],"split_indices":[24,0,0],"split_type":[0,0,0],"sum_hessian":[3.453085E0,1.9215882E0,1.5314968E0],"tree_param":{"num_deleted":"0","num_feature":"36","num_nodes":"3","size_leaf_vector":"1"}},{"base_weights":[5.1112846E-4,8.134575E-2,-3.6729548E-2,-1.8741671E-2,6.0364842E-2],"categories":[],"categories_nodes":[],"categories_segments":[],"categories_sizes":[],"default_left":[0,0,0,0,0],"id":67,"left_children":[1,3,-1,-1,-1],"loss_changes":[5.40828E-2,6.910674E-2,0E0,0E0,0E0],"parents":[2147483647,0,0,1,1],"right_children":[2,4,-1,-1,-1],"split_conditions":[1.243496E4,3.2E1,-3.6729548E-2,-1.8741671E-2,6.0364842E-2],"split_indices":[19,24,0,0,0],"split_type":[0,0,0,0,0],"sum_hessian":[3.439855E0,2.2794614E0,1.1603936E0,1.253897E0,1.0255644E0],"tree_param":{"num_deleted":"0","num_feature":"36","num_nodes":"5","size_leaf_vector":"1"}},{"base_weights":[1.4189451E-3,2.7666591E-2,-3.3413056E-2],"categories":[],"categories_nodes":[],"categories_segments":[],"categories_sizes":[],"default_left":[0,0,0],"id":68,"left_children":[1,-1,-1],"loss_changes":[5.544908E-2,0E0,0E0],"parents":[2147483647,0,0],"right_children":[2,-1,-1],"split_conditions":[2.6086956E-1,2.7666591E-2,-3.3413056E-2],"split_indices":[18,0,0],"split_type":[0,0,0],"sum_hessian":[3.4109366E0,1.9907439E0,1.4201926E0],"tree_param":{"num_deleted":"0","num_feature":"36","num_nodes":"3","size_leaf_vector":"1"}},{"base_weights":[-3.9865763E-4,-2.9847497E-2,2.690557E-2],"categories":[],"categories_nodes":[],"categories_segments":[],"categories_sizes":[],"default_left":[0,0,0],"id":69,"left_children":[1,-1,-1],"loss_changes":[4.8240166E-2,0E0,0E0],"parents":[2147483647,0,0],"right_children":[2,-1,-1],"split_conditions":[4.8752E2,-2.9847497E-2,2.690557E-2],"split_indices":[17,0,0],"split_type":[0,0,0],"sum_hessian":[3.4044619E0,1.5714362E0,1.8330258E0],"tree_param":{"num_deleted":"0","num_feature":"36","num_nodes":"3","size_leaf_vector":"1"}},{"base_weights":[-1.0269365E-3,3.6248576E-2,-8.237116E-2,-7.811095E-2,3.6283836E-2],"categories":[],"categories_nodes":[],"categories_segments":[],"categories_sizes":[],"default_left":[0,0,0,0,0],"id":70,"left_children":[1,-1,3,-1,-1],"loss_changes":[5.3493354E-2,0E0,1.4834169E-1,0E0,0E0],"parents":[2147483647,0,0,2,2],"right_children":[2,-1,4,-1,-1],"split_conditions":[8.5E1,3.6248576E-2,6.1402E2,-7.811095E-2,3.6283836E-2],"split_indices":[22,0,15,0,0],"split_type":[0,0,0,0,0],"sum_hessian":[3.3926046E0,1.1638027E0,2.2288017E0,1.0387748E0,1.1900269E0],"tree_param":{"num_deleted":"0","num_feature":"36","num_nodes":"5","size_leaf_vector":"1"}},{"base_weights":[-2.4369573E-3,7.5643875E-2,-3.7088923E-2,5.813806E-2,-2.7780674E-2],"categories":[],"categories_nodes":[],"categories_segments":[],"categories_sizes":[],"default_left":[0,0,0,0,0],"id":71,"left_children":[1,3,-1,-1,-1],"loss_changes":[5.0585758E-2,8.295726E-2,0E0,0E0,0E0],"parents":[2147483647,0,0,1,1],"right_children":[2,4,-1,-1,-1],"split_conditions":[1.16878E3,7.9E1,-3.7088923E-2,5.813806E-2,-2.7780674E-2],"split_indices":[12,11,0,0,0],"split_type":[0,0,0,0,0],"sum_hessian":[3.357461E0,2.270491E0,1.08697E0,1.24462E0,1.025871E0],"tree_param":{"num_deleted":"0","num_feature":"36","num_nodes":"5","size_leaf_vector":"1"}},{"base_weights":[-3.3808623E-3,-3.0327607E-2,2.6686216E-2],"categories":[],"categories_nodes":[],"categories_segments":[],"categories_sizes":[],"default_left":[0,0,0],"id":72,"left_children":[1,-1,-1],"loss_changes":[4.8129506E-2,0E0,0E0],"parents":[2147483647,0,0],"right_children":[2,-1,-1],"split_conditions":[4.9E1,-3.0327607E-2,2.6686216E-2],"split_indices":[25,0,0],"split_type":[0,0,0],"sum_hessian":[3.3378751E0,1.5756458E0,1.7622293E0],"tree_param":{"num_deleted":"0","num_feature":"36","num_nodes":"3","size_leaf_vector":"1"}},{"base_weights":[-3.2936514E-3,2.7730359E-2,-3.384156E-2],"categories":[],"categories_nodes":[],"categories_segments":[],"categories_sizes":[],"default_left":[0,0,0],"id":73,"left_children":[1,-1,-1],"loss_changes":[5.576542E-2,0E0,0E0],"parents":[2147483647,0,0],"right_children":[2,-1,-1],"split_conditions":[1.09295395E2,2.7730359E-2,-3.384156E-2],"split_indices":[20,0,0],"split_type":[0,0,0],"sum_hessian":[3.3247979E0,1.8572466E0,1.4675512E0],"tree_param":{"num_deleted":"0","num_feature":"36","num_nodes":"3","size_leaf_vector":"1"}},{"base_weights":[-3.817769E-3,-3.5473064E-2,7.2396845E-2,5.233712E-2,-1.712603E-2],"categories":[],"categories_nodes":[],"categories_segments":[],"categories_sizes":[],"default_left":[0,0,0,0,0],"id":74,"left_children":[1,-1,3,-1,-1],"loss_changes":[4.6191152E-2,0E0,5.2382126E-2,0E0,0E0],"parents":[2147483647,0,0,2,2],"right_children":[2,-1,4,-1,-1],"split_conditions":[2.3938665E3,-3.5473064E-2,4.385965E-1,5.233712E-2,-1.712603E-2],"split_indices":[2,0,26,0,0],"split_type":[0,0,0,0,0],"sum_hessian":[3.3149931E0,1.1048132E0,2.2101798E0,1.0417407E0,1.1684393E0],"tree_param":{"num_deleted":"0","num_feature":"36","num_nodes":"5","size_leaf_vector":"1"}},{"base_weights":[-2.8300607E-3,2.4045834E-2,-3.1234195E-2],"categories":[],"categories_nodes":[],"categories_segments":[],"categories_sizes":[],"default_left":[0,0,0],"id":75,"left_children":[1,-1,-1],"loss_changes":[4.4470187E-2,0E0,0E0],"parents":[2147483647,0,0],"right_children":[2,-1,-1],"split_conditions":[2.6086956E-1,2.4045834E-2,-3.1234195E-2],"split_indices":[18,0,0],"split_type":[0,0,0],"sum_hessian":[3.2981446E0,1.9275324E0,1.3706121E0],"tree_param":{"num_deleted":"0","num_feature":"36","num_nodes":"3","size_leaf_vector":"1"}},{"base_weights":[-3.7297437E-3,2.3979297E-2,-3.211698E-2],"categories":[],"categories_nodes":[],"categories_segments":[],"categories_sizes":[],"default_left":[0,0,0],"id":76,"left_children":[1,-1,-1],"loss_changes":[4.5657463E-2,0E0,0E0],"parents":[2147483647,0,0],"right_children":[2,-1,-1],"split_conditions":[2.1279243E-1,2.3979297E-2,-3.211698E-2],"split_indices":[6,0,0],"split_type":[0,0,0],"sum_hessian":[3.2918334E0,1.9441434E0,1.3476901E0],"tree_param":{"num_deleted":"0","num_feature":"36","num_nodes":"3","size_leaf_vector":"1"}},{"base_weights":[-4.5989663E-3,-3.315134E-2,2.3372108E-2],"categories":[],"categories_nodes":[],"categories_segments":[],"categories_sizes":[],"default_left":[0,0,0],"id":77,"left_children":[1,-1,-1],"loss_changes":[4.6002857E-2,0E0,0E0],"parents":[2147483647,0,0],"right_children":[2,-1,-1],"split_conditions":[2.061331E-1,-3.315134E-2,2.3372108E-2],"split_indices":[7,0,0],"split_type":[0,0,0],"sum_hessian":[3.2795236E0,1.2875112E0,1.9920124E0],"tree_param":{"num_deleted":"0","num_feature":"36","num_nodes":"3","size_leaf_vector":"1"}},{"base_weights":[-5.586761E-3,-8.065298E-2,3.1620655E-2,-5.0878827E-2,1.5141196E-2],"categories":[],"categories_nodes":[],"categories_segments":[],"categories_sizes":[],"default_left":[0,0,0,0,0],"id":78,"left_children":[1,3,-1,-1,-1],"loss_changes":[4.4106588E-2,4.4898637E-2,0E0,0E0,0E0],"parents":[2147483647,0,0,1,1],"right_children":[2,4,-1,-1,-1],"split_conditions":[5.2380955E-1,2.494094E3,3.1620655E-2,-5.0878827E-2,1.5141196E-2],"split_indices":[26,0,0,0,0],"split_type":[0,0,0,0,0],"sum_hessian":[3.2736003E0,2.1158745E0,1.1577257E0,1.0858921E0,1.0299824E0],"tree_param":{"num_deleted":"0","num_feature":"36","num_nodes":"5","size_leaf_vector":"1"}},{"base_weights":[-5.0809667E-3,2.9402994E-2,-2.6882065E-2],"categories":[],"categories_nodes":[],"categories_segments":[],"categories_sizes":[],"default_left":[0,0,0],"id":79,"left_children":[1,-1,-1],"loss_changes":[4.581208E-2,0E0,0E0],"parents":[2147483647,0,0],"right_children":[2,-1,-1],"split_conditions":[2.4284558E3,2.9402994E-2,-2.6882065E-2],"split_indices":[1,0,0],"split_type":[0,0,0],"sum_hessian":[3.2495203E0,1.392117E0,1.8574033E0],"tree_param":{"num_deleted":"0","num_feature":"36","num_nodes":"3","size_leaf_vector":"1"}},{"base_weights":[-3.034854E-3,-2.5377773E-2,2.7999816E-2],"categories":[],"categories_nodes":[],"categories_segments":[],"categories_sizes":[],"default_left":[0,0,0],"id":80,"left_children":[1,-1,-1],"loss_changes":[4.1235544E-2,0E0,0E0],"parents":[2147483647,0,0],"right_children":[2,-1,-1],"split_conditions":[5.2E1,-2.5377773E-2,2.7999816E-2],"split_indices":[25,0,0],"split_type":[0,0,0],"sum_hessian":[3.2420263E0,1.8221198E0,1.4199066E0],"tree_param":{"num_deleted":"0","num_feature":"36","num_nodes":"3","size_leaf_vector":"1"}},{"base_weights":[-1.5677798E-3,7.4454926E-2,-3.437613E-2,-1.2770829E-2,4.7811814E-2],"categories":[],"categories_nodes":[],"categories_segments":[],"categories_sizes":[],"default_left":[0,0,0,0,0],"id":81,"left_children":[1,3,-1,-1,-1],"loss_changes":[4.4873927E-2,3.793759E-2,0E0,0E0,0E0],"parents":[2147483647,0,0,1,1],"right_children":[2,4,-1,-1,-1],"split_conditions":[1.243496E4,5.2380955E-1,-3.437613E-2,-1.2770829E-2,4.7811814E-2],"split_indices":[19,26,0,0,0],"split_type":[0,0,0,0,0],"sum_hessian":[3.2297728E0,2.134928E0,1.0948449E0,1.1074544E0,1.0274736E0],"tree_param":{"num_deleted":"0","num_feature":"36","num_nodes":"5","size_leaf_vector":"1"}},{"base_weights":[-9.94439E-4,2.8163735E-2,-2.993662E-2],"categories":[],"categories_nodes":[],"categories_segments":[],"categories_sizes":[],"default_left":[0,0,0],"id":82,"left_children":[1,-1,-1],"loss_changes":[4.882454E-2,0E0,0E0],"parents":[2147483647,0,0],"right_children":[2,-1,-1],"split_conditions":[4.5378152E-1,2.8163735E-2,-2.993662E-2],"split_indices":[26,0,0],"split_type":[0,0,0],"sum_hessian":[3.209603E0,1.6626695E0,1.5469334E0],"tree_param":{"num_deleted":"0","num_feature":"36","num_nodes":"3","size_leaf_vector":"1"}},{"base_weights":[-1.1920714E-3,2.344935E-2,-2.7990524E-2],"categories":[],"categories_nodes":[],"categories_segments":[],"categories_sizes":[],"default_left":[0,0,0],"id":83,"left_children":[1,-1,-1],"loss_changes":[3.8012985E-2,0E0,0E0],"parents":[2147483647,0,0],"right_children":[2,-1,-1],"split_conditions":[1.09295395E2,2.344935E-2,-2.7990524E-2],"split_indices":[20,0,0],"split_type":[0,0,0],"sum_hessian":[3.2027593E0,1.8018141E0,1.4009452E0],"tree_param":{"num_deleted":"0","num_feature":"36","num_nodes":"3","size_leaf_vector":"1"}},{"base_weights":[-1.9771657E-3,-2.7282644E-2,3.0226633E-2],"categories":[],"categories_nodes":[],"categories_segments":[],"categories_sizes":[],"default_left":[0,0,0],"id":84,"left_children":[1,-1,-1],"loss_changes":[4.7513485E-2,0E0,0E0],"parents":[2147483647,0,0],"right_children":[2,-1,-1],"split_conditions":[4.8E1,-2.7282644E-2,3.0226633E-2],"split_indices":[24,0,0],"split_type":[0,0,0],"sum_hessian":[3.1960866E0,1.7743195E0,1.4217671E0],"tree_param":{"num_deleted":"0","num_feature":"36","num_nodes":"3","size_leaf_vector":"1"}},{"base_weights":[-7.4931624E-4,6.844181E-2,-3.1236542E-2,-1.33684045E-2,4.5476206E-2],"categories":[],"categories_nodes":[],"categories_segments":[],"categories_sizes":[],"default_left":[0,0,0,0,0],"id":85,"left_children":[1,3,-1,-1,-1],"loss_changes":[3.7046842E-2,3.5969194E-2,0E0,0E0,0E0],"parents":[2147483647,0,0,1,1],"right_children":[2,4,-1,-1,-1],"split_conditions":[1.243496E4,5.2380955E-1,-3.1236542E-2,-1.33684045E-2,4.5476206E-2],"split_indices":[19,26,0,0,0],"split_type":[0,0,0,0,0],"sum_hessian":[3.1832547E0,2.1093187E0,1.073936E0,1.0908288E0,1.0184898E0],"tree_param":{"num_deleted":"0","num_feature":"36","num_nodes":"5","size_leaf_vector":"1"}},{"base_weights":[-3.589116E-4,2.6881808E-2,-2.8617822E-2],"categories":[],"categories_nodes":[],"categories_segments":[],"categories_sizes":[],"default_left":[0,0,0],"id":86,"left_children":[1,-1,-1],"loss_changes":[4.4158578E-2,0E0,0E0],"parents":[2147483647,0,0],"right_children":[2,-1,-1],"split_conditions":[4.5378152E-1,2.6881808E-2,-2.8617822E-2],"split_indices":[26,0,0],"split_type":[0,0,0],"sum_hessian":[3.1651475E0,1.6552752E0,1.5098723E0],"tree_param":{"num_deleted":"0","num_feature":"36","num_nodes":"3","size_leaf_vector":"1"}},{"base_weights":[-7.344115E-4,-2.7645914E-2,2.498655E-2],"categories":[],"categories_nodes":[],"categories_segments":[],"categories_sizes":[],"default_left":[0,0,0],"id":87,"left_children":[1,-1,-1],"loss_changes":[3.9623484E-2,0E0,0E0],"parents":[2147483647,0,0],"right_children":[2,-1,-1],"split_conditions":[4.8752E2,-2.7645914E-2,2.498655E-2],"split_indices":[17,0,0],"split_type":[0,0,0],"sum_hessian":[3.1592393E0,1.4666901E0,1.6925493E0],"tree_param":{"num_deleted":"0","num_feature":"36","num_nodes":"3","size_leaf_vector":"1"}},{"base_weights":[-1.2170754E-3,2.2847846E-2,-2.8919434E-2],"categories":[],"categories_nodes":[],"categories_segments":[],"categories_sizes":[],"default_left":[0,0,0],"id":88,"left_children":[1,-1,-1],"loss_changes":[3.789801E-2,0E0,0E0],"parents":[2147483647,0,0],"right_children":[2,-1,-1],"split_conditions":[2.6086956E-1,2.2847846E-2,-2.8919434E-2],"split_indices":[18,0,0],"split_type":[0,0,0],"sum_hessian":[3.1489878E0,1.8471831E0,1.3018048E0],"tree_param":{"num_deleted":"0","num_feature":"36","num_nodes":"3","size_leaf_vector":"1"}},{"base_weights":[-2.3768381E-3,2.615287E-2,-2.3323571E-2],"categories":[],"categories_nodes":[],"categories_segments":[],"categories_sizes":[],"default_left":[0,0,0],"id":89,"left_children":[1,-1,-1],"loss_changes":[3.4747656E-2,0E0,0E0],"parents":[2147483647,0,0],"right_children":[2,-1,-1],"split_conditions":[2.4284558E3,2.615287E-2,-2.3323571E-2],"split_indices":[1,0,0],"split_type":[0,0,0],"sum_hessian":[3.1440458E0,1.3652189E0,1.778827E0],"tree_param":{"num_deleted":"0","num_feature":"36","num_nodes":"3","size_leaf_vector":"1"}},{"base_weights":[-1.0310793E-3,-3.3718385E-2,7.3893026E-2,4.8893444E-2,-1.4541046E-2],"categories":[],"categories_nodes":[],"categories_segments":[],"categories_sizes":[],"default_left":[0,0,0,0,0],"id":90,"left_children":[1,-1,3,-1,-1],"loss_changes":[4.2838335E-2,0E0,4.1446764E-2,0E0,0E0],"parents":[2147483647,0,0,2,2],"right_children":[2,-1,4,-1,-1],"split_conditions":[2.3938665E3,-3.3718385E-2,4.385965E-1,4.8893444E-2,-1.4541046E-2],"split_indices":[2,0,26,0,0],"split_type":[0,0,0,0,0],"sum_hessian":[3.138774E0,1.0612584E0,2.0775156E0,1.0101593E0,1.0673563E0],"tree_param":{"num_deleted":"0","num_feature":"36","num_nodes":"5","size_leaf_vector":"1"}},{"base_weights":[-6.418429E-4,2.3551647E-2,-2.9531287E-2],"categories":[],"categories_nodes":[],"categories_segments":[],"categories_sizes":[],"default_left":[0,0,0],"id":91,"left_children":[1,-1,-1],"loss_changes":[3.9652303E-2,0E0,0E0],"parents":[2147483647,0,0],"right_children":[2,-1,-1],"split_conditions":[2.1279243E-1,2.3551647E-2,-2.9531287E-2],"split_indices":[6,0,0],"split_type":[0,0,0],"sum_hessian":[3.1244538E0,1.8358934E0,1.2885605E0],"tree_param":{"num_deleted":"0","num_feature":"36","num_nodes":"3","size_leaf_vector":"1"}},{"base_weights":[-1.9684145E-3,-3.032371E-2,2.2402799E-2],"categories":[],"categories_nodes":[],"categories_segments":[],"categories_sizes":[],"default_left":[0,0,0],"id":92,"left_children":[1,-1,-1],"loss_changes":[3.8798254E-2,0E0,0E0],"parents":[2147483647,0,0],"right_children":[2,-1,-1],"split_conditions":[2.061331E-1,-3.032371E-2,2.2402799E-2],"split_indices":[7,0,0],"split_type":[0,0,0],"sum_hessian":[3.1138692E0,1.21889E0,1.8949792E0],"tree_param":{"num_deleted":"0","num_feature":"36","num_nodes":"3","size_leaf_vector":"1"}},{"base_weights":[-3.367263E-3,-2.7545648E-2,2.3781933E-2],"categories":[],"categories_nodes":[],"categories_segments":[],"categories_sizes":[],"default_left":[0,0,0],"id":93,"left_children":[1,-1,-1],"loss_changes":[3.7315488E-2,0E0,0E0],"parents":[2147483647,0,0],"right_children":[2,-1,-1],"split_conditions":[4.9E1,-2.7545648E-2,2.3781933E-2],"split_indices":[25,0,0],"split_type":[0,0,0],"sum_hessian":[3.1091769E0,1.4481399E0,1.661037E0],"tree_param":{"num_deleted":"0","num_feature":"36","num_nodes":"3","size_leaf_vector":"1"}},{"base_weights":[-3.3396692E-3,7.2029896E-2,-3.4470536E-2,-1.2434826E-2,4.5708016E-2],"categories":[],"categories_nodes":[],"categories_segments":[],"categories_sizes":[],"default_left":[0,0,0,0,0],"id":94,"left_children":[1,3,-1,-1,-1],"loss_changes":[4.2740416E-2,3.4217335E-2,0E0,0E0,0E0],"parents":[2147483647,0,0,1,1],"right_children":[2,4,-1,-1,-1],"split_conditions":[1.243496E4,5.2380955E-1,-3.4470536E-2,-1.2434826E-2,4.5708016E-2],"split_indices":[19,26,0,0,0],"split_type":[0,0,0,0,0],"sum_hessian":[3.0987706E0,2.060847E0,1.0379236E0,1.0547931E0,1.006054E0],"tree_param":{"num_deleted":"0","num_feature":"36","num_nodes":"5","size_leaf_vector":"1"}},{"base_weights":[-2.6900975E-3,-3.0861082E-2,6.501311E-2,4.5723815E-2,-1.5776852E-2],"categories":[],"categories_nodes":[],"categories_segments":[],"categories_sizes":[],"default_left":[0,0,0,0,0],"id":95,"left_children":[1,-1,3,-1,-1],"loss_changes":[3.4361817E-2,0E0,3.9338723E-2,0E0,0E0],"parents":[2147483647,0,0,2,2],"right_children":[2,-1,4,-1,-1],"split_conditions":[2.3938665E3,-3.0861082E-2,4.385965E-1,4.5723815E-2,-1.5776852E-2],"split_indices":[2,0,26,0,0],"split_type":[0,0,0,0,0],"sum_hessian":[3.0801806E0,1.0326874E0,2.0474932E0,1.004772E0,1.0427214E0],"tree_param":{"num_deleted":"0","num_feature":"36","num_nodes":"5","size_leaf_vector":"1"}},{"base_weights":[-2.175903E-3,2.7166884E-2,-2.40054E-2],"categories":[],"categories_nodes":[],"categories_segments":[],"categories_sizes":[],"default_left":[0,0,0],"id":96,"left_children":[1,-1,-1],"loss_changes":[3.6608264E-2,0E0,0E0],"parents":[2147483647,0,0],"right_children":[2,-1,-1],"split_conditions":[2.4284558E3,2.7166884E-2,-2.40054E-2],"split_indices":[1,0,0],"split_type":[0,0,0],"sum_hessian":[3.0676413E0,1.32539E0,1.7422513E0],"tree_param":{"num_deleted":"0","num_feature":"36","num_nodes":"3","size_leaf_vector":"1"}},{"base_weights":[-7.964676E-4,2.314581E-2,-2.9119277E-2],"categories":[],"categories_nodes":[],"categories_segments":[],"categories_sizes":[],"default_left":[0,0,0],"id":97,"left_children":[1,-1,-1],"loss_changes":[3.7969172E-2,0E0,0E0],"parents":[2147483647,0,0],"right_children":[2,-1,-1],"split_conditions":[2.1279243E-1,2.314581E-2,-2.9119277E-2],"split_indices":[6,0,0],"split_type":[0,0,0],"sum_hessian":[3.0618908E0,1.8016418E0,1.260249E0],"tree_param":{"num_deleted":"0","num_feature":"36","num_nodes":"3","size_leaf_vector":"1"}},{"base_weights":[-2.0941584E-3,-2.3616249E-2,2.5919892E-2],"categories":[],"categories_nodes":[],"categories_segments":[],"categories_sizes":[],"default_left":[0,0,0],"id":98,"left_children":[1,-1,-1],"loss_changes":[3.427633E-2,0E0,0E0],"parents":[2147483647,0,0],"right_children":[2,-1,-1],"split_conditions":[4.8E1,-2.3616249E-2,2.5919892E-2],"split_indices":[24,0,0],"split_type":[0,0,0],"sum_hessian":[3.0517533E0,1.6947278E0,1.3570256E0],"tree_param":{"num_deleted":"0","num_feature":"36","num_nodes":"3","size_leaf_vector":"1"}},{"base_weights":[-9.45357E-4,7.248222E-2,-3.3181764E-2,-9.475907E-3,4.2447712E-2],"categories":[],"categories_nodes":[],"categories_segments":[],"categories_sizes":[],"default_left":[0,0,0,0,0],"id":99,"left_children":[1,3,-1,-1,-1],"loss_changes":[4.05609E-2,2.6193189E-2,0E0,0E0,0E0],"parents":[2147483647,0,0,1,1],"right_children":[2,4,-1,-1,-1],"split_conditions":[1.243496E4,5.2238804E-1,-3.3181764E-2,-9.475907E-3,4.2447712E-2],"split_indices":[19,26,0,0,0],"split_type":[0,0,0,0,0],"sum_hessian":[3.0416684E0,2.024868E0,1.0168004E0,1.0235816E0,1.0012864E0],"tree_param":{"num_deleted":"0","num_feature":"36","num_nodes":"5","size_leaf_vector":"1"}}]},"name":"gbtree"},"learner_model_param":{"base_score":"1.1999069E-1","boost_from_average":"1","num_class":"0","num_feature":"36","num_target":"1"},"objective":{"name":"binary:logistic","reg_loss_param":{"scale_pos_weight":"1"}}},"version":[2,1,1]}