{"learner":{"attributes":{},"feature_names":["credit_balance_mean","credit_balance_max","credit_balance_last","credit_utilization_mean","credit_utilization_max","credit_utilization_last","interest_rate_mean","interest_rate_last","current_missed_payments_sum","current_missed_payments_max","current_missed_payments_last","timestamp_diff","amount_sum_x","amount_mean_x","amount_max_x","amount_min","amount_count_x","amount_last","payment_frequency","amount_sum_y","amount_mean_y","amount_max_y","amount_count_y","online_sum","online_mean","Misc","Retail","Business","Clothing","Agricultural","Contractor","Transportation","Utility","Professional","approved_count","declined_count"],"feature_types":["float","float","float","float","float","float","float","float","int","int","int","int","float","float","float","float","float","float","float","float","float","float","float","float","float","float","float","float","float","float","float","float","float","float","float","float"],"gradient_booster":{"model":{"gbtree_model_param":{"num_parallel_tree":"1","num_trees":"100"},"iteration_indptr":[0,1,2,3,4,5,6,7,8,9,10,11,12,13,14,15,16,17,18,19,20,21,22,23,24,25,26,27,28,29,30,31,32,33,34,35,36,37,38,39,40,41,42,43,44,45,46,47,48,49,50,51,52,53,54,55,56,57,58,59,60,61,62,63,64,65,66,67,68,69,70,71,72,73,74,75,76,77,78,79,80,81,82,83,84,85,86,87,88,89,90,91,92,93,94,95,96,97,98,99,100],"tree_info":[0,0,0,0,0,0,0,0,0,0,0,0,0,0,0,0,0,0,0,0,0,0,0,0,0,0,0,0,0,0,0,0,0,0,0,0,0,0,0,0,0,0,0,0,0,0,0,0,0,0,0,0,0,0,0,0,0,0,0,0,0,0,0,0,0,0,0,0,0,0,0,0,0,0,0,0,0,0,0,0,0,0,0,0,0,0,0,0,0,0,0,0,0,0,0,0,0,0,0,0],"trees":[{"base_weights":[3.338027E-9,-5.707212E-1,1.2742619E-1,1.20597824E-1,-1.3180654E0,1.7039077E-1,-5.873016E-1,-9.0119636E-1,6.57687E-1,-1.544206E0,7.9515207E-1,8.8372E-2,8.881509E-1,4.3443944E-2,-5.8651686E-1,1.0846882E0,-5.766991E-1,-1.6707766E0,1.76259E-1,1.6825297E0,-5.1428574E-1,1.258469E-1,-5.8389264E-1,1.1905657E0,-5.7419354E-1,8.8421226E-1,-5.619048E-1,1.1989006E0,-5.0769234E-1,-2.0554648E-1,-1.8139836E0,5.072137E-1,-5.225807E-1,5.664793E-1,-3E-1,-1.6353051E-4,5.469854E-1,1.2912418E0,-5.2000004E-1,4.4796845E-1,-5.172414E-1,3.828273E-1,-4.666667E-1,-5.4418606E-1,4.5293692E-1,-5.965066E-1,-1.0507874E-1,2.1425381E-2,-3.611049E-1,-1.043579E-1,2.4023932E-1,-5.04E-1,4.1319498E-1],"categories":[],"categories_nodes":[],"categories_segments":[],"categories_sizes":[],"default_left":[0,0,0,0,0,0,0,0,0,0,0,0,0,0,0,0,0,0,0,0,0,0,0,0,0,0,0,0,0,0,0,0,0,0,0,0,0,0,0,0,0,0,0,0,0,0,0,0,0,0,0,0,0],"id":0,"left_children":[1,3,5,7,9,11,-1,13,15,17,19,21,23,25,-1,27,-1,29,31,33,-1,35,-1,37,-1,39,-1,41,-1,43,45,-1,-1,-1,-1,47,49,51,-1,-1,-1,-1,-1,-1,-1,-1,-1,-1,-1,-1,-1,-1,-1],"loss_changes":[2.0784756E2,2.696678E2,2.0963693E2,1.498072E2,1.210567E2,1.3473965E2,0E0,9.376235E1,1.9905922E2,4.9693115E1,5.833081E1,1.570414E2,2.0120213E2,8.3186424E1,0E0,5.0887253E1,0E0,4.398535E1,5.073176E1,1.2318653E1,0E0,1.07203094E2,0E0,6.478931E1,0E0,5.95218E1,0E0,3.3568497E1,0E0,5.7779102E1,4.842279E1,0E0,0E0,0E0,0E0,1.3412392E2,1.0594502E2,5.4996704E1,0E0,0E0,0E0,0E0,0E0,0E0,0E0,0E0,0E0,0E0,0E0,0E0,0E0,0E0,0E0],"parents":[2147483647,0,0,1,1,2,2,3,3,4,4,5,5,7,7,8,8,9,9,10,10,11,11,12,12,13,13,15,15,17,17,18,18,19,19,21,21,23,23,25,25,27,27,29,29,30,30,35,35,36,36,37,37],"right_children":[2,4,6,8,10,12,-1,14,16,18,20,22,24,26,-1,28,-1,30,32,34,-1,36,-1,38,-1,40,-1,42,-1,44,46,-1,-1,-1,-1,48,50,52,-1,-1,-1,-1,-1,-1,-1,-1,-1,-1,-1,-1,-1,-1,-1],"split_conditions":[1.49856E3,2.5206047E1,6.5571997E3,1.7181012E-1,8.1906897E-1,7E0,-5.873016E-1,1.02E-1,3.83E-1,2.4550793E-1,8.248036E2,1.5E1,1.1E1,4.136972E2,-5.8651686E-1,2.3850188E-1,-5.766991E-1,1.006E2,6.882247E2,4E0,-5.1428574E-1,8.4E1,-5.8389264E-1,6.7E1,-5.7419354E-1,3.1817E2,-5.619048E-1,5E0,-5.0769234E-1,5.307E2,8E-1,5.072137E-1,-5.225807E-1,5.664793E-1,-3E-1,6.88578E3,4.6052632E-1,7.8E1,-5.2000004E-1,4.4796845E-1,-5.172414E-1,3.828273E-1,-4.666667E-1,-5.4418606E-1,4.5293692E-1,-5.965066E-1,-1.0507874E-1,2.1425381E-2,-3.611049E-1,-1.043579E-1,2.4023932E-1,-5.04E-1,4.1319498E-1],"split_indices":[19,20,1,3,3,8,0,4,5,6,0,28,32,0,0,6,0,21,1,11,0,11,0,25,0,14,0,28,0,13,24,0,0,0,0,12,24,22,0,0,0,0,0,0,0,0,0,0,0,0,0,0,0],"split_type":[0,0,0,0,0,0,0,0,0,0,0,0,0,0,0,0,0,0,0,0,0,0,0,0,0,0,0,0,0,0,0,0,0,0,0,0,0,0,0,0,0,0,0,0,0,0,0,0,0,0,0,0,0],"sum_hessian":[2.856E3,5.206435E2,2.3353564E3,2.7089496E2,2.4974852E2,2.2891064E3,4.625E1,9.309911E1,1.7779585E2,2.258491E2,2.3899408E1,2.0553625E3,2.3374408E2,4.9599113E1,4.35E1,1.5304585E2,2.475E1,2.1039941E2,1.5449704E1,1.7899408E1,6E0,2.0191124E3,3.625E1,2.1149408E2,2.225E1,3.4849113E1,1.475E1,1.4754585E2,5.5E0,1.8949703E1,1.914497E2,8.699704E0,6.75E0,1.6899408E1,1E0,1.5548728E3,4.6423965E2,2.0499408E2,6.5E0,2.8599113E1,6.25E0,1.4404585E2,3.5E0,9.75E0,9.199704E0,1.7075E2,2.0699703E1,1.4684734E3,8.639941E1,1.0249852E2,3.6174112E2,5.25E0,1.9974408E2],"tree_param":{"num_deleted":"0","num_feature":"36","num_nodes":"53","size_leaf_vector":"1"}},{"base_weights":[-3.5538832E-3,-2.4343558E-1,2.3247951E-1,-4.846118E-1,2.4846415E-1,3.5743377E-1,-7.1100557E-1,-3.775565E-1,-6.022607E-1,7.057556E-1,-3.5337165E-1,2.0170848E-1,8.260437E-1,9.93068E-1,-1.3173735E0,3.8841215E-1,-5.212292E-1,-8.5845715E-1,9.159804E-1,-5.867689E-1,-1.6412352E-3,2.468507E-1,-5.565305E-1,9.8507506E-1,-5.821589E-1,-4.612581E-1,1.3257922E0,-1.5262295E0,3.7156928E-1,-4.910378E-1,7.617172E-1,-8.561483E-1,-5.081157E-2,-5.706911E-1,4.7366098E-1,1.0065207E0,-4.844385E-1,9.646804E-1,-8.4649926E-1,9.7292565E-2,8.787599E-1,-5.388343E-1,1.0694966E0,-4.1431195E-1,1.5778993E0,-1.8982401E-2,-1.7999891E0,-1.3446053E-2,3.9476535E-1,-8.8686004E-2,-3.663509E-1,-1.4003175E-1,1.5266182E-1,3.2494164E-1,-4.926718E-1,3.5139185E-1,-5.480455E-1,-5.845419E-1,2.5543306E-2,-8.5010126E-2,1.1042746E-1,-2.4133725E-1,3.7164575E-1,-5.357229E-1,3.377122E-1,5.3315717E-1,-3.8582528E-1,-5.107889E-1,5.308133E-1,-5.857647E-1,-4.5445484E-1],"categories":[],"categories_nodes":[],"categories_segments":[],"categories_sizes":[],"default_left":[0,0,0,0,0,0,0,0,0,0,0,0,0,0,0,0,0,0,0,0,0,0,0,0,0,0,0,0,0,0,0,0,0,0,0,0,0,0,0,0,0,0,0,0,0,0,0,0,0,0,0,0,0,0,0,0,0,0,0,0,0,0,0,0,0,0,0,0,0,0,0],"id":1,"left_children":[1,3,5,7,9,11,13,15,-1,17,19,21,23,25,27,29,31,33,35,-1,37,39,-1,41,-1,-1,43,45,-1,-1,47,49,51,-1,-1,53,-1,55,57,59,61,-1,63,-1,65,67,69,-1,-1,-1,-1,-1,-1,-1,-1,-1,-1,-1,-1,-1,-1,-1,-1,-1,-1,-1,-1,-1,-1,-1,-1],"loss_changes":[1.5853148E2,1.6485991E2,1.6663406E2,1.5121236E2,1.2616258E2,9.082526E1,1.7219958E2,9.617949E1,0E0,8.6384964E1,1.1171456E2,8.747737E1,1.3860472E2,3.9064857E1,6.7235504E1,1.0582032E2,1.15727234E2,8.277906E1,5.4315826E1,0E0,1.3432318E2,8.666919E1,0E0,7.1058136E1,0E0,0E0,2.9067444E1,4.684433E1,0E0,0E0,5.2565346E1,8.744684E1,7.162822E1,0E0,0E0,4.695894E1,0E0,4.6408195E1,9.0285995E1,7.673687E1,1.0739464E2,0E0,4.7978027E1,0E0,2.3125145E1,5.8636745E1,1.2242126E0,0E0,0E0,0E0,0E0,0E0,0E0,0E0,0E0,0E0,0E0,0E0,0E0,0E0,0E0,0E0,0E0,0E0,0E0,0E0,0E0,0E0,0E0,0E0,0E0],"parents":[2147483647,0,0,1,1,2,2,3,3,4,4,5,5,6,6,7,7,9,9,10,10,11,11,12,12,13,13,14,14,15,15,16,16,17,17,18,18,20,20,21,21,23,23,26,26,27,27,30,30,31,31,32,32,35,35,37,37,38,38,39,39,40,40,42,42,44,44,45,45,46,46],"right_children":[2,4,6,8,10,12,14,16,-1,18,20,22,24,26,28,30,32,34,36,-1,38,40,-1,42,-1,-1,44,46,-1,-1,48,50,52,-1,-1,54,-1,56,58,60,62,-1,64,-1,66,68,70,-1,-1,-1,-1,-1,-1,-1,-1,-1,-1,-1,-1,-1,-1,-1,-1,-1,-1,-1,-1,-1,-1,-1,-1],"split_conditions":[1.1036005E3,2.32297E3,4.979684E3,1.91793E3,2.0077498E-1,8.6E1,1.2282375E2,1.6013329E-1,-6.022607E-1,1.6278754E-1,1.04E-1,1.9E1,7E0,5E0,1.8E1,2.0243333E-1,2.2004385E-1,1.9152992E3,8.52335E3,-5.867689E-1,1.1744714E2,2.3192337E2,-5.565305E-1,1.837159E-1,-5.821589E-1,-4.612581E-1,1.08637E3,3.6E1,3.7156928E-1,-4.910378E-1,9.0645E2,2.659446E1,5.106383E-1,-5.706911E-1,4.7366098E-1,9.68E-1,-4.844385E-1,6E1,8E0,7.42E-1,1E1,-5.388343E-1,4.580709E2,-4.1431195E-1,3.84231E3,3.5E1,6.5571997E3,-1.3446053E-2,3.9476535E-1,-8.8686004E-2,-3.663509E-1,-1.4003175E-1,1.5266182E-1,3.2494164E-1,-4.926718E-1,3.5139185E-1,-5.480455E-1,-5.845419E-1,2.5543306E-2,-8.5010126E-2,1.1042746E-1,-2.4133725E-1,3.7164575E-1,-5.357229E-1,3.377122E-1,5.3315717E-1,-3.8582528E-1,-5.107889E-1,5.308133E-1,-5.857647E-1,-4.5445484E-1],"split_indices":[0,12,1,12,6,11,20,6,0,6,5,26,33,29,28,3,6,2,12,0,20,20,0,6,0,0,17,11,0,0,12,20,24,0,0,5,0,25,29,5,35,0,2,0,12,34,1,0,0,0,0,0,0,0,0,0,0,0,0,0,0,0,0,0,0,0,0,0,0,0,0],"split_type":[0,0,0,0,0,0,0,0,0,0,0,0,0,0,0,0,0,0,0,0,0,0,0,0,0,0,0,0,0,0,0,0,0,0,0,0,0,0,0,0,0,0,0,0,0,0,0,0,0,0,0,0,0,0,0,0,0,0,0,0,0,0,0,0,0,0,0,0,0,0,0],"sum_hessian":[2.797916E3,1.3876304E3,1.4102856E3,9.3112085E2,4.5650952E2,1.245901E3,1.6438475E2,8.711318E2,5.998908E1,2.593077E2,1.9720183E2,9.3621484E2,3.0968613E2,4.297488E1,1.2140987E2,1.3732129E2,7.338105E2,3.0355919E1,2.289518E2,3.467189E1,1.6252994E2,9.169695E2,1.9245378E1,2.93461E2,1.6225122E1,4.573007E0,3.840187E1,1.1261085E2,8.799017E0,2.084596E1,1.1647532E2,4.2815836E2,3.056521E2,2.1407242E1,8.948677E0,2.2162527E2,7.326517E0,7.574892E1,8.678101E1,7.424119E2,1.7455757E2,8.048105E0,2.8541287E2,2.8903794E0,3.5511494E1,1.7473848E1,9.5137E1,4.7810635E1,6.866469E1,1.6957228E2,2.585861E2,1.7543425E2,1.3021785E2,2.1596924E2,5.656049E0,7.1068825E1,4.680088E0,3.925623E1,4.7524788E1,3.0858722E2,4.3382468E2,3.054244E1,1.4401512E2,4.91635E0,2.8049652E2,3.355596E1,1.9555311E0,9.025114E0,8.448734E0,5.8167595E1,3.6969406E1],"tree_param":{"num_deleted":"0","num_feature":"36","num_nodes":"71","size_leaf_vector":"1"}},{"base_weights":[-6.071038E-3,-2.694264E-1,1.3474885E-1,-1.9658956E-1,-5.488208E-1,-5.229965E-1,1.5789126E-1,-4.514876E-1,2.088347E-1,2.1552731E-1,-5.942525E-1,1.08470455E-1,-8.1291986E-1,3.646094E-1,-5.6592053E-1,5.7626116E-1,9.2492536E-2,7.52198E-1,-1.218673E0,-2.5731522E-1,9.7369784E-1,-1.2498236E0,5.162345E-2,1.4018991E0,1.0547739E-1,6.770487E-1,-5.003309E-1,-3.9877015E-1,2.9968613E-1,-3.845781E-1,1.0412666E0,-4.4023198E-1,3.2281327E-1,-3.261746E-1,4.9186606E-2,4.1786763E-1,-4.2832807E-1,-4.9179775E-1,-9.889965E-2,-5.040969E-1,1.378222E-1,-4.6501473E-1,4.7027156E-1,2.0537744E-1,-1.8026638E-1,2.1997388E-1,-4.816143E-1,1.4392562E-1,-2.9301012E-1,-7.177036E-2,1.5121293E-1,-3.4455204E-1,3.761914E-1],"categories":[],"categories_nodes":[],"categories_segments":[],"categories_sizes":[],"default_left":[0,0,0,0,0,0,0,0,0,0,0,0,0,0,0,0,0,0,0,0,0,0,0,0,0,0,0,0,0,0,0,0,0,0,0,0,0,0,0,0,0,0,0,0,0,0,0,0,0,0,0,0,0],"id":2,"left_children":[1,3,5,7,-1,-1,9,11,13,15,17,19,21,23,-1,25,27,29,31,33,35,37,39,41,43,45,-1,47,49,-1,51,-1,-1,-1,-1,-1,-1,-1,-1,-1,-1,-1,-1,-1,-1,-1,-1,-1,-1,-1,-1,-1,-1],"loss_changes":[1.00280685E2,1.0668647E2,7.685449E1,9.322648E1,0E0,0E0,7.5619156E1,1.12137184E2,1.1445493E2,7.176682E1,1.0534706E2,6.926285E1,1.2719853E2,8.72868E1,0E0,9.416611E1,1.23061226E2,2.4838062E1,5.0237923E1,5.4039597E1,6.742561E1,7.9608765E1,8.125207E1,3.4187798E1,1.0731944E2,5.176407E1,0E0,1.8260387E2,9.374514E1,0E0,1.7998337E1,0E0,0E0,0E0,0E0,0E0,0E0,0E0,0E0,0E0,0E0,0E0,0E0,0E0,0E0,0E0,0E0,0E0,0E0,0E0,0E0,0E0,0E0],"parents":[2147483647,0,0,1,1,2,2,3,3,6,6,7,7,8,8,9,9,10,10,11,11,12,12,13,13,15,15,16,16,17,17,18,18,19,19,20,20,21,21,22,22,23,23,24,24,25,25,27,27,28,28,30,30],"right_children":[2,4,6,8,-1,-1,10,12,14,16,18,20,22,24,-1,26,28,30,32,34,36,38,40,42,44,46,-1,48,50,-1,52,-1,-1,-1,-1,-1,-1,-1,-1,-1,-1,-1,-1,-1,-1,-1,-1,-1,-1,-1,-1,-1,-1],"split_conditions":[4.1E1,3.1709E3,1.5329038E-1,1.9605562E3,-5.488208E-1,-5.229965E-1,4.979684E3,4.4241E2,1.35217E3,2E0,1.2282375E2,8.9135583E2,1.21874E3,1.978288E3,-5.6592053E-1,1.2E1,2.32297E3,5E0,2.2E1,3E0,4.1747573E-1,5.769231E-1,1E1,2E0,1.855497E-1,1.72E2,-5.003309E-1,1.16878E3,4.6052632E-1,-3.845781E-1,1.08637E3,-4.4023198E-1,3.2281327E-1,-3.261746E-1,4.9186606E-2,4.1786763E-1,-4.2832807E-1,-4.9179775E-1,-9.889965E-2,-5.040969E-1,1.378222E-1,-4.6501473E-1,4.7027156E-1,2.0537744E-1,-1.8026638E-1,2.1997388E-1,-4.816143E-1,1.4392562E-1,-2.9301012E-1,-7.177036E-2,1.5121293E-1,-3.4455204E-1,3.761914E-1],"split_indices":[11,12,6,1,0,0,1,19,15,16,20,1,12,1,0,32,12,29,29,25,24,24,23,32,6,22,0,12,24,0,17,0,0,0,0,0,0,0,0,0,0,0,0,0,0,0,0,0,0,0,0,0,0],"split_type":[0,0,0,0,0,0,0,0,0,0,0,0,0,0,0,0,0,0,0,0,0,0,0,0,0,0,0,0,0,0,0,0,0,0,0,0,0,0,0,0,0,0,0,0,0,0,0,0,0,0,0,0,0],"sum_hessian":[2.7020486E3,9.411105E2,1.7609381E3,9.002051E2,4.0905453E1,2.053014E1,1.740408E3,5.526376E2,3.475675E2,1.6171971E3,1.232108E2,2.1705678E2,3.3558078E2,3.242839E2,2.3283577E1,4.1035788E2,1.2068392E3,3.8971382E1,8.423942E1,1.5305392E2,6.400285E1,2.2262822E2,1.1295256E2,6.39372E1,2.603467E2,3.933877E2,1.6970175E1,3.577286E2,8.4911066E2,4.4217334E0,3.454965E1,7.6325584E1,7.9138293E0,5.0999786E1,1.0205414E2,5.4848564E1,9.154286E0,1.558679E2,6.6760315E1,2.0931467E1,9.2021095E1,2.9536204E0,6.0983578E1,1.4307632E2,1.1727039E2,3.8459695E2,8.790733E0,1.4201654E2,2.1571208E2,2.334078E2,6.157028E2,2.6693573E0,3.1880291E1],"tree_param":{"num_deleted":"0","num_feature":"36","num_nodes":"53","size_leaf_vector":"1"}},{"base_weights":[-9.441885E-3,-7.104957E-2,3.8884073E-1,-2.3510806E-1,1.8927148E-1,6.6048473E-1,-3.131852E-1,-2.0369889E-1,-4.984528E-1,-5.23861E-1,2.3480792E-1,-4.3238974E-1,7.292822E-1,2.8391826E-1,-5.722304E-1,-1.6287147E-1,-1.2438792E0,3.0175173E-1,-1.0941905E0,-4.715756E-1,7.877792E-1,6.672435E-1,-5.480262E-1,2.2548359E-2,-4.0561903E-1,-5.141043E-1,3.5344565E-1,-3.9962515E-2,7.4378437E-1,4.554358E-1,-1.7951419E0,1.2051394E0,4.9017563E-1,-4.3799028E-1,9.766699E-1,-3.604845E-2,2.2140488E-1,-7.3929995E-2,-4.6352065E-1,4.262516E-2,-4.16086E-1,2.5084317E-1,-4.8957548E-1,-5.945855E-1,-3.8131326E-1,3.9559942E-1,-4.7649541E-1,-4.7599852E-1,1.9346105E-1,-3.9817455E-1,3.4867465E-1],"categories":[],"categories_nodes":[],"categories_segments":[],"categories_sizes":[],"default_left":[0,0,0,0,0,0,0,0,0,0,0,0,0,0,0,0,0,0,0,0,0,0,0,0,0,0,0,0,0,0,0,0,0,0,0,0,0,0,0,0,0,0,0,0,0,0,0,0,0,0,0],"id":3,"left_children":[1,3,5,7,9,11,13,15,-1,-1,17,-1,19,21,-1,23,25,27,29,-1,31,33,-1,35,37,-1,-1,39,41,-1,43,45,47,-1,49,-1,-1,-1,-1,-1,-1,-1,-1,-1,-1,-1,-1,-1,-1,-1,-1],"loss_changes":[6.3528107E1,9.57991E1,6.6348976E1,6.1299126E1,7.684989E1,3.7257515E1,9.32999E1,5.7013218E1,0E0,0E0,7.5797775E1,0E0,3.396579E1,5.927919E1,0E0,5.841168E1,5.9746796E1,1.2213132E2,7.760817E1,0E0,2.8941086E1,4.1882607E1,0E0,7.5296844E1,1.0154953E2,0E0,0E0,1.1222649E2,7.870871E1,0E0,6.825409E-1,3.326259E1,4.615553E1,0E0,2.4741112E1,0E0,0E0,0E0,0E0,0E0,0E0,0E0,0E0,0E0,0E0,0E0,0E0,0E0,0E0,0E0,0E0],"parents":[2147483647,0,0,1,1,2,2,3,3,4,4,5,5,6,6,7,7,10,10,12,12,13,13,15,15,16,16,17,17,18,18,20,20,21,21,23,23,24,24,27,27,28,28,30,30,31,31,32,32,34,34],"right_children":[2,4,6,8,10,12,14,16,-1,-1,18,-1,20,22,-1,24,26,28,30,-1,32,34,-1,36,38,-1,-1,40,42,-1,44,46,48,-1,50,-1,-1,-1,-1,-1,-1,-1,-1,-1,-1,-1,-1,-1,-1,-1,-1],"split_conditions":[7.7E1,9.53E-1,2.1481758E-1,2.463329E-1,7.1316174E2,3.5E1,4.3E1,7.1E1,-4.984528E-1,-5.23861E-1,1.68866E3,-4.3238974E-1,1.6210882E-1,3.97E-1,-5.722304E-1,4.857143E-1,6E-1,9.6375E2,2.820513E-1,-4.715756E-1,6.851E2,2.89E-1,-5.480262E-1,4E1,6.8E1,-5.141043E-1,3.5344565E-1,5.7096E2,1.4E1,4.554358E-1,4.979684E3,4E0,4.5294118E-1,-4.3799028E-1,5.192979E2,-3.604845E-2,2.2140488E-1,-7.3929995E-2,-4.6352065E-1,4.262516E-2,-4.16086E-1,2.5084317E-1,-4.8957548E-1,-5.945855E-1,-3.8131326E-1,3.9559942E-1,-4.7649541E-1,-4.7599852E-1,1.9346105E-1,-3.9817455E-1,3.4867465E-1],"split_indices":[34,5,7,7,0,23,23,34,0,0,13,0,6,5,0,24,24,14,24,0,14,4,0,25,22,0,0,15,28,0,1,33,24,0,2,0,0,0,0,0,0,0,0,0,0,0,0,0,0,0,0],"split_type":[0,0,0,0,0,0,0,0,0,0,0,0,0,0,0,0,0,0,0,0,0,0,0,0,0,0,0,0,0,0,0,0,0,0,0,0,0,0,0,0,0,0,0,0,0,0,0,0,0,0,0],"sum_hessian":[2.5869194E3,2.241083E3,3.4583658E2,1.3747748E3,8.6630817E2,2.4939436E2,9.6442215E1,1.3462728E3,2.8501951E1,1.9054874E1,8.472533E2,7.27234E0,2.4212202E2,7.076144E1,2.568078E1,1.2965398E3,4.9733032E1,8.073583E2,3.9895004E1,5.360852E0,2.3676117E2,6.046423E1,1.029721E1,7.3558167E2,5.609581E2,4.1898445E1,7.834586E0,4.5586243E2,3.5149585E2,8.193525E0,3.1701479E1,9.728246E1,1.394787E2,7.206115E0,5.3258114E1,6.1395245E2,1.21629166E2,4.9326352E2,6.7694626E1,4.023757E2,5.3486732E1,3.38966E2,1.252984E1,2.1320383E1,1.0381096E1,9.3990654E1,3.2918067E0,9.027261E0,1.3045145E2,3.5115175E0,4.9746597E1],"tree_param":{"num_deleted":"0","num_feature":"36","num_nodes":"51","size_leaf_vector":"1"}},{"base_weights":[-9.407619E-3,-4.8419233E-2,4.4861096E-1,-1.3983446E-2,-7.110473E-1,6.2632465E-1,-3.9374205E-1,-1.2230469E-1,1.9971526E-1,-7.214822E-2,-5.286752E-1,-5.487453E-1,6.9998235E-1,-9.427277E-2,-5.693101E-1,5.397584E-1,-4.5321096E-2,-5.350698E-1,3.5200748E-1,-4.4060907E-1,7.752644E-1,-6.4055026E-2,-4.7329307E-1,6.426195E-1,-3.7384352E-1,-6.5610284E-1,3.2557276E-1,6.329954E-1,-4.7634488E-1,8.508312E-1,-4.1643205E-1,-1.1222516E-2,-4.708699E-1,2.1442147E-1,-5.5351573E-1,-5.099768E-1,-3.2022566E-2,1.508532E-1,-3.1341746E-1,-4.4540438E-1,2.5472662E-1,2.7184078E-1,-4.508454E-1],"categories":[],"categories_nodes":[],"categories_segments":[],"categories_sizes":[],"default_left":[0,0,0,0,0,0,0,0,0,0,0,0,0,0,0,0,0,0,0,0,0,0,0,0,0,0,0,0,0,0,0,0,0,0,0,0,0,0,0,0,0,0,0],"id":4,"left_children":[1,3,5,7,9,11,-1,13,15,17,-1,-1,19,21,-1,23,25,-1,27,-1,29,31,-1,33,-1,35,37,39,-1,41,-1,-1,-1,-1,-1,-1,-1,-1,-1,-1,-1,-1,-1],"loss_changes":[4.4790787E1,5.2694946E1,6.2400425E1,5.0873795E1,7.649446E1,3.372705E1,0E0,7.240192E1,6.162558E1,5.2894215E1,0E0,0E0,2.9692612E1,6.430108E1,0E0,5.769361E1,9.77598E1,0E0,3.2911175E1,0E0,2.89207E1,5.6471176E1,0E0,5.3974625E1,0E0,9.329969E1,6.5767426E1,2.4985607E1,0E0,2.2784248E1,0E0,0E0,0E0,0E0,0E0,0E0,0E0,0E0,0E0,0E0,0E0,0E0,0E0],"parents":[2147483647,0,0,1,1,2,2,3,3,4,4,5,5,7,7,8,8,9,9,12,12,13,13,15,15,16,16,18,18,20,20,21,21,23,23,25,25,26,26,27,27,29,29],"right_children":[2,4,6,8,10,12,-1,14,16,18,-1,-1,20,22,-1,24,26,-1,28,-1,30,32,-1,34,-1,36,38,40,-1,42,-1,-1,-1,-1,-1,-1,-1,-1,-1,-1,-1,-1,-1],"split_conditions":[7E0,9.99E-1,1.1E1,8E0,2.0183888E-1,1.7686364E-1,-3.9374205E-1,9E0,2.9E1,6E0,-5.286752E-1,-5.487453E-1,3E1,2.3512984E2,-5.693101E-1,3.1102244E3,1.09E2,-5.350698E-1,2.872008E3,-4.4060907E-1,6.7E1,1.921155E3,-4.7329307E-1,4.6E1,-3.7384352E-1,1.9224625E3,5.80631E3,4E0,-4.7634488E-1,2.3879887E-1,-4.1643205E-1,-1.1222516E-2,-4.708699E-1,2.1442147E-1,-5.5351573E-1,-5.099768E-1,-3.2022566E-2,1.508532E-1,-3.1341746E-1,-4.4540438E-1,2.5472662E-1,2.7184078E-1,-4.508454E-1],"split_indices":[8,4,32,27,7,3,0,29,35,27,0,0,25,20,0,0,22,0,2,0,25,13,0,23,0,2,12,30,0,6,0,0,0,0,0,0,0,0,0,0,0,0,0],"split_type":[0,0,0,0,0,0,0,0,0,0,0,0,0,0,0,0,0,0,0,0,0,0,0,0,0,0,0,0,0,0,0,0,0,0,0,0,0,0,0,0,0,0,0],"sum_hessian":[2.504538E3,2.3087822E3,1.9575566E2,2.1956963E3,1.1308595E2,1.7839763E2,1.7358023E1,1.4573906E3,7.383057E2,7.1001434E1,4.2084522E1,4.5014887E0,1.7389615E2,1.4357742E3,2.16165E1,3.0870508E2,4.2960062E2,1.3465354E1,5.7536076E1,5.2130294E0,1.6868312E2,1.4081323E3,2.7641878E1,2.9249847E2,1.6206602E1,1.6201993E2,2.675807E2,5.0844776E1,6.6913E0,1.635761E2,5.1070247E0,1.3846497E3,2.3482615E1,2.8495035E2,7.5481515E0,5.5145576E1,1.0687436E2,2.3749033E2,3.0090357E1,4.1643457E0,4.668043E1,1.604216E2,3.1544826E0],"tree_param":{"num_deleted":"0","num_feature":"36","num_nodes":"43","size_leaf_vector":"1"}},{"base_weights":[-1.1243401E-2,-6.1459944E-2,2.9423308E-1,-3.863353E-2,-1.141877E0,3.854378E-1,-4.6672338E-1,-5.612417E-2,1.232088E0,-4.528035E-1,3.2543525E-1,-3.8754976E-1,4.7571346E-1,3.7442201E-3,-5.475886E-1,1.5007223E0,-3.7074947E-1,5.655155E-1,-3.8113418E-1,1.9711426E-2,-4.7470054E-1,-5.609717E-1,-2.8263527E-1,-2.1510206E-1,4.8700252E-1,6.240779E-1,-3.977307E-1,-3.3044454E-2,6.8713956E-2,-5.112671E-1,-4.2066257E-3,-5.0877344E-2,2.3030764E-1],"categories":[],"categories_nodes":[],"categories_segments":[],"categories_sizes":[],"default_left":[0,0,0,0,0,0,0,0,0,0,0,0,0,0,0,0,0,0,0,0,0,0,0,0,0,0,0,0,0,0,0,0,0],"id":5,"left_children":[1,3,5,7,9,11,-1,13,15,-1,-1,-1,17,19,21,23,-1,25,-1,27,-1,-1,29,-1,-1,31,-1,-1,-1,-1,-1,-1,-1],"loss_changes":[3.740183E1,5.1592937E1,5.8680294E1,4.566523E1,3.7055054E1,5.0409042E1,0E0,5.9572292E1,2.034993E1,0E0,0E0,0E0,4.976703E1,4.5762196E1,7.6498276E1,8.128445E0,0E0,3.3853752E1,0E0,4.865057E1,0E0,0E0,7.03655E1,0E0,0E0,3.31746E1,0E0,0E0,0E0,0E0,0E0,0E0,0E0],"parents":[2147483647,0,0,1,1,2,2,3,3,4,4,5,5,7,7,8,8,12,12,13,13,14,14,15,15,17,17,19,19,22,22,25,25],"right_children":[2,4,6,8,10,12,-1,14,16,-1,-1,-1,18,20,22,24,-1,26,-1,28,-1,-1,30,-1,-1,32,-1,-1,-1,-1,-1,-1,-1],"split_conditions":[2.2641077E2,2.4669988E-1,9.97E-1,2.4625729E-1,1.322265E4,1.1E1,-4.6672338E-1,3.4953523E3,1.6E1,-4.528035E-1,3.2543525E-1,-3.8754976E-1,4.972497E3,1E0,4.386447E3,4.60267E3,-3.7074947E-1,1.4E1,-3.8113418E-1,1.1036005E3,-4.7470054E-1,-5.609717E-1,1.18311E3,-2.1510206E-1,4.8700252E-1,4.375E-1,-3.977307E-1,-3.3044454E-2,6.8713956E-2,-5.112671E-1,-4.2066257E-3,-5.0877344E-2,2.3030764E-1],"split_indices":[20,6,5,6,12,11,0,1,25,0,0,0,1,4,1,19,0,28,0,0,0,0,14,0,0,24,0,0,0,0,0,0,0],"split_type":[0,0,0,0,0,0,0,0,0,0,0,0,0,0,0,0,0,0,0,0,0,0,0,0,0,0,0,0,0,0,0,0,0],"sum_hessian":[2.4360151E3,2.092786E3,3.4322925E2,2.0505E3,4.2285995E1,3.2785736E2,1.5371858E1,2.0236022E3,2.689771E1,3.6572544E1,5.7134495E0,1.6065207E1,3.1179218E2,1.804747E3,2.1885526E2,2.4610727E1,2.2869828E0,2.971846E2,1.4607556E1,1.7877372E3,1.700974E1,3.552103E1,1.8333423E2,1.0354726E0,2.3575254E1,2.8890875E2,8.2758465E0,1.1036002E3,6.84137E2,2.8286789E1,1.5504744E2,4.4240013E1,2.4466875E2],"tree_param":{"num_deleted":"0","num_feature":"36","num_nodes":"33","size_leaf_vector":"1"}},{"base_weights":[-1.0756773E-2,1.4754356E-2,-5.643821E-1,-3.2804513E-1,5.995732E-2,9.693701E-1,-9.6382046E-1,-7.04242E-3,-4.4246706E-1,4.2392942E-1,-2.671806E-2,-3.608554E-1,1.3658406E0,1.3806488E-1,-4.678514E-1,-4.4861096E-1,1.806086E-1,-6.8637097E-1,6.471406E-1,2.6391957E-2,-6.0162216E-1,4.8056778E-1,-2.6321507E-1,-4.378222E-1,1.0509504E0,3.2354042E-1,-4.95982E-1,-4.0993464E-1,6.952212E-1,7.19414E-1,-4.5526892E-1,7.533864E-1,-1.2004435E-2,-9.605613E-1,5.7733315E-1,1.4773207E0,-3.7692025E-1,1.3274524E-1,-4.1952616E-1,3.8079077E-1,-3.9415318E-1,2.4941228E-1,-2.3094805E-1,3.2612658E-1,-4.777095E-1,-1.8112862E-1,1.5287601E-2,-4.7539842E-1,1.2584922E-1,3.201689E-1,-4.0808406E-1,-2.3568664E-1,5.0342846E-1],"categories":[],"categories_nodes":[],"categories_segments":[],"categories_sizes":[],"default_left":[0,0,0,0,0,0,0,0,0,0,0,0,0,0,0,0,0,0,0,0,0,0,0,0,0,0,0,0,0,0,0,0,0,0,0,0,0,0,0,0,0,0,0,0,0,0,0,0,0,0,0,0,0],"id":6,"left_children":[1,3,5,7,9,11,13,15,-1,17,19,-1,21,23,-1,-1,25,27,29,31,33,-1,-1,-1,35,37,-1,-1,39,41,-1,43,45,47,49,51,-1,-1,-1,-1,-1,-1,-1,-1,-1,-1,-1,-1,-1,-1,-1,-1,-1],"loss_changes":[3.369021E1,3.536064E1,6.5308205E1,9.7864174E1,6.3606354E1,2.0770267E1,5.5263412E1,5.8564262E1,0E0,9.6548065E1,4.9756725E1,0E0,1.1598614E1,4.5790325E1,0E0,0E0,4.935421E1,6.2393646E1,5.168547E1,4.1664093E1,5.887206E1,0E0,0E0,0E0,2.142684E1,3.6178528E1,0E0,0E0,2.7311821E1,5.2930923E1,0E0,6.0342884E1,5.2878395E1,9.198014E1,3.2575996E1,9.1558075E0,0E0,0E0,0E0,0E0,0E0,0E0,0E0,0E0,0E0,0E0,0E0,0E0,0E0,0E0,0E0,0E0,0E0],"parents":[2147483647,0,0,1,1,2,2,3,3,4,4,5,5,6,6,7,7,9,9,10,10,12,12,13,13,16,16,17,17,18,18,19,19,20,20,24,24,25,25,28,28,29,29,31,31,32,32,33,33,34,34,35,35],"right_children":[2,4,6,8,10,12,14,16,-1,18,20,-1,22,24,-1,-1,26,28,30,32,34,-1,-1,-1,36,38,-1,-1,40,42,-1,44,46,48,50,52,-1,-1,-1,-1,-1,-1,-1,-1,-1,-1,-1,-1,-1,-1,-1,-1,-1],"split_conditions":[6.25E-1,5.212505E2,4.6150525E2,1.6493E2,3.6E-1,2.1986155E1,1.7403287E-1,1.6E1,-4.4246706E-1,1.8E-1,7.12958E3,-3.608554E-1,2.5206047E1,5.247727E-1,-4.678514E-1,-4.4861096E-1,8.0258105E2,3E0,2.3495604E-1,1.0593346E2,8.4E1,4.8056778E-1,-2.6321507E-1,-4.378222E-1,7.54E-1,5.4022986E-1,-4.95982E-1,-4.0993464E-1,4.3434343E-1,8.0583E2,-4.5526892E-1,1.9E1,3.77E-1,9.98E-1,8.7E1,1.1204249E3,-3.7692025E-1,1.3274524E-1,-4.1952616E-1,3.8079077E-1,-3.9415318E-1,2.4941228E-1,-2.3094805E-1,3.2612658E-1,-4.777095E-1,-1.8112862E-1,1.5287601E-2,-4.7539842E-1,1.2584922E-1,3.201689E-1,-4.0808406E-1,-2.3568664E-1,5.0342846E-1],"split_indices":[24,0,1,15,4,20,6,25,0,4,12,0,20,3,0,0,2,33,3,2,34,0,0,0,5,24,0,0,24,15,0,35,5,4,22,2,0,0,0,0,0,0,0,0,0,0,0,0,0,0,0,0,0],"split_type":[0,0,0,0,0,0,0,0,0,0,0,0,0,0,0,0,0,0,0,0,0,0,0,0,0,0,0,0,0,0,0,0,0,0,0,0,0,0,0,0,0,0,0,0,0,0,0,0,0,0,0,0,0],"sum_hessian":[2.3837935E3,2.279717E3,1.04076324E2,2.6486206E2,2.014855E3,2.1209574E1,8.286675E1,2.0772565E2,5.713641E1,3.867792E2,1.6280758E3,2.9597118E0,1.824986E1,2.9347858E1,5.351889E1,2.2477743E1,1.852479E2,6.439411E1,3.223851E2,1.4912657E3,1.3681001E2,1.6770967E1,1.4788932E0,1.0454572E1,1.8893288E1,1.7261774E2,1.2630162E1,4.3159935E1,2.1234175E1,3.1261542E2,9.769685E0,7.387629E1,1.4173895E3,1.0502105E2,3.1788965E1,1.6250185E1,2.6431022E0,1.6215967E2,1.045807E1,1.6801449E1,4.432726E0,2.9116736E2,2.144805E1,6.51454E1,8.730891E0,1.3548135E2,1.2819081E3,7.221514E1,3.2805912E1,2.5732174E1,6.056791E0,1.0868819E0,1.5163303E1],"tree_param":{"num_deleted":"0","num_feature":"36","num_nodes":"53","size_leaf_vector":"1"}},{"base_weights":[-1.3314998E-2,-1.2216915E-3,-1.0199168E0,-3.1401694E-2,3.876411E-1,-5.2704877E-1,3.5059786E-1,-1.6457364E-2,-4.0210846E-1,4.9177155E-1,-3.4256938E-1,-4.155257E-2,6.9137996E-1,-5.2270615E-1,5.57467E-1,-1.8398935E-2,-1.3896295E0,8.6373943E-1,-4.395905E-1,8.725044E-1,5.5585586E-2,-2.0214985E-3,-5.1918054E-1,-5.6441796E-1,1.4253373E-1,-4.8806125E-1,3.0723497E-1,3.013609E-1,-5.050991E-1,1.3145776E-1,-4.908155E-1],"categories":[],"categories_nodes":[],"categories_segments":[],"categories_sizes":[],"default_left":[0,0,0,0,0,0,0,0,0,0,0,0,0,0,0,0,0,0,0,0,0,0,0,0,0,0,0,0,0,0,0],"id":7,"left_children":[1,3,5,7,9,-1,-1,11,-1,13,-1,15,17,-1,19,21,23,25,-1,27,29,-1,-1,-1,-1,-1,-1,-1,-1,-1,-1],"loss_changes":[2.8011711E1,2.6710043E1,4.6110207E1,4.129144E1,2.6668657E1,0E0,0E0,3.713896E1,0E0,2.3598614E1,0E0,6.297954E1,2.7876663E1,0E0,2.3750492E1,3.9629303E1,3.2137016E1,2.8396137E1,0E0,3.2877754E1,3.8977947E1,0E0,0E0,0E0,0E0,0E0,0E0,0E0,0E0,0E0,0E0],"parents":[2147483647,0,0,1,1,2,2,3,3,4,4,7,7,9,9,11,11,12,12,14,14,15,15,16,16,17,17,19,19,20,20],"right_children":[2,4,6,8,10,-1,-1,12,-1,14,-1,16,18,-1,20,22,24,26,-1,28,30,-1,-1,-1,-1,-1,-1,-1,-1,-1,-1],"split_conditions":[1.5E1,7E0,5.5E-1,1.5E1,1.1E1,-5.2704877E-1,3.5059786E-1,7.9E1,-4.0210846E-1,1.5835874E-1,-3.4256938E-1,1.09E2,9.4E1,-5.2270615E-1,2.071679E-1,3E0,2.9959004E3,4.6341464E-1,-4.395905E-1,3E0,1.9E1,-2.0214985E-3,-5.1918054E-1,-5.6441796E-1,1.4253373E-1,-4.8806125E-1,3.0723497E-1,3.013609E-1,-5.050991E-1,1.3145776E-1,-4.908155E-1],"split_indices":[30,8,24,28,32,0,0,23,0,6,0,35,23,0,7,8,1,24,0,16,8,0,0,0,0,0,0,0,0,0,0],"split_type":[0,0,0,0,0,0,0,0,0,0,0,0,0,0,0,0,0,0,0,0,0,0,0,0,0,0,0,0,0,0,0],"sum_hessian":[2.30021E3,2.2738926E3,2.6317316E1,2.110977E3,1.6291563E2,1.9835728E1,6.4815874E0,2.0881492E3,2.2827728E1,1.531666E2,9.749041E0,2.0175613E3,7.058801E1,3.646235E0,1.4952037E2,1.9844906E3,3.3070587E1,6.591932E1,4.66869E0,9.140549E1,5.8114876E1,1.9720642E3,1.2426405E1,2.616224E1,6.9083486E0,3.43474E0,6.248458E1,8.749328E1,3.912211E0,4.7999523E1,1.0115352E1],"tree_param":{"num_deleted":"0","num_feature":"36","num_nodes":"31","size_leaf_vector":"1"}},{"base_weights":[-1.1114763E-2,1.2319622E-2,-4.4900134E-1,-4.2139316E-1,2.0649962E-2,2.467298E-2,-4.1604507E-1,5.5603147E-1,-1.0113364E-2,2.5617406E-1,-4.613769E-1,8.4158254E-1,-5.9334666E-1,-6.587682E-1,3.2881208E-2,-4.393405E-1,8.997414E-1,-3.6868894E-1,9.7745854E-1,-4.4787768E-1,9.188082E-1,2.9126483E-1,-1.0859083E0,-4.3855846E-1,4.4679753E-2,-9.716827E-1,3.8626084E-1,1.089011E0,-3.1468406E-1,3.263799E-1,-3.2766843E-1,3.850553E-1,-2.705571E-1,-3.958682E-1,3.1848025E-1,-4.414725E-1,-3.533541E-2,2.2902034E-1,2.2885753E-3,-4.073837E-1,2.78465E-1,-2.2382842E-1,3.5398793E-1],"categories":[],"categories_nodes":[],"categories_segments":[],"categories_sizes":[],"default_left":[0,0,0,0,0,0,0,0,0,0,0,0,0,0,0,0,0,0,0,0,0,0,0,0,0,0,0,0,0,0,0,0,0,0,0,0,0,0,0,0,0,0,0],"id":8,"left_children":[1,3,5,-1,7,9,-1,11,13,15,-1,17,19,21,23,25,27,-1,29,-1,31,33,35,-1,37,39,-1,41,-1,-1,-1,-1,-1,-1,-1,-1,-1,-1,-1,-1,-1,-1,-1],"loss_changes":[2.321802E1,2.538515E1,5.1091194E1,0E0,3.519512E1,2.837407E1,0E0,3.8609062E1,5.639718E1,3.093337E1,0E0,2.7484291E1,3.3601948E1,5.132735E1,3.351592E1,3.201135E1,1.433297E1,0E0,2.1360832E1,0E0,7.4369264E0,5.075927E1,3.2283493E1,0E0,5.013377E1,2.0448278E1,0E0,6.402813E0,0E0,0E0,0E0,0E0,0E0,0E0,0E0,0E0,0E0,0E0,0E0,0E0,0E0,0E0,0E0],"parents":[2147483647,0,0,1,1,2,2,4,4,5,5,7,7,8,8,9,9,11,11,12,12,13,13,14,14,15,15,16,16,18,18,20,20,21,21,22,22,24,24,25,25,27,27],"right_children":[2,4,6,-1,8,10,-1,12,14,16,-1,18,20,22,24,26,28,-1,30,-1,32,34,36,-1,38,40,-1,42,-1,-1,-1,-1,-1,-1,-1,-1,-1,-1,-1,-1,-1,-1,-1],"split_conditions":[6.060606E-1,8E-3,1.9998056E-1,-4.2139316E-1,3.3E-2,7.54E-1,-4.1604507E-1,2E0,1.04E-1,5.64E-1,-4.613769E-1,4.1584158E-1,1.48973E3,1.7060348E-1,2.079806E1,1.9832377E-1,1.7999758E-1,-3.6868894E-1,2.2701931E-1,-4.4787768E-1,4.0458298E2,5E0,5.307E2,-4.3855846E-1,2.7772864E2,1E0,3.8626084E-1,1E0,-3.1468406E-1,3.263799E-1,-3.2766843E-1,3.850553E-1,-2.705571E-1,-3.958682E-1,3.1848025E-1,-4.414725E-1,-3.533541E-2,2.2902034E-1,2.2885753E-3,-4.073837E-1,2.78465E-1,-2.2382842E-1,3.5398793E-1],"split_indices":[24,5,6,0,5,5,0,33,5,4,0,24,17,6,2,6,6,0,6,0,0,26,15,0,2,8,0,27,0,0,0,0,0,0,0,0,0,0,0,0,0,0,0],"split_type":[0,0,0,0,0,0,0,0,0,0,0,0,0,0,0,0,0,0,0,0,0,0,0,0,0,0,0,0,0,0,0,0,0,0,0,0,0,0,0,0,0,0,0],"sum_hessian":[2.2610725E3,2.147136E3,1.13936455E2,1.1569589E1,2.1355664E3,7.634807E1,3.758839E1,1.1511517E2,2.0204513E3,6.7224686E1,9.123384E0,9.2421745E1,2.2693432E1,1.24705765E2,1.8957455E3,3.2460926E1,3.4763756E1,5.1961083E0,8.722563E1,1.4236734E1,8.456697E0,3.8777054E1,8.592871E1,1.3884108E1,1.8818615E3,2.5146393E1,7.314532E0,3.2088287E1,2.675471E0,8.3256E1,3.9696372E0,7.2911816E0,1.1655158E0,1.2314216E1,2.6462841E1,6.1077534E1,2.4851175E1,9.1295746E1,1.7905657E3,2.1134794E1,4.011599E0,1.1750675E0,3.0913218E1],"tree_param":{"num_deleted":"0","num_feature":"36","num_nodes":"43","size_leaf_vector":"1"}},{"base_weights":[-1.1147023E-2,-5.3089086E-2,2.1970199E-1,-2.8070698E-2,-8.2963264E-1,2.9495928E-1,-4.2019668E-1,1.4628938E-1,-1.2454956E-1,-1.1359183E0,3.5700914E-1,-4.1415963E-1,3.627127E-1,1.2229218E-2,8.4660953E-1,-7.721928E-1,-3.3477362E-2,-4.935208E-1,5.607022E-1,4.2176676E-1,-3.3999744E-1,3.373696E-1,-4.1186547E-1,9.7187394E-1,-4.0858603E-1,-2.5801224E-1,-1.6420915E0,-4.7194448E-1,1.3064654E-3,-3.0505466E-1,2.8577083E-1,-3.99025E-1,4.736817E-1,1.8050975E-1,-2.0585205E-1,-3.951079E-1,8.305862E-3,4.4996536E-1,1.9642964E-1,-1.8284309E-1,3.410656E-1,-4.3502718E-1,-5.759275E-1,9.265549E-3,-4.16797E-1,-3.8361734E-1,1.5791833E-1],"categories":[],"categories_nodes":[],"categories_segments":[],"categories_sizes":[],"default_left":[0,0,0,0,0,0,0,0,0,0,0,0,0,0,0,0,0,0,0,0,0,0,0,0,0,0,0,0,0,0,0,0,0,0,0,0,0,0,0,0,0,0,0,0,0,0,0],"id":9,"left_children":[1,3,5,7,9,11,-1,13,15,17,-1,-1,19,21,23,25,27,-1,29,31,-1,33,35,37,-1,39,41,-1,43,-1,-1,-1,45,-1,-1,-1,-1,-1,-1,-1,-1,-1,-1,-1,-1,-1,-1],"loss_changes":[2.1384096E1,3.628338E1,4.1823036E1,3.0491371E1,3.741198E1,3.743299E1,0E0,6.0616493E1,6.8791336E1,4.5089645E1,0E0,0E0,2.8173355E1,7.501575E1,3.0023552E1,6.3894157E1,5.48402E1,0E0,8.725544E0,2.8124096E1,0E0,8.372075E1,9.397223E1,1.5553101E1,0E0,4.5582214E1,5.4153442E-2,0E0,4.127154E1,0E0,0E0,0E0,2.786293E1,0E0,0E0,0E0,0E0,0E0,0E0,0E0,0E0,0E0,0E0,0E0,0E0,0E0,0E0],"parents":[2147483647,0,0,1,1,2,2,3,3,4,4,5,5,7,7,8,8,9,9,12,12,13,13,14,14,15,15,16,16,18,18,19,19,21,21,22,22,23,23,25,25,26,26,28,28,32,32],"right_children":[2,4,6,8,10,12,-1,14,16,18,-1,-1,20,22,24,26,28,-1,30,32,-1,34,36,38,-1,40,42,-1,44,-1,-1,-1,46,-1,-1,-1,-1,-1,-1,-1,-1,-1,-1,-1,-1,-1,-1],"split_conditions":[2.2443806E2,2.1962654E2,9.97E-1,4.4578314E-1,9.7535896E-1,5.9181E2,-4.2019668E-1,9.94E-1,1.4E1,2.97018E3,3.5700914E-1,-4.1415963E-1,4.972497E3,2E0,3E0,9.55E-1,4.516129E-1,-4.935208E-1,1.2E1,4.97E-1,-3.3999744E-1,3.179E-1,1.2820514E-1,9.965146E2,-4.0858603E-1,2.4550793E-1,1.3778477E3,-4.7194448E-1,1.77054E3,-3.0505466E-1,2.8577083E-1,-3.99025E-1,6E0,1.8050975E-1,-2.0585205E-1,-3.951079E-1,8.305862E-3,4.4996536E-1,1.9642964E-1,-1.8284309E-1,3.410656E-1,-4.3502718E-1,-5.759275E-1,9.265549E-3,-4.16797E-1,-3.8361734E-1,1.5791833E-1],"split_indices":[20,20,5,24,3,21,0,5,34,17,0,0,1,27,16,4,24,0,26,4,0,3,18,1,0,6,0,0,15,0,0,0,34,0,0,0,0,0,0,0,0,0,0,0,0,0,0],"split_type":[0,0,0,0,0,0,0,0,0,0,0,0,0,0,0,0,0,0,0,0,0,0,0,0,0,0,0,0,0,0,0,0,0,0,0,0,0,0,0,0,0,0,0,0,0,0,0],"sum_hessian":[2.2063752E3,1.8677932E3,3.3858206E2,1.8104994E3,5.7293835E1,3.2433627E2,1.424579E1,6.447563E2,1.165743E3,5.012922E1,7.1646166E0,1.1852673E1,3.124836E2,5.420171E2,1.0273922E2,1.4279607E2,1.02294696E3,3.858143E1,1.1547791E1,3.0130795E2,1.1175645E1,3.0691742E2,2.3509966E2,9.775475E1,4.984464E0,9.056275E1,5.223332E1,2.16225E1,1.00132446E3,1.9803911E0,9.567399E0,7.963464E0,2.9334448E2,2.4425168E2,6.2665752E1,7.619546E1,1.589042E2,3.5280342E1,6.247441E1,7.278626E1,1.777649E1,3.4558926E1,1.767439E1,9.814273E2,1.9897167E1,7.887004E0,2.854575E2],"tree_param":{"num_deleted":"0","num_feature":"36","num_nodes":"47","size_leaf_vector":"1"}},{"base_weights":[-1.2640111E-2,-1.6825141E-1,5.642628E-2,1.8997681E-1,-4.7031718E-1,-1.0251579E0,8.085795E-2,2.922055E-1,-5.1224315E-1,2.986911E-2,-8.048183E-1,-4.4897893E-1,7.146946E-1,8.6368275E-1,4.937437E-2,2.1690423E-2,8.472416E-1,-4.052364E-1,2.589916E-1,-1.0752112E0,5.491237E-1,3.2320026E-1,-2.4780989E-1,-3.9473957E-1,1.2258809E0,-3.9985386E-1,7.014945E-2,-4.1417634E-1,7.0068157E-1,-3.8906145E-1,1.0630379E0,4.3021747E-1,-3.8852036E-1,-4.6033567E-1,-1.3827202E0,-3.36625E-1,8.868106E-1,-3.0488074E-1,1.3276948E0,8.692811E-2,-4.5945993E-1,7.1497173E-3,-4.4078752E-1,2.90189E-1,-4.259839E-1,3.551849E-1,-3.640213E-1,1.799972E-1,-3.495349E-1,-4.128249E-1,9.9946335E-2,-4.4377908E-1,2.6826492E-1,-2.969344E-1,3.1792364E-1,4.3162102E-1,1.256779E-1,4.268359E-1,2.0750716E-2],"categories":[],"categories_nodes":[],"categories_segments":[],"categories_sizes":[],"default_left":[0,0,0,0,0,0,0,0,0,0,0,0,0,0,0,0,0,0,0,0,0,0,0,0,0,0,0,0,0,0,0,0,0,0,0,0,0,0,0,0,0,0,0,0,0,0,0,0,0,0,0,0,0,0,0,0,0,0,0],"id":10,"left_children":[1,3,5,7,9,11,13,15,-1,17,19,-1,21,23,25,27,29,-1,31,33,35,-1,-1,-1,37,-1,39,41,43,-1,45,47,-1,49,51,-1,53,-1,55,57,-1,-1,-1,-1,-1,-1,-1,-1,-1,-1,-1,-1,-1,-1,-1,-1,-1,-1,-1],"loss_changes":[2.2972588E1,7.118724E1,3.920632E1,5.894179E1,5.9713478E1,2.7955368E1,3.5663994E1,4.303483E1,0E0,4.588161E1,7.88692E1,0E0,5.1725564E0,4.5782707E1,4.011807E1,5.764817E1,4.4840706E1,0E0,3.362909E1,3.312651E1,2.1455536E1,0E0,0E0,0E0,1.242038E1,0E0,3.706163E1,5.487653E1,4.4424507E1,0E0,2.5078598E1,3.1223806E1,0E0,4.480503E1,2.7379517E1,0E0,1.1018244E1,0E0,4.1223984E0,3.218537E1,0E0,0E0,0E0,0E0,0E0,0E0,0E0,0E0,0E0,0E0,0E0,0E0,0E0,0E0,0E0,0E0,0E0,0E0,0E0],"parents":[2147483647,0,0,1,1,2,2,3,3,4,4,5,5,6,6,7,7,9,9,10,10,12,12,13,13,14,14,15,15,16,16,18,18,19,19,20,20,24,24,26,26,27,27,28,28,30,30,31,31,33,33,34,34,36,36,38,38,39,39],"right_children":[2,4,6,8,10,12,14,16,-1,18,20,-1,22,24,26,28,30,-1,32,34,36,-1,-1,-1,38,-1,40,42,44,-1,46,48,-1,50,52,-1,54,-1,56,58,-1,-1,-1,-1,-1,-1,-1,-1,-1,-1,-1,-1,-1,-1,-1,-1,-1,-1,-1],"split_conditions":[2E0,1.8495151E-1,8.5611096E2,3E0,8.0384E2,1.3E1,2.3261627E1,1.7888255E-1,-5.1224315E-1,1.4082E2,2.2243523E3,-4.4897893E-1,3.755538E1,2.97E-1,1.57022E3,5.3E1,5.879532E2,-4.052364E-1,5.5839E2,1E0,3E0,3.2320026E-1,-2.4780989E-1,-3.9473957E-1,2.144111E1,-3.9985386E-1,6.6E1,2E0,7.292557E2,-3.8906145E-1,5.443038E-1,8.201435E2,-3.8852036E-1,5.0893E2,3E1,-3.36625E-1,2.1872365E-1,-3.0488074E-1,3E0,1.0745E2,-4.5945993E-1,7.1497173E-3,-4.4078752E-1,2.90189E-1,-4.259839E-1,3.551849E-1,-3.640213E-1,1.799972E-1,-3.495349E-1,-4.128249E-1,9.9946335E-2,-4.4377908E-1,2.6826492E-1,-2.969344E-1,3.1792364E-1,4.3162102E-1,1.256779E-1,4.268359E-1,2.0750716E-2],"split_indices":[32,6,1,30,19,16,20,6,0,19,0,0,2,5,19,11,2,0,14,27,35,0,0,0,20,0,25,28,0,0,24,0,0,13,27,0,6,0,33,21,0,0,0,0,0,0,0,0,0,0,0,0,0,0,0,0,0,0,0],"split_type":[0,0,0,0,0,0,0,0,0,0,0,0,0,0,0,0,0,0,0,0,0,0,0,0,0,0,0,0,0,0,0,0,0,0,0,0,0,0,0,0,0,0,0,0,0,0,0,0,0,0,0,0,0,0,0,0,0,0,0],"sum_hessian":[2.1355964E3,6.5604535E2,1.4795511E3,3.002919E2,3.5575345E2,3.1778187E1,1.447773E3,2.8574298E2,1.4548908E1,1.4293321E2,2.1282024E2,2.5113213E1,6.6649756E0,5.4953224E1,1.3928197E3,1.9280984E2,9.2933136E1,1.9647131E1,1.2328607E2,1.7756499E2,3.5255257E1,5.638589E0,1.0263866E0,7.4558387E0,4.7497383E1,1.9689207E1,1.3731305E3,1.1766611E2,7.514373E1,8.039951E0,8.489319E1,1.1170195E2,1.1584128E1,6.0029945E1,1.1753504E2,5.5358033E0,2.9719454E1,1.672996E0,4.582439E1,1.3598312E3,1.3299382E1,8.383938E1,3.3826725E1,6.723456E1,7.909173E0,8.106726E1,3.825924E0,1.01522026E2,1.0179921E1,2.7527233E1,3.2502712E1,1.1309028E2,4.4447584E0,2.109113E0,2.761034E1,4.0315132E1,5.5092554E0,1.6802599E1,1.3430286E3],"tree_param":{"num_deleted":"0","num_feature":"36","num_nodes":"59","size_leaf_vector":"1"}},{"base_weights":[-1.4417197E-2,-5.6665313E-1,4.809683E-3,1.2058836E-1,-1.1812564E0,5.552629E-1,-2.6190486E-2,-3.7045735E-1,7.272804E-1,-4.2672527E-1,2.6278952E-1,7.356147E-1,-4.2748383E-1,-3.4559807E-1,-1.4625449E-2,1.0086722E0,-2.891255E-1,3.1172314E-1,1.5269169E0,1.9626236E-1,-7.063103E-2,-2.5658295E-1,3.640089E-1,7.173913E-1,-4.353669E-1,4.991304E-1,2.8377402E-1,3.049513E-1,-4.3229482E-1,-7.634772E-1,-2.4189118E-2,-3.7015125E-1,2.6955423E-1,1.0853924E-2,1.9985475E-1,5.8349002E-2,-4.1802308E-1,-4.289414E-1,-2.7194943E-3],"categories":[],"categories_nodes":[],"categories_segments":[],"categories_sizes":[],"default_left":[0,0,0,0,0,0,0,0,0,0,0,0,0,0,0,0,0,0,0,0,0,0,0,0,0,0,0,0,0,0,0,0,0,0,0,0,0,0,0],"id":11,"left_children":[1,3,5,7,9,11,13,-1,15,-1,-1,17,-1,-1,19,21,-1,23,25,27,29,-1,-1,31,-1,-1,-1,33,-1,35,37,-1,-1,-1,-1,-1,-1,-1,-1],"loss_changes":[2.1745611E1,2.9247057E1,3.3799427E1,2.8395489E1,1.933857E1,3.8762314E1,2.4399128E1,0E0,1.22630825E1,0E0,0E0,3.2210144E1,0E0,0E0,2.1949272E1,8.985786E0,0E0,4.7320618E1,1.108551E0,6.983798E1,4.7224922E1,0E0,0E0,1.9936728E1,0E0,0E0,0E0,3.556234E1,0E0,5.5910675E1,2.9260918E1,0E0,0E0,0E0,0E0,0E0,0E0,0E0,0E0],"parents":[2147483647,0,0,1,1,2,2,3,3,4,4,5,5,6,6,8,8,11,11,14,14,15,15,17,17,18,18,19,19,20,20,23,23,27,27,29,29,30,30],"right_children":[2,4,6,8,10,12,14,-1,16,-1,-1,18,-1,-1,20,22,-1,24,26,28,30,-1,-1,32,-1,-1,-1,34,-1,36,38,-1,-1,-1,-1,-1,-1,-1,-1],"split_conditions":[3.3333334E-1,3E0,3.6363637E-1,6.9521466E2,3.68393E3,5.8527E2,2E0,-3.7045735E-1,1.8231161E-1,-4.2672527E-1,2.6278952E-1,3.74219E3,-4.2748383E-1,-3.4559807E-1,3.1817E2,1.7508237E-1,-2.891255E-1,1.82105E3,7E0,3.4004666E3,1E0,-2.5658295E-1,3.640089E-1,2.4482056E1,-4.353669E-1,4.991304E-1,2.8377402E-1,1.9972843E3,-4.3229482E-1,1E0,4.556E2,-3.7015125E-1,2.6955423E-1,1.0853924E-2,1.9985475E-1,5.8349002E-2,-4.1802308E-1,-4.289414E-1,-2.7194943E-3],"split_indices":[24,11,24,0,13,15,25,0,6,0,0,12,0,0,14,6,0,19,16,1,32,0,0,20,0,0,0,1,0,29,12,0,0,0,0,0,0,0,0],"split_type":[0,0,0,0,0,0,0,0,0,0,0,0,0,0,0,0,0,0,0,0,0,0,0,0,0,0,0,0,0,0,0,0,0,0,0,0,0,0,0],"sum_hessian":[2.0467819E3,6.790608E1,1.9788757E3,3.2438057E1,3.5468025E1,1.0460205E2,1.8742737E3,9.709685E0,2.2728373E1,3.2022686E1,3.4453368E0,9.6446495E1,8.155556E0,1.8055382E1,1.8562184E3,1.9831825E1,2.8965476E0,6.3711117E1,3.273538E1,3.88988E2,1.4672303E3,1.6478482E0,1.8183977E1,5.2275234E1,1.1435883E1,2.4986406E1,7.748973E0,3.6553555E2,2.3452435E1,9.120118E1,1.3760292E3,3.9465926E0,4.8328644E1,2.102217E2,1.5531387E2,3.645432E1,5.4746857E1,1.3652449E1,1.3623767E3],"tree_param":{"num_deleted":"0","num_feature":"36","num_nodes":"39","size_leaf_vector":"1"}},{"base_weights":[-1.3604019E-2,3.586696E-1,-3.5340574E-2,-5.8628774E-1,6.090122E-1,-7.2612554E-1,-7.2819856E-3,3.3306736E-1,-3.772397E-1,-3.2296163E-1,7.3905987E-1,3.5787985E-1,-1.0592512E0,-5.6607246E-2,2.3001449E-1,8.612697E-1,-3.8984954E-1,-2.988889E-1,9.239999E-1,-3.906599E-1,2.64395E-1,-1.1875851E-3,-9.4232017E-1,3.5198924E-1,-8.907025E-1,-3.5718554E-1,9.4941175E-1,3.437909E-1,-2.1304628E-1,-8.152633E-2,3.177321E-1,3.3822876E-1,-1.1470096E0,-3.7578475E-1,4.3635947E-1,-4.3273842E-1,3.0371907E-1,3.0590266E-1,-2.7367553E-1,-3.1090206E-1,-1.2214665E-2,1.2194018E-1,-4.309057E-1,-4.6761352E-1,-8.450337E-2,2.1459615E-1,-3.5123993E-2,2.6616266E-1,-2.8143603E-1],"categories":[],"categories_nodes":[],"categories_segments":[],"categories_sizes":[],"default_left":[0,0,0,0,0,0,0,0,0,0,0,0,0,0,0,0,0,0,0,0,0,0,0,0,0,0,0,0,0,0,0,0,0,0,0,0,0,0,0,0,0,0,0,0,0,0,0,0,0],"id":12,"left_children":[1,3,5,7,9,11,13,-1,-1,-1,15,17,19,21,23,25,-1,-1,27,-1,-1,29,31,33,35,-1,37,-1,-1,39,41,-1,43,-1,45,-1,47,-1,-1,-1,-1,-1,-1,-1,-1,-1,-1,-1,-1],"loss_changes":[1.6166626E1,2.6431166E1,3.6570934E1,2.8261652E1,2.0003548E1,2.697417E1,2.1250412E1,0E0,0E0,0E0,2.1533825E1,1.4765823E1,2.7826595E1,7.377427E1,4.3024662E1,1.5220966E1,0E0,0E0,5.6216764E0,0E0,0E0,3.629281E1,3.8788292E1,3.8791058E1,2.0835821E1,0E0,1.0774414E1,0E0,0E0,4.404683E1,4.4948017E1,0E0,2.8430183E1,0E0,4.1633476E1,0E0,8.517403E0,0E0,0E0,0E0,0E0,0E0,0E0,0E0,0E0,0E0,0E0,0E0,0E0],"parents":[2147483647,0,0,1,1,2,2,3,3,4,4,5,5,6,6,10,10,11,11,12,12,13,13,14,14,15,15,18,18,21,21,22,22,23,23,24,24,26,26,29,29,30,30,32,32,34,34,36,36],"right_children":[2,4,6,8,10,12,14,-1,-1,-1,16,18,20,22,24,26,-1,-1,28,-1,-1,30,32,34,36,-1,38,-1,-1,40,42,-1,44,-1,46,-1,48,-1,-1,-1,-1,-1,-1,-1,-1,-1,-1,-1,-1],"split_conditions":[3.3E-2,4.6715328E-1,8.7E-2,3.0463E2,6.4959326E2,3.548387E-1,2.3546694E-1,3.3306736E-1,-3.772397E-1,-3.2296163E-1,5E0,8.9135583E2,7E0,2.2877173E-1,1.91554E3,1.524E1,-3.8984954E-1,-2.988889E-1,5.4316E2,-3.906599E-1,2.64395E-1,8.6E1,7.4E-2,1E0,3.95912E3,-3.5718554E-1,5.8998E2,3.437909E-1,-2.1304628E-1,1.41E-1,7E0,3.3822876E-1,2.0632497E2,-3.7578475E-1,3.5E1,-4.3273842E-1,4.4505E3,3.0590266E-1,-2.7367553E-1,-3.1090206E-1,-1.2214665E-2,1.2194018E-1,-4.309057E-1,-4.6761352E-1,-8.450337E-2,2.1459615E-1,-3.5123993E-2,2.6616266E-1,-2.8143603E-1],"split_indices":[5,24,5,14,1,24,7,0,0,0,29,1,33,6,14,15,0,0,13,0,0,11,3,29,14,0,15,0,0,5,33,0,20,0,23,0,14,0,0,0,0,0,0,0,0,0,0,0,0],"split_type":[0,0,0,0,0,0,0,0,0,0,0,0,0,0,0,0,0,0,0,0,0,0,0,0,0,0,0,0,0,0,0,0,0,0,0,0,0,0,0,0,0,0,0,0,0,0,0,0,0],"sum_hessian":[1.9952998E3,1.09220566E2,1.8860793E3,2.2594004E1,8.662656E1,7.2648155E1,1.8134312E3,6.2193737E0,1.637463E1,5.683577E0,8.094298E1,1.7059967E1,5.5588184E1,1.5019849E3,3.1144626E2,7.690981E1,4.0331674E0,4.8054113E0,1.2254555E1,4.9695538E1,5.8926473E0,1.4144812E3,8.750371E1,2.8149527E2,2.9950994E1,2.6525393E0,7.425728E1,1.1052073E1,1.2024821E0,1.130454E3,2.840272E2,7.4692492E0,8.003446E1,1.3369987E1,2.6812527E2,2.0345018E1,9.605975E0,7.1992386E1,2.2648911E0,4.5337555E1,1.0851165E3,2.7108203E2,1.2945154E1,5.3689247E1,2.634521E1,1.7807442E2,9.0050865E1,6.7295847E0,2.8763905E0],"tree_param":{"num_deleted":"0","num_feature":"36","num_nodes":"49","size_leaf_vector":"1"}},{"base_weights":[-1.3567562E-2,-5.32654E-2,2.0300102E-1,8.622604E-3,-9.1813195E-1,6.2058216E-1,-1.1939489E-1,-5.803332E-2,3.2274982E-1,-4.715827E-1,-3.9214153E-2,7.892789E-1,-4.9536455E-1,-4.4877735E-1,7.54626E-2,4.053496E-2,-5.4021984E-1,-6.6725545E-2,6.382782E-1,-4.721543E-1,5.2403337E-1,-4.2645198E-1,9.383625E-1,3.041753E-1,-4.1400585E-1,-3.5783444E-2,8.7483716E-1,-1.4401229E-1,-5.223804E-1,3.4741518E-1,-4.0737584E-1,6.962608E-1,-4.6563804E-1,-4.275149E-1,8.659508E-1,-3.6131608E-1,1.0424976E0,-4.62855E-1,3.998988E-1,8.129352E-2,-5.473726E-2,-3.7901238E-1,2.9975635E-1,4.201643E-2,-4.9112582E-1,1.648558E-1,-5.108215E-1,-3.8903016E-1,2.2823764E-1,3.2734728E-1,-3.9141247E-1,-3.2108703E-1,3.352466E-1,-1.2912744E-1,1.666628E-1],"categories":[],"categories_nodes":[],"categories_segments":[],"categories_sizes":[],"default_left":[0,0,0,0,0,0,0,0,0,0,0,0,0,0,0,0,0,0,0,0,0,0,0,0,0,0,0,0,0,0,0,0,0,0,0,0,0,0,0,0,0,0,0,0,0,0,0,0,0,0,0,0,0,0,0],"id":13,"left_children":[1,3,5,7,9,11,13,15,17,-1,19,21,-1,-1,23,25,27,29,31,-1,33,-1,35,37,-1,39,41,43,-1,45,-1,47,-1,-1,49,-1,51,-1,53,-1,-1,-1,-1,-1,-1,-1,-1,-1,-1,-1,-1,-1,-1,-1,-1],"loss_changes":[1.6559494E1,8.71187E1,4.0244785E1,3.1840786E1,6.2397385E1,5.118773E1,4.550306E1,5.965089E1,3.275496E1,0E0,4.1787376E1,4.1492195E1,0E0,0E0,5.008343E1,6.641598E1,1.0111122E2,6.466184E1,1.97696E1,0E0,2.4836494E1,0E0,2.6859848E1,2.3557278E1,0E0,4.3071613E1,2.4505821E1,6.8624535E1,0E0,3.8924896E1,0E0,1.951271E1,0E0,0E0,1.645709E1,0E0,1.8618965E1,0E0,1.6283762E1,0E0,0E0,0E0,0E0,0E0,0E0,0E0,0E0,0E0,0E0,0E0,0E0,0E0,0E0,0E0,0E0],"parents":[2147483647,0,0,1,1,2,2,3,3,4,4,5,5,6,6,7,7,8,8,10,10,11,11,14,14,15,15,16,16,17,17,18,18,20,20,22,22,23,23,25,25,26,26,27,27,29,29,31,31,34,34,36,36,38,38],"right_children":[2,4,6,8,10,12,14,16,18,-1,20,22,-1,-1,24,26,28,30,32,-1,34,-1,36,38,-1,40,42,44,-1,46,-1,48,-1,-1,50,-1,52,-1,54,-1,-1,-1,-1,-1,-1,-1,-1,-1,-1,-1,-1,-1,-1,-1,-1],"split_conditions":[1.14701E3,8.1564E2,1.7755422E3,2.9490981E3,3.5E1,1.5E1,7.65521E3,1.2961708E3,1.1336E3,-4.715827E-1,1.9920842E3,1.844689E-1,-4.9536455E-1,-4.4877735E-1,5.37897E3,1.2134062E3,6E0,3.4004666E3,8.035275E-1,-4.721543E-1,4.7191012E-1,-4.2645198E-1,2E0,1.9E1,-4.1400585E-1,1.7616905E-1,1E0,1.2E-1,-5.223804E-1,5.1008E2,-4.0737584E-1,1.79E-1,-4.6563804E-1,-4.275149E-1,9.78E-1,-3.6131608E-1,1E0,-4.62855E-1,1.1594203E-1,8.129352E-2,-5.473726E-2,-3.7901238E-1,2.9975635E-1,4.201643E-2,-4.9112582E-1,1.648558E-1,-5.108215E-1,-3.8903016E-1,2.2823764E-1,3.2734728E-1,-3.9141247E-1,-3.2108703E-1,3.352466E-1,-1.2912744E-1,1.666628E-1],"split_indices":[15,15,0,2,25,27,19,0,14,0,1,6,0,0,12,0,30,1,3,0,24,0,32,34,0,6,27,18,0,12,0,3,0,0,5,0,33,0,18,0,0,0,0,0,0,0,0,0,0,0,0,0,0,0,0],"split_type":[0,0,0,0,0,0,0,0,0,0,0,0,0,0,0,0,0,0,0,0,0,0,0,0,0,0,0,0,0,0,0,0,0,0,0,0,0,0,0,0,0,0,0,0,0,0,0,0,0,0,0,0,0,0,0],"sum_hessian":[1.9238687E3,1.6264824E3,2.9738632E2,1.518791E3,1.0769141E2,1.2916339E2,1.6822292E2,1.2535999E3,2.6519116E2,6.1301723E1,4.6389687E1,1.2084257E2,8.3208275E0,2.0032257E1,1.4819066E2,1.0415938E3,2.1200604E2,1.1904069E2,1.4615047E2,1.1973166E1,3.441652E1,7.0949783E0,1.1374759E2,1.2875005E2,1.9440615E1,9.551755E2,8.641827E1,1.6025894E2,5.1747093E1,9.0685074E1,2.8355618E1,1.43046E2,3.1044667E0,4.6636724E0,2.9752848E1,4.7821198E0,1.0896547E2,5.5989127E0,1.2315114E2,3.086989E2,6.4647656E2,4.2461357E0,8.2172134E1,1.354037E2,2.4855244E1,8.321381E1,7.471256E0,3.8874738E0,1.3915852E2,2.7406706E1,2.3461425E0,3.280099E0,1.0568537E2,1.9161821E1,1.0398931E2],"tree_param":{"num_deleted":"0","num_feature":"36","num_nodes":"55","size_leaf_vector":"1"}},{"base_weights":[-1.5501942E-2,2.220451E-1,-5.238049E-2,3.630362E-1,-4.8788053E-1,-4.5448074E-1,1.8866299E-2,1.9232778E-1,1.1076187E0,-4.0644822E-1,2.6523054E-1,8.6720705E-2,-9.557917E-1,-2.0718603E-1,1.18254535E-1,4.082962E-1,-9.975403E-1,-2.7775633E-1,3.8551196E-1,9.674364E-1,-3.842548E-1,-2.2968303E-1,9.9796534E-1,-1.1597471E0,6.0073656E-1,-8.604109E-2,-1.1476132E0,-4.4478148E-1,1.4077626E-1,6.017066E-1,-5.251801E-1,-4.0372637E-1,2.6913974E-1,3.4871462E-1,4.3595198E-1,4.7776055E-2,-3.7905607E-1,-3.0152482E-1,1.4350855E0,-1.2422402E0,2.3261827E-1,3.1951076E-1,-3.4541368E-1,3.803808E-1,-2.9715243E-1,-4.606745E-1,3.8260895E-1,5.345557E-1,7.142354E-2,3.0716106E-2,2.7061155E-1,3.4945267E-1,-4.061861E-1,2.7444953E-1,-2.6146415E-1,-1.4348397E-1,1.5380484E-1,2.9035154E-1,4.742941E-1,-3.4685947E-2,-4.1443735E-1,-4.8442897E-1,1.5430206E-1,-1.5904136E-1,9.203318E-2,-4.1252992E-1,3.5524336E-1,-1.9919173E-1,2.4551025E-1,5.5209577E-2,-1.19273834E-1],"categories":[],"categories_nodes":[],"categories_segments":[],"categories_sizes":[],"default_left":[0,0,0,0,0,0,0,0,0,0,0,0,0,0,0,0,0,0,0,0,0,0,0,0,0,0,0,0,0,0,0,0,0,0,0,0,0,0,0,0,0,0,0,0,0,0,0,0,0,0,0,0,0,0,0,0,0,0,0,0,0,0,0,0,0,0,0,0,0,0,0],"id":14,"left_children":[1,3,5,7,9,11,13,15,17,-1,19,21,23,25,27,29,31,-1,-1,33,-1,35,37,39,41,43,45,-1,47,49,51,-1,-1,-1,53,55,-1,-1,57,59,-1,-1,-1,61,63,-1,65,67,69,-1,-1,-1,-1,-1,-1,-1,-1,-1,-1,-1,-1,-1,-1,-1,-1,-1,-1,-1,-1,-1,-1],"loss_changes":[1.6050543E1,2.4822868E1,4.5433876E1,2.5971298E1,2.7275402E1,6.48452E1,3.0308012E1,4.3782467E1,1.4975544E1,0E0,2.6097775E1,3.358828E1,4.0062393E1,4.6840836E1,3.3987946E1,2.623697E1,1.8506502E1,0E0,0E0,1.1837034E0,0E0,2.4928366E1,2.7715609E1,1.851941E1,1.3448805E1,3.615922E1,2.8452969E1,0E0,2.5218319E1,1.7812443E1,3.683907E1,0E0,0E0,0E0,4.5406933E0,1.7197111E1,0E0,0E0,1.7705536E-1,1.644461E1,0E0,0E0,0E0,3.1433512E1,3.570109E1,0E0,1.6131033E1,4.7598835E1,4.1663082E1,0E0,0E0,0E0,0E0,0E0,0E0,0E0,0E0,0E0,0E0,0E0,0E0,0E0,0E0,0E0,0E0,0E0,0E0,0E0,0E0,0E0,0E0],"parents":[2147483647,0,0,1,1,2,2,3,3,4,4,5,5,6,6,7,7,8,8,10,10,11,11,12,12,13,13,14,14,15,15,16,16,19,19,21,21,22,22,23,23,24,24,25,25,26,26,28,28,29,29,30,30,34,34,35,35,38,38,39,39,43,43,44,44,46,46,47,47,48,48],"right_children":[2,4,6,8,10,12,14,16,18,-1,20,22,24,26,28,30,32,-1,-1,34,-1,36,38,40,42,44,46,-1,48,50,52,-1,-1,-1,54,56,-1,-1,58,60,-1,-1,-1,62,64,-1,66,68,70,-1,-1,-1,-1,-1,-1,-1,-1,-1,-1,-1,-1,-1,-1,-1,-1,-1,-1,-1,-1,-1,-1],"split_conditions":[2.5206047E1,4.4817E2,2.22551E3,4.4404E2,6.7704E2,7E0,9.375E-2,2.8566667E-1,5.04E-1,-4.0644822E-1,7.0504E2,2E0,6E0,8E-2,3.09195E2,1.9991E2,1.4491348E3,-2.7775633E-1,3.8551196E-1,3.9E-1,-3.842548E-1,1E0,2.0074553E3,1.3E1,7.8947365E-2,3E0,5.5421686E-1,-4.4478148E-1,3.54E-1,1.7181012E-1,6.818182E-2,-4.0372637E-1,2.6913974E-1,3.4871462E-1,1.8740636E0,4.2E-1,-3.7905607E-1,-3.0152482E-1,1E0,3.6842105E-1,2.3261827E-1,3.1951076E-1,-3.4541368E-1,2.44796E3,6.3E1,-4.606745E-1,9.91E-1,4E0,5.19993E3,3.0716106E-2,2.7061155E-1,3.4945267E-1,-4.061861E-1,2.7444953E-1,-2.6146415E-1,-1.4348397E-1,1.5380484E-1,2.9035154E-1,4.742941E-1,-3.4685947E-2,-4.1443735E-1,-4.8442897E-1,1.5430206E-1,-1.5904136E-1,9.203318E-2,-4.1252992E-1,3.5524336E-1,-1.9919173E-1,2.4551025E-1,5.5209577E-2,-1.19273834E-1],"split_indices":[20,13,19,17,13,23,18,3,4,0,13,31,29,18,13,17,0,0,0,4,0,32,2,16,18,27,24,0,4,3,18,0,0,0,2,5,0,0,33,24,0,0,0,19,23,0,5,26,12,0,0,0,0,0,0,0,0,0,0,0,0,0,0,0,0,0,0,0,0,0,0],"split_type":[0,0,0,0,0,0,0,0,0,0,0,0,0,0,0,0,0,0,0,0,0,0,0,0,0,0,0,0,0,0,0,0,0,0,0,0,0,0,0,0,0,0,0,0,0,0,0,0,0,0,0,0,0,0,0,0,0,0,0,0,0,0,0,0,0,0,0,0,0,0,0],"sum_hessian":[1.8298445E3,2.4522803E2,1.5846165E3,2.0500308E2,4.0224945E1,2.3770213E2,1.3469143E3,1.6779214E2,3.7210945E1,1.8327826E1,2.189712E1,1.1470106E2,1.2300108E2,4.1101096E2,9.359034E2,1.425714E2,2.5220734E1,2.647604E0,3.456334E1,1.5315375E1,6.581744E0,8.569415E1,2.9006907E1,1.0897655E2,1.4024531E1,3.6507397E2,4.593699E1,1.2084704E1,9.2381866E2,1.1839592E2,2.4175482E1,2.1549885E1,3.6708493E0,1.0336832E1,4.9785438E0,6.831397E1,1.7380177E1,4.9634047E0,2.4043503E1,1.0486436E2,4.112195E0,1.1396639E1,2.6278925E0,1.1350289E2,2.5157108E2,3.6643097E1,9.293895E0,1.3733476E2,7.864839E2,4.4970573E1,7.342535E1,7.82117E0,1.6354313E1,3.863743E0,1.1148006E0,3.203577E1,3.6278202E1,7.537497E0,1.6506004E1,1.1734367E1,9.312999E1,6.445891E0,1.0705701E2,1.816254E2,6.994568E1,2.6866615E0,6.6072335E0,2.603793E1,1.1129683E2,6.3469916E2,1.5178471E2],"tree_param":{"num_deleted":"0","num_feature":"36","num_nodes":"71","size_leaf_vector":"1"}},{"base_weights":[-1.4624427E-2,-5.5252984E-2,2.0137483E-1,-3.6208805E-2,-6.864407E-1,2.578535E-1,-3.6250824E-1,-2.396681E-2,-3.732866E-1,-9.9244064E-1,3.0729198E-1,3.1455967E-1,-8.618699E-1,-4.5097444E-2,5.941257E-1,-4.0791816E-1,3.9761716E-1,2.0456421E-1,1.0431764E0,-4.2570475E-1,1.0060298E-1,-6.02856E-2,8.124139E-1,1.3013074E0,-6.621494E-1,2.2707263E-1,-2.4357295E-1,2.794926E-1,-4.195423E-1,1.1225291E0,-1.8757041E-1,2.3402937E-1,-2.3611972E-1,-1.1389289E-2,-2.0070785E-1,3.146239E-1,-3.3715457E-1,-3.1678817E-1,4.4737393E-1,2.8882402E-1,-3.852149E-1,-3.5026062E-1,1.0422117E-1,1.9135712E-1,3.7407678E-1],"categories":[],"categories_nodes":[],"categories_segments":[],"categories_sizes":[],"default_left":[0,0,0,0,0,0,0,0,0,0,0,0,0,0,0,0,0,0,0,0,0,0,0,0,0,0,0,0,0,0,0,0,0,0,0,0,0,0,0,0,0,0,0,0,0],"id":15,"left_children":[1,3,5,7,9,11,-1,13,-1,15,-1,17,19,21,23,-1,25,27,29,-1,31,33,35,37,39,-1,-1,41,-1,43,-1,-1,-1,-1,-1,-1,-1,-1,-1,-1,-1,-1,-1,-1,-1],"loss_changes":[1.5241928E1,1.754393E1,2.220579E1,2.096838E1,2.339639E1,1.711102E1,0E0,1.8397947E1,0E0,1.9314877E1,0E0,2.0076334E1,7.141347E0,1.7775068E1,4.223349E1,0E0,4.290699E0,2.6960133E1,5.0657806E0,0E0,4.06341E0,1.8158928E1,1.2049403E1,1.5066277E1,1.8854986E1,0E0,0E0,2.1254278E1,0E0,1.1232643E0,0E0,0E0,0E0,0E0,0E0,0E0,0E0,0E0,0E0,0E0,0E0,0E0,0E0,0E0,0E0],"parents":[2147483647,0,0,1,1,2,2,3,3,4,4,5,5,7,7,9,9,11,11,12,12,13,13,14,14,16,16,17,17,18,18,20,20,21,21,22,22,23,23,24,24,27,27,29,29],"right_children":[2,4,6,8,10,12,-1,14,-1,16,-1,18,20,22,24,-1,26,28,30,-1,32,34,36,38,40,-1,-1,42,-1,44,-1,-1,-1,-1,-1,-1,-1,-1,-1,-1,-1,-1,-1,-1,-1],"split_conditions":[2.2443806E2,2.1962654E2,9.97E-1,1E0,9.7535896E-1,5.5263156E-1,-3.6250824E-1,7E0,-3.732866E-1,2.97018E3,3.0729198E-1,5.3741497E-1,6.25E-1,2E1,4.4404E2,-4.0791816E-1,3.6267402E3,8E0,2.3512984E2,-4.2570475E-1,6.333333E-1,1.22E2,8.7555E2,1.2713E2,2.99E-1,2.2707263E-1,-2.4357295E-1,3.11E-1,-4.195423E-1,2.2995728E2,-1.8757041E-1,2.3402937E-1,-2.3611972E-1,-1.1389289E-2,-2.0070785E-1,3.146239E-1,-3.3715457E-1,-3.1678817E-1,4.4737393E-1,2.8882402E-1,-3.852149E-1,-3.5026062E-1,1.0422117E-1,1.9135712E-1,3.7407678E-1],"split_indices":[20,20,5,4,3,24,0,33,0,17,0,24,24,29,17,0,2,33,20,0,24,22,15,15,4,0,0,5,0,20,0,0,0,0,0,0,0,0,0,0,0,0,0,0,0],"split_type":[0,0,0,0,0,0,0,0,0,0,0,0,0,0,0,0,0,0,0,0,0,0,0,0,0,0,0,0,0,0,0,0,0,0,0,0,0,0,0,0,0,0,0,0,0],"sum_hessian":[1.734558E3,1.4605743E3,2.7398373E2,1.418823E3,4.1751324E1,2.6421545E2,9.768256E0,1.4055992E3,1.3223705E1,3.5772587E1,5.9787335E0,2.5216418E2,1.2051279E1,1.3600311E3,4.5568142E1,2.8313345E1,7.459244E0,2.2020218E2,3.1962011E1,7.332422E0,4.7188573E0,1.3372751E3,2.275599E1,2.9132849E1,1.6435295E1,6.0394335E0,1.4198104E0,2.1115799E2,9.044184E0,3.0823189E1,1.1388208E0,2.7414832E0,1.9773741E0,1.2909991E3,4.627601E1,2.0689125E1,2.0668647E0,1.8323748E0,2.7300474E1,4.3974915E0,1.2037804E1,8.739882E0,2.024181E2,7.54673E0,2.3276459E1],"tree_param":{"num_deleted":"0","num_feature":"36","num_nodes":"45","size_leaf_vector":"1"}},{"base_weights":[-1.1814759E-2,-2.9838013E-3,-8.3326596E-1,-4.667024E-2,1.8520623E-1,-3.9896515E-1,2.6795015E-1,4.3484326E-3,-4.5005444E-1,2.515318E-1,-3.779326E-1,-6.848817E-2,3.0179438E-1,-4.7612906E-1,-1.4521158E-1,-2.513069E-1,4.4820276E-1,-5.6633037E-3,-6.3212836E-1,5.63134E-1,-6.463926E-2,-4.217751E-1,1.4648837E-1,-7.036004E-1,5.986177E-1,-1.2656961E-1,7.568026E-1,-1.7709369E-2,2.137622E-1,-1.5385586E-2,-3.9049622E-1,2.0722647E-1,-2.8439066E-1,6.850293E-2,-3.9006212E-1,1.0895895E-1,-4.606509E-1,-4.9514246E-1,1.3161442E-1,-1.6992535E-1,2.8586262E-1,-2.0233883E-1,2.1262668E-1,2.6278016E-1,-5.7894953E-2],"categories":[],"categories_nodes":[],"categories_segments":[],"categories_sizes":[],"default_left":[0,0,0,0,0,0,0,0,0,0,0,0,0,0,0,0,0,0,0,0,0,0,0,0,0,0,0,0,0,0,0,0,0,0,0,0,0,0,0,0,0,0,0,0,0],"id":16,"left_children":[1,3,5,7,9,-1,-1,11,13,15,-1,17,19,-1,21,23,25,27,29,31,33,-1,35,37,39,41,43,-1,-1,-1,-1,-1,-1,-1,-1,-1,-1,-1,-1,-1,-1,-1,-1,-1,-1],"loss_changes":[1.2303492E1,1.3815203E1,1.6654385E1,2.8068228E1,3.0659395E1,0E0,0E0,2.627055E1,5.2846317E1,3.0130596E1,0E0,3.4490253E1,2.2877851E1,0E0,4.5017357E1,3.3473965E1,3.8861988E1,3.367314E1,3.7919674E1,2.752386E1,3.65662E1,0E0,3.6957783E1,6.192038E1,1.3088159E1,3.5813515E1,1.6275597E1,0E0,0E0,0E0,0E0,0E0,0E0,0E0,0E0,0E0,0E0,0E0,0E0,0E0,0E0,0E0,0E0,0E0,0E0],"parents":[2147483647,0,0,1,1,2,2,3,3,4,4,7,7,8,8,9,9,11,11,12,12,14,14,15,15,16,16,17,17,18,18,19,19,20,20,22,22,23,23,24,24,25,25,26,26],"right_children":[2,4,6,8,10,-1,-1,12,14,16,-1,18,20,-1,22,24,26,28,30,32,34,-1,36,38,40,42,44,-1,-1,-1,-1,-1,-1,-1,-1,-1,-1,-1,-1,-1,-1,-1,-1,-1,-1],"split_conditions":[1.5E1,6.7E1,5.5E-1,3.7E1,4.3E1,-3.9896515E-1,2.6795015E-1,8E0,6.8E1,7E0,-3.779326E-1,9.9E-1,4.6735E3,-4.7612906E-1,9.955183E2,4.35038E3,1.1363637E-1,9.8E-1,4E0,1.35217E3,1.7451207E3,-4.217751E-1,2.266091E-1,9.4021684E-1,2.9877012E3,5.2238804E-1,9.98E-1,-1.7709369E-2,2.137622E-1,-1.5385586E-2,-3.9049622E-1,2.0722647E-1,-2.8439066E-1,6.850293E-2,-3.9006212E-1,1.0895895E-1,-4.606509E-1,-4.9514246E-1,1.3161442E-1,-1.6992535E-1,2.8586262E-1,-2.0233883E-1,2.1262668E-1,2.6278016E-1,-5.7894953E-2],"split_indices":[30,35,24,35,34,0,0,27,22,32,0,4,12,0,2,12,18,5,26,15,0,0,6,3,1,24,4,0,0,0,0,0,0,0,0,0,0,0,0,0,0,0,0,0,0],"split_type":[0,0,0,0,0,0,0,0,0,0,0,0,0,0,0,0,0,0,0,0,0,0,0,0,0,0,0,0,0,0,0,0,0,0,0,0,0,0,0,0,0,0,0,0,0],"sum_hessian":[1.6953933E3,1.6783539E3,1.7039402E1,1.3627559E3,3.1559814E2,1.3411271E1,3.6281319E0,1.2106288E3,1.5212701E2,3.025374E2,1.3060734E1,9.731098E2,2.3751898E2,3.1273352E1,1.2085367E2,8.4981926E1,2.1755547E2,8.7643054E2,9.667929E1,1.383274E2,9.919159E1,2.1990902E1,9.886276E1,5.5577904E1,2.9404024E1,7.620753E1,1.4134795E2,8.1666406E2,5.9766445E1,5.234462E1,4.433467E1,1.2805531E2,1.0272089E1,8.083814E1,1.8353447E1,8.8273636E1,1.0589127E1,3.0145338E1,2.5432568E1,6.7165723E0,2.2687452E1,4.6138004E1,3.0069527E1,1.2566374E2,1.56841955E1],"tree_param":{"num_deleted":"0","num_feature":"36","num_nodes":"45","size_leaf_vector":"1"}},{"base_weights":[-1.1574153E-2,2.1035632E-1,-4.5470215E-2,2.710638E-1,-3.3329707E-1,-3.9181522E-1,-2.9218882E-2,3.298043E-1,-3.6094064E-1,-4.246113E-1,3.9039287E-3,-3.8179782E-1,4.3552628E-1,-3.635424E-1,4.2800315E-2,2.4351175E-1,-5.1956568E-2,-3.8082674E-1,6.1230016E-1,7.63559E-1,7.662427E-2,3.782319E-1,-3.896254E-1,6.0523885E-1,-3.0405834E-1,-4.0607098E-1,-2.3215998E-2,2.6912323E-1,-2.5203985E-1,-3.2608598E-1,2.5729772E-1,7.909666E-2,-3.92539E-1,1.7260094E-1,-4.1007906E-1,2.8176086E-2,2.8910178E-1,-3.1143093E-1,1.0269255E-1,-1.705098E-1,6.936001E-3],"categories":[],"categories_nodes":[],"categories_segments":[],"categories_sizes":[],"default_left":[0,0,0,0,0,0,0,0,0,0,0,0,0,0,0,0,0,0,0,0,0,0,0,0,0,0,0,0,0,0,0,0,0,0,0,0,0,0,0,0,0],"id":17,"left_children":[1,3,5,7,-1,-1,9,11,-1,13,15,17,19,-1,21,23,25,-1,27,29,31,33,-1,35,37,-1,39,-1,-1,-1,-1,-1,-1,-1,-1,-1,-1,-1,-1,-1,-1],"loss_changes":[1.2261344E1,1.7625347E1,2.8923037E1,1.8346905E1,0E0,0E0,1.8293928E1,1.5222418E1,0E0,3.9779465E1,1.7275549E1,2.4089804E1,2.0510326E1,0E0,3.141157E1,4.8516117E1,3.91263E1,0E0,6.1874256E0,1.6807758E1,2.2245667E1,1.9960773E1,0E0,2.6901566E1,4.6727737E1,0E0,2.590842E1,0E0,0E0,0E0,0E0,0E0,0E0,0E0,0E0,0E0,0E0,0E0,0E0,0E0,0E0],"parents":[2147483647,0,0,1,1,2,2,3,3,6,6,7,7,9,9,10,10,11,11,12,12,14,14,15,15,16,16,18,18,19,19,20,20,21,21,23,23,24,24,26,26],"right_children":[2,4,6,8,-1,-1,10,12,-1,14,16,18,20,-1,22,24,26,-1,28,30,32,34,-1,36,38,-1,40,-1,-1,-1,-1,-1,-1,-1,-1,-1,-1,-1,-1,-1,-1],"split_conditions":[2.5206047E1,2.3850188E-1,2.6204117E1,7.0106E2,-3.3329707E-1,-3.9181522E-1,5.762169E2,6.267E1,-3.6094064E-1,2.53471E3,2.178132E-1,6.9521466E2,9.259259E-2,-3.635424E-1,1.1744714E2,1.3437667E3,2.5384617E-1,-3.8082674E-1,2.3495604E-1,1.006E2,3.43E-1,1.8700052E3,-3.896254E-1,3E0,1.04521E3,-4.0607098E-1,3.77E-1,2.6912323E-1,-2.5203985E-1,-3.2608598E-1,2.5729772E-1,7.909666E-2,-3.92539E-1,1.7260094E-1,-4.1007906E-1,2.8176086E-2,2.8910178E-1,-3.1143093E-1,1.0269255E-1,-1.705098E-1,6.936001E-3],"split_indices":[20,6,20,17,0,0,0,21,0,12,3,0,18,0,20,2,3,0,3,21,5,1,0,30,17,0,5,0,0,0,0,0,0,0,0,0,0,0,0,0,0],"split_type":[0,0,0,0,0,0,0,0,0,0,0,0,0,0,0,0,0,0,0,0,0,0,0,0,0,0,0,0,0,0,0,0,0,0,0,0,0,0,0,0,0],"sum_hessian":[1.6276694E3,2.1497037E2,1.4126991E3,2.0628761E2,8.68275E0,1.6970476E1,1.3957286E3,1.9912944E2,7.1581674E0,1.0697162E2,1.2887571E3,2.5419888E1,1.7370956E2,3.925957E1,6.771205E1,2.4301407E2,1.0457429E3,1.3282794E1,1.2137093E1,9.016877E1,8.3540794E1,5.474266E1,1.2969385E1,1.4627733E2,9.673673E1,2.1596073E1,1.0241469E3,1.0467167E1,1.6699256E0,3.852714E0,8.6316055E1,7.431547E1,9.225325E0,4.978958E1,4.95308E0,6.080246E1,8.547487E1,4.501243E1,5.1724304E1,7.934734E1,9.4479956E2],"tree_param":{"num_deleted":"0","num_feature":"36","num_nodes":"41","size_leaf_vector":"1"}},{"base_weights":[-1.2452023E-2,-7.4200374E-3,-4.2188084E-1,-2.0298647E-2,5.7343507E-1,-7.472352E-3,-6.795636E-1,7.9405755E-1,-3.4175256E-1,-2.5005553E-2,4.404664E-1,6.6837823E-1,-3.7154415E-1,9.4129014E-1,-2.580977E-1,5.0927244E-2,-1.5550648E-1,-3.7367493E-1,6.4016414E-1,-1.9494398E-1,2.7613944E-1,1.0380179E0,1.5711E-1,-2.9169405E-3,2.2791666E-1,-2.3583992E-1,8.190252E-3,2.6112115E-1,-1.298413E-3,1.57747E-1,3.284775E-1,-2.2823258E-1,2.2039777E-1],"categories":[],"categories_nodes":[],"categories_segments":[],"categories_sizes":[],"default_left":[0,0,0,0,0,0,0,0,0,0,0,0,0,0,0,0,0,0,0,0,0,0,0,0,0,0,0,0,0,0,0,0,0],"id":18,"left_children":[1,3,-1,5,7,9,11,13,-1,15,17,19,-1,21,-1,23,25,-1,27,-1,-1,29,31,-1,-1,-1,-1,-1,-1,-1,-1,-1,-1],"loss_changes":[1.1010157E1,1.1731168E1,0E0,1.2963256E1,1.3757304E1,1.1833977E1,2.2869688E1,8.293446E0,0E0,1.4372674E1,1.9907738E1,3.6635785E0,0E0,2.013132E0,0E0,3.9434875E1,6.1520844E1,0E0,7.632044E0,0E0,0E0,1.634903E-1,2.8536463E0,0E0,0E0,0E0,0E0,0E0,0E0,0E0,0E0,0E0,0E0],"parents":[2147483647,0,0,1,1,3,3,4,4,5,5,6,6,7,7,9,9,10,10,11,11,13,13,15,15,16,16,18,18,21,21,22,22],"right_children":[2,4,-1,6,8,10,12,14,-1,16,18,20,-1,22,-1,24,26,-1,28,-1,-1,30,32,-1,-1,-1,-1,-1,-1,-1,-1,-1,-1],"split_conditions":[2.3E1,2E1,-4.2188084E-1,1.4E1,4.822695E-1,1.3E1,4E0,9.332121E-1,-3.4175256E-1,8.1092E2,9.986448E2,1.081598E3,-3.7154415E-1,1.37883E3,-2.580977E-1,7.70155E2,1.067355E3,-3.7367493E-1,3.1E1,-1.9494398E-1,2.7613944E-1,4.7E1,4.9923164E3,-2.9169405E-3,2.2791666E-1,-2.3583992E-1,8.190252E-3,2.6112115E-1,-1.298413E-3,1.57747E-1,3.284775E-1,-2.2823258E-1,2.2039777E-1],"split_indices":[29,29,0,28,24,31,32,3,0,13,1,2,0,13,0,13,13,0,25,0,0,27,1,0,0,0,0,0,0,0,0,0,0],"split_type":[0,0,0,0,0,0,0,0,0,0,0,0,0,0,0,0,0,0,0,0,0,0,0,0,0,0,0,0,0,0,0,0,0],"sum_hessian":[1.5703018E3,1.5656547E3,4.6470323E0,1.5326384E3,3.3016315E1,1.5043813E3,2.8257082E1,2.9723598E1,3.2927165E0,1.4486235E3,5.575779E1,8.224992E0,2.003209E1,2.7690317E1,2.0332804E0,9.161598E2,5.3246375E2,5.3500376E0,5.040775E1,1.0671253E0,7.157867E0,2.4361639E1,3.328679E0,8.448534E2,7.13064E1,1.1892169E2,4.1354202E2,3.6881577E1,1.3526175E1,3.4599779E0,2.090166E1,1.16304E0,2.1656392E0],"tree_param":{"num_deleted":"0","num_feature":"36","num_nodes":"33","size_leaf_vector":"1"}},{"base_weights":[-9.246712E-3,-4.4837646E-2,1.6868712E-1,-7.1082553E-3,-9.1984254E-1,-9.251342E-1,2.7282745E-1,-8.565345E-2,1.8501674E-1,6.506414E-1,-1.1533422E0,-3.7483865E-1,2.350779E-1,6.250821E-1,-3.1331982E-2,5.275093E-3,-4.210561E-1,3.956048E-1,1.3302435E-1,-1.872308E-1,3.0971408E-1,-3.8907465E-1,-3.13982E-2,9.530904E-1,-1.9176123E-1,-8.099089E-1,1.944775E-1,-2.1773848E-1,1.134634E-1,-1.609063E-1,-4.521014E-1,-4.3624276E-1,1.7917973E-1,-3.6032107E-1,2.2385477E-1,-2.5543967E-1,1.0353832E0,7.778227E-1,-4.028087E-1,-4.1523156E-1,5.26332E-1,-7.510671E-1,3.8187787E-1,3.129893E-2,-2.6299226E-1,1.3553528E-1,-2.8270083E-2,4.244115E-2,-2.4376951E-1,-1.6603765E-1,7.296687E-2,3.2577175E-1,-2.577567E-1,-2.5514635E-1,2.97162E-1,3.399005E-1,-2.9527172E-1,-3.8386354E-1,1.5828928E-1,3.1356442E-1,1.8753331E-2],"categories":[],"categories_nodes":[],"categories_segments":[],"categories_sizes":[],"default_left":[0,0,0,0,0,0,0,0,0,0,0,0,0,0,0,0,0,0,0,0,0,0,0,0,0,0,0,0,0,0,0,0,0,0,0,0,0,0,0,0,0,0,0,0,0,0,0,0,0,0,0,0,0,0,0,0,0,0,0,0,0],"id":19,"left_children":[1,3,5,7,9,11,13,15,17,19,21,-1,-1,23,25,27,29,-1,31,-1,-1,-1,33,35,37,39,41,43,45,47,-1,-1,49,-1,-1,-1,51,53,-1,-1,55,57,59,-1,-1,-1,-1,-1,-1,-1,-1,-1,-1,-1,-1,-1,-1,-1,-1,-1,-1],"loss_changes":[9.784027E0,4.248975E1,2.9587975E1,1.8653227E1,2.0260197E1,1.3512157E1,2.5295948E1,2.6758768E1,2.0967686E1,4.306432E0,7.47805E0,0E0,0E0,2.94845E1,2.258257E1,1.6701607E1,5.2623676E1,0E0,2.5467505E1,0E0,0E0,0E0,6.644636E0,1.2494019E1,3.6939022E1,2.2879784E1,1.7950062E1,4.807791E1,3.2792793E1,3.0082766E1,0E0,0E0,1.5865146E1,0E0,0E0,0E0,8.134666E0,7.1087904E0,0E0,0E0,9.731054E0,1.2045199E1,1.7699537E1,0E0,0E0,0E0,0E0,0E0,0E0,0E0,0E0,0E0,0E0,0E0,0E0,0E0,0E0,0E0,0E0,0E0,0E0],"parents":[2147483647,0,0,1,1,2,2,3,3,4,4,5,5,6,6,7,7,8,8,9,9,10,10,13,13,14,14,15,15,16,16,18,18,22,22,23,23,24,24,25,25,26,26,27,27,28,28,29,29,32,32,36,36,37,37,40,40,41,41,42,42],"right_children":[2,4,6,8,10,12,14,16,18,20,22,-1,-1,24,26,28,30,-1,32,-1,-1,-1,34,36,38,40,42,44,46,48,-1,-1,50,-1,-1,-1,52,54,-1,-1,56,58,60,-1,-1,-1,-1,-1,-1,-1,-1,-1,-1,-1,-1,-1,-1,-1,-1,-1,-1],"split_conditions":[2.3486127E-1,2.2881284E-1,1.7686364E-1,7.6E1,1.18E-1,7E0,1.1744714E2,4.2E1,2.7E1,1.07E-1,2.3347226E2,-3.7483865E-1,2.350779E-1,4E0,1.3632208E2,9.057198E2,4.371607E-1,3.956048E-1,2E1,-1.872308E-1,3.0971408E-1,-3.8907465E-1,8.69E-1,1E0,4.262295E-1,1.26314E3,4E0,2E0,1.2961708E3,1.8808244E-1,-4.521014E-1,-4.3624276E-1,2.9E1,-3.6032107E-1,2.2385477E-1,-2.5543967E-1,9.9E-1,7E0,-4.028087E-1,-4.1523156E-1,1.29376E3,9.95E-1,1.3E1,3.129893E-2,-2.6299226E-1,1.3553528E-1,-2.8270083E-2,4.244115E-2,-2.4376951E-1,-1.6603765E-1,7.296687E-2,3.2577175E-1,-2.577567E-1,-2.5514635E-1,2.97162E-1,3.399005E-1,-2.9527172E-1,-3.8386354E-1,1.5828928E-1,3.1356442E-1,1.8753331E-2],"split_indices":[7,7,3,11,4,33,20,34,23,5,20,0,0,28,20,0,3,0,25,0,0,0,3,29,24,15,28,27,0,6,0,0,34,0,0,0,4,28,0,0,15,5,25,0,0,0,0,0,0,0,0,0,0,0,0,0,0,0,0,0,0],"split_type":[0,0,0,0,0,0,0,0,0,0,0,0,0,0,0,0,0,0,0,0,0,0,0,0,0,0,0,0,0,0,0,0,0,0,0,0,0,0,0,0,0,0,0,0,0,0,0,0,0,0,0,0,0,0,0,0,0,0,0,0,0],"sum_hessian":[1.5427744E3,1.2862437E3,2.5653082E2,1.234041E3,5.2202568E1,2.1615227E1,2.349156E2,8.763307E2,3.577103E2,6.5256367E0,4.567693E1,1.8392906E1,3.2223206E0,1.08362816E2,1.2655278E2,6.9019995E2,1.8613075E2,1.46176405E1,3.4309268E2,1.35753E0,5.1681066E0,4.0356613E1,5.3203163E0,7.719707E1,3.116575E1,2.7870468E1,9.868231E1,2.2512558E2,4.6507437E2,1.51085E2,3.504575E1,8.833277E0,3.342594E2,1.9070385E0,3.413278E0,2.9592142E0,7.4237854E1,1.7091503E1,1.4074247E1,1.9468737E1,8.4017315E0,1.5825512E1,8.2856804E1,1.5177861E2,7.3346985E1,1.7646028E2,2.8861407E2,1.0373414E2,4.7350872E1,2.6255919E1,3.0800348E2,7.272532E1,1.5125328E0,1.6283767E0,1.5463126E1,6.172649E0,2.229083E0,1.1197141E1,4.6283717E0,2.6188833E1,5.666797E1],"tree_param":{"num_deleted":"0","num_feature":"36","num_nodes":"61","size_leaf_vector":"1"}},{"base_weights":[-1.0482091E-2,2.3660008E-3,-5.4622954E-1,-1.0004592E-2,9.043638E-1,-4.0567145E-1,2.2259231E-1,-2.3288222E-2,4.692926E-1,3.4323132E-1,-2.8898072E-1,7.52731E-1,-3.120333E-1,-8.549675E-3,-8.8659906E-1,-3.0162627E-1,5.877433E-1,-3.0682343E-1,3.0219278E-1,-1.9476885E-3,-3.2692596E-1,-3.905984E-1,2.9827556E-1,6.80944E-1,-2.9957396E-1,-7.5648036E-3,1.10120624E-1,-2.543394E-1,2.6266816E-1,2.3000869E-1,-2.2791718E-1],"categories":[],"categories_nodes":[],"categories_segments":[],"categories_sizes":[],"default_left":[0,0,0,0,0,0,0,0,0,0,0,0,0,0,0,0,0,0,0,0,0,0,0,0,0,0,0,0,0,0,0],"id":20,"left_children":[1,3,5,7,9,-1,11,13,15,-1,-1,17,-1,19,21,-1,23,-1,-1,25,-1,-1,27,29,-1,-1,-1,-1,-1,-1,-1],"loss_changes":[1.01229925E1,1.60437E1,2.1644258E1,9.042688E0,9.811921E0,0E0,1.315799E1,1.7567593E1,7.2816267E0,0E0,0E0,7.177518E0,0E0,9.699198E0,1.1795189E1,0E0,6.015126E0,0E0,0E0,1.161673E1,0E0,0E0,5.2607665E0,4.866564E0,0E0,0E0,0E0,0E0,0E0,0E0,0E0],"parents":[2147483647,0,0,1,1,2,2,3,3,4,4,6,6,7,7,8,8,11,11,13,13,14,14,16,16,19,19,22,22,23,23],"right_children":[2,4,6,8,10,-1,12,14,16,-1,-1,18,-1,20,22,-1,24,-1,-1,26,-1,-1,28,30,-1,-1,-1,-1,-1,-1,-1],"split_conditions":[9.4332397E-1,9.4021684E-1,6E0,4.7E1,4.7E1,-4.0567145E-1,7E0,1.9E1,8.1E1,3.4323132E-1,-2.8898072E-1,3.6E1,-3.120333E-1,3.994138E3,1.5E1,-3.0162627E-1,2.3E1,-3.0682343E-1,3.0219278E-1,3E1,-3.2692596E-1,-3.905984E-1,1.77036E3,8E0,-2.9957396E-1,-7.5648036E-3,1.10120624E-1,-2.543394E-1,2.6266816E-1,2.3000869E-1,-2.2791718E-1],"split_indices":[3,3,33,27,23,0,30,26,11,0,0,25,0,0,31,0,29,0,0,27,0,0,17,33,0,0,0,0,0,0,0],"split_type":[0,0,0,0,0,0,0,0,0,0,0,0,0,0,0,0,0,0,0,0,0,0,0,0,0,0,0,0,0,0,0],"sum_hessian":[1.469465E3,1.4360223E3,3.3442562E1,1.4175698E3,1.845258E1,1.5955976E1,1.7486586E1,1.3802673E3,3.730243E1,1.6696695E1,1.7558843E0,1.2600297E1,4.886289E0,1.3580918E3,2.2175602E1,2.2166755E0,3.5085754E1,1.2017381E0,1.1398559E1,1.3508451E3,7.246657E0,1.6346107E1,5.829494E0,3.3677834E1,1.4079221E0,1.2715963E3,7.924881E1,1.795776E0,4.033718E0,3.222741E1,1.4504243E0],"tree_param":{"num_deleted":"0","num_feature":"36","num_nodes":"31","size_leaf_vector":"1"}},{"base_weights":[-8.886242E-3,2.5175294E-1,-3.342061E-2,3.8426715E-1,-4.0982535E-1,-3.2393262E-1,4.38363E-3,5.841086E-1,-6.170364E-1,-5.8637744E-1,1.5058662E-1,1.169391E-1,-1.5148345E-1,-2.915958E-1,6.57212E-1,2.4307281E-1,-3.473689E-1,-6.993459E-2,-3.64225E-1,-4.2194092E-1,4.797166E-1,3.563872E-1,-7.352724E-3,-8.133715E-1,-2.5586026E-2,7.11022E-1,-2.9164284E-1,6.859356E-1,-6.771786E-1,6.6075885E-1,-3.9566648E-1,4.3845516E-1,-3.848763E-1,-9.8455507E-1,5.7611655E-2,-1.0265123E0,2.066892E-1,-9.73658E-1,8.387578E-2,-2.85756E-1,2.2587103E-1,-2.4045357E-1,2.6362288E-1,-3.8299865E-1,1.0259559E-1,2.3318063E-1,-3.0213553E-1,-3.2933193E-1,2.4107324E-1,-6.6607624E-2,1.8507786E-1,-3.7207365E-1,1.885261E-1,3.80332E-2,-1.8585505E-1,-1.10686235E-1,-4.0462884E-1,2.6366886E-1,-3.0729377E-1,3.0262193E-1,-3.7671474E-1,4.525599E-2,-3.3801806E-1],"categories":[],"categories_nodes":[],"categories_segments":[],"categories_sizes":[],"default_left":[0,0,0,0,0,0,0,0,0,0,0,0,0,0,0,0,0,0,0,0,0,0,0,0,0,0,0,0,0,0,0,0,0,0,0,0,0,0,0,0,0,0,0,0,0,0,0,0,0,0,0,0,0,0,0,0,0,0,0,0,0,0,0],"id":21,"left_children":[1,3,5,7,-1,9,11,13,15,17,19,21,23,-1,25,-1,-1,27,-1,-1,29,31,33,35,37,39,-1,41,43,45,47,49,-1,51,53,55,57,59,61,-1,-1,-1,-1,-1,-1,-1,-1,-1,-1,-1,-1,-1,-1,-1,-1,-1,-1,-1,-1,-1,-1,-1,-1],"loss_changes":[9.26907E0,2.7261066E1,1.4547694E1,2.3582039E1,0E0,1.9082685E1,2.059582E1,1.1702118E1,1.6218338E1,3.1817383E1,2.8917818E1,2.0290344E1,4.100128E1,0E0,8.887802E0,0E0,0E0,2.5733059E1,0E0,0E0,7.589671E0,3.190279E1,2.860677E1,1.7309906E1,4.3112495E1,7.0625763E0,0E0,7.880211E0,1.9395224E1,8.3013115E0,8.081044E0,2.63754E1,0E0,1.2364046E1,1.987228E1,1.3321587E1,1.2836152E1,2.5308918E1,3.0385326E1,0E0,0E0,0E0,0E0,0E0,0E0,0E0,0E0,0E0,0E0,0E0,0E0,0E0,0E0,0E0,0E0,0E0,0E0,0E0,0E0,0E0,0E0,0E0,0E0],"parents":[2147483647,0,0,1,1,2,2,3,3,5,5,6,6,7,7,8,8,9,9,10,10,11,11,12,12,14,14,17,17,20,20,21,21,22,22,23,23,24,24,25,25,27,27,28,28,29,29,30,30,31,31,33,33,34,34,35,35,36,36,37,37,38,38],"right_children":[2,4,6,8,-1,10,12,14,16,18,20,22,24,-1,26,-1,-1,28,-1,-1,30,32,34,36,38,40,-1,42,44,46,48,50,-1,52,54,56,58,60,62,-1,-1,-1,-1,-1,-1,-1,-1,-1,-1,-1,-1,-1,-1,-1,-1,-1,-1,-1,-1,-1,-1,-1,-1],"split_conditions":[1.7358171E2,6E0,1.9E-1,2.0823394E-1,-4.0982535E-1,7.8E1,4.2301E2,1E0,3.448276E-1,4.6958423E2,3.5353E2,3.01425E-1,3.988182E-1,-2.915958E-1,1.9E1,2.4307281E-1,-3.473689E-1,1.3E-1,-3.64225E-1,-4.2194092E-1,1.6863637E-1,6.33E-1,6.41E-1,2.1783667E2,9.155366E2,9.86E0,-2.9164284E-1,1E0,2.266091E-1,5.2238804E-1,1.02E2,1.74125E-1,-3.848763E-1,6E0,2.3575796E3,4.3358334E1,1.3432837E-1,3.897674E2,5.604396E-1,-2.85756E-1,2.2587103E-1,-2.4045357E-1,2.6362288E-1,-3.8299865E-1,1.0259559E-1,2.3318063E-1,-3.0213553E-1,-3.2933193E-1,2.4107324E-1,-6.6607624E-2,1.8507786E-1,-3.7207365E-1,1.885261E-1,3.80332E-2,-1.8585505E-1,-1.10686235E-1,-4.0462884E-1,2.6366886E-1,-3.0729377E-1,3.0262193E-1,-3.7671474E-1,4.525599E-2,-3.3801806E-1],"split_indices":[2,32,5,6,0,11,15,26,24,2,17,3,3,0,35,0,0,4,0,0,3,4,4,20,0,15,0,31,6,24,23,3,0,29,0,20,18,1,24,0,0,0,0,0,0,0,0,0,0,0,0,0,0,0,0,0,0,0,0,0,0,0,0],"split_type":[0,0,0,0,0,0,0,0,0,0,0,0,0,0,0,0,0,0,0,0,0,0,0,0,0,0,0,0,0,0,0,0,0,0,0,0,0,0,0,0,0,0,0,0,0,0,0,0,0,0,0,0,0,0,0,0,0,0,0,0,0,0,0],"sum_hessian":[1.4471953E3,1.23709946E2,1.3234854E3,1.15048965E2,8.660978E0,1.515223E2,1.171963E3,9.6254944E1,1.879403E1,9.7410965E1,5.411132E1,6.806782E2,4.9128482E2,3.767304E0,9.248764E1,5.0278735E0,1.3766155E1,5.4051605E1,4.3359364E1,8.870978E0,4.5240345E1,2.3195322E2,4.48725E2,7.764046E1,4.1364435E2,9.007645E1,2.411187E0,2.4021334E1,3.0030272E1,3.769055E1,7.549791E0,2.2159229E2,1.0360939E1,2.7089285E1,4.2163574E2,6.421621E1,1.3424244E1,4.1997772E1,3.7164658E2,1.6781099E0,8.839834E1,2.3941514E0,2.1627182E1,1.8749155E1,1.1281116E1,3.5728695E1,1.9618573E0,4.8152676E0,2.7345233E0,4.7087635E1,1.7450464E2,2.3582108E1,3.5071774E0,3.8329648E2,3.833926E1,2.1825602E1,4.239061E1,8.867852E0,4.556392E0,4.91028E0,3.708749E1,3.529924E2,1.8654182E1],"tree_param":{"num_deleted":"0","num_feature":"36","num_nodes":"63","size_leaf_vector":"1"}},{"base_weights":[-1.3700443E-2,-6.393624E-2,1.0822973E-1,-2.612096E-3,-4.1680923E-1,-4.2043436E-2,4.9573097E-1,2.5023194E-2,-9.4398737E-1,-4.950924E-3,-1.2428713E0,2.3361154E-1,-5.341024E-1,5.879182E-1,-3.4926108E-1,-5.468731E-2,2.6602837E-1,-4.2603728E-1,-9.196871E-2,-7.0085424E-1,3.9281902E-1,2.7960086E-1,-4.426259E-1,-3.6428507E-2,6.378955E-1,6.091125E-1,-7.4753493E-1,6.9358265E-1,-5.795326E-1,3.2115385E-3,-7.322406E-1,-8.6816823E-1,3.6673385E-1,2.7964246E-1,-3.0688664E-1,-3.74615E-1,6.1468965E-1,-3.56775E-1,5.9778273E-1,2.4315873E-1,-2.6939687E-1,4.8056275E-1,-3.6492133E-1,-3.1634346E-1,8.074944E-1,-3.0562288E-1,8.846699E-1,7.4723244E-1,-9.306816E-1,-3.139283E-1,7.51709E-1,2.484061E-1,-4.0793142E-1,-6.4990595E-2,5.5785146E-2,1.15521945E-1,-4.1625637E-1,1.6458336E-1,-4.0727174E-1,1.2518974E-1,-3.2137358E-1,-1.99502E-1,2.5051263E-1,2.4137972E-1,-4.0713403E-1,1.9242857E-1,-3.152664E-1,1.5408692E-1,-2.6693794E-1,3.185624E-1,-1.3691159E-1,1.4737134E-1,3.1553844E-1,9.545141E-2,2.7251816E-1,-3.292215E-1,1.7466862E-1,2.4376486E-1,-3.0289033E-1],"categories":[],"categories_nodes":[],"categories_segments":[],"categories_sizes":[],"default_left":[0,0,0,0,0,0,0,0,0,0,0,0,0,0,0,0,0,0,0,0,0,0,0,0,0,0,0,0,0,0,0,0,0,0,0,0,0,0,0,0,0,0,0,0,0,0,0,0,0,0,0,0,0,0,0,0,0,0,0,0,0,0,0,0,0,0,0,0,0,0,0,0,0,0,0,0,0,0,0],"id":22,"left_children":[1,3,5,7,9,11,13,15,17,19,21,23,25,27,-1,29,31,-1,33,35,37,39,-1,41,43,45,47,49,51,53,55,57,59,-1,-1,-1,61,-1,63,-1,-1,65,67,-1,69,-1,71,73,75,-1,77,-1,-1,-1,-1,-1,-1,-1,-1,-1,-1,-1,-1,-1,-1,-1,-1,-1,-1,-1,-1,-1,-1,-1,-1,-1,-1,-1,-1],"loss_changes":[8.37062E0,2.0938591E1,2.3242819E1,2.149639E1,4.873389E1,3.92261E1,1.774891E1,1.5437403E1,9.429302E0,2.7015448E1,1.728608E1,2.0270817E1,2.5785524E1,1.3516323E1,0E0,2.370185E1,2.3128666E1,0E0,1.002763E1,2.6348787E1,2.085051E1,5.201711E0,0E0,1.921965E1,2.2184546E1,8.474495E0,2.4767124E1,1.0692631E1,1.14144335E1,2.243999E1,3.535868E1,1.2242924E1,1.3834881E1,0E0,0E0,0E0,3.6868849E0,0E0,2.359151E1,0E0,0E0,1.1513933E1,3.2338264E1,0E0,2.238575E1,0E0,4.6790695E-1,4.129858E-1,2.0509476E1,0E0,1.1039146E1,0E0,0E0,0E0,0E0,0E0,0E0,0E0,0E0,0E0,0E0,0E0,0E0,0E0,0E0,0E0,0E0,0E0,0E0,0E0,0E0,0E0,0E0,0E0,0E0,0E0,0E0,0E0,0E0],"parents":[2147483647,0,0,1,1,2,2,3,3,4,4,5,5,6,6,7,7,8,8,9,9,10,10,11,11,12,12,13,13,15,15,16,16,18,18,19,19,20,20,21,21,23,23,24,24,25,25,26,26,27,27,28,28,29,29,30,30,31,31,32,32,36,36,38,38,41,41,42,42,44,44,46,46,47,47,48,48,50,50],"right_children":[2,4,6,8,10,12,14,16,18,20,22,24,26,28,-1,30,32,-1,34,36,38,40,-1,42,44,46,48,50,52,54,56,58,60,-1,-1,-1,62,-1,64,-1,-1,66,68,-1,70,-1,72,74,76,-1,78,-1,-1,-1,-1,-1,-1,-1,-1,-1,-1,-1,-1,-1,-1,-1,-1,-1,-1,-1,-1,-1,-1,-1,-1,-1,-1,-1,-1],"split_conditions":[5.2E-1,4.964029E-1,7E0,8.7E1,6E0,4E0,6.88578E3,7.8E1,2.2326836E-1,4.1E1,6.2E-2,1.57111E3,5.2238804E-1,9.93E-1,-3.4926108E-1,6.9E1,1.2461E2,-4.2603728E-1,2.2363755E-1,2.429376E-1,2.54E-1,1E0,-4.426259E-1,2.5206047E1,7.8813654E2,5E0,1.7E-2,4E0,1E0,9.69E-1,2.44E-1,4.668889E-2,2.3928905E-1,2.7964246E-1,-3.0688664E-1,-3.74615E-1,1E0,-3.56775E-1,2.96713E3,2.4315873E-1,-2.6939687E-1,6.9446E2,1.6247238E-1,-3.1634346E-1,1.2793202E3,-3.0562288E-1,8.2E1,8E0,1.6E1,-3.139283E-1,1.4E1,2.484061E-1,-4.0793142E-1,-6.4990595E-2,5.5785146E-2,1.15521945E-1,-4.1625637E-1,1.6458336E-1,-4.0727174E-1,1.2518974E-1,-3.2137358E-1,-1.99502E-1,2.5051263E-1,2.4137972E-1,-4.0713403E-1,1.9242857E-1,-3.152664E-1,1.5408692E-1,-2.6693794E-1,3.185624E-1,-1.3691159E-1,1.4737134E-1,3.1553844E-1,9.545141E-2,2.7251816E-1,-3.292215E-1,1.7466862E-1,2.4376486E-1,-3.0289033E-1],"split_indices":[24,24,32,34,28,28,12,11,6,11,5,12,24,5,0,11,15,0,6,6,5,27,0,20,0,29,5,26,27,4,5,3,7,0,0,0,31,0,2,0,0,12,6,0,0,0,34,28,8,0,32,0,0,0,0,0,0,0,0,0,0,0,0,0,0,0,0,0,0,0,0,0,0,0,0,0,0,0,0],"split_type":[0,0,0,0,0,0,0,0,0,0,0,0,0,0,0,0,0,0,0,0,0,0,0,0,0,0,0,0,0,0,0,0,0,0,0,0,0,0,0,0,0,0,0,0,0,0,0,0,0,0,0,0,0,0,0,0,0,0,0,0,0,0,0,0,0,0,0,0,0,0,0,0,0,0,0,0,0,0,0],"sum_hessian":[1.3644443E3,9.6665405E2,3.9779034E2,8.2439386E2,1.4226015E2,2.8727606E2,1.1051428E2,8.0182855E2,2.2565298E1,9.560125E1,4.6658905E1,1.844635E2,1.0281255E2,1.05311455E2,5.2028313E0,6.031235E2,1.987051E2,1.4048016E1,8.517282E0,3.4493134E1,6.1108112E1,6.1557107E0,4.0503197E1,1.11138695E2,7.332481E1,1.5883174E1,8.6929375E1,9.694316E1,8.368294E0,5.565592E2,4.6564297E1,1.5582795E1,1.831223E2,4.0552063E0,4.462075E0,2.4387627E1,1.0105506E1,6.4580016E0,5.4650112E1,4.457644E0,1.698067E0,4.300045E1,6.8138245E1,6.203598E0,6.712121E1,1.9089607E0,1.3974213E1,9.15228E0,7.77771E1,2.5841494E0,9.435901E1,2.9625697E0,5.4057245E0,2.5254527E2,3.0401392E2,1.7366007E1,2.9198292E1,3.9697535E0,1.1613042E1,1.775874E2,5.534898E0,1.1880404E0,8.917466E0,4.9953724E1,4.6963863E0,3.9438892E1,3.5615556E0,2.5491434E1,4.2646812E1,5.6008183E1,1.1113025E1,5.340763E0,8.6334505E0,3.3111699E0,5.8411098E0,7.0304184E1,7.4729114E0,9.172917E1,2.6298425E0],"tree_param":{"num_deleted":"0","num_feature":"36","num_nodes":"79","size_leaf_vector":"1"}},{"base_weights":[-1.5488311E-2,-3.9796964E-3,-5.7431924E-1,-2.1142608E-2,5.517035E-1,-3.8110074E-1,1.2339317E-1,1.5122408E-2,-2.7271137E-1,8.648359E-1,-2.9650617E-1,6.802495E-1,-2.748917E-1,-1.1613094E-2,5.1428586E-1,8.304427E-1,-4.0859726E-1,-2.6704794E-1,3.1353995E-1,-3.6456528E-1,2.3361859E-1,2.9010168E-1,2.6314607E-1,2.7440362E-2,-5.824985E-1,7.203961E-1,-3.3253253E-1,-2.0361684E-1,1.0071027E0,-3.7562042E-1,-1.6047257E-1,-2.0793596E-1,2.3598668E-1,1.19741205E-2,-3.5681278E-1,-3.415283E-1,9.0853654E-2,2.9219216E-1,-1.8663716E-2,3.1852823E-1,1.12146534E-1,1.9079567E-1,-1.527457E-1],"categories":[],"categories_nodes":[],"categories_segments":[],"categories_sizes":[],"default_left":[0,0,0,0,0,0,0,0,0,0,0,0,0,0,0,0,0,0,0,0,0,0,0,0,0,0,0,0,0,0,0,0,0,0,0,0,0,0,0,0,0,0,0],"id":23,"left_children":[1,3,5,7,9,-1,11,13,15,17,19,21,-1,23,25,27,29,-1,-1,-1,-1,31,-1,33,35,37,-1,-1,39,-1,41,-1,-1,-1,-1,-1,-1,-1,-1,-1,-1,-1,-1],"loss_changes":[8.191871E0,1.192727E1,1.26383E1,1.1069769E1,1.0208424E1,0E0,8.5823145E0,1.416607E1,2.3255287E1,9.670507E0,1.1661918E1,4.773512E-1,0E0,2.2491285E1,1.8847136E1,5.2413006E0,2.8424492E1,0E0,0E0,0E0,0E0,2.8345165E0,0E0,1.4382811E1,3.2135784E1,9.683094E0,0E0,0E0,1.4675236E-1,0E0,2.9992458E1,0E0,0E0,0E0,0E0,0E0,0E0,0E0,0E0,0E0,0E0,0E0,0E0],"parents":[2147483647,0,0,1,1,2,2,3,3,4,4,6,6,7,7,8,8,9,9,10,10,11,11,13,13,14,14,15,15,16,16,21,21,23,23,24,24,25,25,28,28,30,30],"right_children":[2,4,6,8,10,-1,12,14,16,18,20,22,-1,24,26,28,30,-1,-1,-1,-1,32,-1,34,36,38,-1,-1,40,-1,42,-1,-1,-1,-1,-1,-1,-1,-1,-1,-1,-1,-1],"split_conditions":[9.4332397E-1,9.3075E-1,3.6E1,8.4362E-1,4.7E1,-3.8110074E-1,7E0,8.6E1,5.17E-1,7E0,5.4E1,3E0,-2.748917E-1,1E1,5.80631E3,1.7124767E3,9.936495E2,-2.6704794E-1,3.1353995E-1,-3.6456528E-1,2.3361859E-1,9.684643E-1,2.6314607E-1,3.5208723E3,5.9E1,1.5E1,-3.3253253E-1,-2.0361684E-1,2.87939E3,-3.7562042E-1,4E0,-2.0793596E-1,2.3598668E-1,1.19741205E-2,-3.5681278E-1,-3.415283E-1,9.0853654E-2,2.9219216E-1,-1.8663716E-2,3.1852823E-1,1.12146534E-1,1.9079567E-1,-1.527457E-1],"split_indices":[3,3,25,3,23,0,30,35,5,28,27,8,0,28,12,13,2,0,0,0,0,3,0,0,25,26,0,0,17,0,29,0,0,0,0,0,0,0,0,0,0,0,0],"split_type":[0,0,0,0,0,0,0,0,0,0,0,0,0,0,0,0,0,0,0,0,0,0,0,0,0,0,0,0,0,0,0,0,0,0,0,0,0,0,0,0,0,0,0],"sum_hessian":[1.273092E3,1.2483896E3,2.4702326E1,1.21192E3,3.6469585E1,1.1955335E1,1.2746991E1,1.0600482E3,1.5187187E2,2.6621983E1,9.847603E0,8.526157E0,4.2208333E0,1.0070849E3,5.2963352E1,1.6095276E1,1.357766E2,2.113379E0,2.4508602E1,5.2401123E0,4.60749E0,3.6893516E0,4.8368063E0,9.434938E2,6.3591125E1,4.7487766E1,5.4755845E0,1.3888323E0,1.4706444E1,2.9942947E1,1.0583365E2,1.1050843E0,2.5842674E0,9.348777E2,8.61607E0,3.8887104E1,2.4704023E1,3.5681774E1,1.1805992E1,1.2915145E1,1.7912996E0,3.1974092E1,7.385956E1],"tree_param":{"num_deleted":"0","num_feature":"36","num_nodes":"43","size_leaf_vector":"1"}},{"base_weights":[-1.2720303E-2,-4.3278456E-1,6.1424857E-4,1.3432814E-1,-9.4227576E-1,-3.082385E-1,9.688574E-3,-3.1172794E-1,5.711578E-1,-3.533207E-1,2.183023E-1,3.6057916E-1,-2.3119166E-2,7.68803E-1,-2.0496714E-1,-4.5796495E-2,8.01308E-1,-1.1051561E-2,-3.3703357E-1,-1.903509E-1,2.8807783E-1,3.6350048E-1,-3.6739904E-1,-2.928516E-1,9.8156697E-1,2.9955608E-1,-3.5706732E-2,-3.492157E-1,1.9051546E-1,3.2282415E-1,-2.572579E-1,-2.1316546E-1,1.4832169E-1,-3.7253147E-1,-6.0950834E-3],"categories":[],"categories_nodes":[],"categories_segments":[],"categories_sizes":[],"default_left":[0,0,0,0,0,0,0,0,0,0,0,0,0,0,0,0,0,0,0,0,0,0,0,0,0,0,0,0,0,0,0,0,0,0,0],"id":24,"left_children":[1,3,5,7,9,-1,11,-1,13,-1,-1,15,17,19,-1,21,23,25,-1,-1,-1,27,-1,-1,29,31,33,-1,-1,-1,-1,-1,-1,-1,-1],"loss_changes":[6.9378715E0,1.1137616E1,1.1218369E1,1.0286314E1,8.79932E0,0E0,1.3729701E1,0E0,4.1015854E0,0E0,0E0,1.8300512E1,1.4473562E1,4.083802E0,0E0,2.6501009E1,1.6649673E1,8.282393E0,0E0,0E0,0E0,1.768629E1,0E0,0E0,8.738205E0,1.600605E1,1.856532E1,0E0,0E0,0E0,0E0,0E0,0E0,0E0,0E0],"parents":[2147483647,0,0,1,1,2,2,3,3,4,4,6,6,8,8,11,11,12,12,13,13,15,15,16,16,17,17,21,21,24,24,25,25,26,26],"right_children":[2,4,6,8,10,-1,12,-1,14,-1,-1,16,18,20,-1,22,24,26,-1,-1,-1,28,-1,-1,30,32,34,-1,-1,-1,-1,-1,-1,-1,-1],"split_conditions":[3.3333334E-1,3E0,2E0,6.9521466E2,3.68393E3,-3.082385E-1,7E0,-3.1172794E-1,1.8231161E-1,-3.533207E-1,2.183023E-1,1E0,6.333333E-1,1.7508237E-1,-2.0496714E-1,3.9596E2,1.1036005E3,1E0,-3.3703357E-1,-1.903509E-1,2.8807783E-1,2.1986155E1,-3.6739904E-1,-2.928516E-1,7.51E-1,2.1E1,1.9E1,-3.492157E-1,1.9051546E-1,3.2282415E-1,-2.572579E-1,-2.1316546E-1,1.4832169E-1,-3.7253147E-1,-6.0950834E-3],"split_indices":[24,11,25,0,13,0,23,0,6,0,0,30,24,6,0,19,0,31,0,0,0,20,0,0,4,11,22,0,0,0,0,0,0,0,0],"split_type":[0,0,0,0,0,0,0,0,0,0,0,0,0,0,0,0,0,0,0,0,0,0,0,0,0,0,0,0,0,0,0,0,0,0,0],"sum_hessian":[1.2375555E3,3.7108543E1,1.200447E3,1.7909689E1,1.9198856E1,9.521147E0,1.1909259E3,4.484531E0,1.3425158E1,1.7084694E1,2.1141613E0,1.0097468E2,1.0899512E3,1.1932183E1,1.4929746E0,5.3001E1,4.797368E1,1.0791261E3,1.0825057E1,1.1546837E0,1.0777499E1,3.9855137E1,1.3145861E1,4.010634E0,4.3963047E1,7.853881E1,1.00058734E3,5.519527E0,3.433561E1,4.2208767E1,1.7542796E0,1.2272261E1,6.626655E1,1.1602925E1,9.8898444E2],"tree_param":{"num_deleted":"0","num_feature":"36","num_nodes":"35","size_leaf_vector":"1"}},{"base_weights":[-1.2080546E-2,-4.24402E-2,1.5118691E-1,-1.8676713E-2,-1.1384106E0,5.266371E-1,-9.378191E-2,-7.136715E-2,2.1597135E-1,-3.856822E-1,1.6871542E-1,-5.2433723E-1,7.401433E-1,-3.8259175E-1,5.9709582E-2,-1.0971874E-2,-5.414416E-1,-2.1977615E-1,4.2777663E-1,-3.8780546E-1,2.3735167E-1,-3.388906E-1,8.191043E-1,3.0567068E-1,-6.199387E-1,1.7021751E-2,-5.4854196E-1,-1.7925306E-1,-4.1611663E-1,1.1629728E-1,-4.4895592E-1,-4.1107342E-1,4.9700716E-1,8.896362E-1,-2.814227E-1,6.6198003E-1,-7.653761E-2,-3.94006E-1,5.280314E-1,-3.80529E-2,4.6411887E-2,1.4633437E-1,-3.8425696E-1,-3.702196E-1,5.0030272E-2,1.17065154E-1,-3.7819824E-1,-3.7561345E-1,1.6462174E-1,-2.2084762E-1,2.8591433E-1,2.577296E-1,-3.5302842E-1,-2.526144E-1,1.382702E-1,-1.7764753E-1,2.1343789E-1],"categories":[],"categories_nodes":[],"categories_segments":[],"categories_sizes":[],"default_left":[0,0,0,0,0,0,0,0,0,0,0,0,0,0,0,0,0,0,0,0,0,0,0,0,0,0,0,0,0,0,0,0,0,0,0,0,0,0,0,0,0,0,0,0,0,0,0,0,0,0,0,0,0,0,0,0,0],"id":25,"left_children":[1,3,5,7,9,11,13,15,17,-1,-1,19,21,-1,23,25,27,29,31,-1,-1,-1,33,35,37,39,41,43,-1,45,-1,-1,47,49,-1,51,53,-1,55,-1,-1,-1,-1,-1,-1,-1,-1,-1,-1,-1,-1,-1,-1,-1,-1,-1,-1],"loss_changes":[5.999326E0,2.6550251E1,1.750507E1,1.2374375E1,6.139496E0,1.7237215E1,2.105906E1,2.3190731E1,1.70347E1,0E0,0E0,1.4429556E1,1.02007065E1,0E0,1.7466904E1,1.0920426E1,2.8235868E1,2.6218254E1,1.609814E1,0E0,0E0,0E0,8.37722E0,1.0476906E1,2.2818378E1,1.3689914E1,2.7883684E1,2.4390903E1,0E0,1.8965166E1,0E0,0E0,1.1544512E1,6.7865715E0,0E0,1.5409616E1,1.5953477E1,0E0,2.718469E0,0E0,0E0,0E0,0E0,0E0,0E0,0E0,0E0,0E0,0E0,0E0,0E0,0E0,0E0,0E0,0E0,0E0,0E0],"parents":[2147483647,0,0,1,1,2,2,3,3,4,4,5,5,6,6,7,7,8,8,11,11,12,12,14,14,15,15,16,16,17,17,18,18,22,22,23,23,24,24,25,25,26,26,27,27,29,29,32,32,33,33,35,35,36,36,38,38],"right_children":[2,4,6,8,10,12,14,16,18,-1,-1,20,22,-1,24,26,28,30,32,-1,-1,-1,34,36,38,40,42,44,-1,46,-1,-1,48,50,-1,52,54,-1,56,-1,-1,-1,-1,-1,-1,-1,-1,-1,-1,-1,-1,-1,-1,-1,-1,-1,-1],"split_conditions":[1.14701E3,9.3034E2,1.7221382E3,2.9490981E3,1E2,1.9784601E-1,7.65521E3,8E0,4E0,-3.856822E-1,1.6871542E-1,9.99E-1,4.2352942E-1,-3.8259175E-1,2.12102E3,1.26657E3,1.5232916E3,3E0,1.6131069E-1,-3.8780546E-1,2.3735167E-1,-3.388906E-1,1.4E1,9.93E-1,2.94878E3,1E0,6.9521466E2,1E1,-4.1611663E-1,1.3432837E-1,-4.4895592E-1,-4.1107342E-1,1.0689667E2,2.67E-1,-2.814227E-1,1E1,1.6093E3,-3.94006E-1,1.8828245E-1,-3.80529E-2,4.6411887E-2,1.4633437E-1,-3.8425696E-1,-3.702196E-1,5.0030272E-2,1.17065154E-1,-3.7819824E-1,-3.7561345E-1,1.6462174E-1,-2.2084762E-1,2.8591433E-1,2.577296E-1,-3.5302842E-1,-2.526144E-1,1.382702E-1,-1.7764753E-1,2.1343789E-1],"split_indices":[15,15,0,2,23,6,19,30,32,0,0,4,24,0,14,17,2,30,6,0,0,0,27,4,15,30,0,30,0,18,0,0,20,5,0,31,14,0,6,0,0,0,0,0,0,0,0,0,0,0,0,0,0,0,0,0,0],"split_type":[0,0,0,0,0,0,0,0,0,0,0,0,0,0,0,0,0,0,0,0,0,0,0,0,0,0,0,0,0,0,0,0,0,0,0,0,0,0,0,0,0,0,0,0,0,0,0,0,0,0,0,0,0,0,0,0,0],"sum_hessian":[1.2080417E3,1.0192515E3,1.887902E2,9.9861597E2,2.063555E1,7.408872E1,1.14701485E2,8.1606396E2,1.8255206E2,1.9216553E1,1.4189968E0,1.22639885E1,6.182473E1,1.2347341E1,1.0235415E2,7.240599E2,9.200404E1,5.9697865E1,1.22854195E2,7.7530355E0,4.510953E0,1.9659209E0,5.985881E1,7.555973E1,2.6794413E1,6.891416E2,3.491828E1,6.5262955E1,2.6741087E1,4.7977737E1,1.1720127E1,3.8582082E0,1.1899599E2,5.8023502E1,1.8353066E0,3.8725933E1,3.68338E1,1.6614563E1,1.017985E1,3.3704575E2,3.520959E2,1.45963745E1,2.0321907E1,1.5486704E1,4.977625E1,4.0614796E1,7.36294E0,2.751904E0,1.1624408E2,1.7798959E0,5.6243607E1,3.5457558E1,3.2683766E0,1.4959365E1,2.1874435E1,1.1188403E0,9.061009E0],"tree_param":{"num_deleted":"0","num_feature":"36","num_nodes":"57","size_leaf_vector":"1"}},{"base_weights":[-1.4916322E-2,-6.418973E-2,9.768872E-2,-4.231393E-2,-9.389153E-1,5.029445E-1,-3.6169211E-3,-9.395123E-2,3.6804354E-1,2.0070967E-1,-3.9522323E-1,-5.33432E-1,7.289792E-1,-3.5322338E-1,4.111532E-2,-2.541863E-2,-4.6013725E-1,-1.0556912E-1,7.7085614E-1,2.6453945E-1,-3.4220684E-1,9.5514005E-1,-1.1795519E-3,2.7417818E-1,-2.1232721E-1,-1.0675451E-1,3.1907108E-1,8.4366494E-1,-6.925387E-1,5.2786314E-1,-6.530431E-1,-2.5151908E-1,8.371139E-1,1.0412024E0,-2.346077E-1,-3.3130687E-1,6.936532E-1,3.7537655E-1,-3.6336184E-1,-5.490238E-1,2.0837575E-1,1.8241195E-2,-1.2678298E-1,2.2145978E-1,-6.581784E-3,-2.2675344E-1,3.1463462E-1,-4.254885E-1,-1.16799235E-1,2.4315955E-1,-2.9297456E-1,-3.977338E-1,2.0711796E-1,3.0079544E-1,6.683866E-2,1.13976195E-1,3.3735368E-1,2.922535E-1,-2.1776281E-1,1.4521918E-1,-5.8007836E-2,-3.1314126E-1,-1.9089928E-2,3.0861726E-1,1.3173218E-3],"categories":[],"categories_nodes":[],"categories_segments":[],"categories_sizes":[],"default_left":[0,0,0,0,0,0,0,0,0,0,0,0,0,0,0,0,0,0,0,0,0,0,0,0,0,0,0,0,0,0,0,0,0,0,0,0,0,0,0,0,0,0,0,0,0,0,0,0,0,0,0,0,0,0,0,0,0,0,0,0,0,0,0,0,0],"id":26,"left_children":[1,3,5,7,9,11,13,15,17,-1,-1,19,21,-1,23,25,27,29,31,-1,-1,33,35,37,39,41,43,45,47,49,51,-1,53,55,-1,-1,57,59,-1,61,63,-1,-1,-1,-1,-1,-1,-1,-1,-1,-1,-1,-1,-1,-1,-1,-1,-1,-1,-1,-1,-1,-1,-1,-1],"loss_changes":[6.3892984E0,1.5284839E1,1.4394251E1,1.6612587E1,1.2744524E1,1.681402E1,1.4826418E1,1.7447664E1,1.6802605E1,0E0,0E0,1.2291369E1,9.576265E0,0E0,1.6129768E1,1.648403E1,3.37995E1,1.4619641E1,5.7649097E0,0E0,0E0,7.4332237E0,1.2042764E1,2.1826637E1,1.8657347E1,2.5201912E1,1.6079739E1,6.3814535E0,2.0041637E1,9.142162E0,2.1274529E1,0E0,4.4653854E0,1.9203186E0,0E0,0E0,4.546121E0,8.368864E0,0E0,1.746265E1,9.854876E0,0E0,0E0,0E0,0E0,0E0,0E0,0E0,0E0,0E0,0E0,0E0,0E0,0E0,0E0,0E0,0E0,0E0,0E0,0E0,0E0,0E0,0E0,0E0,0E0],"parents":[2147483647,0,0,1,1,2,2,3,3,4,4,5,5,6,6,7,7,8,8,11,11,12,12,14,14,15,15,16,16,17,17,18,18,21,21,22,22,23,23,24,24,25,25,26,26,27,27,28,28,29,29,30,30,32,32,33,33,36,36,37,37,39,39,40,40],"right_children":[2,4,6,8,10,12,14,16,18,-1,-1,20,22,-1,24,26,28,30,32,-1,-1,34,36,38,40,42,44,46,48,50,52,-1,54,56,-1,-1,58,60,-1,62,64,-1,-1,-1,-1,-1,-1,-1,-1,-1,-1,-1,-1,-1,-1,-1,-1,-1,-1,-1,-1,-1,-1,-1,-1],"split_conditions":[3.4E1,9.2E1,3.7E1,9E0,4.7E1,7.42E-1,1E0,3.3E1,1.3632208E2,2.0070967E-1,-3.9522323E-1,1.7454947E2,8.4362E-1,-3.5322338E-1,2E0,8.99864E3,5.84941E3,1.240636E2,9.057198E2,2.6453945E-1,-3.4220684E-1,5.52532E3,5.16129E-1,3.0261906E1,1.2E1,2.7E1,4.3E1,5E0,3.4E1,4.4423E2,1.13E2,-2.5151908E-1,1.9930365E3,7.6187E2,-2.346077E-1,-3.3130687E-1,9.9E-1,9E1,-3.6336184E-1,7.8E1,9.7812286E2,1.8241195E-2,-1.2678298E-1,2.2145978E-1,-6.581784E-3,-2.2675344E-1,3.1463462E-1,-4.254885E-1,-1.16799235E-1,2.4315955E-1,-2.9297456E-1,-3.977338E-1,2.0711796E-1,3.0079544E-1,6.683866E-2,1.13976195E-1,3.3735368E-1,2.922535E-1,-2.1776281E-1,1.4521918E-1,-5.8007836E-2,-3.1314126E-1,-1.9089928E-2,3.0861726E-1,1.3173218E-3],"split_indices":[25,35,25,31,23,5,32,35,20,0,0,0,3,0,27,19,19,20,0,0,0,12,24,20,29,34,34,26,23,15,22,0,2,17,0,0,4,11,0,34,1,0,0,0,0,0,0,0,0,0,0,0,0,0,0,0,0,0,0,0,0,0,0,0,0],"split_type":[0,0,0,0,0,0,0,0,0,0,0,0,0,0,0,0,0,0,0,0,0,0,0,0,0,0,0,0,0,0,0,0,0,0,0,0,0,0,0,0,0,0,0,0,0,0,0,0,0,0,0,0,0,0,0,0,0,0,0,0,0,0,0,0,0],"sum_hessian":[1.1494196E3,7.9985223E2,3.4956726E2,7.813598E2,1.849247E1,6.911599E1,2.8045126E2,6.9471185E2,8.664796E1,3.3772817E0,1.5115188E1,1.2131713E1,5.6984276E1,9.365849E0,2.7108542E2,5.860926E2,1.0861923E2,4.01633E1,4.6484653E1,3.506836E0,8.624877E0,4.3272755E1,1.371152E1,1.4117796E2,1.2990746E2,4.747028E2,1.1138979E2,1.6034332E1,9.25849E1,1.863651E1,2.1526789E1,1.3773897E0,4.5107265E1,4.161186E1,1.6608968E0,5.070991E0,8.640529E0,1.3287271E2,8.305257E0,7.1988594E1,5.791886E1,3.106913E2,1.6401149E2,4.9448727E1,6.1941063E1,1.5173149E0,1.4517018E1,2.6198565E1,6.638634E1,1.6077051E1,2.5594592E0,1.4352703E1,7.1740856E0,3.503454E1,1.0072729E1,5.2779336E0,3.6333923E1,7.4767227E0,1.163806E0,1.116793E2,2.1193413E1,3.5079777E1,3.6908817E1,1.0728757E1,4.71901E1],"tree_param":{"num_deleted":"0","num_feature":"36","num_nodes":"65","size_leaf_vector":"1"}},{"base_weights":[-1.2023603E-2,6.089493E-1,-1.989229E-2,-2.744005E-1,1.0426134E0,-3.529795E-1,-6.959833E-3,3.6218816E-1,1.522288E-1,9.730577E-2,-6.499831E-2,2.526187E-2,6.0771024E-1,-1.0010495E0,-2.3408348E-2,-7.166033E-1,9.146775E-2,8.75695E-1,-3.023456E-1,-3.5048085E-1,9.631579E-2,6.5927887E-1,-4.3758582E-2,8.937261E-2,-3.5144275E-1,1.5260848E-1,-2.7501913E-2,-2.6983467E-1,3.0321935E-1,-3.2441884E-1,2.6236987E-1,2.3584373E-1,-1.9127415E-1,-3.4407553E-1,-8.4546854E-4],"categories":[],"categories_nodes":[],"categories_segments":[],"categories_sizes":[],"default_left":[0,0,0,0,0,0,0,0,0,0,0,0,0,0,0,0,0,0,0,0,0,0,0,0,0,0,0,0,0,0,0,0,0,0,0],"id":27,"left_children":[1,3,5,-1,7,-1,9,-1,-1,11,13,15,17,19,21,23,25,27,29,-1,-1,31,33,-1,-1,-1,-1,-1,-1,-1,-1,-1,-1,-1,-1],"loss_changes":[5.3481355E0,1.0003411E1,1.613792E1,0E0,3.6824036E-1,0E0,6.4718122E0,0E0,0E0,1.404828E1,2.6720371E1,1.6578102E1,1.17914715E1,6.8307476E0,9.180973E0,1.3112434E1,2.3698854E1,9.722849E0,1.1485256E1,0E0,0E0,3.6488218E0,2.893022E1,0E0,0E0,0E0,0E0,0E0,0E0,0E0,0E0,0E0,0E0,0E0,0E0],"parents":[2147483647,0,0,1,1,2,2,4,4,6,6,9,9,10,10,11,11,12,12,13,13,14,14,15,15,16,16,17,17,18,18,21,21,22,22],"right_children":[2,4,6,-1,8,-1,10,-1,-1,12,14,16,18,20,22,24,26,28,30,-1,-1,32,34,-1,-1,-1,-1,-1,-1,-1,-1,-1,-1,-1,-1],"split_conditions":[1.5095378E-1,5.247727E-1,1.5329038E-1,-2.744005E-1,9.4382697E2,-3.529795E-1,3.01425E-1,3.6218816E-1,1.522288E-1,2.788125E-1,6.41E-1,5E0,2E0,1E0,7E0,1E0,2.7E1,9.8293E2,6.018208E3,-3.5048085E-1,9.631579E-2,9.447E2,1.87476E3,8.937261E-2,-3.5144275E-1,1.5260848E-1,-2.7501913E-2,-2.6983467E-1,3.0321935E-1,-3.2441884E-1,2.6236987E-1,2.3584373E-1,-1.9127415E-1,-3.4407553E-1,-8.4546854E-4],"split_indices":[6,3,6,0,1,0,3,0,0,3,4,25,27,10,11,11,11,19,1,0,0,19,19,0,0,0,0,0,0,0,0,0,0,0,0],"split_type":[0,0,0,0,0,0,0,0,0,0,0,0,0,0,0,0,0,0,0,0,0,0,0,0,0,0,0,0,0,0,0,0,0,0,0],"sum_hessian":[1.0910502E3,1.2696445E1,1.0783538E3,2.5673304E0,1.0129115E1,1.09282465E1,1.0674255E3,6.785359E0,3.3437562E0,3.814598E2,6.859657E2,3.3519617E2,4.626364E1,2.8200354E1,6.577653E2,2.6658007E1,3.0853818E2,3.5768597E1,1.0495044E1,2.513733E1,3.0630245E0,1.813097E1,6.396344E2,8.359255E0,1.8298752E1,9.357656E1,2.1496161E2,2.1284072E0,3.364019E1,6.3637514E0,4.131293E0,1.6874052E1,1.2569175E0,2.1921926E1,6.1771246E2],"tree_param":{"num_deleted":"0","num_feature":"36","num_nodes":"35","size_leaf_vector":"1"}},{"base_weights":[-1.0911377E-2,-1.05906524E-1,4.029014E-2,-6.3425824E-2,-3.4947652E-1,2.7458054E-1,-3.3804707E-2,-3.2762583E-2,-3.48945E-1,-3.4718814E-1,3.3574557E-1,-8.037281E-1,1.8413672E-2,-8.722464E-2,5.24952E-1,1.9839428E-1,8.072217E-1,2.1161026E-1,-1.0769653E0,5.520228E-1,-3.629037E-2,4.1227716E-1,-1.4009598E-1,7.8474927E-1,-3.199801E-1,5.140978E-1,-2.0744872E-1,9.2323893E-1,-2.6261356E-1,1.8611003E-1,-3.94959E-1,-1.622693E-1,8.6233866E-1,-4.9394667E-1,1.7989017E-2,-5.7266187E-2,2.7606678E-1,-2.3403816E-1,-2.5620454E-3,-2.0268315E-1,2.632966E-1,1.8322209E-1,-3.1340832E-1,5.02383E-2,-3.5946962E-1,2.9976654E-1,-1.994625E-1,-3.410933E-1,2.272581E-1,2.8550795E-1,-2.1782131E-1,-1.1425157E-2,-3.0599326E-1,-3.658599E-1,1.1245287E-2],"categories":[],"categories_nodes":[],"categories_segments":[],"categories_sizes":[],"default_left":[0,0,0,0,0,0,0,0,0,0,0,0,0,0,0,0,0,0,0,0,0,0,0,0,0,0,0,0,0,0,0,0,0,0,0,0,0,0,0,0,0,0,0,0,0,0,0,0,0,0,0,0,0,0,0],"id":28,"left_children":[1,3,5,7,-1,9,11,13,-1,-1,15,17,19,21,23,25,27,-1,29,31,33,35,37,39,-1,41,43,45,-1,-1,-1,47,49,51,53,-1,-1,-1,-1,-1,-1,-1,-1,-1,-1,-1,-1,-1,-1,-1,-1,-1,-1,-1,-1],"loss_changes":[5.157152E0,1.6630394E1,1.1971989E1,1.2035579E1,0E0,1.4898877E1,2.1098976E1,1.0657405E1,0E0,0E0,1.01795635E1,1.4503595E1,1.4384612E1,8.485993E0,1.3747269E1,1.6118849E1,7.776228E0,0E0,1.2453159E1,1.029601E1,1.1119839E1,9.612154E0,2.435555E1,4.312914E0,0E0,1.1270557E1,2.0776443E1,4.752552E0,0E0,0E0,0E0,1.405694E1,5.2470703E0,1.1341713E1,9.71579E0,0E0,0E0,0E0,0E0,0E0,0E0,0E0,0E0,0E0,0E0,0E0,0E0,0E0,0E0,0E0,0E0,0E0,0E0,0E0,0E0],"parents":[2147483647,0,0,1,1,2,2,3,3,5,5,6,6,7,7,10,10,11,11,12,12,13,13,14,14,15,15,16,16,18,18,19,19,20,20,21,21,22,22,23,23,25,25,26,26,27,27,31,31,32,32,33,33,34,34],"right_children":[2,4,6,8,-1,10,12,14,-1,-1,16,18,20,22,24,26,28,-1,30,32,34,36,38,40,-1,42,44,46,-1,-1,-1,48,50,52,54,-1,-1,-1,-1,-1,-1,-1,-1,-1,-1,-1,-1,-1,-1,-1,-1,-1,-1,-1,-1],"split_conditions":[4.1E1,3.1709E3,2.7E1,6E0,-3.4947652E-1,2E0,3E1,2.53471E3,-3.48945E-1,-3.4718814E-1,6E1,1.5482117E-1,2E0,1.5482117E-1,2.5E1,4.2E1,9.86E-1,2.1161026E-1,1.11965E3,3.1133E2,2.44796E3,3.1411E2,1.7438103E-1,2.1E1,-3.199801E-1,2.96713E3,2E0,4.6E1,-2.6261356E-1,1.8611003E-1,-3.94959E-1,6.5E1,4.371607E-1,1E0,3.9720395E2,-5.7266187E-2,2.7606678E-1,-2.3403816E-1,-2.5620454E-3,-2.0268315E-1,2.632966E-1,1.8322209E-1,-3.1340832E-1,5.02383E-2,-3.5946962E-1,2.9976654E-1,-1.994625E-1,-3.410933E-1,2.272581E-1,2.8550795E-1,-2.1782131E-1,-1.1425157E-2,-3.0599326E-1,-3.658599E-1,1.1245287E-2],"split_indices":[11,12,23,30,0,26,23,12,0,0,22,6,31,6,34,34,4,0,19,15,19,15,6,11,0,2,33,25,0,0,0,25,3,27,0,0,0,0,0,0,0,0,0,0,0,0,0,0,0,0,0,0,0,0,0],"split_type":[0,0,0,0,0,0,0,0,0,0,0,0,0,0,0,0,0,0,0,0,0,0,0,0,0,0,0,0,0,0,0,0,0,0,0,0,0,0,0,0,0,0,0,0,0,0,0,0,0,0,0,0,0,0,0],"sum_hessian":[1.0584152E3,3.7030777E2,6.881074E2,3.5704535E2,1.3262412E1,1.646795E2,5.234279E2,3.4836188E2,8.683468E0,6.0122333E0,1.5866727E2,3.2331467E1,4.9109647E2,3.1813855E2,3.022333E1,1.23972244E2,3.4695026E1,4.714064E0,2.7617401E1,4.481906E1,4.462774E2,2.980052E1,2.8833804E2,2.6417923E1,3.8054056E0,6.9579735E1,5.439251E1,3.287927E1,1.8157607E0,3.2192483E0,2.4398153E1,1.3718529E1,3.1100533E1,4.6458954E1,3.9981845E2,1.39087E1,1.5891819E1,4.832116E1,2.4001688E2,1.2049963E0,2.5212927E1,6.609043E1,3.489298E0,4.0063553E1,1.4328958E1,3.1731878E1,1.1473899E0,6.545811E0,7.172717E0,2.982368E1,1.2768502E0,2.5464016E1,2.0994938E1,5.246174E0,3.9457227E2],"tree_param":{"num_deleted":"0","num_feature":"36","num_nodes":"55","size_leaf_vector":"1"}},{"base_weights":[-1.1644397E-2,-1.9249791E-2,6.794859E-1,-1.0415172E-2,-3.6765286E-1,-2.544222E-1,3.0593142E-1,-2.6707182E-2,3.5047868E-1,-1.7316075E-2,-9.843072E-1,-3.328336E-1,5.529588E-1,-1.1744376E-2,-2.94916E-1,-4.2013332E-1,1.9262917E-1,-3.162487E-1,6.931902E-1,-1.6975563E-2,3.0962631E-2,-2.7541313E-1,2.308687E-1],"categories":[],"categories_nodes":[],"categories_segments":[],"categories_sizes":[],"default_left":[0,0,0,0,0,0,0,0,0,0,0,0,0,0,0,0,0,0,0,0,0,0,0],"id":29,"left_children":[1,3,5,7,-1,-1,-1,9,11,13,15,-1,17,19,-1,-1,-1,-1,21,-1,-1,-1,-1],"loss_changes":[5.3333297E0,1.06666565E1,6.605812E0,5.8645926E0,0E0,0E0,0E0,8.560012E0,1.3349567E1,5.07606E0,7.1560764E0,0E0,9.408433E0,4.856828E0,0E0,0E0,0E0,0E0,5.1385727E0,0E0,0E0,0E0,0E0],"parents":[2147483647,0,0,1,1,2,2,3,3,7,7,8,8,9,9,10,10,12,12,13,13,18,18],"right_children":[2,4,6,8,-1,-1,-1,10,12,14,16,-1,18,20,-1,-1,-1,-1,22,-1,-1,-1,-1],"split_conditions":[2.74442E2,2.479E2,8E0,2.3764679E2,-3.6765286E-1,-2.544222E-1,3.0593142E-1,2.3512984E2,4.4871795E-1,4.83387E3,1E0,-3.328336E-1,1.1E1,5.217391E-1,-2.94916E-1,-4.2013332E-1,1.9262917E-1,-3.162487E-1,1.6E1,-1.6975563E-2,3.0962631E-2,-2.7541313E-1,2.308687E-1],"split_indices":[20,20,27,20,0,0,0,20,24,14,10,0,34,24,0,0,0,0,23,0,0,0,0],"split_type":[0,0,0,0,0,0,0,0,0,0,0,0,0,0,0,0,0,0,0,0,0,0,0],"sum_hessian":[1.01116284E3,1.0011184E3,1.0044442E1,9.948408E2,6.277557E0,1.5580459E0,8.486397E0,9.527561E2,4.2084743E1,9.445114E2,8.244664E0,4.58033E0,3.7504414E1,9.400998E2,4.4116263E0,6.6755652E0,1.5690993E0,2.4868298E0,3.5017586E1,6.7665753E2,2.6344226E2,1.0859725E0,3.3931614E1],"tree_param":{"num_deleted":"0","num_feature":"36","num_nodes":"23","size_leaf_vector":"1"}},{"base_weights":[-9.747292E-3,-2.957353E-1,-4.9622525E-3,6.035516E-1,-1.29763335E-2,8.262368E-1,-1.9878279E-1,-3.2364675E-1,-2.43361E-3,4.12646E-1,2.952731E-1,6.488087E-1,-1.215384E-2,1.6668608E-2,2.016999E-1,7.99807E-1,-1.7916662E-1,-3.096885E-1,7.301588E-3,9.898217E-2,2.7305126E-1,-1.0824175E-2,-3.3432537E-1,4.7458775E-2,-1.0095874E-2],"categories":[],"categories_nodes":[],"categories_segments":[],"categories_sizes":[],"default_left":[0,0,0,0,0,0,0,0,0,0,0,0,0,0,0,0,0,0,0,0,0,0,0,0,0],"id":30,"left_children":[1,-1,3,5,7,9,-1,-1,11,13,-1,15,17,-1,-1,19,-1,21,23,-1,-1,-1,-1,-1,-1],"loss_changes":[4.6686673E0,0E0,4.86893E0,4.2067566E0,1.1063794E1,3.4421682E-1,0E0,0E0,6.1873446E0,4.1664374E-1,0E0,3.1821666E0,5.5756383E0,0E0,0E0,3.8669682E-1,0E0,1.2975952E1,5.596146E0,0E0,0E0,0E0,0E0,0E0,0E0],"parents":[2147483647,0,0,2,2,3,3,4,4,5,5,8,8,9,9,11,11,12,12,15,15,17,17,18,18],"right_children":[2,-1,4,6,8,10,-1,-1,12,14,-1,16,18,-1,-1,20,-1,22,24,-1,-1,-1,-1,-1,-1],"split_conditions":[1.3916591E2,-2.957353E-1,1.7454947E2,1E0,2.5001051E2,1.9122535E-1,-1.9878279E-1,-3.2364675E-1,4.668889E-2,1.3E1,2.952731E-1,4.251426E2,5.212505E2,1.6668608E-2,2.016999E-1,1.1389E2,-1.7916662E-1,4.4817E2,4.11E-1,9.898217E-2,2.7305126E-1,-1.0824175E-2,-3.3432537E-1,4.7458775E-2,-1.0095874E-2],"split_indices":[0,0,0,27,0,3,0,0,3,16,0,2,0,0,0,17,0,13,4,0,0,0,0,0,0],"split_type":[0,0,0,0,0,0,0,0,0,0,0,0,0,0,0,0,0,0,0,0,0,0,0,0,0],"sum_hessian":[9.996818E2,3.876868E0,9.9580493E2,1.1978247E1,9.838267E2,1.0482153E1,1.4960941E0,8.643654E0,9.7518304E2,3.8959312E0,6.5862217E0,1.3374306E1,9.618087E2,2.1514819E0,1.7444494E0,1.2248149E1,1.1261568E0,5.811591E1,9.036928E2,3.0885272E0,9.159622E0,4.414981E1,1.3966098E1,1.923027E2,7.1139014E2],"tree_param":{"num_deleted":"0","num_feature":"36","num_nodes":"25","size_leaf_vector":"1"}},{"base_weights":[-7.767796E-3,-2.592092E-2,2.4206349E-1,-1.2680264E-2,-7.717597E-1,3.964972E-1,-5.849985E-1,-3.0081194E-2,9.63913E-1,-3.3072457E-1,1.4871381E-1,8.2211924E-1,8.508001E-2,-4.2559224E-1,5.8758533E-1,1.622624E-2,-1.8580326E-1,1.1530507E0,-2.2626837E-1,-2.186125E-1,9.383582E-1,5.5861324E-1,-4.8429307E-1,7.695176E-2,2.1921943E-1,-3.5384923E-2,3.2084665E-1,3.163795E-1,